NNP Conglomerate 0.5000000
SYM Conglomerate 0.5000000
NNP Alkhan-Yurt 1.0000000
VBG retaining 1.0000000
NNP Secretary-General 1.0000000
NNP Toshiba 1.0000000
JJ sixth-ranked 1.0000000
JJ evil 1.0000000
VBD bred 1.0000000
NNPS People 0.0714286
NNP People 0.2857143
NNS People 0.6428571
NNP Viktor 1.0000000
NNS troubles 1.0000000
NNP Mrs 1.0000000
NNP Humenne 1.0000000
JJ April-June 1.0000000
NNP Thomson 1.0000000
NNP Ruth 1.0000000
NNS intentions 1.0000000
NN decree 1.0000000
NNP Harden 1.0000000
NN load 0.8000000
VB load 0.2000000
VBG eliminating 1.0000000
NNP Alsthom 1.0000000
NNS defeats 1.0000000
NNP Offered 1.0000000
NNP GENERAL 1.0000000
NNP Chiesa 1.0000000
NNP Rabobank 0.9000000
NN Rabobank 0.1000000
NN Sale 0.1111111
NNP Sale 0.8888889
NNP Yongchaiyudh 1.0000000
NNP PLG 1.0000000
NNP Lahssini 1.0000000
NNP MEXICAN 1.0000000
NNP FROM 1.0000000
NNPS Airways 0.7500000
NNP Airways 0.2500000
VBD 'd 0.5000000
MD 'd 0.5000000
NN terrain 1.0000000
NN justification 1.0000000
NNP GLORIA 0.5000000
: GLORIA 0.5000000
NNP Curuchet 1.0000000
NN bicycle 1.0000000
VBD slid 1.0000000
VBG restricting 1.0000000
VBD occurred 0.7142857
VBN occurred 0.2857143
NNS Adventurers 1.0000000
NN availability 1.0000000
NN golf 1.0000000
NNP Vrolijk 1.0000000
NNP Metropolitan 1.0000000
JJ Swedish 1.0000000
NNS fishermen 1.0000000
NN bomb 0.9411765
VB bomb 0.0588235
NN lawsuit 1.0000000
NN hall 1.0000000
NN None 1.0000000
NNP AS 1.0000000
NN stride 1.0000000
VB handle 1.0000000
NN .Giuseppe 1.0000000
NNP Muralitharan 1.0000000
NN revenge 1.0000000
JJ legislative 1.0000000
NNP Jolene 1.0000000
JJ short-dated 1.0000000
VBD NEED 1.0000000
NNP Harald 1.0000000
NNP Greer 1.0000000
NN fraud 1.0000000
JJ mafia-style 1.0000000
NNP Stunkel 1.0000000
NN Tension 1.0000000
NNS THURSDAY 0.1428571
NNP THURSDAY 0.8571429
NNPS HEADS 1.0000000
VB guarantee 1.0000000
NNP ADV 1.0000000
NNP Bak 1.0000000
NNP Decker 1.0000000
NNP Jeroen 1.0000000
RB anywhere 1.0000000
RB OSLOBODJENJE 1.0000000
NNP Shayne 1.0000000
NNP MOTOR 1.0000000
NNS atrocities 1.0000000
VBD THINAKARAN 1.0000000
NNPS Falls 1.0000000
RB suddenly 1.0000000
NNP Mujtaba 1.0000000
VB improve 1.0000000
NN collapse 1.0000000
VB grant 0.6666667
NN grant 0.3333333
NN skin 1.0000000
JJ PORTUGUESE 1.0000000
NNP Limited 1.0000000
VBG reaching 1.0000000
NN Last-minute 1.0000000
NNP Judith 1.0000000
NNS surprises 1.0000000
NNP Act 1.0000000
NN credibility 1.0000000
VB identify 1.0000000
RB politically 1.0000000
NN final 0.0579710
JJ final 0.9420290
NN Newcombe 0.1428571
VB Newcombe 0.1428571
NNP Newcombe 0.7142857
JJ female 1.0000000
WRB Matt 0.2500000
NNP Matt 0.7500000
NN oversupply 1.0000000
JJ famed 0.5000000
VBN famed 0.5000000
JJ bad 1.0000000
NNP Hoek 1.0000000
NNP Newt 1.0000000
NNP Wada 1.0000000
NNS approx 1.0000000
JJ spinal 1.0000000
NN tract 1.0000000
VBZ turns 1.0000000
JJ sprained 1.0000000
NN Essendon 1.0000000
JJ ministerial 1.0000000
NNP Salvador 1.0000000
NN delegation 1.0000000
VB evade 1.0000000
NNP Farmers 1.0000000
VBD belted 1.0000000
NNP Donetsk 1.0000000
NNP Alan 1.0000000
VBG fitting 1.0000000
NNS visits 1.0000000
NNPS Arabs 1.0000000
VBD decided 0.5789474
VBN decided 0.4210526
NN mph 1.0000000
VBN looked 0.0769231
VBD looked 0.9230769
VBN shut 0.6000000
VBD shut 0.4000000
NNP Wolk 1.0000000
JJR barter 0.4166667
VB barter 0.0833333
NN barter 0.5000000
NNP HOUSE 1.0000000
NNP Gehrig 1.0000000
NNP Vicomte 1.0000000
NNP PREVIOUS 0.5000000
NNS PREVIOUS 0.5000000
JJ post-mortem 1.0000000
JJ non-binding 1.0000000
NNP Marine 1.0000000
NN acct 1.0000000
NNP VEERAKESARI 1.0000000
NNP Ingwe 1.0000000
NNP Faheem 1.0000000
NNP Sfeir 1.0000000
NNP Forsyth 1.0000000
NNP Georgiopoulos 1.0000000
RB chimed 0.5000000
VBD chimed 0.5000000
NNP Arsenal 0.4000000
JJ Arsenal 0.6000000
NN collar 1.0000000
NN commitment 1.0000000
NNP Coolee 1.0000000
NNP Treng 1.0000000
NNP Legislative 1.0000000
NNS muni 0.5000000
JJ muni 0.5000000
JJ Nuremberg-based 1.0000000
NNP Comprehensive 1.0000000
VBZ chooses 1.0000000
NNP Srbska 1.0000000
VBD WORKS 1.0000000
NNP Peter 1.0000000
NNP Marketing 1.0000000
VBG readying 1.0000000
VB oppose 0.3333333
VBP oppose 0.6666667
VBD approved 0.4285714
VBN approved 0.5714286
NNP Guinness 1.0000000
NNP Lathwell 1.0000000
NN Eco-Challenge 0.2500000
NNP Eco-Challenge 0.5000000
JJ Eco-Challenge 0.2500000
NNP Jeff 1.0000000
NN fitness 1.0000000
VBZ leaves 1.0000000
NNP Frentzen 1.0000000
VBN pursued 1.0000000
JJ diverse 1.0000000
NNS publications 1.0000000
NNP ISRAELI 0.5000000
: ISRAELI 0.5000000
NNP Doboj 1.0000000
NNP Action 1.0000000
NNP D.A. 1.0000000
NNP Miyaga 1.0000000
NNP Dowd 1.0000000
VBZ completes 1.0000000
NN father 1.0000000
NN detective 1.0000000
NNP Commandments 1.0000000
NNPS Futures 1.0000000
JJ Russian-Chechen 0.6666667
NNP Russian-Chechen 0.3333333
JJ aware 1.0000000
NN multi-ethnicity 1.0000000
NNP Humphries 1.0000000
NN explosion 1.0000000
NN rhetoric 1.0000000
VBG organising 1.0000000
JJ well-rehearsed 1.0000000
RB practically 1.0000000
NNP Woosnam 1.0000000
NNS inspectors 1.0000000
NN effect 1.0000000
NNP SCOREBOARD-AUSTRALIA 1.0000000
NNP Stevens 1.0000000
NN construction 1.0000000
NNP Stanojlovic 1.0000000
JJ bearded 1.0000000
VB Call 1.0000000
VBP estimate 0.6666667
NN estimate 0.3333333
NNS carts 1.0000000
NN spongiform 1.0000000
NN shipment 1.0000000
NNP Francisco 1.0000000
NNS Parramatta 1.0000000
NNS complications 1.0000000
VBG normalising 1.0000000
NNP UTI 1.0000000
NNP Playoff 1.0000000
NNP Tarango 1.0000000
VBN forbidden 1.0000000
JJ Philippine 0.7500000
NNP Philippine 0.2500000
NNP F.A.I. 1.0000000
NN Rojahn 1.0000000
NNP Roberta 1.0000000
NNP Nabil 1.0000000
VBN inserted 1.0000000
NNP CRAWLEY 1.0000000
NNP Dhabi 1.0000000
NNP Ravanelli 1.0000000
JJ teenage 1.0000000
RB now 1.0000000
NNP Villeneuve 1.0000000
NNP Salo 1.0000000
VBZ kills 1.0000000
NN occupation 1.0000000
JJ destitute 1.0000000
VBN bid 0.0454545
VB bid 0.0454545
NN bid 0.9090909
JJ balanced 1.0000000
NNP Volkov 1.0000000
VBN Jungle 0.5000000
NNP Jungle 0.5000000
SYM Yosu 0.5000000
NNP Yosu 0.5000000
NNP Nutricia 1.0000000
JJ FINNISH 1.0000000
JJ unknown 1.0000000
VBZ drives 0.5000000
NNS drives 0.5000000
JJR Higher 1.0000000
JJ pivotal 1.0000000
PRP you 1.0000000
JJ outspoken 1.0000000
NN drachmas 1.0000000
NNP Kilda 1.0000000
VB impress 1.0000000
NNP Folha 1.0000000
NNP Gina 1.0000000
NNP Shiohara 1.0000000
NNP Kandahar 1.0000000
VB renominate 1.0000000
NN test-tube 1.0000000
VB molest 1.0000000
NNP Zhilan 1.0000000
NNP Vaclav 1.0000000
NNS visitors 1.0000000
VB carry 1.0000000
NNP Volcanic 1.0000000
NNP FACILITIES 1.0000000
NNP PARIS 1.0000000
NNP Ballybunion 0.8000000
JJ Ballybunion 0.2000000
NN division 1.0000000
JJ self-rule 0.8571429
NN self-rule 0.1428571
NNP Lomas 1.0000000
NN corner 1.0000000
JJ human-rights 1.0000000
NNP Depositary 1.0000000
IN beneath 1.0000000
NNP Baudone 1.0000000
NN workout 1.0000000
VBG concluding 1.0000000
NN enthusiasm 1.0000000
VBG melting 1.0000000
VBD filled 0.2500000
VBN filled 0.7500000
NNPS Colombians 1.0000000
VB Add 1.0000000
NNP Cry 1.0000000
JJ German-born 1.0000000
NN reunification 1.0000000
NNP Vincent 1.0000000
NNP Midwest 1.0000000
NN Division 0.5714286
NNP Division 0.4285714
JJ wooden 1.0000000
VBN ransacked 1.0000000
NNP INTO 1.0000000
NN weather 1.0000000
NNP Giampaolo 1.0000000
NNP Society 1.0000000
RB Then 1.0000000
IN Unlike 1.0000000
NN Path 1.0000000
VBN vied 1.0000000
NNP Nuremberg 1.0000000
NNP Putra 1.0000000
NNP Lotte 0.9000000
JJ Lotte 0.1000000
JJ Romanian-registered 1.0000000
CD Sixteen 1.0000000
NN conservation 1.0000000
NNP Spokesman 1.0000000
NNP A.de 1.0000000
NN pollution 1.0000000
NNS reporters 0.9772727
JJ reporters 0.0227273
NNP Zastava 1.0000000
NN detachment 1.0000000
NNP Lebanese 0.3333333
JJ Lebanese 0.6666667
NN cocaine 1.0000000
VBD commented 1.0000000
NNP Petra 1.0000000
JJ consistent 1.0000000
JJ longitudinal 1.0000000
NNP Skeleton 1.0000000
NN warehouse 1.0000000
JJ east 1.0000000
NNP FORECAST 1.0000000
JJ Irani 0.0909091
NNPS Irani 0.0909091
NNP Irani 0.8181818
NN outbreak 1.0000000
NNP Hadlee 1.0000000
JJ Democratic 0.4222222
NNP Democratic 0.5555556
NNS Democratic 0.0222222
JJ hand-written 1.0000000
VBN transmitted 1.0000000
IN Near 1.0000000
NNS towns 1.0000000
NNP Tamer 1.0000000
NN totality 1.0000000
NNS incomers 1.0000000
NNP April 1.0000000
NNP Hristo 1.0000000
NNP Jared 1.0000000
NNP Richey 1.0000000
NNP Pascal 1.0000000
NN curtain-raiser 1.0000000
JJ eighth-ranked 1.0000000
JJ unhurt 1.0000000
CD Ekeren 0.2500000
NNP Ekeren 0.7500000
JJ fiscal 1.0000000
JJ talented 1.0000000
JJ Doetinchem-Doetinchem 1.0000000
JJ explosive 1.0000000
NN arm 1.0000000
NNP Hincza 1.0000000
NNS nerves 1.0000000
NNP Habsudova 1.0000000
NN crop 1.0000000
JJ calm 1.0000000
JJ three-month-to-three-year 1.0000000
NN healthcare 1.0000000
VB HARARE 1.0000000
NN opinion 1.0000000
NNP Lumir 1.0000000
NN PLANE 1.0000000
NNP TRA 1.0000000
NNP KUALA 1.0000000
NNS Mosenergo 1.0000000
NNP Zabel 1.0000000
NNP Abbey 1.0000000
NNP Teenager 1.0000000
NN Haga 0.2222222
NNP Haga 0.7777778
NNS tents 1.0000000
NNP Sahara 1.0000000
NNP Hebrew 1.0000000
VBG probing 1.0000000
VBP overtook 1.0000000
NN interogation 1.0000000
RB reluctantly 1.0000000
NNP Rivero 1.0000000
VBG Winning 1.0000000
NNP Tracy 1.0000000
NNP Salah 1.0000000
NNP Pattaya 1.0000000
NNS deals 1.0000000
VBN backed 0.6666667
VBD backed 0.3333333
JJ neat 1.0000000
JJ young 1.0000000
NNP Reeve 0.8571429
JJ Reeve 0.1428571
NNP Chelny 1.0000000
NN overthrow 0.2500000
VB overthrow 0.7500000
JJ Arab 0.7058824
NNP Arab 0.2941176
NNP Bartlomiej 1.0000000
NNP Metalurg 0.5000000
VBG Metalurg 0.5000000
JJ unofficial 1.0000000
JJ unsure 1.0000000
NNP Trinidad 1.0000000
NN conduct 0.3333333
VB conduct 0.6666667
VBD sandwiched 1.0000000
NN elite 0.5000000
JJ elite 0.5000000
NNP MILAN 1.0000000
NNP Claire 1.0000000
NN cart 1.0000000
NNP Chandra 1.0000000
NN interval 1.0000000
NN amnesty 1.0000000
NNS institutions 1.0000000
NN subsidiary 1.0000000
NNP Chamorro 1.0000000
NN affadavit 1.0000000
EX there 0.6517857
RB there 0.3482143
NN reimbursement 1.0000000
NNS subscribers 1.0000000
NNP Hinchcliffe 1.0000000
NN compassion 1.0000000
NNP RDR 1.0000000
NN movement 1.0000000
NNP Zaman 1.0000000
NNS strikes 0.8000000
VBZ strikes 0.2000000
NNS investors 1.0000000
NNP DRESDEN 1.0000000
NNP SUMMARY- 1.0000000
IN FRATERNITE 1.0000000
RB stable 0.1111111
JJ stable 0.8888889
JJ rusty 1.0000000
JJ insulting 1.0000000
NNPS Stakes 0.5000000
NNP Stakes 0.5000000
NNP Koeln 1.0000000
NNS Dutroux 0.0277778
NN Dutroux 0.0277778
JJ Dutroux 0.1388889
NNP Dutroux 0.8055556
RB Marcelo 0.0666667
NNP Marcelo 0.9333333
NNP Specter 1.0000000
NNP Kispest 0.7500000
JJS Kispest 0.2500000
VBP am 1.0000000
VBD fed 0.6666667
VBN fed 0.3333333
VB Leicestershire 0.3333333
NNP Leicestershire 0.6666667
RB afterwards 1.0000000
NNP Midfielder 1.0000000
NNP Dore 1.0000000
NN estate 1.0000000
NNP LISBON 1.0000000
NNP SAN 1.0000000
NNP ROLLS 1.0000000
VBZ attends 1.0000000
NNP Markgraaff 1.0000000
NNP WW 1.0000000
NN wheat 1.0000000
VB eject 1.0000000
VB investigate 1.0000000
NN boy 1.0000000
: MITCHELL 0.5000000
NNP MITCHELL 0.5000000
NN strategist 1.0000000
VBG GPG 0.2000000
JJ GPG 0.2000000
NNP GPG 0.6000000
NNP Gyor 1.0000000
NN usage 1.0000000
NNP Monrovia 1.0000000
NN hitter 1.0000000
NN substitute 1.0000000
JJ longer-term 1.0000000
NNS balloons 1.0000000
NN blizzard 1.0000000
NNP Sigurd 1.0000000
VBD HEALED 1.0000000
NNP Alfred 1.0000000
NNP Romano 1.0000000
NN pence 1.0000000
NNP Teixeira 1.0000000
NN anything 1.0000000
NN Birthday 1.0000000
NNP Prima 1.0000000
NNP ATRIA 1.0000000
NN link-up 1.0000000
NNP Coulthard 1.0000000
NN barley 1.0000000
NN Barngetuny 1.0000000
NNP Dreyfus 1.0000000
RB specifically 1.0000000
JJ constitutional 1.0000000
NNP Ciriaco 1.0000000
NN disagreement 1.0000000
NNS sectors 1.0000000
JJ neo-Nazi 1.0000000
JJ express 0.2000000
VB express 0.8000000
NNP IFOR 1.0000000
VBD rebuffed 1.0000000
NNPS Parisians 1.0000000
NNP Batty 1.0000000
NNP CINCINNATI 1.0000000
NNP Cecil 1.0000000
NNP HISSOU 1.0000000
NNPS BRINGS 1.0000000
NNP Kibitok 1.0000000
NN door 1.0000000
NN participant 1.0000000
NNP Prague 1.0000000
NNS inches 1.0000000
NNP FDA 1.0000000
NN hostage 1.0000000
NN administrator 1.0000000
NNP Gong 1.0000000
NNP DAVEY 1.0000000
VBD alerted 1.0000000
NNP Anis 1.0000000
VB soar 1.0000000
: ROMANIA 0.5000000
NNP ROMANIA 0.5000000
NNP Henry 0.6666667
JJ Henry 0.3333333
NNS districts 1.0000000
DT TITLE 0.1428571
NN TITLE 0.1428571
RP TITLE 0.2857143
NNP TITLE 0.4285714
JJ Iraqi 1.0000000
NNP Havnar 1.0000000
NNP Investigation 1.0000000
NNP Perth 1.0000000
NN dedication 1.0000000
VBG constructing 1.0000000
NNP Hutus 0.6666667
NNPS Hutus 0.3333333
VBP misfortune 0.5000000
NN misfortune 0.5000000
NN indices* 1.0000000
VBD substituted 0.3333333
VBN substituted 0.6666667
RB by 0.0015129
IN by 0.9984871
NN bag 1.0000000
JJ Emese 1.0000000
NN Death 0.5000000
NNP Death 0.5000000
NN speaker 1.0000000
NNP Sao 1.0000000
NN advice 1.0000000
NNP Torrance 1.0000000
NNS Honduras 1.0000000
JJ Tamil-speaking 1.0000000
NNP Hermawan 1.0000000
NNP Gooch 1.0000000
NNP Shrewsbury 0.7500000
RB Shrewsbury 0.2500000
NN toast 1.0000000
NNP Foundation 1.0000000
RB offshore 0.5000000
JJ offshore 0.5000000
NNS roads 1.0000000
NNS Harrods 1.0000000
JJ U.S.-bound 1.0000000
NNP Kaspars 1.0000000
NNP Moreno 1.0000000
JJ now-destroyed 1.0000000
NNS counterparts 1.0000000
VBD KANSAS 0.1621622
NNP KANSAS 0.8378378
JJ superstar 1.0000000
NNP Ali 1.0000000
VBN slotted 1.0000000
NNP Baghdad 1.0000000
NNP Montserrat 1.0000000
NNP Ill 1.0000000
VBZ knows 1.0000000
NNP AGAINST 1.0000000
VBG WINNIPEG 1.0000000
NNP Hiraki 1.0000000
NNP Disarmament 1.0000000
NNP Johan 1.0000000
NN attitude 1.0000000
VBD campaigned 1.0000000
JJ lucky 1.0000000
NNP Roman 1.0000000
NNP Belarus 1.0000000
CD Six 1.0000000
JJ male 1.0000000
JJ two-day 1.0000000
NNP Redgrave 1.0000000
VBG Speaking 1.0000000
NNP Dynasty 1.0000000
NNP BERNE 1.0000000
NNPS PAO 0.5000000
TO PAO 0.5000000
NNP Chalmers 1.0000000
NN yard 1.0000000
NN confirmation 1.0000000
NNP PREDICTION 1.0000000
JJ Beautiful 1.0000000
NNS tops 0.7500000
VBZ tops 0.2500000
VBG wielding 1.0000000
NN revival 1.0000000
NN bloc 1.0000000
NN conflict 1.0000000
NNP Dia 1.0000000
NN format 1.0000000
NN concept 1.0000000
NNP Rica 1.0000000
NNP Eriksson 1.0000000
NN massacre 1.0000000
NN account 1.0000000
VB break 0.3181818
NN break 0.6818182
JJ conditional 1.0000000
VBN encamped 1.0000000
NNP FRIDAY 1.0000000
NNS holidays 1.0000000
NNP Prusek 1.0000000
NN Tomorrow 1.0000000
NNP Klerk 1.0000000
VB please 0.5000000
UH please 0.5000000
NN agronomist 1.0000000
JJ secondary 1.0000000
NNS polls 1.0000000
NNP Pushpakumara 1.0000000
NNP UP-AND-COMERS 1.0000000
NN helper 1.0000000
RB severely 1.0000000
NNP CBSA 1.0000000
NN beach 1.0000000
NNP Ndiaye 1.0000000
VB veer 1.0000000
RB actively 1.0000000
NNS adjustments 1.0000000
VBZ strangles 1.0000000
MD ca 1.0000000
VBZ warns 1.0000000
NNP Canadian 0.4210526
JJ Canadian 0.5789474
NNP Hlasek 1.0000000
JJ likely 0.8636364
RB likely 0.1363636
NNPS Appeals 1.0000000
NN noon 1.0000000
JJ outstanding 1.0000000
NNP Ben-Elissar 1.0000000
JJ disgruntled 1.0000000
VBD revealed 0.6666667
VBN revealed 0.3333333
NN army 1.0000000
NN captivity 1.0000000
NN EXPANSION 1.0000000
VB rave 1.0000000
VB captain 0.0344828
NN captain 0.9655172
NN Koranic 1.0000000
NNP Devers 0.6666667
NNS Devers 0.3333333
NNP Promo 1.0000000
NN rise 0.8333333
VB rise 0.1666667
VBN accomplished 0.6666667
JJ accomplished 0.3333333
NNP Westminster 1.0000000
NNP Breen 1.0000000
NN m.p.h. 1.0000000
NN Anza 0.5000000
NNP Anza 0.5000000
NNS requests 1.0000000
NN showdown 1.0000000
NNP DIVISION 1.0000000
NN Saudi 0.0454545
NNP Saudi 0.6363636
JJ Saudi 0.3181818
( Panis 0.2000000
NNP Panis 0.8000000
JJ third 0.9901961
NN third 0.0098039
NNP Umar 1.0000000
NN veil 1.0000000
NNP Perugia 1.0000000
NNP Baggio 1.0000000
NNP Kaliningrad 1.0000000
VBN orchestrated 1.0000000
NNP Yukio 1.0000000
NN ministry 0.9729730
, ministry 0.0270270
NNS judges 1.0000000
NNP Ravindra 1.0000000
CD million 1.0000000
NN car 1.0000000
PRP Ours 1.0000000
NNP Balewa 1.0000000
VBZ prepares 1.0000000
NNP Dugmore 1.0000000
JJ like 0.0500000
VB like 0.3000000
IN like 0.6500000
NNP Bronson 1.0000000
RB either 0.2666667
DT either 0.4000000
CC either 0.3333333
NNP ASUU 0.5000000
NNS ASUU 0.5000000
VBP manage 0.5000000
VB manage 0.5000000
NNP Lands 1.0000000
IN at 1.0000000
NNP Begerow 1.0000000
NN one-third 1.0000000
NN postponement 1.0000000
NNP Dacia 1.0000000
NNP U 1.0000000
CD Fifty 1.0000000
VBD lasted 1.0000000
IN OVER 1.0000000
NNPS Mieciel 1.0000000
NNP Nouakchott 1.0000000
NN witchdoctor 1.0000000
JJ non-working 1.0000000
NNP ANOTHER 1.0000000
NNPS Sons 1.0000000
NNP Richardson 1.0000000
VBD accounted 0.6666667
VBN accounted 0.3333333
NN dispatch 1.0000000
NNP Davids 1.0000000
NNP RBI 0.9333333
NNPS RBI 0.0666667
NN prostitution 1.0000000
NNP vs 1.0000000
'' AFTER 0.0625000
NN AFTER 0.0625000
JJ AFTER 0.0625000
NNP AFTER 0.8125000
VBG pressing 1.0000000
NNP WESTERN 1.0000000
JJ unsatisfied 1.0000000
NNS parrots 1.0000000
JJ half-volley 1.0000000
JJ Third-seeded 1.0000000
NNP McGinley 1.0000000
NNS fighters 1.0000000
NNP Dembinski 1.0000000
VBG being 1.0000000
NNP Menlo 1.0000000
JJ severe 1.0000000
RB consistently 1.0000000
NNP Milenko 1.0000000
VBP go 0.0689655
VB go 0.9137931
NN go 0.0172414
NN series 1.0000000
NN purchaser 1.0000000
VBG replacing 1.0000000
NNS decibels 1.0000000
NNS runners-up 1.0000000
NNP Lanka 1.0000000
NNP Nasser 1.0000000
NNP Dopita 1.0000000
JJ sensational 1.0000000
SYM ---------------------------------- 1.0000000
NN runway 1.0000000
NNP Alesi 1.0000000
NNS drivers 1.0000000
NNP ATHLETICS 1.0000000
NNS Paralympics 1.0000000
JJ cool 0.8000000
VB cool 0.2000000
VBN subtracted 1.0000000
NNP Huw 1.0000000
NN outrage 1.0000000
NNP Rojas 1.0000000
NNPS Alliance-Menatep 1.0000000
NN fever 1.0000000
NNP SEYCHELLES 0.5000000
: SEYCHELLES 0.5000000
NNS technologies 1.0000000
JJ centrist 1.0000000
NN rapist 1.0000000
VB behave 1.0000000
VBP ahave 1.0000000
NNS coupons 1.0000000
JJR colour 1.0000000
NNP Cecchini 1.0000000
VBD reversed 1.0000000
: OLYMPIAKOS 0.2500000
NNP OLYMPIAKOS 0.7500000
NN demise 1.0000000
NN period 1.0000000
NNP Pineda 1.0000000
NNP Dev 1.0000000
NN package 1.0000000
VBG reconciling 1.0000000
JJ Chinese 0.8695652
NNP Chinese 0.1304348
NN exploration 1.0000000
VB compromise 0.2000000
NN compromise 0.8000000
VBP confess 1.0000000
NN placebo 1.0000000
NN glass 1.0000000
NNP Eritrea 1.0000000
VBG considering 1.0000000
JJ frequent 1.0000000
VBZ reiterates 1.0000000
NNS commodities 1.0000000
NNP Solovyov 1.0000000
NNP Chesapeake 1.0000000
NNP Hospital 0.9230769
NN Hospital 0.0769231
NN conditioning 1.0000000
VBD sprinted 1.0000000
NN drilling 1.0000000
NNP ENAP 1.0000000
NN lightning 1.0000000
NNP Bjorn 1.0000000
NNP Street 1.0000000
NNP Commodity 1.0000000
VB praise 1.0000000
NNP Frenz 1.0000000
RB privately 1.0000000
NN Mid-tier 1.0000000
VBG AMTRAK 1.0000000
JJ vacant 1.0000000
NNP Teguh 1.0000000
NNP Ellwood 1.0000000
NNP TM 1.0000000
NN losing 0.3529412
VBG losing 0.6470588
NNS shareholders 1.0000000
NNP Klinsmann 1.0000000
NNP Witechek 1.0000000
NNP Merrill 1.0000000
NNP Survey 1.0000000
NNP Palace 1.0000000
NN risk 0.9411765
VB risk 0.0588235
NN gunshots 1.0000000
NNS governments 1.0000000
NNS banners 1.0000000
NN fifth-inning 1.0000000
NNPS Nazis 1.0000000
NNP Boudova 1.0000000
NNP Ascot 1.0000000
NNP HEERENVEEN 1.0000000
IN alongside 1.0000000
NNP Ottey 1.0000000
VBN adjourned 1.0000000
NN disappearance 1.0000000
NN engineer 1.0000000
JJ deadpan 1.0000000
NNP DETROIT 0.5500000
RB DETROIT 0.0500000
VBG DETROIT 0.3500000
PRP DETROIT 0.0500000
JJ certain 1.0000000
NN beheading 1.0000000
NNS sights 1.0000000
NNP Presov 1.0000000
NN resumption 1.0000000
VBN proven 1.0000000
VBG pumping 1.0000000
NNP DUBLIN 1.0000000
JJ wild 1.0000000
NNP Jiangling 1.0000000
NNP Chiate 1.0000000
RB slightly 1.0000000
JJ wide-ranging 1.0000000
NNP San 1.0000000
NN teenager 1.0000000
NN Privatising 1.0000000
NNP Dundee 1.0000000
NNP Tegel 1.0000000
NNP Mouland 1.0000000
NNP Brett 1.0000000
NNPS Sciandri 0.5000000
NNP Sciandri 0.5000000
NN couple 1.0000000
NN context 1.0000000
NN warm-up 1.0000000
NNS bales 1.0000000
NNP Hapoel 1.0000000
NNP Sandra 1.0000000
VBN rekindled 1.0000000
NNP PSE 1.0000000
NNS stocks 1.0000000
VBN spared 1.0000000
NNPS Securities 0.5454545
NNP Securities 0.4545455
NN bailiff 1.0000000
NNP Mostostal 0.6666667
JJ Mostostal 0.3333333
RB stubbornly 1.0000000
NNP Inez 1.0000000
NN commandment 1.0000000
NNP Gulyayeva 1.0000000
NN unfortunate 0.2000000
JJ unfortunate 0.8000000
NN short-covering 1.0000000
RB typically 1.0000000
JJ hopeful 1.0000000
NNP SOFIA 1.0000000
NNP Tchmil 1.0000000
JJ weekly 1.0000000
VBN refurbished 1.0000000
VB reopen 1.0000000
JJ Setubal 0.3333333
NNP Setubal 0.6666667
NN Erdmann 1.0000000
NNP Ori 1.0000000
NNS bodies 1.0000000
VBG acting 0.8333333
NN acting 0.1666667
VBD codenamed 1.0000000
MD MAJ 1.0000000
VBN omitted 0.5000000
VBD omitted 0.5000000
VBN elbowed 1.0000000
NNP EARLY 1.0000000
NN injunction 1.0000000
NN brake 1.0000000
VBG bungling 1.0000000
RB Kikinda 1.0000000
NNP Presbyterian 1.0000000
NN call-up 1.0000000
NNP Continental 1.0000000
CD <number> 0.9324244
NNP <number> 0.0264026
RB <number> 0.0009198
NN <number> 0.0045988
LS <number> 0.0005951
JJ <number> 0.0339772
NULL <number> 0.0002164
NNS <number> 0.0008657
NNP Serbia 1.0000000
RB formerly 1.0000000
NNP Videoton 1.0000000
NNP Esnaider 1.0000000
NNP Rev. 1.0000000
NN omission 1.0000000
NNP Votava 1.0000000
NN residency 1.0000000
NNS diseases 1.0000000
JJ x-PAO 1.0000000
JJ weighted 1.0000000
NN tone 1.0000000
VBZ stars 1.0000000
NNP Hawksworth 1.0000000
NNP Altun 1.0000000
NN network 1.0000000
VBG embracing 1.0000000
NN enclosure 1.0000000
NNP Petroecuador 1.0000000
JJ surgical 1.0000000
NN teacup 1.0000000
NNP Kontogiannis 1.0000000
NNP LIFTS 1.0000000
VB conclude 1.0000000
NN secretariat 1.0000000
NNP Tanzania 1.0000000
NN fund 0.7142857
VB fund 0.2857143
NNP Ravanchi 1.0000000
VBG seeing 1.0000000
NNPS Grasshoppers 1.0000000
NNS achievements 1.0000000
JJ Tetouan 1.0000000
NN obsession 1.0000000
NNP Collingtree 1.0000000
NN Tactics 1.0000000
VB engage 1.0000000
VBG laying 1.0000000
NNP Drobnjak 1.0000000
NNS inmates 1.0000000
NNS taka 0.4000000
NN taka 0.6000000
VBD symbolised 1.0000000
NNS trousers 1.0000000
JJ sure 1.0000000
RP UP 1.0000000
NNS reforms 1.0000000
NNS envelopes 1.0000000
NN publicity 1.0000000
NNS provisions 1.0000000
VBG netting 1.0000000
JJ civilised 1.0000000
NNP Rafter 1.0000000
NNP Walker 1.0000000
NNP House 1.0000000
NNP Alcan 1.0000000
VBD ranked 1.0000000
NNP Nuestra 1.0000000
NNP Orvieto 0.7500000
JJ Orvieto 0.2500000
NNS investments 1.0000000
NN stab 1.0000000
JJ Human 0.3333333
NNP Human 0.6666667
NN liquor 1.0000000
NNP Nigeria 1.0000000
NNP Surabaya 1.0000000
NNP Rocca 1.0000000
NN procure 1.0000000
NNP Dheeraj 1.0000000
NNS combatants 1.0000000
VBD focused 0.6666667
JJ focused 0.3333333
JJ pornographic 1.0000000
NNS rapists 1.0000000
VBD considered 0.2727273
VBN considered 0.7272727
NN Soyoil 1.0000000
NNP Nobel 1.0000000
JJ ordinary 1.0000000
NNP Gennadi 1.0000000
CD Ten 1.0000000
NNS Penrith 0.5000000
NNP Penrith 0.5000000
NNP Clayton 1.0000000
NNP Pooley 1.0000000
VBG recognizing 1.0000000
NNS families 1.0000000
NNS indexations 1.0000000
NNP Triple-A 1.0000000
NNS waves 1.0000000
NNP Cindana 1.0000000
NN nine-hitter 1.0000000
NN judgment 1.0000000
JJ mid-to-large 1.0000000
NNP Paraguay 1.0000000
NNS stunts 1.0000000
NNP Korea 1.0000000
NNP Wolf 1.0000000
NNP Smyth 0.6666667
NN Smyth 0.3333333
NNP Arabic 1.0000000
NNP PAST 1.0000000
JJ confident 1.0000000
NNP Wijffels 1.0000000
UH Lamm 0.2000000
NN Lamm 0.2000000
NNP Lamm 0.6000000
NNP Rasheed 1.0000000
NN Luton 0.5000000
JJ Luton 0.2500000
NNP Luton 0.2500000
NNP ISSUER 1.0000000
NNP COLLATED 1.0000000
NN drink 0.5000000
VBP drink 0.5000000
JJR low-fat 1.0000000
JJ outdoor 1.0000000
NNS ribs 1.0000000
RB briefly 1.0000000
NNS newcomers 1.0000000
JJ One-month 1.0000000
NNS bills 1.0000000
VB involve 1.0000000
NNS festivities 1.0000000
VBG granting 1.0000000
NNS individuals 1.0000000
VBN unsettled 1.0000000
VBZ costs 0.0526316
NNS costs 0.9473684
NN susceptibility 1.0000000
JJ technical 1.0000000
NNP Grabb 1.0000000
JJ limited 0.6923077
VBN limited 0.3076923
NNP United 1.0000000
VBD performed 1.0000000
NNS athletics 1.0000000
NNP Banik 1.0000000
NN throne 1.0000000
NN bastion 1.0000000
NN resource 1.0000000
NNP Barrier 1.0000000
NNP Prime 1.0000000
NN increase 0.7000000
VB increase 0.3000000
JJ codename 1.0000000
NN politician 1.0000000
VB rotate 1.0000000
NNP Kocinski 1.0000000
NNP Ottavio 1.0000000
NNP Lyngby 1.0000000
NNP Aberdeen 1.0000000
VB succeed 1.0000000
VBP quote 0.5000000
NN quote 0.5000000
NNS balances 1.0000000
NNP PROGRAMME 1.0000000
NNS LENS 1.0000000
NNS neighbours 1.0000000
NN farm 1.0000000
NN pothole 1.0000000
VBD recorded 0.6000000
VBN recorded 0.4000000
VB scrape 1.0000000
NNP Agyepong 1.0000000
NNP Draper 1.0000000
NNP RESULT 1.0000000
NNP Ryo 0.3333333
NN Ryo 0.6666667
NNP Mpumulanga 1.0000000
NNP Alarm 1.0000000
NNP Pintusevich 1.0000000
NN homegrown 1.0000000
NNP Botha 1.0000000
JJ huge 1.0000000
JJ GREEK 0.5000000
NNS GREEK 0.5000000
NN source 1.0000000
NNP Lu 1.0000000
NNP Gulbuddin 1.0000000
NNP Darren 1.0000000
NNS ministries 1.0000000
NN capacity 1.0000000
NN single 0.1739130
JJ single 0.8260870
NNP Fredericks 0.8333333
NNS Fredericks 0.1666667
NNP Conference 1.0000000
NNP Jadida 1.0000000
NNP Manila 1.0000000
NN Provision 1.0000000
NNP ELITE 1.0000000
NNP PIVOTAL 1.0000000
NNP Portsmouth 1.0000000
NNS cups 1.0000000
NNS DAYS 1.0000000
NNP Kabariti 1.0000000
NNS SPONSORS 1.0000000
VBN targeted 1.0000000
NNP Moller 1.0000000
NNS permits 1.0000000
WDT what 0.0877193
WP what 0.9122807
NNP Woodlands 1.0000000
NNP CONGO 1.0000000
NNP Sampras 0.6875000
NNPS Sampras 0.1250000
NNS Sampras 0.1875000
DT them 0.0219780
PRP them 0.9780220
JJ treacherous 1.0000000
NN exit 1.0000000
JJ Co-ordinated 1.0000000
NNP Times-Stock 1.0000000
NNS platforms 1.0000000
NN injury 1.0000000
JJ launched 0.0714286
VBN launched 0.4285714
VBD launched 0.5000000
NNP Assembly 1.0000000
NNS marksmen 1.0000000
NNPS Sot 1.0000000
NNP KONG 0.1875000
VBG KONG 0.8125000
: SCOTTISH 0.1666667
JJ SCOTTISH 0.3333333
NNP SCOTTISH 0.5000000
VBP deserve 1.0000000
DT the 1.0000000
NNP Commissioner 1.0000000
VB seem 1.0000000
NNP Wodzislaw 1.0000000
NNP Stremaitis 1.0000000
NNS slums 1.0000000
NNP Stefan 1.0000000
NNS alleys 1.0000000
NNP Zuberbuehler 1.0000000
NN Bancomext 0.5000000
NNP Bancomext 0.5000000
NNP Stalin 1.0000000
NNP Waqar 1.0000000
VBZ takes 1.0000000
NNP MELBOURNE 1.0000000
NNP Siegfried 1.0000000
NNS technicalities 1.0000000
NN den 1.0000000
VBZ splits 1.0000000
NNP CFDT 1.0000000
NN heat 0.6666667
VB heat 0.3333333
NNP Ainars 1.0000000
NNP Ceahlaul 1.0000000
NN provider 1.0000000
VB allowed 0.0204082
VBD allowed 0.6938776
VBN allowed 0.2857143
VBZ has 1.0000000
VBN pelted 1.0000000
VBD commandeered 1.0000000
NN script 1.0000000
NN caller 1.0000000
JJ Nepalese 1.0000000
NN fear 0.5000000
VBP fear 0.5000000
VBN jeopardised 1.0000000
NNP QUALIFIER 0.5000000
VBN QUALIFIER 0.5000000
VBN spoken 1.0000000
NN reporting 0.2500000
VBG reporting 0.7500000
NN organist 1.0000000
NNP manoeuvre 1.0000000
NNP ERA 1.0000000
NNP Pieters 1.0000000
NNP BELL 1.0000000
NNP Dick 1.0000000
NNP Galarraga 1.0000000
NN cavity 1.0000000
VBZ contacts 0.2000000
NNS contacts 0.8000000
NNP Lubin 1.0000000
VBN purged 1.0000000
NNP Chernyavskaya 1.0000000
NNP Tutsi-run 1.0000000
NN Ujjain 1.0000000
VBN spotted 1.0000000
NNP Metal 1.0000000
NN dilution 1.0000000
VB consider 1.0000000
NNP Hoiles 1.0000000
JJ superman 1.0000000
NNP Pokka 1.0000000
NN twist 1.0000000
NN normality 1.0000000
NNP Schumacher 1.0000000
JJ dishonest 1.0000000
NNP June 1.0000000
NNS Albanians 1.0000000
NN bulge 1.0000000
NNP PUT 0.2000000
: PUT 0.2000000
IN PUT 0.6000000
NNP Airport 1.0000000
NNS Moslems 0.1428571
NNPS Moslems 0.8571429
JJ embattled 1.0000000
NNP Hoddle 1.0000000
NNP Croat 1.0000000
NNP Patrice 1.0000000
JJ would-be 1.0000000
NNP Tiber 1.0000000
JJ cooperative 1.0000000
NNP Jaeghere 1.0000000
JJ energetic 1.0000000
NN ailment 1.0000000
NN stalemate 1.0000000
NNS figures 1.0000000
JJ presidential 1.0000000
NN host 1.0000000
NN Grozny 0.0400000
VBG Grozny 0.0400000
NNP Grozny 0.9200000
NN bloodshed 1.0000000
NNP Richards 1.0000000
VBG continuing 0.8333333
JJ continuing 0.1666667
JJ inadequate 1.0000000
NNP Boo-nee-OL 1.0000000
JJ face-saving 1.0000000
NNP Ninova 1.0000000
NNP Cervera 1.0000000
JJ able 1.0000000
NNP Greg 1.0000000
NNS titles 1.0000000
VBG adjusting 1.0000000
NNP SIT 1.0000000
NN E 0.5000000
NNP E 0.5000000
NNP Lindsay 1.0000000
NNS specialists 1.0000000
NN adversity 1.0000000
NNP Walsall 1.0000000
VBG acquiring 1.0000000
NNP FRCD 1.0000000
NN overhaul 1.0000000
JJ lateral 1.0000000
JJ southwestern 1.0000000
NNP E.C.India 1.0000000
NNS chances 1.0000000
NNP Tyler 1.0000000
JJ bloody 1.0000000
NN conglomerate 0.5000000
JJ conglomerate 0.5000000
NNP Gumy 1.0000000
: : 1.0000000
NNP Cardoso 1.0000000
JJ furious 1.0000000
NNP Sadiki 1.0000000
NNP CROFT 0.5000000
: CROFT 0.5000000
NNP Grzegorz 1.0000000
NN counter 1.0000000
NNP Marinovic 1.0000000
RB violently 1.0000000
NN watermelon 1.0000000
VBN diverted 1.0000000
NNP Inter-Entity 1.0000000
NNP Forsa 1.0000000
NNP Ceske 1.0000000
NN entertainment 1.0000000
VBN transformed 1.0000000
VBD flooded 1.0000000
NNS Montserratians 1.0000000
JJ state-owned 1.0000000
NNP Arnhem 1.0000000
VBN amd 1.0000000
NNS singles 0.9491525
NN singles 0.0169492
VBZ singles 0.0169492
JJ singles 0.0169492
NNP CONTINUE 1.0000000
NNP Sheriff 1.0000000
JJ unclear 1.0000000
NN guerrilla 0.6666667
JJ guerrilla 0.3333333
NNP Statistics 0.3333333
NNPS Statistics 0.6666667
NN aspect 1.0000000
JJ hoarse 1.0000000
VB gain 0.6000000
NN gain 0.4000000
NNP Zarraga 1.0000000
NNP Ratna 1.0000000
NNP JV 1.0000000
NN cartilage 1.0000000
NNS fliers 1.0000000
RB Mullally 0.4615385
NNP Mullally 0.5384615
NNP APT 1.0000000
JJ pomfret-rich 1.0000000
NNP L.O. 1.0000000
NN breadth 1.0000000
NNP Palkhivala 0.8000000
NN Palkhivala 0.2000000
JJ proper 1.0000000
VBD shelled 1.0000000
NNP Nyva 0.8000000
NN Nyva 0.2000000
NN Boardman 0.0909091
NNP Boardman 0.9090909
NNP Havel 1.0000000
NN touring 1.0000000
NNP Opel 1.0000000
NNP Lisbon 1.0000000
NNS hints 1.0000000
VBD picked 0.6923077
VBN picked 0.3076923
VBZ recovers 1.0000000
NNP Watkin 1.0000000
JJ Final 0.8750000
NNP Final 0.1250000
NN Creation 1.0000000
VBN provoked 1.0000000
NNP Joulwan 1.0000000
NNP Veggerby 1.0000000
VBD sawed 1.0000000
JJ RABAT 1.0000000
VBZ doubles 0.7777778
NNS doubles 0.2222222
NNP Insurance 1.0000000
NNP St 1.0000000
NNP Grande 1.0000000
NNS thefts 1.0000000
NNP Vitoux 1.0000000
NNP COLONNA 1.0000000
VBN concerned 0.8750000
JJ concerned 0.1250000
NN assailant 1.0000000
VB undercut 1.0000000
NNS stores 1.0000000
NNP Africa 1.0000000
VBD surged 1.0000000
NNS Witnesses 1.0000000
VB revoke 1.0000000
NNP Margit 1.0000000
JJ north-west 1.0000000
NNP Undersecretary-General 1.0000000
VB reassure 1.0000000
NNS Prev 1.0000000
NN act 0.5454545
VB act 0.4545455
NNP AEI 1.0000000
VBN triggered 0.5000000
VBD triggered 0.5000000
NN needle 1.0000000
NNP Stork 1.0000000
JJ Boddington 1.0000000
RB Regrettably 1.0000000
NNP Manne 1.0000000
NNPS Stores 1.0000000
VBG electing 1.0000000
NNP Plains 1.0000000
NNP Escuredo 1.0000000
NNP Parmalat 1.0000000
NNP Adolf 1.0000000
NNPS Kalashnikovs 1.0000000
VBD angered 0.6666667
VBN angered 0.3333333
NNP Lisabeth 1.0000000
VB wake 1.0000000
VBN worn 1.0000000
NNS Voters 1.0000000
NNP Cal 1.0000000
NNP Drug 1.0000000
RB beforehand 1.0000000
JJ season-high 1.0000000
NNP Gippsland 1.0000000
NNP Auction 1.0000000
NNP Huddersfield 0.4285714
VBN Huddersfield 0.5714286
NNP Press 1.0000000
NN violation 1.0000000
VBG declining 1.0000000
NNP Flemming 0.5000000
VBG Flemming 0.5000000
VBP die 0.8000000
VB die 0.2000000
NN judge 0.8181818
VB judge 0.1818182
VBD fought 0.6000000
VBN fought 0.4000000
NNS skies 1.0000000
JJ ethical 1.0000000
NN coxless 1.0000000
NNS intellectuals 1.0000000
RB upward 1.0000000
NN convergence 1.0000000
VBN empty-handed 1.0000000
NNP Matagalpa 1.0000000
NNP Orange 1.0000000
NN defenestration 1.0000000
VBD assessed 1.0000000
RB pretty 1.0000000
NNP Rakow 1.0000000
NN FARM 1.0000000
VBD stepped 0.6250000
VBN stepped 0.3750000
VB reveal 1.0000000
NN grip 1.0000000
NNP Neal 1.0000000
NNP AC 1.0000000
VBG establishing 1.0000000
NN Magnificent 1.0000000
VB hand 0.1250000
NN hand 0.8750000
NNP Nunthorpe 1.0000000
NNP Peeters 1.0000000
VB steal 1.0000000
NN assassination 1.0000000
NNS killings 1.0000000
NNS identities 1.0000000
NN Bunge 1.0000000
VBN grossed 1.0000000
NNP Bush 1.0000000
NNS chips 1.0000000
NNP Lobinger 1.0000000
NNS answers 1.0000000
JJ second-ranking 1.0000000
NNS penalities 1.0000000
VBP regard 1.0000000
NN achievement 1.0000000
NNP Fulham 1.0000000
NNS photos 1.0000000
NNP Ferguson 1.0000000
JJ fun 0.1428571
NN fun 0.8571429
NN bureaucracy 1.0000000
NNP Chaloner 1.0000000
JJ skilful 1.0000000
NNP INA 1.0000000
NNP Graeme 1.0000000
NNP Lewis 1.0000000
NNP Eiden 1.0000000
NNP Regulation 1.0000000
VBN verified 1.0000000
NNP System 1.0000000
WP whoever 1.0000000
VBZ pays 1.0000000
NNP Wells 1.0000000
NNP COMMACK 1.0000000
NNP Baret 1.0000000
RB upright 1.0000000
NNP Anil 1.0000000
NNP Wiltshire 1.0000000
VBP burn 1.0000000
NNP Paulao 1.0000000
NNP Gama 1.0000000
NNP Vaquero 1.0000000
NN Jayasuriya 0.1250000
NNP Jayasuriya 0.8750000
NNP Doug 1.0000000
VBG arriving 1.0000000
PRP her 0.2278481
PRP$ her 0.7721519
NNP Wellings 1.0000000
NNP Frechette 1.0000000
JJ non-political 1.0000000
NNP Z 1.0000000
VBN forecast 0.1304348
NN forecast 0.7826087
VBD forecast 0.0869565
NNP Shanghai 1.0000000
NN centre-right 1.0000000
NNP Buenos 1.0000000
NNP Khartoum 0.9166667
NN Khartoum 0.0833333
NNP Hodzic 1.0000000
NN guest 1.0000000
NNP Siebens 1.0000000
NNP Keirin 1.0000000
JJ feisty 1.0000000
NNP Tim 1.0000000
NN fielding 0.5000000
VBG fielding 0.5000000
NNP Krylya 1.0000000
NNP Artmedia 1.0000000
IN Around 1.0000000
VB disturb 1.0000000
NNP Jammu 1.0000000
VBN paralyzed 1.0000000
JJ sick 1.0000000
NNP Tacis 1.0000000
NNS lawsuits 1.0000000
NN mix 1.0000000
JJ Danish 1.0000000
NNP Dani 1.0000000
NNP August 1.0000000
NNP FFK 1.0000000
NN Sion 0.3333333
NNP Sion 0.6666667
NNP Aryeh 1.0000000
NN hijacker 1.0000000
WRB When 1.0000000
NNP Beaver 1.0000000
VBG reeling 1.0000000
NNP Barrichello 1.0000000
NNP Akpoborie 1.0000000
NNP Prakash 1.0000000
JJ unsteady 1.0000000
NNP Diana 1.0000000
NN sedan 1.0000000
NN raid 0.5000000
VB raid 0.5000000
VBZ closes 0.8000000
NNS closes 0.2000000
NNS DRAW 0.1666667
NN DRAW 0.5000000
NNP DRAW 0.1666667
JJ DRAW 0.1666667
NNS abstentions 1.0000000
NNS Anxieties 1.0000000
NN B 0.2000000
NNP B 0.8000000
NNP CENTER 1.0000000
NN set-piece 1.0000000
NNP Eastern 1.0000000
JJ high-profile 1.0000000
VBP keep 0.0869565
VB keep 0.9130435
NN cabinet 1.0000000
NNP Gebreselassie 1.0000000
VBP demand 0.1081081
VB demand 0.1351351
NN demand 0.7567568
NNP Carl 1.0000000
NN brawl 1.0000000
NNP Ruggiero 1.0000000
VBG agreeing 1.0000000
JJ SIX 0.5000000
VB SIX 0.5000000
NNP Greatest 1.0000000
NN water 1.0000000
NNP Martina 1.0000000
NN cholesterol 1.0000000
VB achieve 1.0000000
NN mirroring 1.0000000
NNP Dietmar 1.0000000
NN transportation 1.0000000
NNP Jongsma 1.0000000
NNP Pauline 1.0000000
VBN routed 1.0000000
VBG dismissing 1.0000000
VBG viewing 1.0000000
PRP$ our 1.0000000
VBD said 0.9939686
VBN said 0.0060314
NNP Haeggman 1.0000000
NNP Wafa 1.0000000
NNP Ellis 1.0000000
VBZ favourites 0.5000000
NNS favourites 0.5000000
IN FOURTH 0.6666667
NNP FOURTH 0.3333333
NNS Torshina 1.0000000
JJ TOUR 0.8571429
NNP TOUR 0.1428571
RB DAKAR 1.0000000
NNP Nicole 1.0000000
VBN astonished 1.0000000
NNP Madagascar 1.0000000
NN photo 1.0000000
JJ Norwegian 1.0000000
JJ five-run 1.0000000
NNP Bosnia-Hercegovina 1.0000000
NNS priorities 1.0000000
NN territory 1.0000000
VB fuse 1.0000000
VB depart 1.0000000
VBG declaring 1.0000000
VBG hearing 0.5000000
NN hearing 0.5000000
NNS aims 0.2000000
VBZ aims 0.8000000
NNP Ruben 1.0000000
NNP Feng 1.0000000
NNP Malgorzata 1.0000000
JJ knifed 0.5000000
VBN knifed 0.5000000
NNP Dirkx 1.0000000
NNP African 0.3469388
JJ African 0.6530612
JJ nine-day 1.0000000
NN abduction 1.0000000
VBZ puts 1.0000000
NN lob 1.0000000
NNP Meditation 1.0000000
JJ IMF-sponsored 1.0000000
NN concern 1.0000000
NNP TABLE 1.0000000
NN strategy 1.0000000
RB again 1.0000000
NNP OTTAWA 1.0000000
NN whitewater 1.0000000
NN practice 1.0000000
VBD accepted 0.7500000
VBN accepted 0.2500000
NN doldrum 1.0000000
VBN guided 0.6666667
VBD guided 0.3333333
NNP Sebastien 1.0000000
NNP Gloria 1.0000000
NN Kaba 0.5000000
NNP Kaba 0.5000000
NNS Nations 0.2068966
NNPS Nations 0.6551724
NNP Nations 0.1379310
NNS Researchers 1.0000000
NNPS Cordova 1.0000000
VBZ punches 0.5000000
NNS punches 0.5000000
NNP Gerald 1.0000000
NN brigade 1.0000000
CC Nor 1.0000000
NNP SPEECH 1.0000000
NNP TOWN 1.0000000
JJ mln 0.2000000
NN mln 0.5000000
NNS mln 0.3000000
JJR Zickler 0.5000000
NNP Zickler 0.5000000
JJ delicate 1.0000000
NN unlit 1.0000000
NNP Baronti 1.0000000
SYM FDP 0.5000000
NNP FDP 0.5000000
NNP Gunda 1.0000000
NN poultry 1.0000000
NNS bidders 1.0000000
NNP Lucerne 1.0000000
NNP Wachtel 1.0000000
VBG complaining 1.0000000
NN misery 1.0000000
NNP Pontiac 1.0000000
NN mind 1.0000000
JJ nationalistic 1.0000000
NN boat 1.0000000
NNS anxieties 1.0000000
PRP 's 0.0006974
VBZ 's 0.0725244
POS 's 0.9246862
NNP 's 0.0020921
NNP Stroud 1.0000000
JJ submerged 1.0000000
NN ceasefire 0.9722222
JJ ceasefire 0.0277778
NNP Peltonen 1.0000000
NNP Chatichai 1.0000000
NN secession 1.0000000
NNP Conde 1.0000000
NNP Monterrey 1.0000000
RB breakaway 0.2500000
JJ breakaway 0.7500000
JJ ridiculous 1.0000000
NNP Hashem 1.0000000
NNP Masayoshi 1.0000000
NN fob 0.6666667
VBP fob 0.3333333
NN component 1.0000000
NNP Bristol 1.0000000
NNP Atherton 1.0000000
NN Guingamp 0.4444444
NNP Guingamp 0.5555556
VBG experiencing 1.0000000
RB Meanwhile 1.0000000
NNS contol 1.0000000
NNP Partick 1.0000000
NN Chaser 1.0000000
VBD swirled 1.0000000
NN Glimt 1.0000000
NN management 1.0000000
NN ambassador 1.0000000
NN poisoning 1.0000000
NNP Amer 1.0000000
NNP Gisenyi 1.0000000
NNS republics 1.0000000
NN appreciation 1.0000000
NN faction 1.0000000
VBG scoring 0.8333333
NN scoring 0.1666667
NNP Hollywood 1.0000000
NN dissolution 1.0000000
NNP GDANSK 1.0000000
NN year-on-year 0.5000000
JJ year-on-year 0.5000000
NNS horses 1.0000000
NNP Pizzichini 1.0000000
JJ typical 1.0000000
NNP Misael 1.0000000
JJ dramatic 1.0000000
NN department 1.0000000
UH Sgt 1.0000000
NNP Houston 1.0000000
JJ racist 1.0000000
NNP Run 1.0000000
NNS infections 1.0000000
NNS cards 1.0000000
NNS fours 0.8000000
VBZ fours 0.2000000
VBG criticising 1.0000000
RB Now 1.0000000
JJ speech 0.1111111
NN speech 0.8888889
NNP RECALL 1.0000000
NN chicken 1.0000000
NNS statistics 1.0000000
NNP Firestone 1.0000000
NN cigarette 1.0000000
JJ ripe 1.0000000
NNP Duisburg 0.8571429
VBG Duisburg 0.1428571
IN BEIRUT 1.0000000
VBN submitted 0.2500000
VBD submitted 0.7500000
NNS metals 1.0000000
VBN killed 0.7333333
VBD killed 0.2666667
RB also 1.0000000
: EDGE 0.5000000
NN EDGE 0.2500000
NNP EDGE 0.2500000
VBG Starting 1.0000000
NN cull 0.5000000
JJ cull 0.5000000
VBG gaining 1.0000000
JJ go-slow 1.0000000
NN burst 0.7500000
VBD burst 0.2500000
NNP RUSSIA 1.0000000
NNP Markvart 1.0000000
NNP Miron 1.0000000
VB serve 0.4444444
NN serve 0.3333333
JJ serve 0.1111111
VBP serve 0.1111111
NNP Shehu 1.0000000
VBD admitted 0.4375000
VBN admitted 0.5625000
NNP Aguas 1.0000000
NN height 1.0000000
NNP Companion 1.0000000
NNP PDSR 1.0000000
RB occasionally 1.0000000
VBD denounced 1.0000000
VBN leaked 1.0000000
NNP Perm 1.0000000
NN ECOMOG 0.3333333
NNP ECOMOG 0.6666667
NN capital 1.0000000
NNP Shen 1.0000000
NN DEBUT 1.0000000
JJ Lead 1.0000000
VBZ keeps 1.0000000
JJ long-term 1.0000000
NNP Hedblom 1.0000000
NNP Topolcany 1.0000000
NNS riders 1.0000000
NNP Maarten 1.0000000
NNP Louis 1.0000000
NNS sponsors 1.0000000
NNP Ord 1.0000000
JJ cleaning 1.0000000
NNS skins 1.0000000
NNP Lecce 0.6666667
NN Lecce 0.3333333
RB rather 1.0000000
NNP Malchugina 1.0000000
VBZ recognizes 1.0000000
NNP CHINA 1.0000000
NNP Jiang 1.0000000
NN scrapie 1.0000000
NNP Hutnik 1.0000000
JJ four-game 1.0000000
VB bolster 1.0000000
RB yes 0.5000000
UH yes 0.5000000
JJ fast-tracking 1.0000000
NN advertising 0.7000000
VBG advertising 0.3000000
VBD helped 0.7000000
VBN helped 0.3000000
JJ Further 0.6666667
RB Further 0.3333333
VBP overshot 1.0000000
IN amidst 1.0000000
NN Chaouch 1.0000000
JJ seventh 1.0000000
NNS grains 1.0000000
NNP Amanda 1.0000000
NNP Quac 1.0000000
NNP Maigret 1.0000000
NNP Microsoft 1.0000000
NNP Jone 1.0000000
VBG Joining 1.0000000
NN gap 1.0000000
NNP Leverkusen 0.9090909
NNS Leverkusen 0.0909091
VBD increased 0.3157895
VBN increased 0.6842105
NNP Station 1.0000000
VBG chipping 1.0000000
NN reliever 1.0000000
NN promoter 1.0000000
NNP Saggers 1.0000000
JJ gloom-stricken 1.0000000
NN bounce 0.6666667
VB bounce 0.3333333
VB retain 1.0000000
NNS guards 1.0000000
NNP Academic 1.0000000
NNP Greste 1.0000000
NNP IPMA 1.0000000
JJ nationwide 1.0000000
NNS exports 1.0000000
NN suburb 1.0000000
NNP Choonhavan 1.0000000
NNS positions 1.0000000
NNP UKRAINIAN 1.0000000
JJ sadmasochistic 1.0000000
NNP Biljana 1.0000000
NNP Motherwell 1.0000000
NN Milk 1.0000000
NNP ROUND 1.0000000
NNS assurances 1.0000000
NNS reasons 1.0000000
NNP Hyundai 1.0000000
VB prove 1.0000000
NNP SQUAD 0.7000000
JJ SQUAD 0.1000000
VB SQUAD 0.2000000
VBG trading 0.3170732
NN trading 0.6829268
VB reach 0.8333333
NN reach 0.1666667
NNP Volkova 1.0000000
NN intervention 1.0000000
JJ divergent 1.0000000
NN taste 1.0000000
NNP Botham 1.0000000
NNP Nyakyi 1.0000000
NNP Thierry 1.0000000
NNS categories 1.0000000
NNPS Tries 0.2500000
NNS Tries 0.7500000
NNP Kanie 1.0000000
NNS soldiers 1.0000000
NNP Asa 1.0000000
NNP Kerkrade 1.0000000
NNP Makarova 1.0000000
NNP Manuel 1.0000000
NN SLIDE 1.0000000
JJ real 1.0000000
NNP FBI 1.0000000
VBD aimed 0.0714286
VBN aimed 0.9285714
NNP Pace 1.0000000
NNP Fokker 1.0000000
NN resort 0.8000000
VBP resort 0.2000000
NNP Nocerina 1.0000000
NN competitiveness 1.0000000
NNP Glen 1.0000000
VBN Interviewed 1.0000000
JJ BSE-infected 1.0000000
NNS components 1.0000000
NNP Ban 1.0000000
NNP Speaker 1.0000000
NN bush 1.0000000
NNP HISTORIC 1.0000000
JJR softer 1.0000000
JJ SepOct 1.0000000
NNP Janette 1.0000000
VBG dropping 1.0000000
NNS sidings 1.0000000
VB damp 0.5000000
NN damp 0.5000000
NN inability 1.0000000
NNS airports 1.0000000
NNP McRae 1.0000000
NN mismanagement 1.0000000
JJ fresh 1.0000000
VBN happened 0.1250000
VBD happened 0.8750000
NNP Arequipa 1.0000000
NNP Buffalo 1.0000000
NNS Recriminations 1.0000000
JJ several 1.0000000
NNP Boraine 1.0000000
NNP Zenith 1.0000000
NN cable 1.0000000
JJ exclusive 1.0000000
NNP Begum 1.0000000
NNS robbers 1.0000000
JJ speedy 1.0000000
NN waist 1.0000000
VBP demonstrate 1.0000000
NNP BAYERISCHE 0.5000000
VBP BAYERISCHE 0.5000000
NNP CUBS 0.3333333
NNS CUBS 0.3333333
: CUBS 0.3333333
JJ Rapeseed 1.0000000
VB supply 0.2000000
NN supply 0.8000000
NNS diplomats 1.0000000
NN discussion 1.0000000
NNP LeBoeuf 1.0000000
NNS BRAVES 0.6666667
NNPS BRAVES 0.3333333
NNP BALANCE 0.5000000
NN BALANCE 0.5000000
NNP Fair 1.0000000
NN enthusiast 1.0000000
NNP Women 0.0377358
NNS Women 0.9622642
JJ whirlwind 1.0000000
NN petition 1.0000000
NNP Evelyn 1.0000000
NNP Department 1.0000000
NNP Aliuska 1.0000000
VB Speech 1.0000000
NN observance 1.0000000
NN bulk 1.0000000
NNPS Tutsis 0.3333333
NNP Tutsis 0.6666667
NNS payments 1.0000000
NNP Milhaud 1.0000000
NN hunter 1.0000000
NN nature 1.0000000
NN Surinamese 1.0000000
JJ lanky 1.0000000
NNS actions 1.0000000
NN showing 0.5000000
VBG showing 0.5000000
NNS expressions 1.0000000
NNP Congo 1.0000000
NN suggestion 1.0000000
NNP MEHRTENS 1.0000000
NN Plant 1.0000000
NN tiebreak 1.0000000
JJ moderate 0.5000000
NN moderate 0.5000000
NN N 0.2500000
NNP N 0.7500000
NNP Ashish 1.0000000
POS 'S 0.8275862
VBZ 'S 0.1724138
NN watchdog 1.0000000
CD eighteen 1.0000000
NN banning 0.2500000
VBG banning 0.7500000
NNP GT 1.0000000
NN gratitude 1.0000000
NN Date 0.0714286
NNP Date 0.9285714
NN Mortgage 1.0000000
JJ Diego-based 1.0000000
NNP Karak 1.0000000
NN call 0.5172414
VB call 0.4482759
VBP call 0.0344828
VBD weakened 0.3333333
VBN weakened 0.6666667
NNP Krejner 1.0000000
NN hunt 0.7142857
VB hunt 0.1428571
VBP hunt 0.1428571
NNP Bamerindus 0.6000000
NNS Bamerindus 0.4000000
NNS nationalists 1.0000000
VBZ affects 1.0000000
JJ popular 1.0000000
VBN Freed 1.0000000
VBN deducted 1.0000000
VBZ INDIANS 1.0000000
VBN awarded 1.0000000
VB respect 0.3333333
NN respect 0.5000000
VBP respect 0.1666667
NNP Lane 1.0000000
JJ unsustainable 1.0000000
JJ green 1.0000000
NNP Paranaense 1.0000000
VB extradite 1.0000000
NNP Mandolina 1.0000000
NN desert 1.0000000
NNS assailants 1.0000000
NNP Switzerland 1.0000000
NNP Hansie 1.0000000
NNP Wahlen 1.0000000
JJ cheap 1.0000000
IN than 1.0000000
VBN financed 1.0000000
NNP Klaus 1.0000000
NNP Corrigendum 1.0000000
JJ scrum-half 1.0000000
NNP Gouda 1.0000000
NNP Silvia 1.0000000
NNS arguments 1.0000000
NNP Chairmen 1.0000000
JJ WHEAT 0.6666667
NNP WHEAT 0.3333333
NNP Corporation 1.0000000
NNS Lows 0.5000000
NNP Lows 0.5000000
VBZ matches 0.0449438
NNS matches 0.9550562
VBN reperforated 1.0000000
JJ sawn-off 1.0000000
NNP Town 1.0000000
JJ JOUR 1.0000000
NNS sacks 1.0000000
VBN translated 1.0000000
NNP Knoroz 1.0000000
: V 0.2500000
NNP V 0.7500000
VB repatriate 1.0000000
VBN sucked 1.0000000
NNP Mark 1.0000000
NN trafficking 1.0000000
VBN STANSTED 1.0000000
VBN affiliated 1.0000000
JJ proud 1.0000000
VB Drop 1.0000000
DT these 1.0000000
VB tolerate 1.0000000
NNS pennants 1.0000000
NN ham 1.0000000
NNP Brenden 1.0000000
NNS heels 1.0000000
VBG accusing 1.0000000
JJ non-traditional 0.5000000
NN non-traditional 0.5000000
NNP Dmitry 1.0000000
NN homocide 1.0000000
VB appeal 0.5238095
NN appeal 0.4761905
NN midfielder 0.4736842
JJR midfielder 0.0526316
FW midfielder 0.4210526
JJ midfielder 0.0526316
NN adviser 1.0000000
NN meantime 1.0000000
VBD outdid 1.0000000
NNP Resources 1.0000000
NNP Berovo 1.0000000
NNP ISLAND 1.0000000
NNS cities 1.0000000
NNS alarms 1.0000000
NN TIME 1.0000000
NN reassert 1.0000000
NNP Orioles 1.0000000
NN flight 1.0000000
NNP Gane 1.0000000
NNP MLN 1.0000000
NNP Radcliffe 1.0000000
NNP Peters 1.0000000
NNP Lausgberg 1.0000000
JJ homosexual 1.0000000
NNP Carretero 1.0000000
NN Ghent 1.0000000
NNP Chinnathambi 1.0000000
JJ Venezuelan 1.0000000
NN flying 0.1428571
VBG flying 0.8571429
NNP Husarova 1.0000000
NNP GREEN 1.0000000
NNP Resalat 0.5000000
NN Resalat 0.5000000
NN SRINAGAR 1.0000000
NNP Mutawakel 1.0000000
NN cat 1.0000000
VBG Looking 1.0000000
JJ Anytime 1.0000000
NN bed 1.0000000
NNP Rev 1.0000000
NNPS Technologies 1.0000000
NNS bands 1.0000000
NNP Lampitt 1.0000000
NN independence 1.0000000
NNPS Germans 1.0000000
JJ terrorist 1.0000000
NNP Schreuder 1.0000000
NNP Felicia 1.0000000
JJ offical 1.0000000
RB north-east 1.0000000
DT Any 1.0000000
VBD plundered 1.0000000
VBG selling 0.5000000
NN selling 0.5000000
NN canoe 1.0000000
JJ Heavy 1.0000000
NNP Emirates 1.0000000
NNP Ukraine 1.0000000
NNP Favourite 1.0000000
NN arson 1.0000000
JJ fake 1.0000000
NNP Suan 1.0000000
PRP$ HIT 1.0000000
NNP Leoni 1.0000000
NNP Kurdistan 1.0000000
NNP Rugby 0.4000000
JJ Rugby 0.6000000
NNP Masanaga 1.0000000
JJ Dalglish 0.2500000
NNP Dalglish 0.7500000
JJ Anatolian 0.5000000
NNP Anatolian 0.5000000
JJ anti-Semitic 1.0000000
NN decider 1.0000000
JJ super 1.0000000
NN gathering 1.0000000
NN Pay 1.0000000
NN mining 0.8000000
VBG mining 0.2000000
NNPS Services 0.4000000
NNP Services 0.6000000
JJ tentative 1.0000000
JJR greater 1.0000000
NNP LAW 1.0000000
NNP HOEK 1.0000000
NN trek 1.0000000
NN polling 1.0000000
NNP Faizy 1.0000000
NNP Plc 1.0000000
NNP Tadeusz 1.0000000
NNP Navjot 1.0000000
NNP WEN 1.0000000
NNP Adriana 1.0000000
NNS reais 1.0000000
NN bombardment 1.0000000
NNS Spectators 1.0000000
JJS west-northwest 1.0000000
NN memorandum 1.0000000
NN scene 1.0000000
NNP PC 1.0000000
NN courtroom 1.0000000
NNP Spirlea 1.0000000
NNP Washington 0.9722222
NN Washington 0.0277778
NN specialist 1.0000000
NNP KPC 1.0000000
NNS gases 1.0000000
NNP Linda 1.0000000
VBD ruled 0.6428571
VBN ruled 0.3571429
NNS meningitis 0.7500000
NN meningitis 0.2500000
NN marshal 1.0000000
NNP Po 1.0000000
NN connection 1.0000000
NNP Immediate 1.0000000
VBN telephoned 1.0000000
NNP McGrory 1.0000000
NNP NYMEX 1.0000000
NNP Feyenoord 1.0000000
NNP Benesova 1.0000000
NNP Saqlain 1.0000000
NNP Muttiah 1.0000000
JJ starter 0.5000000
NN starter 0.5000000
NNS procedures 1.0000000
: AWARDED 0.5000000
NNP AWARDED 0.5000000
NNP Napoleon 1.0000000
NN outlook 1.0000000
NNP Banglabazar 1.0000000
VBD recalled 0.8000000
VBN recalled 0.2000000
NNP Gilbert 1.0000000
NNP Grossard 1.0000000
NNP Aron 1.0000000
NNS Shrs 1.0000000
JJ occupied 1.0000000
NNP Dnevi 1.0000000
JJ semi-upright 1.0000000
NNS wheats 1.0000000
: MAJOR 0.5000000
NNP MAJOR 0.5000000
NNS blasts 1.0000000
JJ Pre-electoral 1.0000000
NNP Tikva 1.0000000
RB ELIZABETH 1.0000000
NNP Xinhua 1.0000000
NNP FUN 1.0000000
JJ long-standing 1.0000000
PRP$ Their 1.0000000
SYM SPD 0.5000000
NNP SPD 0.5000000
VB customer 0.1666667
NN customer 0.8333333
VBD dragged 1.0000000
CD eight 1.0000000
VB employ 1.0000000
NNS depositions 1.0000000
NN rioting 1.0000000
VBG cooperating 1.0000000
JJ formal 1.0000000
JJ Honduran 1.0000000
NN sportsman 1.0000000
NN fat 0.5000000
JJ fat 0.5000000
NNP da 1.0000000
VBN abdicated 1.0000000
JJ Second-ranked 1.0000000
NNP Oct 1.0000000
NNP Kaucuk 1.0000000
NNP Agdam 1.0000000
NNP F.B.I. 1.0000000
NNS accords 1.0000000
NNP Shuzo 1.0000000
VBG driving 0.7777778
NN driving 0.2222222
NNP REQUEST 1.0000000
JJ mysterious 1.0000000
NN morphine 1.0000000
NN mettle 1.0000000
NNS systems 1.0000000
NNP Constanza 1.0000000
NNP FOB 1.0000000
VBG DIARIO 1.0000000
VB deteriorate 1.0000000
RBR earlier 0.6986301
RB earlier 0.2054795
JJR earlier 0.0958904
NNP Giuseppe 1.0000000
NN cwt 0.7500000
JJ cwt 0.2500000
NNP Vriesde 1.0000000
NN fence 1.0000000
NNS discus 1.0000000
NNP Bohdan 1.0000000
VBG thanking 1.0000000
NNS Aides 1.0000000
JJ anxious 1.0000000
VBG awaiting 1.0000000
VBZ marketings 1.0000000
NNP Yakin 1.0000000
NNS sympathisers 1.0000000
NN courtyard 1.0000000
JJ youthful 1.0000000
NNP Education 1.0000000
NNP Lommel 1.0000000
NNS aircrew 1.0000000
JJ well-oiled 1.0000000
NNP Ezinwa 1.0000000
NN meat 1.0000000
NNP ASWAQ 1.0000000
NN adventure 1.0000000
NN doctor 1.0000000
NNPS Dimitrios 1.0000000
NNS two-year-olds 1.0000000
NNP Director 1.0000000
JJ Pakistan-ruled 1.0000000
NNP Pablo 1.0000000
RB fractionally 1.0000000
NNP Hashan 1.0000000
NN Yedioth 0.2500000
NNP Yedioth 0.7500000
NNP Sali 1.0000000
JJ ill-fated 1.0000000
NN proximity 1.0000000
NN pct 0.7307692
NNS pct 0.0769231
JJ pct 0.1538462
VBN pct 0.0384615
NNP Beersheva 1.0000000
JJ two-goal 1.0000000
NNP Susana 1.0000000
NNP Hajduk 0.5000000
NNS Hajduk 0.5000000
NNS dealers 1.0000000
VBN drew 0.0625000
VBD drew 0.9375000
NNP Seng 1.0000000
NNP Regula 1.0000000
NNP Sudanese 1.0000000
NNS warnings 1.0000000
NNP Osteopathic 1.0000000
NNS goals 1.0000000
NNP Akashi 1.0000000
VBG proceeding 1.0000000
VB mourn 1.0000000
NNS raids 1.0000000
NNS congratulations 1.0000000
NN absentia 1.0000000
NNS books 1.0000000
NN abducted 1.0000000
RB roughly 1.0000000
NNS lots 1.0000000
NN breakthrough 1.0000000
VBP decline 0.1666667
NN decline 0.6666667
VB decline 0.1666667
NNP Goinxha 1.0000000
NNP Dana 1.0000000
NNS desks 1.0000000
NNP Thorpe 1.0000000
NNP Agassi 1.0000000
NNP Belcher 1.0000000
NN guru 1.0000000
NNP Majid 1.0000000
NNS Assets 1.0000000
NNS barges 1.0000000
NN velodrome 1.0000000
NN interview 1.0000000
JJ four-and-a-half 1.0000000
NNS millfeeds 1.0000000
NNP Letitia 1.0000000
NNP Mitsubishi 1.0000000
NNP Joe 1.0000000
NNP Nicaraguan 0.1538462
JJ Nicaraguan 0.8461538
NNP Nisbet 1.0000000
NN feat 1.0000000
NNP Sivasiththamparam 1.0000000
NN functioning 0.5000000
VBG functioning 0.5000000
NNP Heng 1.0000000
NNP WV 1.0000000
NNP DIEGO 1.0000000
NN governor 1.0000000
NN Export 0.2500000
NNP Export 0.7500000
VB necessitate 1.0000000
NNP Volendam 1.0000000
NNP Andersson 1.0000000
NN bank 1.0000000
VBG inventing 1.0000000
NN wave 1.0000000
NN monster 1.0000000
NNP Bishop 1.0000000
NNP Keiji 1.0000000
VBG borrowing 0.5000000
NN borrowing 0.5000000
NNP BORROWER 1.0000000
NNP Estonia 1.0000000
NN cranium 1.0000000
VBN attributed 1.0000000
NNP Nordegg 1.0000000
NNP Stockholm 1.0000000
NNS PHILLIES 1.0000000
: RUN-OUT 0.5000000
NNP RUN-OUT 0.5000000
NNP Lokomotiv 1.0000000
NN export 1.0000000
VBN washed 0.5000000
VBD washed 0.5000000
NNS Rules 0.3333333
NNP Rules 0.3333333
NNPS Rules 0.3333333
JJ swell 1.0000000
IN If 1.0000000
NN factor 1.0000000
VBG straining 1.0000000
NNP Wilfried 1.0000000
NNP Hamas 0.6666667
NNPS Hamas 0.1666667
VBZ Hamas 0.1666667
NN barge 1.0000000
NNP Grasu 1.0000000
VBP WOMEN 0.6666667
NNP WOMEN 0.3333333
NNP Gates 1.0000000
NNP Lombardi 1.0000000
NNP WAIT 1.0000000
VB stem 1.0000000
VB assemble 1.0000000
NNP Vosberg 1.0000000
NNP Dharmasena 1.0000000
NNS accomplices 1.0000000
NNP Keino 1.0000000
NN bailout 1.0000000
NNP CONTRIBUTED 1.0000000
NNP Manaus 1.0000000
NNPS Games 1.0000000
NNP Phillies 1.0000000
JJ central 0.9772727
DT central 0.0227273
NN class 1.0000000
JJ animist 1.0000000
NN long-on 1.0000000
NNP Senior 0.6666667
JJ Senior 0.3333333
NNP SLOVAK 1.0000000
NNP Warrington 0.5000000
NN Warrington 0.5000000
VBN swelled 1.0000000
RB utterly 1.0000000
NN Sary 0.2500000
NNP Sary 0.7500000
NNP FFT 1.0000000
JJ al-Ingaz 1.0000000
NN draft 1.0000000
NN javelin 1.0000000
VB occupy 1.0000000
NNS Quarter-finals 1.0000000
NN anger 1.0000000
NNP EMU 1.0000000
NNP Kibet 1.0000000
VBD rejoined 1.0000000
JJ injured 0.2758621
VBN injured 0.7241379
JJ optimistic 1.0000000
NNP Creedmoor 1.0000000
NNP Symcox 1.0000000
JJ controversial 1.0000000
NNS insurgents 1.0000000
NNP Workington 0.2500000
NN Workington 0.7500000
VBG concerning 1.0000000
NN prospector 1.0000000
NNP Kundic 1.0000000
NN interpretation 1.0000000
NNP Thuet 1.0000000
VB assure 1.0000000
NNP Algeria 1.0000000
NNP Acre 1.0000000
NN baby 1.0000000
VBG presiding 1.0000000
JJ hill-top 1.0000000
NN business 1.0000000
NNP Der 1.0000000
NNP Morinville 1.0000000
VBN enforced 1.0000000
NNP Politehnica 1.0000000
NNP Sava 1.0000000
NNP Pearson 1.0000000
NNP Israeli 0.1276596
JJ Israeli 0.8723404
JJ first-week 1.0000000
NN semifinalist 1.0000000
RB relatively 1.0000000
NNP Rashid 1.0000000
NNP Samsung 1.0000000
JJ unspecified 1.0000000
VBG firing 1.0000000
JJ uneven 1.0000000
NNP Nicklas 1.0000000
VBG prompting 1.0000000
VBD criticized 1.0000000
NNP Waugh 1.0000000
NN courage 1.0000000
RB FTSE 0.3333333
NN FTSE 0.3333333
NNP FTSE 0.3333333
VBG tying 1.0000000
NNP Fung 1.0000000
NNP Super 1.0000000
VBZ jumps 1.0000000
NNP NSDAP-AO 1.0000000
NN refugee 1.0000000
NN discovery 1.0000000
VB remove 1.0000000
RB loud 0.5000000
JJ loud 0.5000000
VBN moved 0.4166667
VBD moved 0.5833333
NN weakening 0.5000000
VBG weakening 0.5000000
NN lunch 1.0000000
JJ rottweiler 1.0000000
VBN muted 1.0000000
NNP Mapei 0.5000000
NNPS Mapei 0.5000000
VBN searched 0.2000000
VBD searched 0.8000000
NN scuffle 1.0000000
NNP PAGES 1.0000000
NNS leaders 1.0000000
NNS mines 1.0000000
NNP Chan 1.0000000
NNP Kumaratunga 1.0000000
NNPS Canizares 1.0000000
TO MAPUTO 1.0000000
JJ third-placed 1.0000000
NN non-management 1.0000000
NNP TBC 1.0000000
JJ soyoil 0.5000000
VBP soyoil 0.5000000
NNP Capelle 1.0000000
JJ extra-judicial 1.0000000
NNP Alpha 1.0000000
NNP Invitation 1.0000000
NNP Long 1.0000000
JJ Ulsan 0.2500000
NNP Ulsan 0.2500000
NN Ulsan 0.5000000
NNS Ipsos 1.0000000
NN quality 1.0000000
VBN CONT 1.0000000
NNS lions 1.0000000
NNP Knifeman 1.0000000
NNPS Isbank 1.0000000
NN Mystery 1.0000000
NNP Sabatini 1.0000000
NNP Karbacher 1.0000000
NNP Grant 1.0000000
JJ JORNAL 1.0000000
NNP Angeles 1.0000000
NNP Hack 1.0000000
NNP Rupam 1.0000000
NNP Free 1.0000000
NN signature 1.0000000
NN dispensation 1.0000000
JJ Ferrigato 0.2000000
NNP Ferrigato 0.8000000
NNP Linford 1.0000000
NNP Florencia 1.0000000
NN deja-voodoo 1.0000000
NN longitude 1.0000000
JJ patient 0.5000000
NN patient 0.5000000
JJ exploratory 1.0000000
NNP Inter 1.0000000
NN CASH 1.0000000
NNP Loznica 1.0000000
VBZ pushes 1.0000000
NNP Fieger 1.0000000
NNP I.K. 1.0000000
NNP POSITIONS 0.4000000
NNS POSITIONS 0.2000000
: POSITIONS 0.4000000
JJ disciplinary 1.0000000
RB upstairs 1.0000000
VBD allied 0.4000000
VBN allied 0.4000000
JJ allied 0.2000000
NNP Plata 1.0000000
NNP My 0.2000000
PRP$ My 0.8000000
NNS parks 1.0000000
NNP K. 1.0000000
NN programming 1.0000000
NN trainer 1.0000000
VBN come 0.2692308
VBP come 0.1923077
VB come 0.5384615
NNS tablets 1.0000000
NNP Fairbrother 1.0000000
VB boycott 1.0000000
NN Richardt 0.5000000
NNP Richardt 0.5000000
NNS resolutions 1.0000000
NNP Sekou 1.0000000
NNS abortions 1.0000000
NN assistant 1.0000000
NNP Interpol 1.0000000
NNS Attempts 1.0000000
NNS murderers 1.0000000
NN gang 1.0000000
NNS adventurers 1.0000000
NNP IBIS 1.0000000
NNP Teravainen 1.0000000
NNP JC 1.0000000
VB comment 0.3333333
NN comment 0.6666667
NNP Queen 1.0000000
JJ in-form 1.0000000
NNP Learning 1.0000000
NNS RELATIONS 1.0000000
NNS sons 1.0000000
VBP PREMATURE 1.0000000
VBP cover 0.2000000
VB cover 0.6000000
NN cover 0.2000000
NNP MONROVIA 1.0000000
NN federation 1.0000000
NN premium 1.0000000
NNP STRIKER 1.0000000
NNP Labor 0.7500000
NN Labor 0.2500000
NNP Julius 1.0000000
JJ wholesale 1.0000000
VB surpass 1.0000000
VBZ shares 0.0107527
NNS shares 0.9892473
DT This 1.0000000
CC nor 1.0000000
VBN Shutdown 1.0000000
NNP YANKEES 0.6666667
: YANKEES 0.3333333
NNP Shah 1.0000000
NNP Jim 1.0000000
NN solution 1.0000000
NNP Baku 1.0000000
JJ streamlined 1.0000000
NNP Deon 1.0000000
JJ Unknown 1.0000000
NNP Anita 1.0000000
NNS jars 1.0000000
NNP Sidot 1.0000000
NNS FREQ 1.0000000
NNP Nacar 1.0000000
NNP Transportation 1.0000000
VBN filmed 1.0000000
VBN tortured 1.0000000
NNP Liechenstein 1.0000000
JJ favourable 1.0000000
NNP Dean 1.0000000
NNP Senora 1.0000000
NNP K.C. 1.0000000
NNP Macedonian 1.0000000
NN ref 1.0000000
VB preside 1.0000000
NN cif 1.0000000
VB refinance 1.0000000
NN secs 1.0000000
NNP Wright 1.0000000
NNP Liberal 0.5000000
JJ Liberal 0.5000000
NNS fees 1.0000000
VBG hinting 1.0000000
NNP Pukstys 1.0000000
NNP Vairelles 0.5000000
NNS Vairelles 0.5000000
CC So 0.2500000
RB So 0.7500000
NNP AVIA 1.0000000
JJ square-jawed 1.0000000
NNS offenders 1.0000000
NNP Edwards 1.0000000
NNP Board 1.0000000
RB perhaps 1.0000000
NN Pretoria 1.0000000
NN column 1.0000000
VB seed 0.0312500
NN seed 0.9687500
NNP McQuillan 1.0000000
VBG weaving 1.0000000
NNP GOALLESS 1.0000000
JJ ex-div 1.0000000
NN theft 1.0000000
NNP Bonn 1.0000000
NNP Agrins 1.0000000
NNP Grimsby 0.5714286
RB Grimsby 0.4285714
VBD drove 1.0000000
NNP Kaolack 1.0000000
JJ networked 1.0000000
NNP MUZAFFARABAD 1.0000000
NNP Bangladeshi 1.0000000
NNP Felipe 1.0000000
NNP Asselman 1.0000000
VBD consumed 1.0000000
NNS revs 1.0000000
NNP Kimiko 1.0000000
NNP LUMPUR 1.0000000
NNP Facchinetti 1.0000000
NN autobiography 1.0000000
NNP Mercer 1.0000000
JJ visible 1.0000000
NN bandit 1.0000000
VBN noted 0.1818182
VBD noted 0.8181818
NNP Havana 1.0000000
NNP Springfield 1.0000000
NNP Glenview 1.0000000
VB satisfy 1.0000000
NN sheet 0.7500000
VB sheet 0.2500000
JJ ill 1.0000000
NNPS Fernandes 1.0000000
NN championship 1.0000000
NNP Skoch 1.0000000
NNP Holding 1.0000000
DT neither 0.1666667
RB neither 0.8333333
NNP Wood 1.0000000
NNP Marial 1.0000000
NNP Championship 1.0000000
NN platform 1.0000000
NN tale 1.0000000
VBG performing 1.0000000
WP whom 1.0000000
NN expert 1.0000000
NNP Mazzolari 1.0000000
NNP Stock 1.0000000
RB voluntarily 1.0000000
JJ hard 0.8000000
RB hard 0.2000000
IN IF 1.0000000
RB alone 1.0000000
NNP Fernanda 1.0000000
NN diver 1.0000000
NN aggression 1.0000000
NNP Edberg 0.7500000
RB Edberg 0.2500000
NNP Koerts 0.5714286
NNPS Koerts 0.1428571
NNS Koerts 0.2857143
NNP Benito 1.0000000
NN coconut 1.0000000
NNP Monsignor 1.0000000
NN pullout 1.0000000
NNP Kumble 1.0000000
NNPS Symonds 0.3333333
NNP Symonds 0.6666667
VB maintain 1.0000000
NN steer 1.0000000
VB relinquish 1.0000000
VBG contributing 1.0000000
NNP POINT 1.0000000
JJ saline 1.0000000
NNS drafts 1.0000000
NNP Weather 1.0000000
JJ Numerous 1.0000000
NNP IMERISIA 1.0000000
NNP Sauber 1.0000000
NN pilot 1.0000000
NNP Unita 0.6666667
JJ Unita 0.3333333
NNP Chris 1.0000000
NNP NL 1.0000000
NNS Sorrento 0.3333333
NNP Sorrento 0.6666667
JJ non-trade 1.0000000
NNP Sep 1.0000000
JJ slumping 0.5000000
VBG slumping 0.5000000
NN freight-tonne 1.0000000
JJ immune 1.0000000
NNP Papandoniou 1.0000000
VBD starved 1.0000000
NNP McFarlane 1.0000000
NNP Open 0.9726027
VB Open 0.0273973
NNP Emon 1.0000000
NN rebuff 1.0000000
JJ fifth-ranked 1.0000000
JJ matching 1.0000000
NNP Disperse 1.0000000
NNP Hotdogs 1.0000000
NNP Suzuki 1.0000000
NNP Vivit 1.0000000
NNP Berkrot 1.0000000
VBZ stagnates 1.0000000
NNP Michelman 1.0000000
JJ Paulo-Santos 1.0000000
NNS revolvers 1.0000000
NNP Graef 1.0000000
VBN replaced 0.8000000
JJ replaced 0.2000000
NNP Ducruet 1.0000000
NNS Passengers 1.0000000
JJR More 0.8571429
RBR More 0.1428571
NNP USED 1.0000000
NNP Srinagar 1.0000000
RB officially 1.0000000
NNS events 1.0000000
JJ defence 0.1111111
VBP defence 0.1666667
NN defence 0.7222222
VBG withering 0.5000000
JJ withering 0.5000000
UH Glamorgan 0.1000000
JJ Glamorgan 0.1000000
NNP Glamorgan 0.8000000
JJ precise 1.0000000
NN bishop 1.0000000
NNP PRESSE 1.0000000
NNS rumours 1.0000000
VB treat 0.6666667
VBP treat 0.3333333
NN presidency 1.0000000
NNS Doctors 1.0000000
NNP Anhui 1.0000000
NNP Debbah 1.0000000
NNP Va 1.0000000
NNP Moreira 1.0000000
JJ Conservative 1.0000000
JJ spectacular 1.0000000
NNP RUSSIAN 1.0000000
NNP Colleen 1.0000000
NNP Kathrin 1.0000000
NNP Wojciechowski 1.0000000
NNP Gildea 1.0000000
NN vehicle 1.0000000
NN Inflation 1.0000000
NN chancellor 1.0000000
NNP Sierakowice 1.0000000
NNP TODAY 1.0000000
VBZ suspects 0.2222222
NNS suspects 0.7777778
VBN publicized 1.0000000
RB Instead 1.0000000
VBG ordering 1.0000000
NNS Subpoenas 1.0000000
NN removal 1.0000000
VB arrive 1.0000000
NNP Saleh 1.0000000
JJ past 0.5714286
RB past 0.0285714
IN past 0.1428571
NN past 0.2571429
NNP Henri 1.0000000
NNS revellers 1.0000000
NNP Dahl 1.0000000
VBN TOPPLES 1.0000000
NN facility 1.0000000
NNS pacesetters 1.0000000
NN prospect 1.0000000
NNP Kovasevic 1.0000000
NNP Fanie 1.0000000
NN friction 1.0000000
NNP Arbil 1.0000000
VBG ensuring 1.0000000
VB meditate 1.0000000
NNP LOMBARDI 1.0000000
VBN towed 0.5000000
VBD towed 0.5000000
NNP Ruuttu 1.0000000
NNP BOJ 1.0000000
NN Puchon 1.0000000
NNP Copland 1.0000000
NN AA 1.0000000
NN departure 1.0000000
NNP Whittier 1.0000000
NNS flows 1.0000000
NNP Campbell 1.0000000
VBP dont 1.0000000
NNP Rouge 1.0000000
NNP INDEX 1.0000000
VBD compared 0.0476190
VBN compared 0.9523810
NNP El 1.0000000
NNPS Angels 0.8888889
NNP Angels 0.1111111
VBZ directs 1.0000000
VBG Announcing 1.0000000
NN crusade 1.0000000
NNPS Slams 0.5000000
NNP Slams 0.5000000
NN leg 1.0000000
NN gouging 1.0000000
VBG faltering 1.0000000
JJ soft 1.0000000
NN city 1.0000000
NNP Arjuna 1.0000000
NN participation 1.0000000
NN insurgency 1.0000000
NN animal 1.0000000
NN seaside 1.0000000
NN publicist 1.0000000
NNP Mansfield 1.0000000
NN stoppage 1.0000000
VB legalise 1.0000000
NNP Blaming 1.0000000
NN stabilisation 1.0000000
JJ flamboyant 1.0000000
JJ storming 0.5000000
VBG storming 0.5000000
NNP Engquist 1.0000000
VBG claiming 1.0000000
NN over-allotment 1.0000000
NNP Mir 1.0000000
JJ Huge 1.0000000
NNP J 1.0000000
NNP Telegraph 1.0000000
NNP Murray 1.0000000
NN reaction 1.0000000
JJ consummate 1.0000000
JJ SPT 1.0000000
NN horizon 1.0000000
NN leu 1.0000000
VB photograph 1.0000000
NNS circumstances 1.0000000
VBD offset 0.1666667
VBN offset 0.8333333
NN carrier 1.0000000
NNP Equipment 1.0000000
NN procedure 1.0000000
NNP Nijmegen 1.0000000
VB board 0.0588235
NN board 0.8823529
VBP board 0.0588235
NNP Cowan 1.0000000
NN accord 1.0000000
NNP Faber 0.3333333
JJR Faber 0.6666667
NNS Droits 1.0000000
VBZ shows 1.0000000
NNS defenders 1.0000000
NN speed 1.0000000
VBD fell 1.0000000
NNP Merlene 1.0000000
NNS motorways 1.0000000
NNP Fidelia 1.0000000
VBG murdering 1.0000000
NNP Fahim 1.0000000
VBG studying 1.0000000
NN character 1.0000000
: S.AFRICAN 0.3333333
NNP S.AFRICAN 0.6666667
NNP PP 1.0000000
NN mini-state 1.0000000
NNP Steels 0.5000000
( Steels 0.5000000
NN shack 1.0000000
NNP Sophia 1.0000000
PRP$ HITS 0.5000000
VBZ HITS 0.5000000
NNP Khandwa 1.0000000
NNP STAKES 1.0000000
NNP Zirka-Nibas 0.5000000
NNS Zirka-Nibas 0.5000000
NNS barrels 1.0000000
IN MT 0.2500000
NNP MT 0.7500000
NN clay 1.0000000
NN waterworks 1.0000000
NNP Alec 1.0000000
JJ cold-hearted 1.0000000
NNS Ciments 0.5000000
NNPS Ciments 0.5000000
JJ Six-month 1.0000000
IN OF 1.0000000
NN Mayfair 0.2000000
NNP Mayfair 0.8000000
NNP Mordechai 1.0000000
VBD curled 1.0000000
NN chaos 1.0000000
NNP Altamira 1.0000000
NNP HCFA 1.0000000
CD Five 1.0000000
NN relegation 1.0000000
NNP Fringer 1.0000000
RB late 0.2200000
JJ late 0.7800000
JJ rheumatoid 1.0000000
VB BELGRADE 1.0000000
JJ sucessful 1.0000000
NN sterling 1.0000000
NNP Carsten 1.0000000
NN investigation 1.0000000
NNP Ojanen 1.0000000
NNP Darryll 1.0000000
NNP DECLARE 0.5000000
: DECLARE 0.5000000
NNP Miyagi 1.0000000
NNP Blancs 1.0000000
NNP Bevan 1.0000000
NNP Delhi 1.0000000
NNP Bernard 1.0000000
NNP Lampros 1.0000000
NNP DAY 1.0000000
NNP Opava 1.0000000
NNP Herbert 1.0000000
NNP Manchester 1.0000000
NNP Craybas 1.0000000
VBN bowled 0.6000000
VBD bowled 0.4000000
VBG casting 1.0000000
NNP Ryder 1.0000000
NNP N.M. 1.0000000
VB detain 1.0000000
NNP WORTH 1.0000000
NNP October 1.0000000
NNP Falilat 1.0000000
NN utilisation 1.0000000
NNP Mike 1.0000000
NNP III.ker.TVE 1.0000000
NNS wines 1.0000000
NNP Dakar 1.0000000
NNP Cuba 1.0000000
NNP Janez 1.0000000
NNP UML 1.0000000
NNP Proj 1.0000000
RB MARACAIBO 1.0000000
NNP Brann 1.0000000
NNS princess 0.2500000
NN princess 0.7500000
VBD loaded 0.3333333
VBN loaded 0.6666667
WP What 1.0000000
NNP Kitigawa 1.0000000
NNP AUSTRALIANS 1.0000000
NN behaviour 1.0000000
RB Nearly 1.0000000
VBG undressing 1.0000000
VBG dodging 1.0000000
NNP Rutter 1.0000000
VBZ frees 1.0000000
NNP Gontchenkov 1.0000000
NNP Johnstone 1.0000000
NNP Australia 1.0000000
NN riyal 0.4000000
JJ riyal 0.6000000
VBG falling 1.0000000
IN WITH 1.0000000
NNP Howell 1.0000000
NNP Loftus 1.0000000
NN hospital 1.0000000
NNP Bruny 1.0000000
NNP Tomasson 1.0000000
NNP Reggiana 1.0000000
NNP Jodie 1.0000000
VB advise 1.0000000
VBD struggled 0.5000000
VBN struggled 0.5000000
JJ narrow 1.0000000
VBZ comprises 1.0000000
VBG showering 1.0000000
NNP Charlier 1.0000000
VB arrange 1.0000000
NNP Rodrigo 1.0000000
VBN sympathised 1.0000000
NNP Rayyan 1.0000000
NN milkman 1.0000000
NN lumber 1.0000000
NNP Fiorentina 1.0000000
NNP Relations 0.2500000
NNPS Relations 0.2500000
NNS Relations 0.5000000
NN news 1.0000000
NN bushland 1.0000000
NNP Mo 1.0000000
VBP listen 1.0000000
NNPS Impens 1.0000000
VBD thanked 1.0000000
NNP Consulate-General 1.0000000
NNP Sharma 1.0000000
JJ irrelevant 1.0000000
NNP Iain 1.0000000
NNP Schulz 1.0000000
VBG infiltrating 1.0000000
NN brokerage 1.0000000
VBP regain 1.0000000
NNP Lanusse 0.8750000
NN Lanusse 0.1250000
NNP Reiffel 1.0000000
NNS jokes 1.0000000
NN ambulance 1.0000000
JJ unchanged 1.0000000
NNS backs 1.0000000
NNP Magne 1.0000000
NNP KIEV 1.0000000
SYM ------------------------------------------------------------- 1.0000000
NNP Vegas 1.0000000
JJ benevolent 1.0000000
NNP Caribs 1.0000000
NNP Darcy 1.0000000
NNP Unit 1.0000000
VBD oversaw 1.0000000
JJ nine-wicket 1.0000000
NNP OUT-OF-SORTS 0.5000000
: OUT-OF-SORTS 0.5000000
NNS volumes 1.0000000
NN ceremony 1.0000000
NNP Conte 1.0000000
NNP Sakigake 0.7142857
NN Sakigake 0.2857143
NNP Niall 1.0000000
VB Bomb 1.0000000
JJ High-priced 1.0000000
NNP Heeswijk 1.0000000
NN afternoon 1.0000000
NN caffeine 1.0000000
NNS jitters 1.0000000
JJ forensic 1.0000000
NN ride 1.0000000
NN RETURN 1.0000000
NN statesman 1.0000000
NNP MRI 1.0000000
VBG Looming 1.0000000
JJ AL-WATAN 1.0000000
NNP Rawandouz 1.0000000
JJ satisfied 0.3333333
VBN satisfied 0.6666667
NN freelance 1.0000000
NNP BP 1.0000000
NNP Vt 1.0000000
NNP Farm 1.0000000
PRP IP 1.0000000
NNP Cunningham 1.0000000
JJ unrelated 1.0000000
NN rebels--poll 1.0000000
NNS Japanese 0.0370370
NNP Japanese 0.1851852
JJ Japanese 0.7407407
NNPS Japanese 0.0370370
NN aggregate 0.5600000
JJ aggregate 0.4400000
NNP STERLING 1.0000000
NNS repairs 1.0000000
NN heir 1.0000000
NNP Galina 1.0000000
NNS barns 1.0000000
NN broker 1.0000000
NN line-up 1.0000000
NNS jeeps 1.0000000
NNP Dekker 1.0000000
NNP Chaminda 1.0000000
IN Under 1.0000000
NNP UPSTAGES 0.5000000
: UPSTAGES 0.5000000
JJ round-trip 1.0000000
NNP Liberation 1.0000000
IN albeit 1.0000000
VBN boosted 0.5000000
VBD boosted 0.5000000
VB mark 0.1000000
NN mark 0.9000000
JJ veterinary 1.0000000
NNS owners 1.0000000
NNS consultations 1.0000000
NNS buyers 1.0000000
NN Silver 1.0000000
NNP Inger 1.0000000
NNS overs 1.0000000
NNP Brumfield 1.0000000
JJ sixth-seeded 1.0000000
NN granite 1.0000000
JJ ground-floor 1.0000000
NNS pioneers 1.0000000
: MARSEILLE 0.5000000
NNP MARSEILLE 0.5000000
NN cent 1.0000000
NNP SEATTLE 1.0000000
RB AugSep 0.5000000
NN AugSep 0.5000000
NNP Cologne 1.0000000
NN air 1.0000000
JJ south 0.1818182
NN south 0.2272727
RB south 0.5909091
VB cancell 1.0000000
VBN discontinued 1.0000000
NNP Croatia-Yugoslavia 1.0000000
JJ rouble 0.5000000
VB rouble 0.5000000
JJ Tutsi-dominated 1.0000000
NN decentralisation 1.0000000
NNP Opener 1.0000000
NN pity 1.0000000
NNP Nicaragua 1.0000000
RB generally 1.0000000
NNP Bodo 0.6666667
SYM Bodo 0.3333333
NNP EOE 1.0000000
JJ glad 1.0000000
VBG linking 1.0000000
NN pruning 1.0000000
VBN compiled 1.0000000
FW van 0.0476190
NNP van 0.9523810
JJ orderly 1.0000000
NNP Laxmi 1.0000000
NN frontier 1.0000000
JJ shameful 1.0000000
NNS errors 1.0000000
NNS routes 1.0000000
NNP Publisher 1.0000000
NN pageant 1.0000000
VBN ejected 1.0000000
VBD underwent 1.0000000
JJ five-nation 1.0000000
JJ rattled 1.0000000
NNP Independent 1.0000000
NNP Saeed 0.9444444
VBN Saeed 0.0555556
NNP Permadi 1.0000000
NNP Kpaitan 1.0000000
NNS Seles 0.1666667
NNPS Seles 0.2500000
NNP Seles 0.5833333
NNP Stenning 0.2857143
NN Stenning 0.4285714
VBG Stenning 0.2857143
JJ Zimbabwean 1.0000000
VB outperform 1.0000000
NN analysis 1.0000000
VBN disputed 0.6666667
VBD disputed 0.3333333
NNP Drawn 1.0000000
NNP APA 1.0000000
VBG Balloting 1.0000000
NN Revenue 0.9090909
NNP Revenue 0.0909091
NN eligibility 1.0000000
RB summarily 1.0000000
NN affidavit 1.0000000
NNS mistakes 1.0000000
NNP MIDDAY 1.0000000
JJ Current 1.0000000
NNP Acatepec 1.0000000
VBG recruiting 1.0000000
NN endurance 1.0000000
VBP uphold 1.0000000
NNP Ronny 1.0000000
VBN designed 1.0000000
NNP Mohammed 1.0000000
NNP Nottingham 1.0000000
NNP Oujda 1.0000000
NNP Labour 1.0000000
RB rubella 1.0000000
VBD cleansed 1.0000000
VBG distracting 1.0000000
JJ capable 1.0000000
NNP Vassiliy 1.0000000
NNP Adrian 1.0000000
JJ day-night 1.0000000
VBG clawing 1.0000000
NNP Ringer 1.0000000
NNP Sairyu 1.0000000
NN philosopher 1.0000000
NNP Angel 1.0000000
NNP Public 1.0000000
NN coalition 1.0000000
NNP Cor 1.0000000
NN liquidity 1.0000000
NNP IOC 1.0000000
NN Ambassador 0.1250000
NNP Ambassador 0.8750000
JJR quieter 1.0000000
NN indifference 1.0000000
JJ set-top 1.0000000
NNP Petrosani 1.0000000
NN Use 1.0000000
VBG dispatching 1.0000000
NN garlic 1.0000000
VBG sending 0.8000000
NN sending 0.2000000
NNP Reuf 1.0000000
NN remorse 1.0000000
NN fire 0.9333333
VB fire 0.0666667
NNP Kox 1.0000000
RB flatly 1.0000000
NN Sohail 0.0454545
NNP Sohail 0.9545455
VBN evacuated 1.0000000
NNP Sefer 1.0000000
NNP Nobilo 1.0000000
NNPS AVERAGES 1.0000000
NNP Oljeselskap 1.0000000
IN after 0.9977477
RB after 0.0022523
JJ third-round 1.0000000
NN Fahrenheit 1.0000000
NNP Gallen 1.0000000
NN timeframe 1.0000000
VBG asking 1.0000000
NNP Dow 1.0000000
VBN automated 1.0000000
NNP GAK 1.0000000
NNP Express 1.0000000
NNP Wednesday 1.0000000
VB join 1.0000000
JJ par 0.0588235
NN par 0.9411765
NNP Tilcon 1.0000000
VBP offer 0.0454545
VB offer 0.2727273
NN offer 0.6818182
NNP Muralidaran 1.0000000
NN wrongdoing 1.0000000
JJ familiar 1.0000000
NNP Moira 1.0000000
NNP Ballace 1.0000000
VBD yelled 1.0000000
NN decision 1.0000000
NNP Marina 1.0000000
NNS injuries 1.0000000
NNP Montana 1.0000000
JJ whistlestop 1.0000000
JJ semi-literate 1.0000000
NN Opposition 1.0000000
NNS tales 1.0000000
NNP Vaccari 1.0000000
NNP Noon 1.0000000
VBN founded 0.4285714
VBD founded 0.5714286
NNP Phelan 1.0000000
NN perspective 1.0000000
NNP Brundle 1.0000000
VBZ LIMITS 1.0000000
NN aggressiveness 1.0000000
NNP Patricia 1.0000000
JJ compensatory 1.0000000
NNP Jersey 1.0000000
NNP Benin 0.5000000
NN Benin 0.5000000
NNP Christchurch 1.0000000
VBG caring 1.0000000
NNP VfB 1.0000000
VBN exercised 1.0000000
NNP Eldred 1.0000000
NNP Cacic 1.0000000
NN house 1.0000000
IN While 1.0000000
NN alloy 1.0000000
NNP Movement 1.0000000
JJ lonely 1.0000000
NN campus 1.0000000
NNP Kantharoopan 1.0000000
RB fairly 1.0000000
NNP TRIPOLI 1.0000000
NN riot 1.0000000
FW der 1.0000000
JJ full-scale 1.0000000
NNP Chi 1.0000000
NNP STAVBY 1.0000000
NN F.C. 0.1875000
NNP F.C. 0.8125000
VBG refuelling 1.0000000
VBD beheaded 1.0000000
NNS Penalties 1.0000000
VBG surrounding 1.0000000
NNP Chakravarty 1.0000000
NNP Showboat 1.0000000
VBN ousted 0.6250000
VBD ousted 0.3750000
NNP Berri 1.0000000
NN relationship 1.0000000
NN SARAJEVO 1.0000000
NN sauce 1.0000000
NNP Pascolo 1.0000000
NN employee 1.0000000
VBD topped 1.0000000
NN Batting 0.5000000
VBG Batting 0.5000000
NNP Costantino 1.0000000
VBN traded 0.5882353
VBD traded 0.4117647
NNP Jian 1.0000000
NN movie 1.0000000
JJ fourth 1.0000000
NN action 1.0000000
NNS courts 1.0000000
NNP Istafanus 1.0000000
NNP Spadea 1.0000000
NN playoff 1.0000000
NNS clashes 1.0000000
NN alliance 1.0000000
VBD discussed 0.2500000
VBN discussed 0.7500000
VBN sacked 1.0000000
NN passion 1.0000000
NNP Boshova 1.0000000
NNP Blank 1.0000000
NNP Solanki 1.0000000
NNP AUSTRIA 1.0000000
NNP Husein 1.0000000
NN bulldozer 1.0000000
NNP Eelam 1.0000000
NN kind 1.0000000
NNP EVERT 1.0000000
NN assignment 1.0000000
NNP ANCHORAGE 1.0000000
NN sitting 0.5000000
VBG sitting 0.5000000
JJ social 1.0000000
NNS REASONS 1.0000000
VB fight 0.2666667
NN fight 0.7333333
NNP Bobbie 1.0000000
NN treatment 1.0000000
JJ anti-corruption 1.0000000
NNP Ternopil 1.0000000
NNP Lye 1.0000000
NNP Buran 1.0000000
NNP Silke 1.0000000
NNP Phil 1.0000000
RB Sidhu 0.2500000
NN Sidhu 0.2500000
NNP Sidhu 0.5000000
NNP MUNDO 1.0000000
NNS drunks 1.0000000
NNP BADMINTON 1.0000000
NNP Sloboda 1.0000000
NNP Madrid 1.0000000
NNP Aronkasei 0.5000000
JJ Aronkasei 0.5000000
NNP Jalil 1.0000000
NNP Matthews 1.0000000
NNP Fidelis 1.0000000
NNP MASTERKOVA 1.0000000
NNS Dewas 1.0000000
NN trio 1.0000000
NNS delegates 1.0000000
NNP Geoff 1.0000000
JJ Jan-June 1.0000000
VBZ postpones 1.0000000
WP who 1.0000000
VBD dunked 1.0000000
NNS islands 1.0000000
NN tribunal 1.0000000
NNP PULL 1.0000000
RB west 0.1818182
NN west 0.8181818
JJ overnight 0.5555556
RB overnight 0.4444444
JJ confessional 1.0000000
NNP Cricket 1.0000000
NN trip-Canada 1.0000000
NN health 1.0000000
NNP Montpellier 0.8000000
NN Montpellier 0.2000000
NNP PICKS 1.0000000
VBD ISSUED 1.0000000
NN drought 1.0000000
NN vegetarian 1.0000000
NN bird 1.0000000
VB rely 1.0000000
NNP Team 1.0000000
NNP COLORADO 1.0000000
JJ anti- 1.0000000
NNP Samuel 1.0000000
CC & 1.0000000
NNP Postal 1.0000000
NNS youths 1.0000000
NNP Ripken 1.0000000
VBN tolerated 1.0000000
VBD surrendered 1.0000000
NNP Buiatti 1.0000000
NNS grades 1.0000000
IN Until 1.0000000
NNP Donwahi 1.0000000
NN nothing 1.0000000
VBN coerced 1.0000000
NNP Ajax 1.0000000
NNP Newmarket 1.0000000
RB genuinely 1.0000000
NNP Laurence 1.0000000
JJ northern 1.0000000
NNP Churches 1.0000000
NNP Goosen 1.0000000
NNP BSE 0.9090909
NNPS BSE 0.0909091
RB Early 1.0000000
JJ swift 0.6666667
NN swift 0.3333333
JJ seeding 0.0357143
NN seeding 0.6071429
VBG seeding 0.3571429
VBG grinding 1.0000000
NNS Epidemics 1.0000000
NN reorganization 1.0000000
NNP Andrei 1.0000000
JJ lacklustre 1.0000000
NNP BASKETBALL 0.5555556
: BASKETBALL 0.4444444
NNPS Machines 1.0000000
NNS Teams 1.0000000
JJ mainland 1.0000000
NNP Alvarado 1.0000000
NN d'Italia 1.0000000
JJ flood-hit 1.0000000
VBG planning 0.5555556
NN planning 0.4444444
NNS accusations 1.0000000
JJ Singapore-listed 1.0000000
NNP Motorcycle 1.0000000
VBN hanged 1.0000000
VBN charged 0.8000000
VBD charged 0.2000000
NNP HSBC 1.0000000
IN LONG 1.0000000
NNP O'Leary 1.0000000
JJ damaged 0.5000000
VBN damaged 0.5000000
NNP TAIPEI 1.0000000
JJ million-zloty 1.0000000
NNP Commodities 1.0000000
NNP Marsh 1.0000000
NN sector 1.0000000
NN durum 1.0000000
NNS rupees 0.9411765
VBZ rupees 0.0588235
NNS enemies 1.0000000
VBG collecting 1.0000000
NNP Jacqueline 1.0000000
NN check-up 1.0000000
VBN drilled 0.5000000
VBD drilled 0.5000000
NN racket 1.0000000
NN duo 1.0000000
JJ perennial 1.0000000
NN paratroop 1.0000000
VBG producing 1.0000000
NNP Dai 1.0000000
NNP Yonsei 1.0000000
NNP Bekila 1.0000000
NNS reviews 0.5000000
VBZ reviews 0.5000000
NNP Penh 1.0000000
NNP Nahed 1.0000000
-X- -DOCSTART- 1.0000000
NNP VDH 1.0000000
JJ steel-producing 1.0000000
NNP Woodridge 1.0000000
NNP Abolhassan 1.0000000
NNS Aussies 1.0000000
NN tie-break 1.0000000
VBN drowned 0.5000000
VBD drowned 0.5000000
NNP J.J.Lehto 1.0000000
JJ conscious 1.0000000
NNP Addameer 1.0000000
VB chart 1.0000000
NNP Asif 1.0000000
NN Result 1.0000000
NNP Weinstein 1.0000000
PRP she 1.0000000
JJ bullish 1.0000000
NN Consumer 1.0000000
NNS laborers 1.0000000
NNP Taiwanese 0.6666667
JJ Taiwanese 0.3333333
JJ year-old 1.0000000
NNP Prudential 1.0000000
VBN operated 0.3333333
VBD operated 0.6666667
VB feel 0.6428571
VBP feel 0.3571429
NNP BNP 1.0000000
VB swallow 1.0000000
NNPS Bulgarians 1.0000000
VBG Declaring 1.0000000
NNP Jemison 1.0000000
NNP Pocosol 1.0000000
NN beverage 1.0000000
NNP Egurugbe 1.0000000
NN umbrella 1.0000000
NNP Oerlikon 1.0000000
JJ stagnant 1.0000000
NNP Denmark 1.0000000
NN sack 1.0000000
JJ sound-track 1.0000000
JJ obliged 0.3333333
VBN obliged 0.6666667
VBG partying 1.0000000
NNP Newbury 1.0000000
NN colleague 1.0000000
JJ neutral 1.0000000
VBZ hopefuls 0.3333333
NNS hopefuls 0.6666667
NNP Atlante 1.0000000
VBZ remains 1.0000000
NN champion 0.8906250
VBP champion 0.1093750
RB repeatedly 1.0000000
RB enough 0.8461538
JJ enough 0.1538462
NNP NAIROBI 1.0000000
NN hovercraft 1.0000000
NNP Mohamed 1.0000000
NNP Andria 1.0000000
NNS corrections 1.0000000
NNP NIS 1.0000000
NNP HAND 1.0000000
JJS nearest 1.0000000
NN dilemma 1.0000000
NNP Walsh 1.0000000
NNP Barry 1.0000000
NNP Producers 0.5000000
NNS Producers 0.5000000
RB mentally 1.0000000
NNP Mirren 1.0000000
NNP Alkmaar 1.0000000
NN destruction 1.0000000
NN AL-ANWAR 1.0000000
RB Separately 1.0000000
NNS captives 1.0000000
NNP Charleroi 0.8571429
VB Charleroi 0.1428571
NNP Scac 1.0000000
NN abortion 1.0000000
NNP Corina 1.0000000
CD Two 0.9459459
PRP Two 0.0270270
NN Two 0.0270270
VBZ slaps 1.0000000
NNP FIRST 1.0000000
NNP Mangala 1.0000000
NN intimidation 1.0000000
VBG expanding 1.0000000
JJ limelight-loving 1.0000000
JJ lasting 1.0000000
JJ little 0.8387097
RB little 0.1612903
NNP Marcos 1.0000000
NNS viruses 1.0000000
JJ famous 1.0000000
VB enforce 1.0000000
JJ red-haired 1.0000000
VBN succeeded 0.5000000
VBD succeeded 0.5000000
NNP Wealthy 1.0000000
VBG mentioning 1.0000000
NNP ANGELES 1.0000000
VBZ departs 1.0000000
NNS prisoners 1.0000000
NN season 1.0000000
NN first-round 0.1250000
JJ first-round 0.8750000
NNP Mate 1.0000000
NNP LANKADEEPA 1.0000000
NNP Wally 1.0000000
RB Talbott 0.2500000
VB Talbott 0.2500000
NNP Talbott 0.5000000
NNPS KERDOS 1.0000000
JJ government-appointed 1.0000000
NNP Ann 1.0000000
NNP Wroclaw 1.0000000
NNP Tunbridge 1.0000000
NNS x-Olympiakos 1.0000000
FW pro 1.0000000
NNP Frank 1.0000000
VBZ declares 1.0000000
NN BEAT 0.8333333
: BEAT 0.1666667
NNP BUNOL 1.0000000
NNS possessors 1.0000000
NNP Viljoen 1.0000000
VBG fixing 1.0000000
NNP AWAY 1.0000000
NN Philippoussis 0.0588235
NNP Philippoussis 0.7647059
NNPS Philippoussis 0.0588235
JJ Philippoussis 0.1176471
NNP Collstrop 0.6666667
VB Collstrop 0.3333333
NN cell 1.0000000
NNS Organisers 1.0000000
IN Against 1.0000000
NN system 1.0000000
NNP Moss 1.0000000
NNS floors 1.0000000
NNP Crawford 1.0000000
NN brother 1.0000000
VB reconaisance 1.0000000
NNS instructions 1.0000000
JJ green-and-yellow 1.0000000
NNP Neza 1.0000000
NNP Mandela 1.0000000
VB scribble 1.0000000
NNP Eletropaulo 1.0000000
VB accelerate 1.0000000
NN fish 1.0000000
NNP Kipkosgei 1.0000000
NNP EUROLIRA 1.0000000
NNP Prieto 1.0000000
NN dispute 1.0000000
NNP Ronaldo 1.0000000
NNP Daoud 1.0000000
JJ current 1.0000000
NNS Scorers 1.0000000
NNP Kuhn 1.0000000
NNP Zeleznik 1.0000000
NN litre 1.0000000
NNP Masserigne 1.0000000
NN slippage 1.0000000
NNP Grieg 1.0000000
NNP GATTING 0.5000000
: GATTING 0.5000000
NNP Rapid 1.0000000
NNP Novotna 1.0000000
NNP Munich 1.0000000
NNP Galo 1.0000000
VBG guessing 1.0000000
VBN oversubscribed 1.0000000
NNP Melli 1.0000000
NNP Wengert 0.5000000
VBD Wengert 0.5000000
NNP F.H. 1.0000000
: KEANE 0.5000000
NNP KEANE 0.5000000
VBD intercepted 0.7500000
VBN intercepted 0.2500000
NNS liberals 1.0000000
NNS farms 1.0000000
NNP Malcolm 1.0000000
NN cathode 1.0000000
NNP Henderson 1.0000000
NNP Martin 1.0000000
NNP Miss 1.0000000
NNP Nail 1.0000000
NNP BSM 1.0000000
NNP Voting 1.0000000
NNP Ulster 1.0000000
NN Qualifier 1.0000000
NNP Strip 1.0000000
VBN soared 0.5000000
VBD soared 0.5000000
NNP Soviet-era 1.0000000
RB round 0.0333333
NN round 0.8000000
JJ round 0.1666667
NNP TABAK 1.0000000
NNP Gremio 1.0000000
NNP Kerry 1.0000000
NNS SALES 1.0000000
VB settle 1.0000000
NN stability 1.0000000
NNS souls 1.0000000
NN girlfriend 1.0000000
NNPS Agius 1.0000000
NNP Hunger 1.0000000
NNP Magnus 1.0000000
NN defoliant 1.0000000
JJ separatist 1.0000000
VBD engulfed 1.0000000
NNP ATP 1.0000000
NNP Luehrs 1.0000000
NNP Nov 1.0000000
FW Burnley 0.2000000
NNP Burnley 0.2000000
RB Burnley 0.6000000
VBN ruined 1.0000000
VBG praying 1.0000000
NNS Peacekeepers 1.0000000
NNP Scout 1.0000000
NNP Barrington 1.0000000
NNP GOV 1.0000000
NNP Lihir 1.0000000
VBG forming 1.0000000
NNP ESSEX 1.0000000
NNP Stark 1.0000000
VBD followed 0.6666667
VBN followed 0.3333333
NNP Kassala 1.0000000
NNPS CRUCES 1.0000000
NNP Hennady 1.0000000
NN wicket 1.0000000
NNP Arendt 1.0000000
NNP DAX 1.0000000
NN story 1.0000000
NNP Bosnians 0.2500000
NNPS Bosnians 0.7500000
JJ southern 1.0000000
JJR feeder 0.5000000
NN feeder 0.5000000
RB Elsewhere 1.0000000
JJ spiritual 1.0000000
NNS applications 1.0000000
NNP Seguin 1.0000000
NNS ties 1.0000000
RB pointedly 1.0000000
VBZ brings 1.0000000
VBD grounded 1.0000000
NNP WINNERS 0.5000000
NNS WINNERS 0.5000000
VB solve 1.0000000
NNS warplanes 1.0000000
VBD voiced 1.0000000
VB operate 1.0000000
NNP Valkucak 1.0000000
NNP Benes 0.5000000
NNS Benes 0.5000000
NN separatists 0.1428571
NNS separatists 0.8571429
NNP Joyner 1.0000000
NN scam 1.0000000
NNP Neil 1.0000000
NNS combines 0.3333333
VBZ combines 0.6666667
NNP Emanuil 1.0000000
NNP Maru 1.0000000
NNP Dole 1.0000000
NN disarmament 1.0000000
NN BC 1.0000000
JJ post-Soviet 0.6000000
NN post-Soviet 0.4000000
VBD shouted 1.0000000
NNP Peng 1.0000000
NN crossbar 1.0000000
NN tom 1.0000000
NNP Welfare 1.0000000
NNP Hindu 1.0000000
NN Banharn 0.0769231
NNP Banharn 0.8461538
JJ Banharn 0.0769231
NNP Satoshi 1.0000000
NNS scoreless 0.6000000
NN scoreless 0.4000000
VBN promoted 0.6000000
VBD promoted 0.4000000
NN setback 1.0000000
NN girl 1.0000000
NN Rebel 1.0000000
VB weaken 1.0000000
NNP Laban 1.0000000
CD TWO 1.0000000
NNP CLINCH 1.0000000
NN centre-left 1.0000000
JJ unavailable 1.0000000
VBG receiving 1.0000000
NNS attackers 1.0000000
NNP Takemura 1.0000000
NNP Col 0.3333333
JJ Col 0.6666667
NNP Drechsler 1.0000000
VBG violating 1.0000000
JJ interrupted 0.5000000
VBN interrupted 0.5000000
NNP Pao 1.0000000
NNP Ignacio 1.0000000
NN filling 1.0000000
NNP GRID 1.0000000
NN video 1.0000000
VB hack 1.0000000
NNS bombings 1.0000000
NNP Lloyd 1.0000000
CD six 1.0000000
NNP London 1.0000000
NNP Abyss 1.0000000
NNS sets 0.6666667
VBZ sets 0.3333333
NNP Gounon 1.0000000
NNP P.V. 1.0000000
NN mutton 1.0000000
NNP Snyman 1.0000000
NNP Aqaba 1.0000000
NNS sidelines 1.0000000
NN Resistance 1.0000000
JJ three-year 1.0000000
VBN conducted 0.8750000
VBD conducted 0.1250000
JJ blue-and-white 1.0000000
VBP PRESSURE 1.0000000
VB produce 0.7500000
VBP produce 0.2500000
NNP Baltic 1.0000000
NNP Claudio 1.0000000
NNP Saunders 1.0000000
NNS requirements 1.0000000
NN tbf 1.0000000
JJ day-by-day 1.0000000
JJ Schutte 0.3333333
NNP Schutte 0.6666667
NN moment 1.0000000
NNP Goma 1.0000000
NNP Arabia 1.0000000
NNP Moenchengladbach 1.0000000
NNP Hassan 1.0000000
NNP P. 1.0000000
JJ violent 1.0000000
JJ U.S.-led 1.0000000
NN guitar 1.0000000
NNP Grabowski 1.0000000
NN groin 1.0000000
NN maternity 1.0000000
JJ costly 1.0000000
NNP KOMERCNI 1.0000000
NNP MONTGOMERY 1.0000000
VBD dipped 1.0000000
NNP Jaha 0.6666667
NN Jaha 0.3333333
NNP Muhammad 1.0000000
NNP Mar 1.0000000
JJ opposite 1.0000000
NNP MAE 1.0000000
JJ Oval 1.0000000
NNP Encephalopathy 1.0000000
NN bullet 1.0000000
DT That 0.8571429
IN That 0.1428571
NNS backers 1.0000000
NNS trawlers 1.0000000
NNP Aviv 1.0000000
NN speculation 1.0000000
NN knack 1.0000000
NNP Republika 1.0000000
JJ incompetent 1.0000000
NNP Mutola 0.8333333
NN Mutola 0.1666667
NNP Juan 1.0000000
NNP DAKOTA 1.0000000
NNP Bovine 1.0000000
VBN sealed 0.4000000
JJ sealed 0.4000000
VBD sealed 0.2000000
NNP Lynda 1.0000000
NN incitement 1.0000000
NN decay 1.0000000
NNPS Rangers 1.0000000
NNS compatriots 1.0000000
NN bartering 1.0000000
NNP WSC-India 1.0000000
NNS recruits 1.0000000
VBN massacred 1.0000000
NNP Whittall 1.0000000
JJ comparable 1.0000000
NN salary 1.0000000
NNP Machungwa 1.0000000
VB celebrate 1.0000000
NNS prices 1.0000000
NNP Bolger 1.0000000
JJ telecoms 1.0000000
JJ mational 1.0000000
RB Here 1.0000000
NN SEP 0.1111111
NNP SEP 0.8888889
JJ Jailed 1.0000000
NNP C 1.0000000
VBP begin 0.0769231
VB begin 0.9230769
NNP Corp. 1.0000000
NN weakness 0.7500000
VB weakness 0.2500000
NNP TONIGHT 1.0000000
VBD controlled 0.3333333
VBN controlled 0.6666667
NNP Georgios 1.0000000
VBN messed 1.0000000
NN jet 1.0000000
NNP SHORT 1.0000000
NNP Aleksandrovac 1.0000000
NN maker 1.0000000
RB frequently 1.0000000
NN Cairo 0.2500000
NNP Cairo 0.7500000
NNP Ribeiro 1.0000000
NN consensus 1.0000000
VBG arresting 1.0000000
VBD tightened 1.0000000
NNP TLUMACOV 1.0000000
VBD speculated 0.5000000
VBN speculated 0.5000000
NNP Jiangsu 1.0000000
NN jump 1.0000000
NNP Langrova 1.0000000
NN currency 1.0000000
NNP Liechtenstein 1.0000000
NNP Gorgona 1.0000000
NNP Charleston 1.0000000
NN town 1.0000000
NN capitalisation 1.0000000
JJ densely-populated 1.0000000
JJ profitable 1.0000000
NN Exploration 1.0000000
NNP Fabien 1.0000000
NNS promises 0.3333333
VBZ promises 0.6666667
NN Stabaek 1.0000000
VB dedicate 1.0000000
NNP Guantanamo 1.0000000
NN book 1.0000000
NNS Prayers 1.0000000
RB accordingly 1.0000000
WP$ whose 1.0000000
NNS auctions 1.0000000
NNP Fulke 1.0000000
NNP Bencevic 1.0000000
NNS executions 1.0000000
NN R 1.0000000
PRP$ Its 1.0000000
NN style 1.0000000
RB overwhelmingly 1.0000000
NNP Mothusi 1.0000000
VBP recover 0.2000000
VB recover 0.8000000
VBD ended 0.7777778
VBN ended 0.2222222
NNP Leonid 1.0000000
NN award 1.0000000
NNP Looi 0.5000000
FW Looi 0.5000000
NNS types 1.0000000
VBN invested 1.0000000
NNP Bergmann 1.0000000
NN guide 1.0000000
NNP Eliahu 1.0000000
NNP AKRAM 1.0000000
VB object 1.0000000
NNP THOMSON 1.0000000
NNP Abbaye 0.6666667
'' Abbaye 0.3333333
NNP Klongprem 1.0000000
NN consumer 1.0000000
NNP Gerhard 1.0000000
NNP Unseeded 1.0000000
NNP REVENUE 1.0000000
NNP Sakti 1.0000000
NNP Freetown 1.0000000
NN tuscan 1.0000000
NNP Malbak 1.0000000
NNP Villefranche 1.0000000
VBG destroying 1.0000000
NNP Hickey 1.0000000
RB apiece 1.0000000
NN opposition 1.0000000
NNP SUPPLY 1.0000000
NNP Wronki 1.0000000
NNS kilo 1.0000000
NN castle 1.0000000
NNP Anneke 1.0000000
NN AMSTERDAM 1.0000000
RB really 1.0000000
JJ falsified 1.0000000
JJ fantastic 1.0000000
NNS salaries 1.0000000
VBD received 0.4285714
VBN received 0.5714286
RB sunstroke 1.0000000
NNP Jun 1.0000000
NNP Test 1.0000000
NN paper 1.0000000
NN landmark 1.0000000
VBD slumped 0.5000000
VBN slumped 0.5000000
NNP VANCOUVER 1.0000000
NNP Ecumenical 1.0000000
NN roadblock 1.0000000
NNP Variety 1.0000000
VBN managed 0.2727273
VBD managed 0.7272727
NNP Wars 1.0000000
NNP Jiaxuan 1.0000000
NN sandwich 1.0000000
RB nowhere 1.0000000
NNP PRICE 0.8000000
NNS PRICE 0.2000000
NNS NINTH 1.0000000
NNP Vorskla 1.0000000
NNP Glasgow 1.0000000
JJ Itar-Tass 1.0000000
PRP HE 1.0000000
VBG examining 1.0000000
NNP Chen 1.0000000
VBP tour 0.0312500
VB tour 0.0937500
NN tour 0.8750000
NN closet 1.0000000
NNP Moyer 0.5000000
JJR Moyer 0.2500000
RB Moyer 0.2500000
NNP Gimnasia-La 1.0000000
NN Rowing 1.0000000
NNP Schwarz 1.0000000
JJ noble 1.0000000
JJS best 0.8857143
RBS best 0.0571429
RB best 0.0571429
NNP Sheets 1.0000000
NNP FIFA 1.0000000
NN technology 1.0000000
JJ second-half 1.0000000
NNP Fulcheri 0.3333333
FW Fulcheri 0.6666667
NNP Mumler 1.0000000
NNP Drummond 1.0000000
NNP York 1.0000000
NNS al-Qidra 1.0000000
JJ bench-clearing 1.0000000
NNP Inienger 1.0000000
NNP Haifa 1.0000000
NNP SV 1.0000000
VB reprise 1.0000000
NNP Widzew 1.0000000
NN test 0.9534884
VB test 0.0232558
VBP test 0.0232558
VB cut 0.3823529
VBD cut 0.1470588
NN cut 0.2941176
VBN cut 0.1764706
NNP Erbakan 1.0000000
VBN shot 0.1666667
VBD shot 0.2666667
NN shot 0.5666667
VBN looted 1.0000000
NN shipload 1.0000000
NNP DIGEST 0.6190476
VB DIGEST 0.3809524
NNP Newcastle 1.0000000
NNPS Realtors 1.0000000
NN reservoir 1.0000000
NNP Museum 1.0000000
NNP Boutros 1.0000000
NN offensive 1.0000000
NN naira 1.0000000
NNP Englishmen 1.0000000
NNP Yulia 1.0000000
VB influence 0.2500000
NN influence 0.7500000
VBN demilitarised 1.0000000
NNP CVRD 1.0000000
JJ end-of-season 1.0000000
NNP Buyoya 1.0000000
NNP Westwood 1.0000000
VBG routing 1.0000000
NNP Eleonora 1.0000000
NNP MOODY 1.0000000
NN Intelligence 0.3333333
NNP Intelligence 0.6666667
NNS mice 1.0000000
NNP ASEC 1.0000000
NNS nationals 1.0000000
NNP Symantec 1.0000000
NN clown 1.0000000
NNP RFDG 1.0000000
NNP Ankara 1.0000000
JJ Above-normal 1.0000000
VBN fallen 1.0000000
JJ ingrown 1.0000000
VBN honoured 1.0000000
NNS factors 1.0000000
NNS Yankees 0.1538462
NNPS Yankees 0.8461538
NNP FULL 1.0000000
VBN CA 1.0000000
NNP Mr 1.0000000
VBN prepared 0.8333333
JJ prepared 0.1666667
VBD overcame 1.0000000
NN Celopek 1.0000000
JJ irresponsible 1.0000000
NNP BankWatch 1.0000000
NN shirtfront 1.0000000
NNP Kamoga 1.0000000
NNP EQUITY 0.5000000
NNPS EQUITY 0.5000000
VBD snapped 0.6428571
VBN snapped 0.0714286
JJ snapped 0.2857143
VBG slashing 1.0000000
NNP Sun-ho 1.0000000
VB Haldtime 1.0000000
JJ beneficial 1.0000000
NNP Claus 1.0000000
NNP Arizona 1.0000000
NNS whites 1.0000000
NNP Ruhunu 1.0000000
NNP HOMER 1.0000000
NNP Xhosa 1.0000000
NNS Ines 1.0000000
NNP Hebron 1.0000000
JJ pro-life 1.0000000
NN youth 1.0000000
NN dye 1.0000000
JJ disappointing 1.0000000
NNS Soldiers 1.0000000
NNP Rohren 1.0000000
NNP Katarina 1.0000000
NNS masses 1.0000000
NNP BARUM 1.0000000
NN partition 1.0000000
NN charge 0.9411765
VB charge 0.0588235
NNP Saint-Germain 1.0000000
NNS producers 1.0000000
NNP Cartagena 1.0000000
NNP Prinosil 1.0000000
NNS refiners 1.0000000
VBN investigated 1.0000000
VBN dogged 1.0000000
NNP Harare 1.0000000
VB speak 0.9166667
VBP speak 0.0833333
NNP Kanstinger 1.0000000
NNP Warszawa 1.0000000
NNP Hart 1.0000000
NN Eveningperformance 1.0000000
NNP Shkirko 1.0000000
JJ OctNov 1.0000000
NNP Uruguay 1.0000000
NN Nomo 0.5000000
NNP Nomo 0.5000000
NN sermon 1.0000000
JJS Dearest 1.0000000
NNP INNINGS 1.0000000
NNS idiots 1.0000000
NNP COMMENT 1.0000000
JJ firebreathing 1.0000000
NNP Zanoli 1.0000000
NNS play-offs 1.0000000
JJ Florentine 1.0000000
NN producer 1.0000000
NNPS Rights 0.1428571
NNP Rights 0.8571429
JJ extra-base 1.0000000
NNP Perkins 1.0000000
NNP IMED 0.8000000
NN IMED 0.2000000
NN helicopter 1.0000000
NN Anderlecht 1.0000000
NN Sheikh 0.2500000
NNP Sheikh 0.7500000
NNP Lajos 1.0000000
NNP Juppe 0.8750000
NN Juppe 0.1250000
VBN delivered 0.4444444
VBD delivered 0.5555556
NNP Khum 1.0000000
NNP Farul 1.0000000
NNS Consultations 1.0000000
VBN shared 0.3333333
VBD shared 0.6666667
JJ armed 0.7000000
VBN armed 0.2500000
VBD armed 0.0500000
JJ naked 1.0000000
NN Hiddink 0.3333333
NNP Hiddink 0.6666667
NNP Edna 1.0000000
NN sweep 1.0000000
NNP Marshall 1.0000000
NNP Bernd 1.0000000
NNP Lazar 1.0000000
JJ old-timers 1.0000000
NNS arsenals 1.0000000
NNP Karachi 1.0000000
NN murder 1.0000000
VB correct 1.0000000
NN spate 1.0000000
NNP Valentine 1.0000000
JJ paramount 1.0000000
NNP Chili 1.0000000
NNP HAMLET 0.5000000
: HAMLET 0.5000000
NN Fuel 1.0000000
NNP Belga 1.0000000
NN glancing 1.0000000
NNS Peiris 0.3333333
NNP Peiris 0.3333333
NNPS Peiris 0.3333333
NN prince 1.0000000
JJ notorious 1.0000000
NNP Flora 1.0000000
NNP Pol 1.0000000
JJ afraid 1.0000000
NNP Stoke 0.1666667
VB Stoke 0.8333333
VBD rang 1.0000000
NNP Kentucky 1.0000000
NN soybean 1.0000000
NNP Grobbelaar 0.6000000
JJ Grobbelaar 0.2000000
NN Grobbelaar 0.2000000
NNP Mironov 1.0000000
JJ full 1.0000000
NNP Chor 1.0000000
NNP Max 1.0000000
NNP Stubbs 1.0000000
NNS tranches 1.0000000
NNP Vileujeux 1.0000000
NN release 0.7222222
VB release 0.2777778
VBZ fights 1.0000000
VB AT 0.0283688
NNP AT 0.9716312
JJ junior 1.0000000
NNS heaps 1.0000000
NNS Equivalents 1.0000000
NNP THU 1.0000000
JJ twin 1.0000000
NNP Kanther 1.0000000
NN wheelchair 1.0000000
NNP Tamils 0.5000000
NNPS Tamils 0.2500000
NNS Tamils 0.2500000
NNS ambassadors 1.0000000
NN .Robbie 1.0000000
NNP Eddo 1.0000000
VBN sold 0.7083333
VBD sold 0.2916667
NNP Kamyshin 1.0000000
VBD sank 1.0000000
NN detecting 1.0000000
JJ prominent 1.0000000
NN volume 1.0000000
NNP Candiotti 1.0000000
VB travel 0.5833333
NN travel 0.3333333
VBP travel 0.0833333
NNP Bank 1.0000000
NN testosterone 1.0000000
VB restore 1.0000000
NN auto 1.0000000
NNP Hendrik 1.0000000
RB domestically 1.0000000
JJ newly-promoted 1.0000000
VBD reaffirmed 1.0000000
NNP Berlin 1.0000000
NNP Berger 1.0000000
JJ Togo 0.6000000
NNP Togo 0.4000000
NN reading 0.7500000
VBG reading 0.2500000
NNP Nastase 1.0000000
NNP Lamont 1.0000000
NNP Jimi 1.0000000
NNP Marc 1.0000000
NNP Tamil 1.0000000
VBG ferrying 1.0000000
NN rain 1.0000000
NN Turnover 1.0000000
NN permission 1.0000000
NN apparatus 1.0000000
NNS holes 1.0000000
NNP Savi 1.0000000
VBD made 0.4835165
JJ made 0.0109890
VBN made 0.5054945
NN mayor 1.0000000
NN everyone 1.0000000
NN goodwill 1.0000000
JJ Naish 0.3333333
NNP Naish 0.6666667
NNP Lincoln 1.0000000
JJ prompt 0.5000000
VB prompt 0.5000000
NNP Corporate 1.0000000
JJ offended 1.0000000
NN filing 1.0000000
VBG praising 1.0000000
JJ Award-winning 1.0000000
NNP Voronova 1.0000000
NNP Muratovic 1.0000000
NNP Sint 1.0000000
NNS norms 1.0000000
NNP Dravid 1.0000000
NN communism 1.0000000
NN access 1.0000000
NN violence 1.0000000
NN whitewash 1.0000000
NNP Classic 1.0000000
JJS highest 1.0000000
NN stone 1.0000000
NN old 0.0322581
JJ old 0.9032258
NULL old 0.0645161
RB Firsy 1.0000000
NNP Construction 1.0000000
NN law 1.0000000
NNP EgyptAir 1.0000000
NN feature 0.6666667
VB feature 0.3333333
JJ Jordanian 0.8571429
NNP Jordanian 0.1428571
JJ terrific 1.0000000
NNS Individuals 1.0000000
NN vice 1.0000000
NN weapon 1.0000000
NNP PARTING 1.0000000
VB rainwater 1.0000000
VBN connected 1.0000000
NN State 0.3000000
NNP State 0.7000000
NNP Jetty 1.0000000
NNP Brentford 1.0000000
NN Beauty 1.0000000
NNP McMillan 1.0000000
NNP Jensen 1.0000000
NN worth 0.0833333
JJ worth 0.9166667
NNP Bianchi 1.0000000
NNP Lodge 1.0000000
NNP Frazier 1.0000000
NNP CENTRAL 1.0000000
VB observe 1.0000000
NNP Muthiah 1.0000000
JJ Humanitarian 0.5000000
NNP Humanitarian 0.5000000
NNP Status 1.0000000
NNP Wales 1.0000000
NNP Springboks 0.6666667
NNPS Springboks 0.3333333
JJ famished 1.0000000
NNP Bagwell 1.0000000
NN delta 1.0000000
RB mutually 1.0000000
NNP Party 1.0000000
NN flanker 1.0000000
NN nominee 1.0000000
NNP Dietsch 1.0000000
NNP Melissa 1.0000000
NN tower 1.0000000
JJ beautiful 1.0000000
JJ agreed 0.0384615
VBN agreed 0.3846154
VBD agreed 0.5769231
NNP Banco 1.0000000
NN novelist 1.0000000
NNP Leger 1.0000000
VBD ambushed 1.0000000
RB Presently 1.0000000
RB BUCHAREST 1.0000000
NNS golds 1.0000000
NN edge 1.0000000
NN CONDITION 1.0000000
NN warmup 1.0000000
IN Because 1.0000000
VBN ploughed 0.5000000
VBD ploughed 0.5000000
NNP Lira 1.0000000
VBD tripled 1.0000000
NNS ADRs 0.8000000
NNPS ADRs 0.2000000
VB stage 0.0869565
NN stage 0.8695652
VBP stage 0.0434783
NN dn 1.0000000
VBN hinted 1.0000000
FW du 1.0000000
NNP Gras 1.0000000
NNP CHAMP 1.0000000
NN review 0.5000000
VB review 0.5000000
NNP SCHUMACHER 1.0000000
VB garner 1.0000000
NNP Rostelekom 1.0000000
NNS spleens 1.0000000
NN evasion 1.0000000
JJ rapid 1.0000000
VBD threw 1.0000000
NNP Vialli 1.0000000
JJ inhuman 1.0000000
VBZ tackles 1.0000000
NNP O'Meara 1.0000000
VBD downplayed 1.0000000
NN JULY 0.5000000
NNP JULY 0.5000000
IN Per 1.0000000
IN because 0.9000000
RB because 0.1000000
RB Flamengo 0.3333333
NNP Flamengo 0.6666667
JJ notable 1.0000000
JJ favourite 0.3333333
NN favourite 0.6666667
NNP Pang 1.0000000
JJ strange 1.0000000
VBG remaking 1.0000000
NNP All-Star 1.0000000
NNP Rickey 1.0000000
NNS industries 1.0000000
VBG over-charging 1.0000000
NNP Stephane 1.0000000
NNP Pointer 1.0000000
NNP Hatoyama 1.0000000
NNP Essilor 1.0000000
JJR younger 1.0000000
NNS Critics 1.0000000
NNS vehicles 1.0000000
NNP Scott 1.0000000
NNS nominations 1.0000000
NN kickoff 1.0000000
NNP Doce 1.0000000
NNP Gothenburg 0.6666667
VBG Gothenburg 0.3333333
NN material 0.8571429
JJ material 0.1428571
NNS circles 1.0000000
NNP Evert 1.0000000
NN treaty 1.0000000
VBN blackmailed 1.0000000
VB become 0.9444444
VBN become 0.0555556
JJ suicidal 1.0000000
NNP BOURSE 1.0000000
NN eradication 1.0000000
JJS BioVest 1.0000000
NNP Knobl 1.0000000
NN trust 0.6666667
VBP trust 0.3333333
NN disarmament-China 1.0000000
NNS CYPRUS 1.0000000
NN sinking 1.0000000
NNS Prosecutors 1.0000000
NN ordeal 0.6666667
RB ordeal 0.3333333
VBD lashed 1.0000000
NNP Nachum 1.0000000
NNS sessions 1.0000000
NN judiciary 1.0000000
NNP Molde 1.0000000
NNP Lou 1.0000000
NN knee 1.0000000
NNP Gabrich 1.0000000
NN treble 1.0000000
VBG tossing 1.0000000
NN unwound 1.0000000
NNP McPherson 1.0000000
NN gypsy 1.0000000
NN birdie 1.0000000
RBR later 0.0975610
RB later 0.8048780
JJ later 0.0975610
NNS blocks 1.0000000
VBD sparked 0.5000000
VBN sparked 0.5000000
NN penalty 1.0000000
VBN worsened 1.0000000
NNP Abel 1.0000000
NNP Jenson 1.0000000
NN shelter 1.0000000
VBN described 0.1428571
VBD described 0.8571429
NNP Elijah 1.0000000
JJ questionable 1.0000000
JJ gene-therapy 1.0000000
NNP Feagin 1.0000000
JJ reported 0.0126582
VBN reported 0.2405063
VBD reported 0.7468354
NNS shots 1.0000000
JJ unbeaten 1.0000000
NNS opponents 1.0000000
NNP Uniceramic 1.0000000
NN Scor 1.0000000
NNP Union 1.0000000
JJR SINGAPORE 1.0000000
NN analyst 1.0000000
JJ self-confessed 1.0000000
NN crossing 0.4000000
VBG crossing 0.6000000
NNS partners 1.0000000
DT YEDIOTH 1.0000000
NNS terroritsts 1.0000000
NNS Chornomorets 1.0000000
VB re-examine 1.0000000
NN telethon 1.0000000
NNS taxes 1.0000000
NN brewery 1.0000000
RB plenty 0.5000000
NN plenty 0.5000000
NNP Joyce 1.0000000
NNP Barroso 1.0000000
NNP MCRAE 1.0000000
