Conglomerate NNP 0.0000303
Conglomerate SYM 0.0021413
Alkhan-Yurt NNP 0.0000303
retaining VBG 0.0004227
Secretary-General NNP 0.0001214
Toshiba NNP 0.0001517
sixth-ranked JJ 0.0000920
evil JJ 0.0000920
bred VBD 0.0001315
People NNPS 0.0015480
People NNP 0.0001214
People NNS 0.0009978
Viktor NNP 0.0000607
troubles NNS 0.0001109
Mrs NNP 0.0000303
Humenne NNP 0.0001517
April-June JJ 0.0000920
Thomson NNP 0.0002124
Ruth NNP 0.0001214
intentions NNS 0.0002217
decree NN 0.0003676
Harden NNP 0.0000607
load NN 0.0001838
load VB 0.0002550
eliminating VBG 0.0008453
Alsthom NNP 0.0000303
defeats NNS 0.0001109
Offered NNP 0.0000303
GENERAL NNP 0.0000303
Chiesa NNP 0.0000303
Rabobank NNP 0.0002731
Rabobank NN 0.0000460
Sale NN 0.0000460
Sale NNP 0.0002428
Yongchaiyudh NNP 0.0000303
PLG NNP 0.0000607
Lahssini NNP 0.0000303
MEXICAN NNP 0.0000303
FROM NNP 0.0001821
Airways NNPS 0.0092879
Airways NNP 0.0000607
'd VBD 0.0001315
'd MD 0.0009234
terrain NN 0.0000460
justification NN 0.0000460
GLORIA NNP 0.0000303
GLORIA : 0.0004047
Curuchet NNP 0.0000607
bicycle NN 0.0000460
slid VBD 0.0001315
restricting VBG 0.0004227
occurred VBD 0.0006576
occurred VBN 0.0005313
Adventurers NNS 0.0001109
availability NN 0.0000460
golf NN 0.0002757
Vrolijk NNP 0.0000303
Metropolitan NNP 0.0000303
Swedish JJ 0.0003678
fishermen NNS 0.0012195
bomb NN 0.0007353
bomb VB 0.0002550
lawsuit NN 0.0004136
hall NN 0.0000460
None NN 0.0000919
AS NNP 0.0001821
stride NN 0.0000460
handle VB 0.0005099
.Giuseppe NN 0.0000460
Muralitharan NNP 0.0001214
revenge NN 0.0000460
legislative JJ 0.0002759
Jolene NNP 0.0000303
short-dated JJ 0.0000920
NEED VBD 0.0001315
Harald NNP 0.0000303
Greer NNP 0.0001214
fraud NN 0.0004595
mafia-style JJ 0.0000920
Stunkel NNP 0.0000303
Tension NN 0.0000919
THURSDAY NNS 0.0001109
THURSDAY NNP 0.0001821
HEADS NNPS 0.0015480
guarantee VB 0.0002550
ADV NNP 0.0000303
Bak NNP 0.0000607
Decker NNP 0.0000303
Jeroen NNP 0.0000910
anywhere RB 0.0005510
OSLOBODJENJE RB 0.0002755
Shayne NNP 0.0000910
MOTOR NNP 0.0003035
atrocities NNS 0.0004435
THINAKARAN VBD 0.0001315
Falls NNPS 0.0015480
suddenly RB 0.0002755
Mujtaba NNP 0.0003035
improve VB 0.0022947
collapse NN 0.0001838
grant VB 0.0005099
grant NN 0.0000460
skin NN 0.0001379
PORTUGUESE JJ 0.0002759
Limited NNP 0.0000303
reaching VBG 0.0033812
Last-minute NN 0.0000460
Judith NNP 0.0001821
surprises NNS 0.0001109
Act NNP 0.0000607
credibility NN 0.0000460
identify VB 0.0005099
politically RB 0.0002755
final NN 0.0001838
final JJ 0.0059776
Newcombe NN 0.0000460
Newcombe VB 0.0002550
Newcombe NNP 0.0001517
female JJ 0.0000920
Matt WRB 0.0027548
Matt NNP 0.0000910
oversupply NN 0.0000460
famed JJ 0.0000920
famed VBN 0.0002657
bad JJ 0.0012875
Hoek NNP 0.0000303
Newt NNP 0.0000607
Wada NNP 0.0000303
approx NNS 0.0001109
spinal JJ 0.0004598
tract NN 0.0000460
turns VBZ 0.0013605
sprained JJ 0.0000920
Essendon NN 0.0001838
ministerial JJ 0.0000920
Salvador NNP 0.0000910
delegation NN 0.0000919
evade VB 0.0002550
Farmers NNP 0.0000607
belted VBD 0.0003946
Donetsk NNP 0.0000303
Alan NNP 0.0003945
fitting VBG 0.0004227
visits NNS 0.0003326
Arabs NNPS 0.0108359
decided VBD 0.0014468
decided VBN 0.0021254
mph NN 0.0001838
looked VBN 0.0002657
looked VBD 0.0015783
shut VBN 0.0007970
shut VBD 0.0002631
Wolk NNP 0.0000303
barter JJR 0.0144928
barter VB 0.0002550
barter NN 0.0002757
HOUSE NNP 0.0000303
Gehrig NNP 0.0000303
Vicomte NNP 0.0000303
PREVIOUS NNP 0.0000303
PREVIOUS NNS 0.0001109
post-mortem JJ 0.0000920
non-binding JJ 0.0000920
Marine NNP 0.0000303
acct NN 0.0000919
VEERAKESARI NNP 0.0000303
Ingwe NNP 0.0000910
Faheem NNP 0.0000303
Sfeir NNP 0.0000607
Forsyth NNP 0.0000303
Georgiopoulos NNP 0.0000607
chimed RB 0.0002755
chimed VBD 0.0001315
Arsenal NNP 0.0000607
Arsenal JJ 0.0002759
collar NN 0.0000919
commitment NN 0.0002298
Coolee NNP 0.0000303
Treng NNP 0.0000303
Legislative NNP 0.0000303
muni NNS 0.0001109
muni JJ 0.0000920
Nuremberg-based JJ 0.0000920
Comprehensive NNP 0.0000607
chooses VBZ 0.0004535
Srbska NNP 0.0000607
WORKS VBD 0.0001315
Peter NNP 0.0008497
Marketing NNP 0.0000303
readying VBG 0.0004227
oppose VB 0.0005099
oppose VBP 0.0030441
approved VBD 0.0007892
approved VBN 0.0021254
Guinness NNP 0.0000607
Lathwell NNP 0.0000910
Eco-Challenge NN 0.0000460
Eco-Challenge NNP 0.0000607
Eco-Challenge JJ 0.0000920
Jeff NNP 0.0004248
fitness NN 0.0000919
leaves VBZ 0.0013605
Frentzen NNP 0.0001214
pursued VBN 0.0002657
diverse JJ 0.0000920
publications NNS 0.0001109
ISRAELI NNP 0.0000303
ISRAELI : 0.0004047
Doboj NNP 0.0003641
Action NNP 0.0000607
D.A. NNP 0.0000910
Miyaga NNP 0.0000303
Dowd NNP 0.0000303
completes VBZ 0.0004535
father NN 0.0005514
detective NN 0.0002298
Commandments NNP 0.0000910
Futures NNPS 0.0015480
Russian-Chechen JJ 0.0001839
Russian-Chechen NNP 0.0000303
aware JJ 0.0002759
multi-ethnicity NN 0.0000460
Humphries NNP 0.0000607
explosion NN 0.0000919
rhetoric NN 0.0000919
organising VBG 0.0012680
well-rehearsed JJ 0.0000920
practically RB 0.0002755
Woosnam NNP 0.0001821
inspectors NNS 0.0003326
effect NN 0.0006434
SCOREBOARD-AUSTRALIA NNP 0.0000303
Stevens NNP 0.0000303
construction NN 0.0003676
Stanojlovic NNP 0.0000607
bearded JJ 0.0000920
Call VB 0.0005099
estimate VBP 0.0030441
estimate NN 0.0000919
carts NNS 0.0001109
spongiform NN 0.0000919
shipment NN 0.0004136
Francisco NNP 0.0005462
Parramatta NNS 0.0004435
complications NNS 0.0001109
normalising VBG 0.0004227
UTI NNP 0.0000303
Playoff NNP 0.0000303
Tarango NNP 0.0001214
forbidden VBN 0.0002657
Philippine JJ 0.0002759
Philippine NNP 0.0000303
F.A.I. NNP 0.0000303
Rojahn NN 0.0000460
Roberta NNP 0.0000303
Nabil NNP 0.0000303
inserted VBN 0.0002657
CRAWLEY NNP 0.0000303
Dhabi NNP 0.0000910
Ravanelli NNP 0.0000910
teenage JJ 0.0000920
now RB 0.0201102
Villeneuve NNP 0.0001517
Salo NNP 0.0000910
kills VBZ 0.0040816
occupation NN 0.0000919
destitute JJ 0.0004598
bid VBN 0.0002657
bid VB 0.0002550
bid NN 0.0009191
balanced JJ 0.0000920
Volkov NNP 0.0000607
Jungle VBN 0.0002657
Jungle NNP 0.0000303
Yosu SYM 0.0021413
Yosu NNP 0.0000303
Nutricia NNP 0.0000303
FINNISH JJ 0.0000920
unknown JJ 0.0005518
drives VBZ 0.0004535
drives NNS 0.0001109
Higher JJR 0.0028986
pivotal JJ 0.0000920
you PRP 0.0204435
outspoken JJ 0.0001839
drachmas NN 0.0001379
Kilda NNP 0.0001214
impress VB 0.0002550
Folha NNP 0.0000303
Gina NNP 0.0000303
Shiohara NNP 0.0000303
Kandahar NNP 0.0001517
renominate VB 0.0002550
test-tube NN 0.0000460
molest VB 0.0002550
Zhilan NNP 0.0000607
Vaclav NNP 0.0000303
visitors NNS 0.0003326
carry VB 0.0022947
Volcanic NNP 0.0000303
FACILITIES NNP 0.0000303
PARIS NNP 0.0008193
Ballybunion NNP 0.0001214
Ballybunion JJ 0.0000920
division NN 0.0039520
self-rule JJ 0.0005518
self-rule NN 0.0000460
Lomas NNP 0.0001214
corner NN 0.0001379
human-rights JJ 0.0000920
Depositary NNP 0.0000303
beneath IN 0.0000572
Baudone NNP 0.0000607
workout NN 0.0000460
concluding VBG 0.0008453
enthusiasm NN 0.0000919
melting VBG 0.0004227
filled VBD 0.0001315
filled VBN 0.0007970
Colombians NNPS 0.0015480
Add VB 0.0015298
Cry NNP 0.0000303
German-born JJ 0.0000920
reunification NN 0.0000460
Vincent NNP 0.0001517
Midwest NNP 0.0002428
Division NN 0.0005514
Division NNP 0.0002731
wooden JJ 0.0002759
ransacked VBN 0.0002657
INTO NNP 0.0000303
weather NN 0.0004595
Giampaolo NNP 0.0000303
Society NNP 0.0000607
Then RB 0.0008264
Unlike IN 0.0001144
Path NN 0.0000919
vied VBN 0.0002657
Nuremberg NNP 0.0000303
Putra NNP 0.0000303
Lotte NNP 0.0002731
Lotte JJ 0.0000920
Romanian-registered JJ 0.0000920
Sixteen CD 0.0000528
conservation NN 0.0001379
Spokesman NNP 0.0000303
A.de NNP 0.0000303
pollution NN 0.0000460
reporters NNS 0.0047672
reporters JJ 0.0000920
Zastava NNP 0.0001821
detachment NN 0.0000460
Lebanese NNP 0.0000303
Lebanese JJ 0.0001839
cocaine NN 0.0000460
commented VBD 0.0001315
Petra NNP 0.0001517
consistent JJ 0.0002759
longitudinal JJ 0.0001839
Skeleton NNP 0.0000303
warehouse NN 0.0000460
east JJ 0.0008277
FORECAST NNP 0.0001517
Irani JJ 0.0000920
Irani NNPS 0.0015480
Irani NNP 0.0002731
outbreak NN 0.0002757
Hadlee NNP 0.0000303
Democratic JJ 0.0017473
Democratic NNP 0.0007586
Democratic NNS 0.0001109
hand-written JJ 0.0000920
transmitted VBN 0.0005313
Near IN 0.0001144
towns NNS 0.0009978
Tamer NNP 0.0000303
totality NN 0.0000460
incomers NNS 0.0001109
April NNP 0.0008497
Hristo NNP 0.0000607
Jared NNP 0.0000910
Richey NNP 0.0001214
Pascal NNP 0.0000607
curtain-raiser NN 0.0000460
eighth-ranked JJ 0.0000920
unhurt JJ 0.0001839
Ekeren CD 0.0000528
Ekeren NNP 0.0000910
fiscal JJ 0.0011035
talented JJ 0.0000920
Doetinchem-Doetinchem JJ 0.0000920
explosive JJ 0.0002759
arm NN 0.0001838
Hincza NNP 0.0000303
nerves NNS 0.0001109
Habsudova NNP 0.0002124
crop NN 0.0002757
calm JJ 0.0000920
three-month-to-three-year JJ 0.0000920
healthcare NN 0.0000460
HARARE VB 0.0005099
opinion NN 0.0005514
Lumir NNP 0.0000303
PLANE NN 0.0000460
TRA NNP 0.0000303
KUALA NNP 0.0001214
Mosenergo NNS 0.0001109
Zabel NNP 0.0000607
Abbey NNP 0.0001214
Teenager NNP 0.0000303
Haga NN 0.0000919
Haga NNP 0.0002124
tents NNS 0.0001109
Sahara NNP 0.0000303
Hebrew NNP 0.0000303
probing VBG 0.0008453
overtook VBP 0.0007610
interogation NN 0.0000460
reluctantly RB 0.0002755
Rivero NNP 0.0000303
Winning VBG 0.0004227
Tracy NNP 0.0000607
Salah NNP 0.0000607
Pattaya NNP 0.0000303
deals NNS 0.0018847
backed VBN 0.0010627
backed VBD 0.0002631
neat JJ 0.0000920
young JJ 0.0018392
Reeve NNP 0.0001821
Reeve JJ 0.0000920
Chelny NNP 0.0000607
overthrow NN 0.0000460
overthrow VB 0.0007649
Arab JJ 0.0011035
Arab NNP 0.0001517
Bartlomiej NNP 0.0000303
Metalurg NNP 0.0000303
Metalurg VBG 0.0004227
unofficial JJ 0.0002759
unsure JJ 0.0002759
Trinidad NNP 0.0002124
conduct NN 0.0000460
conduct VB 0.0005099
sandwiched VBD 0.0001315
elite NN 0.0000460
elite JJ 0.0000920
MILAN NNP 0.0001517
Claire NNP 0.0000607
cart NN 0.0000460
Chandra NNP 0.0000910
interval NN 0.0000919
amnesty NN 0.0002757
institutions NNS 0.0001109
subsidiary NN 0.0002298
Chamorro NNP 0.0001821
affadavit NN 0.0000460
there EX 0.5887097
there RB 0.0107438
reimbursement NN 0.0001838
subscribers NNS 0.0003326
Hinchcliffe NNP 0.0000607
compassion NN 0.0000919
RDR NNP 0.0000303
movement NN 0.0009191
Zaman NNP 0.0000607
strikes NNS 0.0004435
strikes VBZ 0.0004535
investors NNS 0.0023282
DRESDEN NNP 0.0000303
SUMMARY- NNP 0.0000303
FRATERNITE IN 0.0000572
stable RB 0.0002755
stable JJ 0.0007357
rusty JJ 0.0000920
insulting JJ 0.0000920
Stakes NNPS 0.0015480
Stakes NNP 0.0000303
Koeln NNP 0.0000303
Dutroux NNS 0.0001109
Dutroux NN 0.0000460
Dutroux JJ 0.0004598
Dutroux NNP 0.0008800
Marcelo RB 0.0002755
Marcelo NNP 0.0004248
Specter NNP 0.0001517
Kispest NNP 0.0000910
Kispest JJS 0.0042735
am VBP 0.0121766
fed VBD 0.0002631
fed VBN 0.0002657
Leicestershire VB 0.0007649
Leicestershire NNP 0.0001821
afterwards RB 0.0005510
Midfielder NNP 0.0000607
Dore NNP 0.0000303
estate NN 0.0000919
LISBON NNP 0.0001821
SAN NNP 0.0014566
ROLLS NNP 0.0000303
attends VBZ 0.0004535
Markgraaff NNP 0.0000607
WW NNP 0.0000910
wheat NN 0.0010569
eject VB 0.0002550
investigate VB 0.0007649
boy NN 0.0006434
MITCHELL : 0.0004047
MITCHELL NNP 0.0000303
strategist NN 0.0001838
GPG VBG 0.0004227
GPG JJ 0.0000920
GPG NNP 0.0000910
Gyor NNP 0.0000303
usage NN 0.0000460
Monrovia NNP 0.0000607
hitter NN 0.0000460
substitute NN 0.0001838
longer-term JJ 0.0000920
balloons NNS 0.0001109
blizzard NN 0.0000460
Sigurd NNP 0.0000607
HEALED VBD 0.0001315
Alfred NNP 0.0000607
Romano NNP 0.0000607
pence NN 0.0001379
Teixeira NNP 0.0000303
anything NN 0.0006434
Birthday NN 0.0000460
Prima NNP 0.0000303
ATRIA NNP 0.0000303
link-up NN 0.0000460
Coulthard NNP 0.0001214
barley NN 0.0002298
Barngetuny NN 0.0000460
Dreyfus NNP 0.0000303
specifically RB 0.0002755
constitutional JJ 0.0001839
Ciriaco NNP 0.0000303
disagreement NN 0.0000919
sectors NNS 0.0005543
neo-Nazi JJ 0.0002759
express JJ 0.0000920
express VB 0.0010199
IFOR NNP 0.0000303
rebuffed VBD 0.0001315
Parisians NNPS 0.0015480
Batty NNP 0.0000303
CINCINNATI NNP 0.0004855
Cecil NNP 0.0000607
HISSOU NNP 0.0000303
BRINGS NNPS 0.0015480
Kibitok NNP 0.0000303
door NN 0.0000460
participant NN 0.0000460
Prague NNP 0.0002428
inches NNS 0.0005543
FDA NNP 0.0000607
hostage NN 0.0005055
administrator NN 0.0001838
Gong NNP 0.0000303
DAVEY NNP 0.0000303
alerted VBD 0.0001315
Anis NNP 0.0000303
soar VB 0.0002550
ROMANIA : 0.0004047
ROMANIA NNP 0.0000303
Henry NNP 0.0001214
Henry JJ 0.0001839
districts NNS 0.0003326
TITLE DT 0.0000816
TITLE NN 0.0000460
TITLE RP 0.0041237
TITLE NNP 0.0000910
Iraqi JJ 0.0049660
Havnar NNP 0.0000303
Investigation NNP 0.0000607
Perth NNP 0.0000303
dedication NN 0.0000460
constructing VBG 0.0004227
Hutus NNP 0.0000607
Hutus NNPS 0.0015480
misfortune VBP 0.0007610
misfortune NN 0.0000460
indices* NN 0.0000460
substituted VBD 0.0001315
substituted VBN 0.0005313
by RB 0.0002755
by IN 0.0377639
bag NN 0.0000460
Emese JJ 0.0000920
Death NN 0.0000919
Death NNP 0.0000607
speaker NN 0.0005055
Sao NNP 0.0005766
advice NN 0.0001838
Torrance NNP 0.0000607
Honduras NNS 0.0001109
Tamil-speaking JJ 0.0000920
Hermawan NNP 0.0000607
Gooch NNP 0.0002124
Shrewsbury NNP 0.0000910
Shrewsbury RB 0.0002755
toast NN 0.0000460
Foundation NNP 0.0000303
offshore RB 0.0002755
offshore JJ 0.0000920
roads NNS 0.0005543
Harrods NNS 0.0001109
U.S.-bound JJ 0.0000920
Kaspars NNP 0.0000607
Moreno NNP 0.0000607
now-destroyed JJ 0.0000920
counterparts NNS 0.0002217
KANSAS VBD 0.0007892
KANSAS NNP 0.0009407
superstar JJ 0.0000920
Ali NNP 0.0001821
slotted VBN 0.0002657
Baghdad NNP 0.0006373
Montserrat NNP 0.0000607
Ill NNP 0.0000303
knows VBZ 0.0018141
AGAINST NNP 0.0000910
WINNIPEG VBG 0.0008453
Hiraki NNP 0.0000303
Disarmament NNP 0.0000910
Johan NNP 0.0003641
attitude NN 0.0000460
campaigned VBD 0.0002631
lucky JJ 0.0001839
Roman NNP 0.0002731
Belarus NNP 0.0003035
Six CD 0.0002641
male JJ 0.0002759
two-day JJ 0.0006437
Redgrave NNP 0.0000607
Speaking VBG 0.0008453
Dynasty NNP 0.0000303
BERNE NNP 0.0000303
PAO NNPS 0.0015480
PAO TO 0.0003134
Chalmers NNP 0.0000303
yard NN 0.0001379
confirmation NN 0.0001379
PREDICTION NNP 0.0000303
Beautiful JJ 0.0000920
tops NNS 0.0003326
tops VBZ 0.0004535
wielding VBG 0.0004227
revival NN 0.0000460
bloc NN 0.0000460
conflict NN 0.0005514
Dia NNP 0.0000303
format NN 0.0000460
concept NN 0.0000919
Rica NNP 0.0006676
Eriksson NNP 0.0001821
massacre NN 0.0001379
account NN 0.0004595
break VB 0.0017848
break NN 0.0006893
conditional JJ 0.0000920
encamped VBN 0.0002657
FRIDAY NNP 0.0001214
holidays NNS 0.0002217
Prusek NNP 0.0000303
Tomorrow NN 0.0001379
Klerk NNP 0.0000910
please VB 0.0002550
please UH 0.0303030
agronomist NN 0.0000460
secondary JJ 0.0001839
polls NNS 0.0018847
Pushpakumara NNP 0.0000910
UP-AND-COMERS NNP 0.0000303
helper NN 0.0000460
severely RB 0.0005510
CBSA NNP 0.0000910
beach NN 0.0000460
Ndiaye NNP 0.0000303
veer VB 0.0002550
actively RB 0.0005510
adjustments NNS 0.0001109
strangles VBZ 0.0004535
ca MD 0.0064635
warns VBZ 0.0004535
Canadian NNP 0.0002428
Canadian JJ 0.0010116
Hlasek NNP 0.0000910
likely JJ 0.0017473
likely RB 0.0008264
Appeals NNPS 0.0030960
noon NN 0.0001379
outstanding JJ 0.0006437
Ben-Elissar NNP 0.0000303
disgruntled JJ 0.0000920
revealed VBD 0.0002631
revealed VBN 0.0002657
army NN 0.0018382
captivity NN 0.0000919
EXPANSION NN 0.0000460
rave VB 0.0002550
captain VB 0.0002550
captain NN 0.0012867
Koranic NN 0.0000460
Devers NNP 0.0000607
Devers NNS 0.0001109
Promo NNP 0.0000303
rise NN 0.0009191
rise VB 0.0010199
accomplished VBN 0.0005313
accomplished JJ 0.0000920
Westminster NNP 0.0000303
Breen NNP 0.0000303
m.p.h. NN 0.0000460
Anza NN 0.0000460
Anza NNP 0.0000303
requests NNS 0.0001109
showdown NN 0.0001379
DIVISION NNP 0.0028525
Saudi NN 0.0000460
Saudi NNP 0.0004248
Saudi JJ 0.0006437
Panis ( 0.0003660
Panis NNP 0.0001214
third JJ 0.0092882
third NN 0.0000460
Umar NNP 0.0000303
veil NN 0.0000460
Perugia NNP 0.0000303
Baggio NNP 0.0000303
Kaliningrad NNP 0.0000607
orchestrated VBN 0.0002657
Yukio NNP 0.0000303
ministry NN 0.0016543
ministry , 0.0001491
judges NNS 0.0002217
Ravindra NNP 0.0000607
million CD 0.0132045
car NN 0.0008731
Ours PRP 0.0003465
Balewa NNP 0.0000303
prepares VBZ 0.0009070
Dugmore NNP 0.0000607
like JJ 0.0001839
like VB 0.0030597
like IN 0.0014877
Bronson NNP 0.0000303
either RB 0.0011019
either DT 0.0004896
either CC 0.0014854
ASUU NNP 0.0000303
ASUU NNS 0.0001109
manage VBP 0.0030441
manage VB 0.0010199
Lands NNP 0.0000303
at IN 0.0483493
Begerow NNP 0.0000303
one-third NN 0.0000460
postponement NN 0.0002298
Dacia NNP 0.0001214
U NNP 0.0000303
Fifty CD 0.0000528
lasted VBD 0.0001315
OVER IN 0.0001144
Mieciel NNPS 0.0030960
Nouakchott NNP 0.0000303
witchdoctor NN 0.0000460
non-working JJ 0.0000920
ANOTHER NNP 0.0000303
Sons NNPS 0.0030960
Richardson NNP 0.0000910
accounted VBD 0.0002631
accounted VBN 0.0002657
dispatch NN 0.0000460
Davids NNP 0.0000607
RBI NNP 0.0004248
RBI NNPS 0.0015480
prostitution NN 0.0000919
vs NNP 0.0012745
AFTER '' 0.0277778
AFTER NN 0.0000460
AFTER JJ 0.0000920
AFTER NNP 0.0003945
pressing VBG 0.0008453
WESTERN NNP 0.0005159
unsatisfied JJ 0.0000920
parrots NNS 0.0004435
half-volley JJ 0.0000920
Third-seeded JJ 0.0000920
McGinley NNP 0.0000607
fighters NNS 0.0006652
Dembinski NNP 0.0000303
being VBG 0.0338123
Menlo NNP 0.0000303
severe JJ 0.0003678
consistently RB 0.0008264
Milenko NNP 0.0000303
go VBP 0.0030441
go VB 0.0135135
go NN 0.0000460
series NN 0.0013786
purchaser NN 0.0000460
replacing VBG 0.0012680
decibels NNS 0.0002217
runners-up NNS 0.0001109
Lanka NNP 0.0011531
Nasser NNP 0.0000303
Dopita NNP 0.0000303
sensational JJ 0.0000920
---------------------------------- SYM 0.0021413
runway NN 0.0000919
Alesi NNP 0.0001517
drivers NNS 0.0005543
ATHLETICS NNP 0.0003641
Paralympics NNS 0.0001109
cool JJ 0.0003678
cool VB 0.0002550
subtracted VBN 0.0002657
Huw NNP 0.0000303
outrage NN 0.0000460
Rojas NNP 0.0000303
Alliance-Menatep NNPS 0.0015480
fever NN 0.0003676
SEYCHELLES NNP 0.0000303
SEYCHELLES : 0.0004047
technologies NNS 0.0002217
centrist JJ 0.0001839
rapist NN 0.0001379
behave VB 0.0002550
ahave VBP 0.0007610
coupons NNS 0.0001109
colour JJR 0.0028986
Cecchini NNP 0.0000303
reversed VBD 0.0001315
OLYMPIAKOS : 0.0004047
OLYMPIAKOS NNP 0.0000910
demise NN 0.0000460
period NN 0.0013786
Pineda NNP 0.0000303
Dev NNP 0.0000303
package NN 0.0001838
reconciling VBG 0.0004227
Chinese JJ 0.0018392
Chinese NNP 0.0000910
exploration NN 0.0001379
compromise VB 0.0002550
compromise NN 0.0001838
confess VBP 0.0007610
placebo NN 0.0000919
glass NN 0.0002298
Eritrea NNP 0.0002124
considering VBG 0.0038039
frequent JJ 0.0002759
reiterates VBZ 0.0009070
commodities NNS 0.0002217
Solovyov NNP 0.0000303
Chesapeake NNP 0.0000303
Hospital NNP 0.0003641
Hospital NN 0.0000460
conditioning NN 0.0000460
sprinted VBD 0.0001315
drilling NN 0.0000460
ENAP NNP 0.0000910
lightning NN 0.0000919
Bjorn NNP 0.0000910
Street NNP 0.0003641
Commodity NNP 0.0000303
praise VB 0.0005099
Frenz NNP 0.0000607
privately RB 0.0008264
Mid-tier NN 0.0000460
AMTRAK VBG 0.0004227
vacant JJ 0.0000920
Teguh NNP 0.0000303
Ellwood NNP 0.0000910
TM NNP 0.0001214
losing NN 0.0002757
losing VBG 0.0046492
shareholders NNS 0.0015521
Klinsmann NNP 0.0001517
Witechek NNP 0.0000303
Merrill NNP 0.0000607
Survey NNP 0.0000607
Palace NNP 0.0002428
risk NN 0.0007353
risk VB 0.0002550
gunshots NN 0.0000460
governments NNS 0.0006652
banners NNS 0.0002217
fifth-inning NN 0.0000919
Nazis NNPS 0.0015480
Boudova NNP 0.0000303
Ascot NNP 0.0000303
HEERENVEEN NNP 0.0000303
alongside IN 0.0001717
Ottey NNP 0.0000910
adjourned VBN 0.0002657
disappearance NN 0.0000919
engineer NN 0.0000919
deadpan JJ 0.0000920
DETROIT NNP 0.0003338
DETROIT RB 0.0002755
DETROIT VBG 0.0029586
DETROIT PRP 0.0003465
certain JJ 0.0008277
beheading NN 0.0000460
sights NNS 0.0001109
Presov NNP 0.0000607
resumption NN 0.0000919
proven VBN 0.0002657
pumping VBG 0.0004227
DUBLIN NNP 0.0001214
wild JJ 0.0001839
Jiangling NNP 0.0000607
Chiate NNP 0.0001214
slightly RB 0.0027548
wide-ranging JJ 0.0000920
San NNP 0.0009407
teenager NN 0.0000919
Privatising NN 0.0000460
Dundee NNP 0.0002124
Tegel NNP 0.0000607
Mouland NNP 0.0000303
Brett NNP 0.0000910
Sciandri NNPS 0.0015480
Sciandri NNP 0.0000303
couple NN 0.0008272
context NN 0.0000460
warm-up NN 0.0000919
bales NNS 0.0003326
Hapoel NNP 0.0004248
Sandra NNP 0.0001821
rekindled VBN 0.0002657
PSE NNP 0.0000303
stocks NNS 0.0016630
spared VBN 0.0005313
Securities NNPS 0.0092879
Securities NNP 0.0001517
bailiff NN 0.0000460
Mostostal NNP 0.0001214
Mostostal JJ 0.0001839
stubbornly RB 0.0002755
Inez NNP 0.0000607
commandment NN 0.0000460
Gulyayeva NNP 0.0000303
unfortunate NN 0.0000460
unfortunate JJ 0.0003678
short-covering NN 0.0000460
typically RB 0.0005510
hopeful JJ 0.0001839
SOFIA NNP 0.0001517
Tchmil NNP 0.0000303
weekly JJ 0.0008277
refurbished VBN 0.0002657
reopen VB 0.0002550
Setubal JJ 0.0000920
Setubal NNP 0.0000607
Erdmann NN 0.0000919
Ori NNP 0.0000303
bodies NNS 0.0011086
acting VBG 0.0021133
acting NN 0.0000460
codenamed VBD 0.0001315
MAJ MD 0.0018467
omitted VBN 0.0002657
omitted VBD 0.0001315
elbowed VBN 0.0002657
EARLY NNP 0.0000607
injunction NN 0.0001838
brake NN 0.0000460
bungling VBG 0.0004227
Kikinda RB 0.0005510
Presbyterian NNP 0.0000303
call-up NN 0.0000460
Continental NNP 0.0000910
<number> CD 0.9102625
<number> NNP 0.0148085
<number> RB 0.0046832
<number> NN 0.0039061
<number> LS 1.0000000
<number> JJ 0.0577524
<number> NULL 0.2352941
<number> NNS 0.0017738
Serbia NNP 0.0003035
formerly RB 0.0002755
Videoton NNP 0.0000607
Esnaider NNP 0.0000910
Rev. NNP 0.0000303
omission NN 0.0000460
Votava NNP 0.0000303
residency NN 0.0000460
diseases NNS 0.0002217
x-PAO JJ 0.0000920
weighted JJ 0.0000920
tone NN 0.0000460
stars VBZ 0.0004535
Hawksworth NNP 0.0000607
Altun NNP 0.0000303
network NN 0.0003217
embracing VBG 0.0004227
enclosure NN 0.0000460
Petroecuador NNP 0.0000303
surgical JJ 0.0001839
teacup NN 0.0000919
Kontogiannis NNP 0.0001517
LIFTS NNP 0.0000303
conclude VB 0.0002550
secretariat NN 0.0000460
Tanzania NNP 0.0000607
fund NN 0.0002298
fund VB 0.0005099
Ravanchi NNP 0.0000303
seeing VBG 0.0008453
Grasshoppers NNPS 0.0077399
achievements NNS 0.0001109
Tetouan JJ 0.0000920
obsession NN 0.0000460
Collingtree NNP 0.0000303
Tactics NN 0.0000460
engage VB 0.0005099
laying VBG 0.0004227
Drobnjak NNP 0.0000910
inmates NNS 0.0002217
taka NNS 0.0002217
taka NN 0.0001379
symbolised VBD 0.0001315
trousers NNS 0.0001109
sure JJ 0.0003678
UP RP 0.0123711
reforms NNS 0.0006652
envelopes NNS 0.0001109
publicity NN 0.0000460
provisions NNS 0.0001109
netting VBG 0.0004227
civilised JJ 0.0000920
Rafter NNP 0.0003035
Walker NNP 0.0002124
House NNP 0.0006069
Alcan NNP 0.0000303
ranked VBD 0.0006576
Nuestra NNP 0.0000303
Orvieto NNP 0.0000910
Orvieto JJ 0.0000920
investments NNS 0.0005543
stab NN 0.0000460
Human JJ 0.0003678
Human NNP 0.0002428
liquor NN 0.0000919
Nigeria NNP 0.0009407
Surabaya NNP 0.0000910
Rocca NNP 0.0001517
procure NN 0.0000919
Dheeraj NNP 0.0000303
combatants NNS 0.0002217
focused VBD 0.0002631
focused JJ 0.0000920
pornographic JJ 0.0003678
rapists NNS 0.0001109
considered VBD 0.0003946
considered VBN 0.0021254
Soyoil NN 0.0003676
Nobel NNP 0.0002124
ordinary JJ 0.0003678
Gennadi NNP 0.0000910
Ten CD 0.0002641
Penrith NNS 0.0002217
Penrith NNP 0.0000607
Clayton NNP 0.0000910
Pooley NNP 0.0000303
recognizing VBG 0.0004227
families NNS 0.0006652
indexations NNS 0.0001109
Triple-A NNP 0.0000303
waves NNS 0.0001109
Cindana NNP 0.0000303
nine-hitter NN 0.0000460
judgment NN 0.0000460
mid-to-large JJ 0.0000920
Paraguay NNP 0.0000303
stunts NNS 0.0001109
Korea NNP 0.0003641
Wolf NNP 0.0001821
Smyth NNP 0.0000607
Smyth NN 0.0000460
Arabic NNP 0.0000607
PAST NNP 0.0000910
confident JJ 0.0005518
Wijffels NNP 0.0000910
Lamm UH 0.0303030
Lamm NN 0.0000460
Lamm NNP 0.0000910
Rasheed NNP 0.0000303
Luton NN 0.0000919
Luton JJ 0.0000920
Luton NNP 0.0000303
ISSUER NNP 0.0000303
COLLATED NNP 0.0000607
drink NN 0.0000460
drink VBP 0.0007610
low-fat JJR 0.0028986
outdoor JJ 0.0000920
ribs NNS 0.0001109
briefly RB 0.0013774
newcomers NNS 0.0001109
One-month JJ 0.0001839
bills NNS 0.0004435
involve VB 0.0007649
festivities NNS 0.0001109
granting VBG 0.0004227
individuals NNS 0.0001109
unsettled VBN 0.0002657
costs VBZ 0.0004535
costs NNS 0.0019956
susceptibility NN 0.0000460
technical JJ 0.0004598
Grabb NNP 0.0000910
limited JJ 0.0008277
limited VBN 0.0010627
United NNP 0.0030952
performed VBD 0.0002631
athletics NNS 0.0003326
Banik NNP 0.0000607
throne NN 0.0000919
bastion NN 0.0000460
resource NN 0.0000460
Barrier NNP 0.0000303
Prime NNP 0.0015476
increase NN 0.0006434
increase VB 0.0015298
codename JJ 0.0000920
politician NN 0.0002757
rotate VB 0.0002550
Kocinski NNP 0.0002731
Ottavio NNP 0.0000303
Lyngby NNP 0.0000303
Aberdeen NNP 0.0000910
succeed VB 0.0002550
quote VBP 0.0007610
quote NN 0.0000460
balances NNS 0.0004435
PROGRAMME NNP 0.0000303
LENS NNS 0.0001109
neighbours NNS 0.0007761
farm NN 0.0007812
pothole NN 0.0000460
recorded VBD 0.0003946
recorded VBN 0.0005313
scrape VB 0.0002550
Agyepong NNP 0.0000303
Draper NNP 0.0000607
RESULT NNP 0.0004552
Ryo NNP 0.0000303
Ryo NN 0.0000919
Mpumulanga NNP 0.0000303
Alarm NNP 0.0000303
Pintusevich NNP 0.0000303
homegrown NN 0.0000460
Botha NNP 0.0000910
huge JJ 0.0009196
GREEK JJ 0.0000920
GREEK NNS 0.0001109
source NN 0.0008731
Lu NNP 0.0000303
Gulbuddin NNP 0.0000607
Darren NNP 0.0002428
ministries NNS 0.0001109
capacity NN 0.0002298
single NN 0.0001838
single JJ 0.0017473
Fredericks NNP 0.0001517
Fredericks NNS 0.0001109
Conference NNP 0.0002428
Jadida NNP 0.0000303
Manila NNP 0.0000303
Provision NN 0.0000460
ELITE NNP 0.0000607
PIVOTAL NNP 0.0000303
Portsmouth NNP 0.0003641
cups NNS 0.0001109
DAYS NNS 0.0002217
Kabariti NNP 0.0000303
SPONSORS NNS 0.0001109
targeted VBN 0.0007970
Moller NNP 0.0000303
permits NNS 0.0003326
what WDT 0.0111359
what WP 0.1042084
Woodlands NNP 0.0000303
CONGO NNP 0.0000303
Sampras NNP 0.0003338
Sampras NNPS 0.0030960
Sampras NNS 0.0003326
them DT 0.0001632
them PRP 0.0308385
treacherous JJ 0.0000920
exit NN 0.0000460
Co-ordinated JJ 0.0000920
Times-Stock NNP 0.0000607
platforms NNS 0.0001109
injury NN 0.0009650
launched JJ 0.0000920
launched VBN 0.0015940
launched VBD 0.0009207
Assembly NNP 0.0002428
marksmen NNS 0.0001109
Sot NNPS 0.0015480
KONG NNP 0.0000910
KONG VBG 0.0054945
SCOTTISH : 0.0004047
SCOTTISH JJ 0.0001839
SCOTTISH NNP 0.0000910
deserve VBP 0.0007610
the DT 0.5400245
Commissioner NNP 0.0002124
seem VB 0.0002550
Wodzislaw NNP 0.0001214
Stremaitis NNP 0.0000303
slums NNS 0.0001109
Stefan NNP 0.0002731
alleys NNS 0.0001109
Zuberbuehler NNP 0.0000303
Bancomext NN 0.0000460
Bancomext NNP 0.0000303
Stalin NNP 0.0000303
Waqar NNP 0.0008497
takes VBZ 0.0049887
MELBOURNE NNP 0.0001214
Siegfried NNP 0.0000303
technicalities NNS 0.0001109
den NN 0.0001379
splits VBZ 0.0004535
CFDT NNP 0.0000303
heat NN 0.0000919
heat VB 0.0002550
Ainars NNP 0.0000607
Ceahlaul NNP 0.0000607
provider NN 0.0000460
allowed VB 0.0002550
allowed VBD 0.0044719
allowed VBN 0.0037194
has VBZ 0.2321995
pelted VBN 0.0002657
commandeered VBD 0.0001315
script NN 0.0000919
caller NN 0.0000460
Nepalese JJ 0.0000920
fear NN 0.0001838
fear VBP 0.0030441
jeopardised VBN 0.0002657
QUALIFIER NNP 0.0000303
QUALIFIER VBN 0.0002657
spoken VBN 0.0002657
reporting NN 0.0000460
reporting VBG 0.0012680
organist NN 0.0000919
manoeuvre NNP 0.0000303
ERA NNP 0.0000607
Pieters NNP 0.0000607
BELL NNP 0.0000303
Dick NNP 0.0001214
Galarraga NNP 0.0000303
cavity NN 0.0000460
contacts VBZ 0.0004535
contacts NNS 0.0004435
Lubin NNP 0.0000910
purged VBN 0.0002657
Chernyavskaya NNP 0.0000303
Tutsi-run NNP 0.0000303
Ujjain NN 0.0000460
spotted VBN 0.0005313
Metal NNP 0.0000303
dilution NN 0.0001379
consider VB 0.0012749
Hoiles NNP 0.0000303
superman JJ 0.0000920
Pokka NNP 0.0000303
twist NN 0.0000919
normality NN 0.0000460
Schumacher NNP 0.0002428
dishonest JJ 0.0002759
June NNP 0.0024276
Albanians NNS 0.0002217
bulge NN 0.0000460
PUT NNP 0.0000303
PUT : 0.0004047
PUT IN 0.0001717
Airport NNP 0.0000607
Moslems NNS 0.0001109
Moslems NNPS 0.0092879
embattled JJ 0.0001839
Hoddle NNP 0.0001214
Croat NNP 0.0000910
Patrice NNP 0.0000607
would-be JJ 0.0000920
Tiber NNP 0.0000303
cooperative JJ 0.0000920
Jaeghere NNP 0.0000303
energetic JJ 0.0001839
ailment NN 0.0000460
stalemate NN 0.0000919
figures NNS 0.0022173
presidential JJ 0.0015634
host NN 0.0001838
Grozny NN 0.0000460
Grozny VBG 0.0004227
Grozny NNP 0.0006979
bloodshed NN 0.0000460
Richards NNP 0.0000607
continuing VBG 0.0021133
continuing JJ 0.0000920
inadequate JJ 0.0000920
Boo-nee-OL NNP 0.0000303
face-saving JJ 0.0000920
Ninova NNP 0.0000303
Cervera NNP 0.0000303
able JJ 0.0019312
Greg NNP 0.0004248
titles NNS 0.0005543
adjusting VBG 0.0004227
SIT NNP 0.0000303
E NN 0.0000460
E NNP 0.0000303
Lindsay NNP 0.0002124
specialists NNS 0.0002217
adversity NN 0.0000460
Walsall NNP 0.0001214
acquiring VBG 0.0012680
FRCD NNP 0.0000303
overhaul NN 0.0000919
lateral JJ 0.0000920
southwestern JJ 0.0000920
E.C.India NNP 0.0000303
chances NNS 0.0006652
Tyler NNP 0.0000303
bloody JJ 0.0002759
conglomerate NN 0.0000460
conglomerate JJ 0.0000920
Gumy NNP 0.0000910
: : 0.2679077
Cardoso NNP 0.0000607
furious JJ 0.0000920
Sadiki NNP 0.0000910
CROFT NNP 0.0000303
CROFT : 0.0004047
Grzegorz NNP 0.0000607
counter NN 0.0000460
Marinovic NNP 0.0000303
violently RB 0.0002755
watermelon NN 0.0000460
diverted VBN 0.0013284
Inter-Entity NNP 0.0000303
Forsa NNP 0.0000607
Ceske NNP 0.0000607
entertainment NN 0.0001379
transformed VBN 0.0002657
flooded VBD 0.0001315
Montserratians NNS 0.0001109
state-owned JJ 0.0001839
Arnhem NNP 0.0002731
amd VBN 0.0002657
singles NNS 0.0062084
singles NN 0.0000460
singles VBZ 0.0004535
singles JJ 0.0000920
CONTINUE NNP 0.0000303
Sheriff NNP 0.0000303
unclear JJ 0.0004598
guerrilla NN 0.0003676
guerrilla JJ 0.0003678
Statistics NNP 0.0000303
Statistics NNPS 0.0030960
aspect NN 0.0000460
hoarse JJ 0.0000920
gain VB 0.0007649
gain NN 0.0000919
Zarraga NNP 0.0000303
Ratna NNP 0.0000303
JV NNP 0.0000303
cartilage NN 0.0000460
fliers NNS 0.0001109
Mullally RB 0.0033058
Mullally NNP 0.0004248
APT NNP 0.0000910
pomfret-rich JJ 0.0000920
L.O. NNP 0.0000303
breadth NN 0.0000460
Palkhivala NNP 0.0001214
Palkhivala NN 0.0000460
proper JJ 0.0000920
shelled VBD 0.0002631
Nyva NNP 0.0001214
Nyva NN 0.0000460
Boardman NN 0.0000460
Boardman NNP 0.0003035
Havel NNP 0.0000910
touring NN 0.0000460
Opel NNP 0.0000303
Lisbon NNP 0.0000607
hints NNS 0.0001109
picked VBD 0.0011837
picked VBN 0.0010627
recovers VBZ 0.0004535
Watkin NNP 0.0000303
Final JJ 0.0006437
Final NNP 0.0000303
Creation NN 0.0000460
provoked VBN 0.0002657
Joulwan NNP 0.0000303
Veggerby NNP 0.0000303
sawed VBD 0.0001315
RABAT JJ 0.0000920
doubles VBZ 0.0031746
doubles NNS 0.0002217
Insurance NNP 0.0000910
St NNP 0.0017297
Grande NNP 0.0000910
thefts NNS 0.0002217
Vitoux NNP 0.0000607
COLONNA NNP 0.0000303
concerned VBN 0.0018597
concerned JJ 0.0000920
assailant NN 0.0000460
undercut VB 0.0002550
stores NNS 0.0008869
Africa NNP 0.0019118
surged VBD 0.0005261
Witnesses NNS 0.0001109
revoke VB 0.0002550
Margit NNP 0.0000303
north-west JJ 0.0000920
Undersecretary-General NNP 0.0000303
reassure VB 0.0002550
Prev NNS 0.0001109
act NN 0.0002757
act VB 0.0012749
AEI NNP 0.0000607
triggered VBN 0.0002657
triggered VBD 0.0001315
needle NN 0.0000460
Stork NNP 0.0001214
Boddington JJ 0.0000920
Regrettably RB 0.0002755
Manne NNP 0.0000303
Stores NNPS 0.0015480
electing VBG 0.0004227
Plains NNP 0.0000607
Escuredo NNP 0.0000303
Parmalat NNP 0.0000303
Adolf NNP 0.0000303
Kalashnikovs NNPS 0.0015480
angered VBD 0.0002631
angered VBN 0.0002657
Lisabeth NNP 0.0000303
wake VB 0.0002550
worn VBN 0.0002657
Voters NNS 0.0001109
Cal NNP 0.0001214
Drug NNP 0.0000910
beforehand RB 0.0002755
season-high JJ 0.0000920
Gippsland NNP 0.0000303
Auction NNP 0.0000303
Huddersfield NNP 0.0000910
Huddersfield VBN 0.0010627
Press NNP 0.0002124
violation NN 0.0002298
declining VBG 0.0004227
Flemming NNP 0.0000607
Flemming VBG 0.0008453
die VBP 0.0030441
die VB 0.0002550
judge NN 0.0004136
judge VB 0.0005099
fought VBD 0.0003946
fought VBN 0.0005313
skies NNS 0.0004435
ethical JJ 0.0000920
coxless NN 0.0000460
intellectuals NNS 0.0001109
upward RB 0.0002755
convergence NN 0.0000919
empty-handed VBN 0.0002657
Matagalpa NNP 0.0000607
Orange NNP 0.0000303
defenestration NN 0.0000460
assessed VBD 0.0001315
pretty RB 0.0016529
Rakow NNP 0.0000910
FARM NN 0.0000460
stepped VBD 0.0006576
stepped VBN 0.0007970
reveal VB 0.0012749
grip NN 0.0001379
Neal NNP 0.0000303
AC NNP 0.0001214
establishing VBG 0.0004227
Magnificent NN 0.0000460
hand VB 0.0005099
hand NN 0.0006434
Nunthorpe NNP 0.0000607
Peeters NNP 0.0000303
steal VB 0.0005099
assassination NN 0.0001838
killings NNS 0.0003326
identities NNS 0.0002217
Bunge NN 0.0000460
grossed VBN 0.0002657
Bush NNP 0.0000303
chips NNS 0.0001109
Lobinger NNP 0.0000303
answers NNS 0.0002217
second-ranking JJ 0.0000920
penalities NNS 0.0001109
regard VBP 0.0015221
achievement NN 0.0000919
Fulham NNP 0.0001214
photos NNS 0.0004435
Ferguson NNP 0.0001517
fun JJ 0.0000920
fun NN 0.0002757
bureaucracy NN 0.0000460
Chaloner NNP 0.0000303
skilful JJ 0.0000920
INA NNP 0.0001214
Graeme NNP 0.0000607
Lewis NNP 0.0006373
Eiden NNP 0.0000303
Regulation NNP 0.0000910
verified VBN 0.0047821
System NNP 0.0000607
whoever WP 0.0060120
pays VBZ 0.0009070
Wells NNP 0.0001821
COMMACK NNP 0.0001214
Baret NNP 0.0000303
upright RB 0.0002755
Anil NNP 0.0000303
Wiltshire NNP 0.0000303
burn VBP 0.0007610
Paulao NNP 0.0000303
Gama NNP 0.0000910
Vaquero NNP 0.0000303
Jayasuriya NN 0.0000460
Jayasuriya NNP 0.0002124
Doug NNP 0.0000910
arriving VBG 0.0016906
her PRP 0.0124740
her PRP$ 0.0859155
Wellings NNP 0.0000303
Frechette NNP 0.0000303
non-political JJ 0.0000920
Z NNP 0.0000303
forecast VBN 0.0007970
forecast NN 0.0008272
forecast VBD 0.0002631
Shanghai NNP 0.0003945
centre-right NN 0.0000460
Buenos NNP 0.0002428
Khartoum NNP 0.0003338
Khartoum NN 0.0000460
Hodzic NNP 0.0000303
guest NN 0.0000919
Siebens NNP 0.0000303
Keirin NNP 0.0000303
feisty JJ 0.0000920
Tim NNP 0.0005159
fielding NN 0.0000460
fielding VBG 0.0004227
Krylya NNP 0.0000607
Artmedia NNP 0.0000607
Around IN 0.0001717
disturb VB 0.0002550
Jammu NNP 0.0000607
paralyzed VBN 0.0002657
sick JJ 0.0001839
Tacis NNP 0.0000607
lawsuits NNS 0.0003326
mix NN 0.0000460
Danish JJ 0.0003678
Dani NNP 0.0000303
August NNP 0.0028221
FFK NNP 0.0000910
Sion NN 0.0001379
Sion NNP 0.0001821
Aryeh NNP 0.0000303
hijacker NN 0.0000460
When WRB 0.0523416
Beaver NNP 0.0000607
reeling VBG 0.0012680
Barrichello NNP 0.0001214
Akpoborie NNP 0.0000303
Prakash NNP 0.0000303
unsteady JJ 0.0000920
Diana NNP 0.0004552
sedan NN 0.0000460
raid NN 0.0000460
raid VB 0.0002550
closes VBZ 0.0018141
closes NNS 0.0001109
DRAW NNS 0.0001109
DRAW NN 0.0001379
DRAW NNP 0.0000303
DRAW JJ 0.0000920
abstentions NNS 0.0002217
Anxieties NNS 0.0001109
B NN 0.0000919
B NNP 0.0002428
CENTER NNP 0.0000303
set-piece NN 0.0000460
Eastern NNP 0.0001517
high-profile JJ 0.0001839
keep VBP 0.0015221
keep VB 0.0053544
cabinet NN 0.0007812
Gebreselassie NNP 0.0000303
demand VBP 0.0030441
demand VB 0.0012749
demand NN 0.0012867
Carl NNP 0.0003035
brawl NN 0.0001379
Ruggiero NNP 0.0000303
agreeing VBG 0.0004227
SIX JJ 0.0000920
SIX VB 0.0002550
Greatest NNP 0.0000303
water NN 0.0005974
Martina NNP 0.0001214
cholesterol NN 0.0003217
achieve VB 0.0007649
mirroring NN 0.0000460
Dietmar NNP 0.0000607
transportation NN 0.0000919
Jongsma NNP 0.0000607
Pauline NNP 0.0000910
routed VBN 0.0005313
dismissing VBG 0.0004227
viewing VBG 0.0004227
our PRP$ 0.0415493
said VBD 0.2167565
said VBN 0.0026567
Haeggman NNP 0.0000303
Wafa NNP 0.0000303
Ellis NNP 0.0000303
favourites VBZ 0.0004535
favourites NNS 0.0001109
FOURTH IN 0.0001144
FOURTH NNP 0.0000303
Torshina NNS 0.0001109
TOUR JJ 0.0005518
TOUR NNP 0.0000303
DAKAR RB 0.0005510
Nicole NNP 0.0001214
astonished VBN 0.0002657
Madagascar NNP 0.0000607
photo NN 0.0000460
Norwegian JJ 0.0001839
five-run JJ 0.0004598
Bosnia-Hercegovina NNP 0.0000303
priorities NNS 0.0001109
territory NN 0.0006893
fuse VB 0.0002550
depart VB 0.0002550
declaring VBG 0.0012680
hearing VBG 0.0012680
hearing NN 0.0001379
aims NNS 0.0001109
aims VBZ 0.0018141
Ruben NNP 0.0000910
Feng NNP 0.0000303
Malgorzata NNP 0.0000607
knifed JJ 0.0000920
knifed VBN 0.0002657
Dirkx NNP 0.0000303
African NNP 0.0005159
African JJ 0.0029428
nine-day JJ 0.0000920
abduction NN 0.0002757
puts VBZ 0.0004535
lob NN 0.0000460
Meditation NNP 0.0000303
IMF-sponsored JJ 0.0000920
concern NN 0.0006434
TABLE NNP 0.0000303
strategy NN 0.0001838
again RB 0.0088154
OTTAWA NNP 0.0000303
whitewater NN 0.0000460
practice NN 0.0000919
accepted VBD 0.0007892
accepted VBN 0.0005313
doldrum NN 0.0000460
guided VBN 0.0005313
guided VBD 0.0001315
Sebastien NNP 0.0000910
Gloria NNP 0.0002731
Kaba NN 0.0000460
Kaba NNP 0.0000303
Nations NNS 0.0006652
Nations NNPS 0.0294118
Nations NNP 0.0001214
Researchers NNS 0.0001109
Cordova NNPS 0.0015480
punches VBZ 0.0004535
punches NNS 0.0001109
Gerald NNP 0.0000303
brigade NN 0.0000460
Nor CC 0.0002971
SPEECH NNP 0.0000303
TOWN NNP 0.0000910
mln JJ 0.0001839
mln NN 0.0002298
mln NNS 0.0003326
Zickler JJR 0.0028986
Zickler NNP 0.0000303
delicate JJ 0.0000920
unlit NN 0.0000460
Baronti NNP 0.0000303
FDP SYM 0.0128480
FDP NNP 0.0001821
Gunda NNP 0.0000303
poultry NN 0.0000460
bidders NNS 0.0002217
Lucerne NNP 0.0000607
Wachtel NNP 0.0000303
complaining VBG 0.0012680
misery NN 0.0000460
Pontiac NNP 0.0000303
mind NN 0.0002757
nationalistic JJ 0.0000920
boat NN 0.0005055
anxieties NNS 0.0001109
's PRP 0.0003465
's VBZ 0.0471655
's POS 0.9144828
's NNP 0.0000910
Stroud NNP 0.0000303
submerged JJ 0.0000920
ceasefire NN 0.0016084
ceasefire JJ 0.0000920
Peltonen NNP 0.0000303
Chatichai NNP 0.0000303
secession NN 0.0001379
Conde NNP 0.0000607
Monterrey NNP 0.0000607
breakaway RB 0.0002755
breakaway JJ 0.0002759
ridiculous JJ 0.0000920
Hashem NNP 0.0000303
Masayoshi NNP 0.0000303
fob NN 0.0000919
fob VBP 0.0007610
component NN 0.0000460
Bristol NNP 0.0003035
Atherton NNP 0.0003338
Guingamp NN 0.0001838
Guingamp NNP 0.0001517
experiencing VBG 0.0004227
Meanwhile RB 0.0005510
contol NNS 0.0001109
Partick NNP 0.0000607
Chaser NN 0.0000460
swirled VBD 0.0001315
Glimt NN 0.0000919
management NN 0.0006893
ambassador NN 0.0003676
poisoning NN 0.0001838
Amer NNP 0.0000303
Gisenyi NNP 0.0000910
republics NNS 0.0001109
appreciation NN 0.0000919
faction NN 0.0005055
scoring VBG 0.0042265
scoring NN 0.0000919
Hollywood NNP 0.0000607
dissolution NN 0.0001379
GDANSK NNP 0.0000303
year-on-year NN 0.0000919
year-on-year JJ 0.0001839
horses NNS 0.0001109
Pizzichini NNP 0.0000303
typical JJ 0.0002759
Misael NNP 0.0000607
dramatic JJ 0.0000920
department NN 0.0004136
Sgt UH 0.0303030
Houston NNP 0.0003035
racist JJ 0.0001839
Run NNP 0.0000303
infections NNS 0.0001109
cards NNS 0.0001109
fours NNS 0.0004435
fours VBZ 0.0004535
criticising VBG 0.0008453
Now RB 0.0019284
speech JJ 0.0000920
speech NN 0.0003676
RECALL NNP 0.0000303
chicken NN 0.0000919
statistics NNS 0.0003326
Firestone NNP 0.0000910
cigarette NN 0.0000460
ripe JJ 0.0000920
Duisburg NNP 0.0001821
Duisburg VBG 0.0004227
BEIRUT IN 0.0001717
submitted VBN 0.0002657
submitted VBD 0.0003946
metals NNS 0.0002217
killed VBN 0.0146121
killed VBD 0.0026305
also RB 0.0534435
EDGE : 0.0008094
EDGE NN 0.0000460
EDGE NNP 0.0000303
Starting VBG 0.0004227
cull NN 0.0000460
cull JJ 0.0000920
gaining VBG 0.0004227
go-slow JJ 0.0000920
burst NN 0.0001379
burst VBD 0.0001315
RUSSIA NNP 0.0000303
Markvart NNP 0.0000607
Miron NNP 0.0000303
serve VB 0.0010199
serve NN 0.0001379
serve JJ 0.0000920
serve VBP 0.0007610
Shehu NNP 0.0000607
admitted VBD 0.0009207
admitted VBN 0.0023911
Aguas NNP 0.0000303
height NN 0.0000460
Companion NNP 0.0001214
PDSR NNP 0.0000303
occasionally RB 0.0002755
denounced VBD 0.0005261
leaked VBN 0.0002657
Perm NNP 0.0000303
ECOMOG NN 0.0000460
ECOMOG NNP 0.0000607
capital NN 0.0032168
Shen NNP 0.0000607
DEBUT NN 0.0000460
Lead JJ 0.0002759
keeps VBZ 0.0004535
long-term JJ 0.0010116
Hedblom NNP 0.0000607
Topolcany NNP 0.0000910
riders NNS 0.0002217
Maarten NNP 0.0000607
Louis NNP 0.0005766
sponsors NNS 0.0003326
Ord NNP 0.0000303
cleaning JJ 0.0000920
skins NNS 0.0001109
Lecce NNP 0.0000607
Lecce NN 0.0000460
rather RB 0.0024793
Malchugina NNP 0.0000303
recognizes VBZ 0.0004535
CHINA NNP 0.0000303
Jiang NNP 0.0000910
scrapie NN 0.0000919
Hutnik NNP 0.0001214
four-game JJ 0.0001839
bolster VB 0.0005099
yes RB 0.0002755
yes UH 0.0303030
fast-tracking JJ 0.0000920
advertising NN 0.0003217
advertising VBG 0.0012680
helped VBD 0.0009207
helped VBN 0.0007970
Further JJ 0.0001839
Further RB 0.0002755
overshot VBP 0.0007610
amidst IN 0.0000572
Chaouch NN 0.0000460
seventh JJ 0.0013794
grains NNS 0.0001109
Amanda NNP 0.0001517
Quac NNP 0.0000303
Maigret NNP 0.0000303
Microsoft NNP 0.0002428
Jone NNP 0.0000303
Joining VBG 0.0004227
gap NN 0.0001379
Leverkusen NNP 0.0003035
Leverkusen NNS 0.0001109
increased VBD 0.0007892
increased VBN 0.0034538
Station NNP 0.0000303
chipping VBG 0.0008453
reliever NN 0.0002757
promoter NN 0.0000919
Saggers NNP 0.0000303
gloom-stricken JJ 0.0000920
bounce NN 0.0000919
bounce VB 0.0002550
retain VB 0.0012749
guards NNS 0.0009978
Academic NNP 0.0000303
Greste NNP 0.0000303
IPMA NNP 0.0000303
nationwide JJ 0.0000920
exports NNS 0.0031042
suburb NN 0.0000919
Choonhavan NNP 0.0000303
positions NNS 0.0016630
UKRAINIAN NNP 0.0000303
sadmasochistic JJ 0.0000920
Biljana NNP 0.0000303
Motherwell NNP 0.0000910
Milk NN 0.0000919
ROUND NNP 0.0003945
assurances NNS 0.0001109
reasons NNS 0.0008869
Hyundai NNP 0.0002428
prove VB 0.0005099
SQUAD NNP 0.0002124
SQUAD JJ 0.0000920
SQUAD VB 0.0005099
trading VBG 0.0054945
trading NN 0.0012867
reach VB 0.0012749
reach NN 0.0000460
Volkova NNP 0.0002124
intervention NN 0.0002757
divergent JJ 0.0000920
taste NN 0.0000460
Botham NNP 0.0002124
Nyakyi NNP 0.0000303
Thierry NNP 0.0000607
categories NNS 0.0001109
Tries NNPS 0.0015480
Tries NNS 0.0003326
Kanie NNP 0.0000303
soldiers NNS 0.0017738
Asa NNP 0.0000910
Kerkrade NNP 0.0001821
Makarova NNP 0.0000303
Manuel NNP 0.0000910
SLIDE NN 0.0000460
real JJ 0.0008277
FBI NNP 0.0000607
aimed VBD 0.0001315
aimed VBN 0.0034538
Pace NNP 0.0000303
Fokker NNP 0.0000303
resort NN 0.0001838
resort VBP 0.0007610
Nocerina NNP 0.0000303
competitiveness NN 0.0000460
Glen NNP 0.0001214
Interviewed VBN 0.0002657
BSE-infected JJ 0.0000920
components NNS 0.0001109
Ban NNP 0.0000607
Speaker NNP 0.0002731
bush NN 0.0001379
HISTORIC NNP 0.0000303
softer JJR 0.0115942
SepOct JJ 0.0000920
Janette NNP 0.0000303
dropping VBG 0.0008453
sidings NNS 0.0001109
damp VB 0.0002550
damp NN 0.0000460
inability NN 0.0000460
airports NNS 0.0011086
McRae NNP 0.0000607
mismanagement NN 0.0000460
fresh JJ 0.0002759
happened VBN 0.0002657
happened VBD 0.0009207
Arequipa NNP 0.0002428
Buffalo NNP 0.0000303
Recriminations NNS 0.0001109
several JJ 0.0037705
Boraine NNP 0.0000607
Zenith NNP 0.0003035
cable NN 0.0000460
exclusive JJ 0.0004598
Begum NNP 0.0000607
robbers NNS 0.0001109
speedy JJ 0.0000920
waist NN 0.0000460
demonstrate VBP 0.0007610
BAYERISCHE NNP 0.0000303
BAYERISCHE VBP 0.0007610
CUBS NNP 0.0000303
CUBS NNS 0.0001109
CUBS : 0.0004047
Rapeseed JJ 0.0001839
supply VB 0.0005099
supply NN 0.0003676
diplomats NNS 0.0009978
discussion NN 0.0000460
LeBoeuf NNP 0.0000303
BRAVES NNS 0.0002217
BRAVES NNPS 0.0015480
BALANCE NNP 0.0000303
BALANCE NN 0.0000460
Fair NNP 0.0000910
enthusiast NN 0.0000460
Women NNP 0.0000607
Women NNS 0.0056541
whirlwind JJ 0.0000920
petition NN 0.0000460
Evelyn NNP 0.0000607
Department NNP 0.0006069
Aliuska NNP 0.0000607
Speech VB 0.0002550
observance NN 0.0000460
bulk NN 0.0000919
Tutsis NNPS 0.0015480
Tutsis NNP 0.0000607
payments NNS 0.0003326
Milhaud NNP 0.0000607
hunter NN 0.0000460
nature NN 0.0001379
Surinamese NN 0.0000460
lanky JJ 0.0000920
actions NNS 0.0007761
showing NN 0.0001838
showing VBG 0.0016906
expressions NNS 0.0001109
Congo NNP 0.0001214
suggestion NN 0.0000460
MEHRTENS NNP 0.0000303
Plant NN 0.0000460
tiebreak NN 0.0000460
moderate JJ 0.0000920
moderate NN 0.0000460
N NN 0.0000919
N NNP 0.0001821
Ashish NNP 0.0000303
'S POS 0.0165517
'S VBZ 0.0022676
watchdog NN 0.0000919
eighteen CD 0.0000528
banning NN 0.0000460
banning VBG 0.0012680
GT NNP 0.0000303
gratitude NN 0.0000460
Date NN 0.0000460
Date NNP 0.0003945
Mortgage NN 0.0000460
Diego-based JJ 0.0000920
Karak NNP 0.0001214
call NN 0.0006893
call VB 0.0033146
call VBP 0.0007610
weakened VBD 0.0001315
weakened VBN 0.0005313
Krejner NNP 0.0000303
hunt NN 0.0002298
hunt VB 0.0002550
hunt VBP 0.0007610
Bamerindus NNP 0.0000910
Bamerindus NNS 0.0002217
nationalists NNS 0.0003326
affects VBZ 0.0009070
popular JJ 0.0005518
Freed VBN 0.0002657
deducted VBN 0.0002657
INDIANS VBZ 0.0004535
awarded VBN 0.0007970
respect VB 0.0005099
respect NN 0.0001379
respect VBP 0.0007610
Lane NNP 0.0000607
unsustainable JJ 0.0000920
green JJ 0.0003678
Paranaense NNP 0.0000910
extradite VB 0.0007649
Mandolina NNP 0.0000303
desert NN 0.0000460
assailants NNS 0.0001109
Switzerland NNP 0.0007586
Hansie NNP 0.0000303
Wahlen NNP 0.0000303
cheap JJ 0.0000920
than IN 0.0074956
financed VBN 0.0005313
Klaus NNP 0.0000607
Corrigendum NNP 0.0000607
scrum-half JJ 0.0000920
Gouda NNP 0.0000303
Silvia NNP 0.0000303
arguments NNS 0.0001109
Chairmen NNP 0.0000303
WHEAT JJ 0.0001839
WHEAT NNP 0.0000303
Corporation NNP 0.0002124
Lows NNS 0.0001109
Lows NNP 0.0000303
matches VBZ 0.0018141
matches NNS 0.0094235
reperforated VBN 0.0002657
sawn-off JJ 0.0000920
Town NNP 0.0001214
JOUR JJ 0.0000920
sacks NNS 0.0001109
translated VBN 0.0002657
Knoroz NNP 0.0000303
V : 0.0028329
V NNP 0.0006373
repatriate VB 0.0002550
sucked VBN 0.0002657
Mark NNP 0.0017297
trafficking NN 0.0002298
STANSTED VBN 0.0010627
affiliated VBN 0.0002657
proud JJ 0.0001839
Drop VB 0.0002550
these DT 0.0029376
tolerate VB 0.0002550
pennants NNS 0.0001109
ham NN 0.0000460
Brenden NNP 0.0000303
heels NNS 0.0001109
accusing VBG 0.0021133
non-traditional JJ 0.0000920
non-traditional NN 0.0000460
Dmitry NNP 0.0000607
homocide NN 0.0000460
appeal VB 0.0028047
appeal NN 0.0004595
midfielder NN 0.0004136
midfielder JJR 0.0028986
midfielder FW 0.0467836
midfielder JJ 0.0000920
adviser NN 0.0001379
meantime NN 0.0000919
outdid VBD 0.0001315
Resources NNP 0.0000303
Berovo NNP 0.0000303
ISLAND NNP 0.0000303
cities NNS 0.0002217
alarms NNS 0.0001109
TIME NN 0.0000460
reassert NN 0.0000460
Orioles NNP 0.0003945
flight NN 0.0009650
Gane NNP 0.0000607
MLN NNP 0.0000910
Radcliffe NNP 0.0000303
Peters NNP 0.0000303
Lausgberg NNP 0.0000303
homosexual JJ 0.0000920
Carretero NNP 0.0000607
Ghent NN 0.0001379
Chinnathambi NNP 0.0000303
Venezuelan JJ 0.0002759
flying NN 0.0000460
flying VBG 0.0025359
Husarova NNP 0.0000303
GREEN NNP 0.0000303
Resalat NNP 0.0000303
Resalat NN 0.0000460
SRINAGAR NN 0.0000460
Mutawakel NNP 0.0000303
cat NN 0.0000460
Looking VBG 0.0004227
Anytime JJ 0.0000920
bed NN 0.0002757
Rev NNP 0.0000303
Technologies NNPS 0.0030960
bands NNS 0.0001109
Lampitt NNP 0.0000607
independence NN 0.0011488
Germans NNPS 0.0030960
terrorist JJ 0.0004598
Schreuder NNP 0.0000303
Felicia NNP 0.0000607
offical JJ 0.0000920
north-east RB 0.0002755
Any DT 0.0001632
plundered VBD 0.0001315
selling VBG 0.0008453
selling NN 0.0000919
canoe NN 0.0000460
Heavy JJ 0.0002759
Emirates NNP 0.0000303
Ukraine NNP 0.0011531
Favourite NNP 0.0000303
arson NN 0.0001379
fake JJ 0.0001839
Suan NNP 0.0000303
HIT PRP$ 0.0007042
Leoni NNP 0.0000303
Kurdistan NNP 0.0005462
Rugby NNP 0.0000607
Rugby JJ 0.0002759
Masanaga NNP 0.0000607
Dalglish JJ 0.0000920
Dalglish NNP 0.0000910
Anatolian JJ 0.0000920
Anatolian NNP 0.0000303
anti-Semitic JJ 0.0000920
decider NN 0.0000919
super JJ 0.0000920
gathering NN 0.0001838
Pay NN 0.0001379
mining NN 0.0001838
mining VBG 0.0004227
Services NNPS 0.0030960
Services NNP 0.0000910
tentative JJ 0.0001839
greater JJR 0.0086957
LAW NNP 0.0000910
HOEK NNP 0.0000607
trek NN 0.0000460
polling NN 0.0001379
Faizy NNP 0.0000303
Plc NNP 0.0002124
Tadeusz NNP 0.0000303
Navjot NNP 0.0000303
WEN NNP 0.0000303
Adriana NNP 0.0000303
reais NNS 0.0001109
bombardment NN 0.0000460
Spectators NNS 0.0001109
west-northwest JJS 0.0042735
memorandum NN 0.0000919
scene NN 0.0003217
PC NNP 0.0000303
courtroom NN 0.0000460
Spirlea NNP 0.0000607
Washington NNP 0.0010621
Washington NN 0.0000460
specialist NN 0.0001379
KPC NNP 0.0000303
gases NNS 0.0001109
Linda NNP 0.0000607
ruled VBD 0.0011837
ruled VBN 0.0013284
meningitis NNS 0.0003326
meningitis NN 0.0000460
marshal NN 0.0000460
Po NNP 0.0000910
connection NN 0.0003217
Immediate NNP 0.0000303
telephoned VBN 0.0002657
McGrory NNP 0.0000303
NYMEX NNP 0.0000607
Feyenoord NNP 0.0004552
Benesova NNP 0.0000303
Saqlain NNP 0.0000910
Muttiah NNP 0.0000303
starter JJ 0.0002759
starter NN 0.0001379
procedures NNS 0.0002217
AWARDED : 0.0004047
AWARDED NNP 0.0000303
Napoleon NNP 0.0000303
outlook NN 0.0002298
Banglabazar NNP 0.0000303
recalled VBD 0.0005261
recalled VBN 0.0002657
Gilbert NNP 0.0002428
Grossard NNP 0.0000303
Aron NNP 0.0000303
Shrs NNS 0.0002217
occupied JJ 0.0001839
Dnevi NNP 0.0000607
semi-upright JJ 0.0000920
wheats NNS 0.0001109
MAJOR : 0.0064751
MAJOR NNP 0.0004855
blasts NNS 0.0001109
Pre-electoral JJ 0.0000920
Tikva NNP 0.0000607
ELIZABETH RB 0.0002755
Xinhua NNP 0.0001214
FUN NNP 0.0000303
long-standing JJ 0.0000920
Their PRP$ 0.0063380
SPD SYM 0.0128480
SPD NNP 0.0001821
customer VB 0.0002550
customer NN 0.0002298
dragged VBD 0.0005261
eight CD 0.0030106
employ VB 0.0002550
depositions NNS 0.0001109
rioting NN 0.0000460
cooperating VBG 0.0012680
formal JJ 0.0007357
Honduran JJ 0.0000920
sportsman NN 0.0000460
fat NN 0.0000460
fat JJ 0.0000920
da NNP 0.0000910
abdicated VBN 0.0002657
Second-ranked JJ 0.0000920
Oct NNP 0.0002428
Kaucuk NNP 0.0000607
Agdam NNP 0.0000303
F.B.I. NNP 0.0000303
accords NNS 0.0006652
Shuzo NNP 0.0000607
driving VBG 0.0029586
driving NN 0.0000919
REQUEST NNP 0.0000303
mysterious JJ 0.0000920
morphine NN 0.0000460
mettle NN 0.0000460
systems NNS 0.0007761
Constanza NNP 0.0000303
FOB NNP 0.0000607
DIARIO VBG 0.0004227
deteriorate VB 0.0002550
earlier RBR 0.3493151
earlier RB 0.0041322
earlier JJR 0.0202899
Giuseppe NNP 0.0000607
cwt NN 0.0001379
cwt JJ 0.0000920
Vriesde NNP 0.0000303
fence NN 0.0001838
discus NNS 0.0002217
Bohdan NNP 0.0001517
thanking VBG 0.0004227
Aides NNS 0.0002217
anxious JJ 0.0000920
awaiting VBG 0.0012680
marketings VBZ 0.0004535
Yakin NNP 0.0000303
sympathisers NNS 0.0001109
courtyard NN 0.0000460
youthful JJ 0.0001839
Education NNP 0.0001214
Lommel NNP 0.0000910
aircrew NNS 0.0001109
well-oiled JJ 0.0000920
Ezinwa NNP 0.0001214
meat NN 0.0001379
ASWAQ NNP 0.0000303
adventure NN 0.0000460
doctor NN 0.0003217
Dimitrios NNPS 0.0030960
two-year-olds NNS 0.0001109
Director NNP 0.0000303
Pakistan-ruled JJ 0.0001839
Pablo NNP 0.0000910
fractionally RB 0.0008264
Hashan NNP 0.0000607
Yedioth NN 0.0000460
Yedioth NNP 0.0000910
Sali NNP 0.0000303
ill-fated JJ 0.0001839
proximity NN 0.0000460
pct NN 0.0017462
pct NNS 0.0004435
pct JJ 0.0007357
pct VBN 0.0005313
Beersheva NNP 0.0000303
two-goal JJ 0.0002759
Susana NNP 0.0000303
Hajduk NNP 0.0000303
Hajduk NNS 0.0001109
dealers NNS 0.0022173
drew VBN 0.0002657
drew VBD 0.0019729
Seng NNP 0.0000303
Regula NNP 0.0000303
Sudanese NNP 0.0006979
warnings NNS 0.0001109
Osteopathic NNP 0.0000303
goals NNS 0.0063193
Akashi NNP 0.0000910
proceeding VBG 0.0012680
mourn VB 0.0002550
raids NNS 0.0004435
congratulations NNS 0.0001109
absentia NN 0.0000460
books NNS 0.0017738
abducted NN 0.0001838
roughly RB 0.0008264
lots NNS 0.0002217
breakthrough NN 0.0000460
decline VBP 0.0007610
decline NN 0.0001838
decline VB 0.0002550
Goinxha NNP 0.0000303
Dana NNP 0.0000303
desks NNS 0.0001109
Thorpe NNP 0.0003945
Agassi NNP 0.0002731
Belcher NNP 0.0000303
guru NN 0.0000460
Majid NNP 0.0000303
Assets NNS 0.0001109
barges NNS 0.0002217
velodrome NN 0.0000919
interview NN 0.0005055
four-and-a-half JJ 0.0000920
millfeeds NNS 0.0002217
Letitia NNP 0.0000607
Mitsubishi NNP 0.0002731
Joe NNP 0.0000607
Nicaraguan NNP 0.0000607
Nicaraguan JJ 0.0010116
Nisbet NNP 0.0000303
feat NN 0.0000460
Sivasiththamparam NNP 0.0000303
functioning NN 0.0000460
functioning VBG 0.0004227
Heng NNP 0.0000303
WV NNP 0.0000303
DIEGO NNP 0.0005462
governor NN 0.0007353
Export NN 0.0000460
Export NNP 0.0000910
necessitate VB 0.0002550
Volendam NNP 0.0003035
Andersson NNP 0.0001214
bank NN 0.0024815
inventing VBG 0.0004227
wave NN 0.0001379
monster NN 0.0000460
Bishop NNP 0.0000303
Keiji NNP 0.0000607
borrowing VBG 0.0004227
borrowing NN 0.0000460
BORROWER NNP 0.0000607
Estonia NNP 0.0003035
cranium NN 0.0000460
attributed VBN 0.0002657
Nordegg NNP 0.0000303
Stockholm NNP 0.0000303
PHILLIES NNS 0.0002217
RUN-OUT : 0.0004047
RUN-OUT NNP 0.0000303
Lokomotiv NNP 0.0001214
export NN 0.0005974
washed VBN 0.0002657
washed VBD 0.0001315
Rules NNS 0.0001109
Rules NNP 0.0000303
Rules NNPS 0.0015480
swell JJ 0.0000920
If IN 0.0016593
factor NN 0.0002757
straining VBG 0.0004227
Wilfried NNP 0.0000303
Hamas NNP 0.0001214
Hamas NNPS 0.0015480
Hamas VBZ 0.0004535
barge NN 0.0000919
Grasu NNP 0.0000303
WOMEN VBP 0.0015221
WOMEN NNP 0.0000303
Gates NNP 0.0000303
Lombardi NNP 0.0000607
WAIT NNP 0.0000607
stem VB 0.0002550
assemble VB 0.0002550
Vosberg NNP 0.0000303
Dharmasena NNP 0.0001214
accomplices NNS 0.0003326
Keino NNP 0.0000303
bailout NN 0.0000460
CONTRIBUTED NNP 0.0000303
Manaus NNP 0.0000303
Games NNPS 0.0216718
Phillies NNP 0.0001821
central JJ 0.0039544
central DT 0.0000816
class NN 0.0002757
animist JJ 0.0000920
long-on NN 0.0000919
Senior NNP 0.0000607
Senior JJ 0.0000920
SLOVAK NNP 0.0000303
Warrington NNP 0.0000910
Warrington NN 0.0001379
swelled VBN 0.0002657
utterly RB 0.0002755
Sary NN 0.0000460
Sary NNP 0.0000910
FFT NNP 0.0000607
al-Ingaz JJ 0.0000920
draft NN 0.0005055
javelin NN 0.0001838
occupy VB 0.0005099
Quarter-finals NNS 0.0002217
anger NN 0.0000919
EMU NNP 0.0000303
Kibet NNP 0.0000303
rejoined VBD 0.0002631
injured JJ 0.0007357
injured VBN 0.0055792
optimistic JJ 0.0002759
Creedmoor NNP 0.0000303
Symcox NNP 0.0000303
controversial JJ 0.0005518
insurgents NNS 0.0004435
Workington NNP 0.0000303
Workington NN 0.0001379
concerning VBG 0.0016906
prospector NN 0.0000460
Kundic NNP 0.0000303
interpretation NN 0.0000460
Thuet NNP 0.0000607
assure VB 0.0005099
Algeria NNP 0.0002428
Acre NNP 0.0000910
baby NN 0.0002298
presiding VBG 0.0004227
hill-top JJ 0.0000920
business NN 0.0013786
Der NNP 0.0000607
Morinville NNP 0.0001214
enforced VBN 0.0002657
Politehnica NNP 0.0000607
Sava NNP 0.0000303
Pearson NNP 0.0000303
Israeli NNP 0.0001821
Israeli JJ 0.0037705
first-week JJ 0.0000920
semifinalist NN 0.0002298
relatively RB 0.0016529
Rashid NNP 0.0000910
Samsung NNP 0.0002731
unspecified JJ 0.0001839
firing VBG 0.0021133
uneven JJ 0.0001839
Nicklas NNP 0.0000910
prompting VBG 0.0004227
criticized VBD 0.0002631
Waugh NNP 0.0003945
courage NN 0.0000460
FTSE RB 0.0002755
FTSE NN 0.0000460
FTSE NNP 0.0000303
tying VBG 0.0016906
Fung NNP 0.0000303
Super NNP 0.0002428
jumps VBZ 0.0004535
NSDAP-AO NNP 0.0000607
refugee NN 0.0003217
discovery NN 0.0000460
remove VB 0.0017848
loud RB 0.0002755
loud JJ 0.0000920
moved VBN 0.0013284
moved VBD 0.0009207
weakening NN 0.0000919
weakening VBG 0.0008453
lunch NN 0.0003676
rottweiler JJ 0.0000920
muted VBN 0.0002657
Mapei NNP 0.0000910
Mapei NNPS 0.0046440
searched VBN 0.0002657
searched VBD 0.0005261
scuffle NN 0.0000460
PAGES NNP 0.0000607
leaders NNS 0.0058758
mines NNS 0.0004435
Chan NNP 0.0000607
Kumaratunga NNP 0.0000303
Canizares NNPS 0.0030960
MAPUTO TO 0.0003134
third-placed JJ 0.0000920
non-management NN 0.0000460
TBC NNP 0.0000303
soyoil JJ 0.0000920
soyoil VBP 0.0007610
Capelle NNP 0.0000303
extra-judicial JJ 0.0000920
Alpha NNP 0.0000607
Invitation NNP 0.0000303
Long NNP 0.0000607
Ulsan JJ 0.0000920
Ulsan NNP 0.0000303
Ulsan NN 0.0000919
Ipsos NNS 0.0001109
quality NN 0.0001838
CONT VBN 0.0002657
lions NNS 0.0004435
Knifeman NNP 0.0000303
Isbank NNPS 0.0015480
Mystery NN 0.0000460
Sabatini NNP 0.0000910
Karbacher NNP 0.0000607
Grant NNP 0.0001214
JORNAL JJ 0.0001839
Angeles NNP 0.0005766
Hack NNP 0.0000303
Rupam NNP 0.0000303
Free NNP 0.0000910
signature NN 0.0000919
dispensation NN 0.0000460
Ferrigato JJ 0.0000920
Ferrigato NNP 0.0001214
Linford NNP 0.0001821
Florencia NNP 0.0000607
deja-voodoo NN 0.0000460
longitude NN 0.0000460
patient JJ 0.0000920
patient NN 0.0000460
exploratory JJ 0.0000920
Inter NNP 0.0001214
CASH NN 0.0000460
Loznica NNP 0.0000607
pushes VBZ 0.0004535
Fieger NNP 0.0000303
I.K. NNP 0.0000303
POSITIONS NNP 0.0000607
POSITIONS NNS 0.0001109
POSITIONS : 0.0008094
disciplinary JJ 0.0003678
upstairs RB 0.0002755
allied VBD 0.0002631
allied VBN 0.0005313
allied JJ 0.0000920
Plata NNP 0.0000303
My NNP 0.0000303
My PRP$ 0.0028169
parks NNS 0.0001109
K. NNP 0.0002124
programming NN 0.0000460
trainer NN 0.0000919
come VBN 0.0018597
come VBP 0.0038052
come VB 0.0035696
tablets NNS 0.0003326
Fairbrother NNP 0.0001821
boycott VB 0.0012749
Richardt NN 0.0000460
Richardt NNP 0.0000303
resolutions NNS 0.0001109
Sekou NNP 0.0000303
abortions NNS 0.0001109
assistant NN 0.0001838
Interpol NNP 0.0001517
Attempts NNS 0.0001109
murderers NNS 0.0001109
gang NN 0.0000460
adventurers NNS 0.0001109
IBIS NNP 0.0000303
Teravainen NNP 0.0000303
JC NNP 0.0002124
comment VB 0.0020398
comment NN 0.0007353
Queen NNP 0.0003338
in-form JJ 0.0000920
Learning NNP 0.0000303
RELATIONS NNS 0.0001109
sons NNS 0.0001109
PREMATURE VBP 0.0007610
cover VBP 0.0007610
cover VB 0.0007649
cover NN 0.0000460
MONROVIA NNP 0.0000607
federation NN 0.0004136
premium NN 0.0001838
STRIKER NNP 0.0000303
Labor NNP 0.0000910
Labor NN 0.0000460
Julius NNP 0.0000303
wholesale JJ 0.0000920
surpass VB 0.0002550
shares VBZ 0.0004535
shares NNS 0.0101996
This DT 0.0031824
nor CC 0.0023767
Shutdown VBN 0.0002657
YANKEES NNP 0.0000607
YANKEES : 0.0004047
Shah NNP 0.0001214
Jim NNP 0.0006676
solution NN 0.0004136
Baku NNP 0.0000303
streamlined JJ 0.0000920
Deon NNP 0.0000303
Unknown JJ 0.0000920
Anita NNP 0.0000303
jars NNS 0.0004435
Sidot NNP 0.0000607
FREQ NNS 0.0001109
Nacar NNP 0.0000607
Transportation NNP 0.0000910
filmed VBN 0.0005313
tortured VBN 0.0002657
Liechenstein NNP 0.0000607
favourable JJ 0.0000920
Dean NNP 0.0001821
Senora NNP 0.0000303
K.C. NNP 0.0000303
Macedonian NNP 0.0000607
ref NN 0.0000460
preside VB 0.0002550
cif NN 0.0000460
refinance VB 0.0002550
secs NN 0.0000460
Wright NNP 0.0000303
Liberal NNP 0.0000607
Liberal JJ 0.0001839
fees NNS 0.0001109
hinting VBG 0.0004227
Pukstys NNP 0.0000607
Vairelles NNP 0.0000303
Vairelles NNS 0.0001109
So CC 0.0002971
So RB 0.0008264
AVIA NNP 0.0000303
square-jawed JJ 0.0000920
offenders NNS 0.0004435
Edwards NNP 0.0001821
Board NNP 0.0002428
perhaps RB 0.0011019
Pretoria NN 0.0000919
column NN 0.0002757
seed VB 0.0002550
seed NN 0.0014246
McQuillan NNP 0.0000303
weaving VBG 0.0004227
GOALLESS NNP 0.0000303
ex-div JJ 0.0000920
theft NN 0.0003217
Bonn NNP 0.0002428
Agrins NNP 0.0000303
Grimsby NNP 0.0001214
Grimsby RB 0.0008264
drove VBD 0.0022360
Kaolack NNP 0.0000303
networked JJ 0.0000920
MUZAFFARABAD NNP 0.0000607
Bangladeshi NNP 0.0000607
Felipe NNP 0.0000303
Asselman NNP 0.0000303
consumed VBD 0.0001315
revs NNS 0.0001109
Kimiko NNP 0.0001821
LUMPUR NNP 0.0001214
Facchinetti NNP 0.0000303
autobiography NN 0.0000919
Mercer NNP 0.0000303
visible JJ 0.0000920
bandit NN 0.0000460
noted VBN 0.0005313
noted VBD 0.0011837
Havana NNP 0.0000303
Springfield NNP 0.0000303
Glenview NNP 0.0000303
satisfy VB 0.0002550
sheet NN 0.0001379
sheet VB 0.0002550
ill JJ 0.0002759
Fernandes NNPS 0.0015480
championship NN 0.0021598
Skoch NNP 0.0000303
Holding NNP 0.0000303
neither DT 0.0000816
neither RB 0.0013774
Wood NNP 0.0001214
Marial NNP 0.0000607
Championship NNP 0.0002428
platform NN 0.0002298
tale NN 0.0000460
performing VBG 0.0004227
whom WP 0.0240481
expert NN 0.0000460
Mazzolari NNP 0.0000303
Stock NNP 0.0004552
voluntarily RB 0.0011019
hard JJ 0.0011035
hard RB 0.0008264
IF IN 0.0000572
alone RB 0.0016529
Fernanda NNP 0.0000607
diver NN 0.0000460
aggression NN 0.0000919
Edberg NNP 0.0001821
Edberg RB 0.0005510
Koerts NNP 0.0001214
Koerts NNPS 0.0015480
Koerts NNS 0.0002217
Benito NNP 0.0000303
coconut NN 0.0000919
Monsignor NNP 0.0000303
pullout NN 0.0002298
Kumble NNP 0.0000910
Symonds NNPS 0.0015480
Symonds NNP 0.0000607
maintain VB 0.0020398
steer NN 0.0000460
relinquish VB 0.0002550
contributing VBG 0.0004227
POINT NNP 0.0000303
saline JJ 0.0001839
drafts NNS 0.0001109
Weather NNP 0.0001214
Numerous JJ 0.0002759
IMERISIA NNP 0.0000303
Sauber NNP 0.0001821
pilot NN 0.0002757
Unita NNP 0.0001214
Unita JJ 0.0001839
Chris NNP 0.0005462
NL NNP 0.0000607
Sorrento NNS 0.0001109
Sorrento NNP 0.0000607
non-trade JJ 0.0002759
Sep NNP 0.0000303
slumping JJ 0.0000920
slumping VBG 0.0004227
freight-tonne NN 0.0000919
immune JJ 0.0001839
Papandoniou NNP 0.0000303
starved VBD 0.0002631
McFarlane NNP 0.0000303
Open NNP 0.0021545
Open VB 0.0005099
Emon NNP 0.0000607
rebuff NN 0.0000460
fifth-ranked JJ 0.0000920
matching JJ 0.0000920
Disperse NNP 0.0000303
Hotdogs NNP 0.0000303
Suzuki NNP 0.0000303
Vivit NNP 0.0000607
Berkrot NNP 0.0000910
stagnates VBZ 0.0009070
Michelman NNP 0.0000303
Paulo-Santos JJ 0.0000920
revolvers NNS 0.0001109
Graef NNP 0.0000607
replaced VBN 0.0010627
replaced JJ 0.0000920
Ducruet NNP 0.0001214
Passengers NNS 0.0002217
More JJR 0.0347826
More RBR 0.0136986
USED NNP 0.0000303
Srinagar NNP 0.0000303
officially RB 0.0011019
events NNS 0.0006652
defence JJ 0.0001839
defence VBP 0.0022831
defence NN 0.0005974
withering VBG 0.0004227
withering JJ 0.0000920
Glamorgan UH 0.0303030
Glamorgan JJ 0.0000920
Glamorgan NNP 0.0002428
precise JJ 0.0002759
bishop NN 0.0001379
PRESSE NNP 0.0000303
rumours NNS 0.0002217
treat VB 0.0005099
treat VBP 0.0007610
presidency NN 0.0003676
Doctors NNS 0.0005543
Anhui NNP 0.0000303
Debbah NNP 0.0000607
Va NNP 0.0000910
Moreira NNP 0.0000303
Conservative JJ 0.0001839
spectacular JJ 0.0000920
RUSSIAN NNP 0.0000303
Colleen NNP 0.0000303
Kathrin NNP 0.0000303
Wojciechowski NNP 0.0000303
Gildea NNP 0.0000607
vehicle NN 0.0003676
Inflation NN 0.0000460
chancellor NN 0.0000460
Sierakowice NNP 0.0000607
TODAY NNP 0.0000303
suspects VBZ 0.0009070
suspects NNS 0.0007761
publicized VBN 0.0002657
Instead RB 0.0005510
ordering VBG 0.0021133
Subpoenas NNS 0.0001109
removal NN 0.0000919
arrive VB 0.0005099
Saleh NNP 0.0000910
past JJ 0.0018392
past RB 0.0002755
past IN 0.0002861
past NN 0.0004136
Henri NNP 0.0000607
revellers NNS 0.0001109
Dahl NNP 0.0000607
TOPPLES VBN 0.0002657
facility NN 0.0000919
pacesetters NNS 0.0001109
prospect NN 0.0001838
Kovasevic NNP 0.0000303
Fanie NNP 0.0000303
friction NN 0.0000460
Arbil NNP 0.0000303
ensuring VBG 0.0012680
meditate VB 0.0002550
LOMBARDI NNP 0.0000303
towed VBN 0.0002657
towed VBD 0.0001315
Ruuttu NNP 0.0000303
BOJ NNP 0.0002428
Puchon NN 0.0002298
Copland NNP 0.0000303
AA NN 0.0000460
departure NN 0.0001379
Whittier NNP 0.0000910
flows NNS 0.0003326
Campbell NNP 0.0002731
dont VBP 0.0007610
Rouge NNP 0.0001214
INDEX NNP 0.0000303
compared VBD 0.0001315
compared VBN 0.0053135
El NNP 0.0003338
Angels NNPS 0.0123839
Angels NNP 0.0000303
directs VBZ 0.0004535
Announcing VBG 0.0004227
crusade NN 0.0000460
Slams NNPS 0.0015480
Slams NNP 0.0000303
leg NN 0.0010569
gouging NN 0.0000460
faltering VBG 0.0004227
soft JJ 0.0001839
city NN 0.0022977
Arjuna NNP 0.0000910
participation NN 0.0001838
insurgency NN 0.0000919
animal NN 0.0003676
seaside NN 0.0000460
publicist NN 0.0000919
Mansfield NNP 0.0001214
stoppage NN 0.0000919
legalise VB 0.0002550
Blaming NNP 0.0000303
stabilisation NN 0.0000460
flamboyant JJ 0.0000920
storming JJ 0.0000920
storming VBG 0.0004227
Engquist NNP 0.0000910
claiming VBG 0.0004227
over-allotment NN 0.0000460
Mir NNP 0.0000607
Huge JJ 0.0000920
J NNP 0.0000607
Telegraph NNP 0.0000303
Murray NNP 0.0000910
reaction NN 0.0001379
consummate JJ 0.0000920
SPT JJ 0.0000920
horizon NN 0.0000460
leu NN 0.0000460
photograph VB 0.0002550
circumstances NNS 0.0003326
offset VBD 0.0001315
offset VBN 0.0013284
carrier NN 0.0001379
Equipment NNP 0.0000303
procedure NN 0.0002298
Nijmegen NNP 0.0003035
board VB 0.0002550
board NN 0.0006893
board VBP 0.0007610
Cowan NNP 0.0000910
accord NN 0.0003217
Faber NNP 0.0000303
Faber JJR 0.0057971
Droits NNS 0.0001109
shows VBZ 0.0036281
defenders NNS 0.0005543
speed NN 0.0003217
fell VBD 0.0052611
Merlene NNP 0.0000607
motorways NNS 0.0001109
Fidelia NNP 0.0000303
murdering VBG 0.0016906
Fahim NNP 0.0000303
studying VBG 0.0008453
character NN 0.0000919
S.AFRICAN : 0.0004047
S.AFRICAN NNP 0.0000607
PP NNP 0.0000303
mini-state NN 0.0000460
Steels NNP 0.0000303
Steels ( 0.0003660
shack NN 0.0000460
Sophia NNP 0.0000303
HITS PRP$ 0.0007042
HITS VBZ 0.0004535
Khandwa NNP 0.0000303
STAKES NNP 0.0000303
Zirka-Nibas NNP 0.0000303
Zirka-Nibas NNS 0.0001109
barrels NNS 0.0009978
MT IN 0.0000572
MT NNP 0.0000910
clay NN 0.0000460
waterworks NN 0.0000460
Alec NNP 0.0001214
cold-hearted JJ 0.0000920
Ciments NNS 0.0001109
Ciments NNPS 0.0015480
Six-month JJ 0.0000920
OF IN 0.0030898
Mayfair NN 0.0000919
Mayfair NNP 0.0002428
Mordechai NNP 0.0000303
curled VBD 0.0001315
chaos NN 0.0001838
Altamira NNP 0.0000303
HCFA NNP 0.0000607
Five CD 0.0005282
relegation NN 0.0000919
Fringer NNP 0.0000303
late RB 0.0030303
late JJ 0.0035865
rheumatoid JJ 0.0000920
BELGRADE VB 0.0022947
sucessful JJ 0.0000920
sterling NN 0.0002757
Carsten NNP 0.0000303
investigation NN 0.0003676
Ojanen NNP 0.0000303
Darryll NNP 0.0000303
DECLARE NNP 0.0000303
DECLARE : 0.0004047
Miyagi NNP 0.0000303
Blancs NNP 0.0000303
Bevan NNP 0.0000607
Delhi NNP 0.0002731
Bernard NNP 0.0002428
Lampros NNP 0.0000303
DAY NNP 0.0001214
Opava NNP 0.0000607
Herbert NNP 0.0001214
Manchester NNP 0.0005766
Craybas NNP 0.0000303
bowled VBN 0.0007970
bowled VBD 0.0002631
casting VBG 0.0004227
Ryder NNP 0.0000607
N.M. NNP 0.0000303
detain VB 0.0002550
WORTH NNP 0.0000303
October NNP 0.0008800
Falilat NNP 0.0001214
utilisation NN 0.0000460
Mike NNP 0.0004855
III.ker.TVE NNP 0.0000303
wines NNS 0.0001109
Dakar NNP 0.0000303
Cuba NNP 0.0005159
Janez NNP 0.0000303
UML NNP 0.0000607
Proj NNP 0.0000607
MARACAIBO RB 0.0002755
Brann NNP 0.0001821
princess NNS 0.0001109
princess NN 0.0001379
loaded VBD 0.0002631
loaded VBN 0.0010627
What WP 0.0220441
Kitigawa NNP 0.0000303
AUSTRALIANS NNP 0.0000607
behaviour NN 0.0000919
Nearly RB 0.0013774
undressing VBG 0.0004227
dodging VBG 0.0004227
Rutter NNP 0.0000607
frees VBZ 0.0004535
Gontchenkov NNP 0.0000303
Johnstone NNP 0.0000910
Australia NNP 0.0039449
riyal NN 0.0000919
riyal JJ 0.0002759
falling VBG 0.0016906
WITH IN 0.0005722
Howell NNP 0.0000607
Loftus NNP 0.0000303
hospital NN 0.0013786
Bruny NNP 0.0000607
Tomasson NNP 0.0000607
Reggiana NNP 0.0000303
Jodie NNP 0.0000303
advise VB 0.0002550
struggled VBD 0.0001315
struggled VBN 0.0002657
narrow JJ 0.0003678
comprises VBZ 0.0004535
showering VBG 0.0008453
Charlier NNP 0.0000303
arrange VB 0.0007649
Rodrigo NNP 0.0000303
sympathised VBN 0.0002657
Rayyan NNP 0.0000303
milkman NN 0.0000460
lumber NN 0.0001379
Fiorentina NNP 0.0003035
Relations NNP 0.0000303
Relations NNPS 0.0015480
Relations NNS 0.0002217
news NN 0.0035384
bushland NN 0.0000919
Mo NNP 0.0001214
listen VBP 0.0007610
Impens NNPS 0.0015480
thanked VBD 0.0003946
Consulate-General NNP 0.0000303
Sharma NNP 0.0000303
irrelevant JJ 0.0000920
Iain NNP 0.0000303
Schulz NNP 0.0000607
infiltrating VBG 0.0004227
brokerage NN 0.0001379
regain VBP 0.0007610
Lanusse NNP 0.0002124
Lanusse NN 0.0000460
Reiffel NNP 0.0001517
jokes NNS 0.0001109
ambulance NN 0.0000919
unchanged JJ 0.0012875
backs NNS 0.0002217
Magne NNP 0.0000303
KIEV NNP 0.0000607
------------------------------------------------------------- SYM 0.0021413
Vegas NNP 0.0000303
benevolent JJ 0.0000920
Caribs NNP 0.0000607
Darcy NNP 0.0000607
Unit NNP 0.0000303
oversaw VBD 0.0001315
nine-wicket JJ 0.0000920
OUT-OF-SORTS NNP 0.0000303
OUT-OF-SORTS : 0.0004047
volumes NNS 0.0003326
ceremony NN 0.0002757
Conte NNP 0.0001214
Sakigake NNP 0.0001517
Sakigake NN 0.0000919
Niall NNP 0.0000303
Bomb VB 0.0002550
High-priced JJ 0.0000920
Heeswijk NNP 0.0001517
afternoon NN 0.0005514
caffeine NN 0.0000460
jitters NNS 0.0003326
forensic JJ 0.0001839
ride NN 0.0001838
RETURN NN 0.0000460
statesman NN 0.0000460
MRI NNP 0.0000303
Looming VBG 0.0004227
AL-WATAN JJ 0.0001839
Rawandouz NNP 0.0000303
satisfied JJ 0.0001839
satisfied VBN 0.0010627
freelance NN 0.0000460
BP NNP 0.0002124
Vt NNP 0.0000607
Farm NNP 0.0000910
IP PRP 0.0010395
Cunningham NNP 0.0000303
unrelated JJ 0.0000920
rebels--poll NN 0.0000460
Japanese NNS 0.0001109
Japanese NNP 0.0001517
Japanese JJ 0.0018392
Japanese NNPS 0.0015480
aggregate NN 0.0006434
aggregate JJ 0.0010116
STERLING NNP 0.0000303
repairs NNS 0.0002217
heir NN 0.0000919
Galina NNP 0.0000910
barns NNS 0.0001109
broker NN 0.0001838
line-up NN 0.0000460
jeeps NNS 0.0001109
Dekker NNP 0.0001214
Chaminda NNP 0.0000607
Under IN 0.0005722
UPSTAGES NNP 0.0000303
UPSTAGES : 0.0004047
round-trip JJ 0.0001839
Liberation NNP 0.0001517
albeit IN 0.0000572
boosted VBN 0.0007970
boosted VBD 0.0003946
mark VB 0.0005099
mark NN 0.0008272
veterinary JJ 0.0007357
owners NNS 0.0005543
consultations NNS 0.0001109
buyers NNS 0.0005543
Silver NN 0.0000919
Inger NNP 0.0000303
overs NNS 0.0038803
Brumfield NNP 0.0000303
sixth-seeded JJ 0.0001839
granite NN 0.0000460
ground-floor JJ 0.0000920
pioneers NNS 0.0001109
MARSEILLE : 0.0004047
MARSEILLE NNP 0.0000303
cent NN 0.0003217
SEATTLE NNP 0.0006676
AugSep RB 0.0002755
AugSep NN 0.0000460
Cologne NNP 0.0003338
air NN 0.0009650
south JJ 0.0003678
south NN 0.0002298
south RB 0.0035813
cancell VB 0.0002550
discontinued VBN 0.0002657
Croatia-Yugoslavia NNP 0.0000303
rouble JJ 0.0000920
rouble VB 0.0002550
Tutsi-dominated JJ 0.0001839
decentralisation NN 0.0000460
Opener NNP 0.0000303
pity NN 0.0000919
Nicaragua NNP 0.0002428
generally RB 0.0027548
Bodo NNP 0.0000607
Bodo SYM 0.0021413
EOE NNP 0.0000303
glad JJ 0.0000920
linking VBG 0.0016906
pruning NN 0.0000460
compiled VBN 0.0002657
van FW 0.0058480
van NNP 0.0006069
orderly JJ 0.0001839
Laxmi NNP 0.0000303
frontier NN 0.0000460
shameful JJ 0.0000920
errors NNS 0.0002217
routes NNS 0.0001109
Publisher NNP 0.0000303
pageant NN 0.0001379
ejected VBN 0.0002657
underwent VBD 0.0005261
five-nation JJ 0.0000920
rattled JJ 0.0000920
Independent NNP 0.0001214
Saeed NNP 0.0005159
Saeed VBN 0.0002657
Permadi NNP 0.0000303
Kpaitan NNP 0.0000303
Seles NNS 0.0002217
Seles NNPS 0.0046440
Seles NNP 0.0002124
Stenning NNP 0.0000607
Stenning NN 0.0001379
Stenning VBG 0.0008453
Zimbabwean JJ 0.0000920
outperform VB 0.0012749
analysis NN 0.0001838
disputed VBN 0.0005313
disputed VBD 0.0001315
Drawn NNP 0.0000303
APA NNP 0.0000303
Balloting VBG 0.0004227
Revenue NN 0.0004595
Revenue NNP 0.0000303
eligibility NN 0.0000460
summarily RB 0.0002755
affidavit NN 0.0000919
mistakes NNS 0.0005543
MIDDAY NNP 0.0000303
Current JJ 0.0004598
Acatepec NNP 0.0000303
recruiting VBG 0.0004227
endurance NN 0.0000919
uphold VBP 0.0007610
Ronny NNP 0.0000303
designed VBN 0.0010627
Mohammed NNP 0.0001214
Nottingham NNP 0.0001821
Oujda NNP 0.0000303
Labour NNP 0.0002428
rubella RB 0.0002755
cleansed VBD 0.0001315
distracting VBG 0.0004227
capable JJ 0.0000920
Vassiliy NNP 0.0000607
Adrian NNP 0.0003338
day-night JJ 0.0003678
clawing VBG 0.0004227
Ringer NNP 0.0000303
Sairyu NNP 0.0000303
philosopher NN 0.0000460
Angel NNP 0.0002124
Public NNP 0.0002428
coalition NN 0.0009191
Cor NNP 0.0000303
liquidity NN 0.0002298
IOC NNP 0.0001517
Ambassador NN 0.0000460
Ambassador NNP 0.0002124
quieter JJR 0.0028986
indifference NN 0.0001379
set-top JJ 0.0004598
Petrosani NNP 0.0001214
Use NN 0.0000460
dispatching VBG 0.0004227
garlic NN 0.0002757
sending VBG 0.0016906
sending NN 0.0000460
Reuf NNP 0.0000303
remorse NN 0.0000460
fire NN 0.0006434
fire VB 0.0002550
Kox NNP 0.0000303
flatly RB 0.0002755
Sohail NN 0.0000460
Sohail NNP 0.0006373
evacuated VBN 0.0005313
Sefer NNP 0.0000303
Nobilo NNP 0.0000303
AVERAGES NNPS 0.0015480
Oljeselskap NNP 0.0000303
after IN 0.0253476
after RB 0.0002755
third-round JJ 0.0001839
Fahrenheit NN 0.0000460
Gallen NNP 0.0001214
timeframe NN 0.0000460
asking VBG 0.0016906
Dow NNP 0.0001821
automated VBN 0.0002657
GAK NNP 0.0000910
Express NNP 0.0000303
Wednesday NNP 0.0074043
join VB 0.0033146
par JJ 0.0000920
par NN 0.0007353
Tilcon NNP 0.0000303
offer VBP 0.0007610
offer VB 0.0015298
offer NN 0.0006893
Muralidaran NNP 0.0000303
wrongdoing NN 0.0000460
familiar JJ 0.0000920
Moira NNP 0.0000303
Ballace NNP 0.0000303
yelled VBD 0.0001315
decision NN 0.0018841
Marina NNP 0.0001214
injuries NNS 0.0012195
Montana NNP 0.0000910
whistlestop JJ 0.0000920
semi-literate JJ 0.0000920
Opposition NN 0.0001838
tales NNS 0.0002217
Vaccari NNP 0.0000303
Noon NNP 0.0000303
founded VBN 0.0007970
founded VBD 0.0005261
Phelan NNP 0.0000607
perspective NN 0.0001379
Brundle NNP 0.0001214
LIMITS VBZ 0.0009070
aggressiveness NN 0.0000460
Patricia NNP 0.0002124
compensatory JJ 0.0000920
Jersey NNP 0.0000607
Benin NNP 0.0000607
Benin NN 0.0000919
Christchurch NNP 0.0000303
caring VBG 0.0004227
VfB NNP 0.0003641
exercised VBN 0.0002657
Eldred NNP 0.0000607
Cacic NNP 0.0000303
house NN 0.0009191
While IN 0.0005150
alloy NN 0.0000919
Movement NNP 0.0001517
lonely JJ 0.0000920
campus NN 0.0001379
Kantharoopan NNP 0.0000607
fairly RB 0.0011019
TRIPOLI NNP 0.0000607
riot NN 0.0001838
der FW 0.0526316
full-scale JJ 0.0000920
Chi NNP 0.0000607
STAVBY NNP 0.0000303
F.C. NN 0.0001379
F.C. NNP 0.0003945
refuelling VBG 0.0004227
beheaded VBD 0.0001315
Penalties NNS 0.0004435
surrounding VBG 0.0008453
Chakravarty NNP 0.0000303
Showboat NNP 0.0000303
ousted VBN 0.0013284
ousted VBD 0.0003946
Berri NNP 0.0000607
relationship NN 0.0000919
SARAJEVO NN 0.0001838
sauce NN 0.0001379
Pascolo NNP 0.0000303
employee NN 0.0004136
topped VBD 0.0001315
Batting NN 0.0000460
Batting VBG 0.0004227
Costantino NNP 0.0001517
traded VBN 0.0026567
traded VBD 0.0009207
Jian NNP 0.0000303
movie NN 0.0000919
fourth JJ 0.0030348
action NN 0.0012408
courts NNS 0.0002217
Istafanus NNP 0.0000303
Spadea NNP 0.0000303
playoff NN 0.0000460
clashes NNS 0.0011086
alliance NN 0.0004595
discussed VBD 0.0001315
discussed VBN 0.0007970
sacked VBN 0.0005313
passion NN 0.0000460
Boshova NNP 0.0000303
Blank NNP 0.0000303
Solanki NNP 0.0000303
AUSTRIA NNP 0.0000607
Husein NNP 0.0000303
bulldozer NN 0.0000460
Eelam NNP 0.0000910
kind NN 0.0001838
EVERT NNP 0.0000303
assignment NN 0.0000460
ANCHORAGE NNP 0.0000303
sitting NN 0.0000919
sitting VBG 0.0008453
social JJ 0.0007357
REASONS NNS 0.0002217
fight VB 0.0010199
fight NN 0.0005055
Bobbie NNP 0.0000303
treatment NN 0.0003676
anti-corruption JJ 0.0000920
Ternopil NNP 0.0000607
Lye NNP 0.0000303
Buran NNP 0.0000303
Silke NNP 0.0001214
Phil NNP 0.0001821
Sidhu RB 0.0002755
Sidhu NN 0.0000460
Sidhu NNP 0.0000607
MUNDO NNP 0.0000303
drunks NNS 0.0002217
BADMINTON NNP 0.0001517
Sloboda NNP 0.0000607
Madrid NNP 0.0003035
Aronkasei NNP 0.0000303
Aronkasei JJ 0.0000920
Jalil NNP 0.0000303
Matthews NNP 0.0000607
Fidelis NNP 0.0000607
MASTERKOVA NNP 0.0000607
Dewas NNS 0.0001109
trio NN 0.0001838
delegates NNS 0.0008869
Geoff NNP 0.0000303
Jan-June JJ 0.0001839
postpones VBZ 0.0004535
who WP 0.8276553
dunked VBD 0.0001315
islands NNS 0.0003326
tribunal NN 0.0000460
PULL NNP 0.0000607
west RB 0.0005510
west NN 0.0004136
overnight JJ 0.0009196
overnight RB 0.0022039
confessional JJ 0.0000920
Cricket NNP 0.0001214
trip-Canada NN 0.0000460
health NN 0.0011488
Montpellier NNP 0.0002428
Montpellier NN 0.0000919
PICKS NNP 0.0000303
ISSUED VBD 0.0001315
drought NN 0.0002757
vegetarian NN 0.0000460
bird NN 0.0000919
rely VB 0.0002550
Team NNP 0.0001517
COLORADO NNP 0.0006979
anti- JJ 0.0000920
Samuel NNP 0.0000910
& CC 0.0053476
Postal NNP 0.0001517
youths NNS 0.0001109
Ripken NNP 0.0002124
tolerated VBN 0.0002657
surrendered VBD 0.0003946
Buiatti NNP 0.0000303
grades NNS 0.0001109
Until IN 0.0001717
Donwahi NNP 0.0000303
nothing NN 0.0005974
coerced VBN 0.0005313
Ajax NNP 0.0012138
Newmarket NNP 0.0000303
genuinely RB 0.0002755
Laurence NNP 0.0001214
northern JJ 0.0043222
Churches NNP 0.0000303
Goosen NNP 0.0000910
BSE NNP 0.0003035
BSE NNPS 0.0015480
Early RB 0.0002755
swift JJ 0.0001839
swift NN 0.0000460
seeding JJ 0.0000920
seeding NN 0.0007812
seeding VBG 0.0042265
grinding VBG 0.0004227
Epidemics NNS 0.0001109
reorganization NN 0.0001838
Andrei NNP 0.0003945
lacklustre JJ 0.0000920
BASKETBALL NNP 0.0001517
BASKETBALL : 0.0016188
Machines NNPS 0.0015480
Teams NNS 0.0003326
mainland JJ 0.0001839
Alvarado NNP 0.0000607
d'Italia NN 0.0000460
flood-hit JJ 0.0000920
planning VBG 0.0021133
planning NN 0.0001838
accusations NNS 0.0001109
Singapore-listed JJ 0.0000920
Motorcycle NNP 0.0000607
hanged VBN 0.0010627
charged VBN 0.0053135
charged VBD 0.0006576
HSBC NNP 0.0000303
LONG IN 0.0000572
O'Leary NNP 0.0000607
damaged JJ 0.0000920
damaged VBN 0.0002657
TAIPEI NNP 0.0000303
million-zloty JJ 0.0000920
Commodities NNP 0.0001517
Marsh NNP 0.0000607
sector NN 0.0005055
durum NN 0.0000460
rupees NNS 0.0017738
rupees VBZ 0.0004535
enemies NNS 0.0002217
collecting VBG 0.0008453
Jacqueline NNP 0.0000607
check-up NN 0.0000460
drilled VBN 0.0002657
drilled VBD 0.0001315
racket NN 0.0001379
duo NN 0.0000460
perennial JJ 0.0000920
paratroop NN 0.0000460
producing VBG 0.0004227
Dai NNP 0.0000910
Yonsei NNP 0.0000303
Bekila NNP 0.0000303
reviews NNS 0.0001109
reviews VBZ 0.0004535
Penh NNP 0.0000607
Nahed NNP 0.0000303
-DOCSTART- -X- 1.0000000
VDH NNP 0.0000303
steel-producing JJ 0.0000920
Woodridge NNP 0.0000303
Abolhassan NNP 0.0000303
Aussies NNS 0.0001109
tie-break NN 0.0000460
drowned VBN 0.0002657
drowned VBD 0.0001315
J.J.Lehto NNP 0.0000303
conscious JJ 0.0002759
Addameer NNP 0.0000303
chart VB 0.0002550
Asif NNP 0.0003338
Result NN 0.0011029
Weinstein NNP 0.0001214
she PRP 0.0349965
bullish JJ 0.0003678
Consumer NN 0.0000460
laborers NNS 0.0001109
Taiwanese NNP 0.0000607
Taiwanese JJ 0.0000920
year-old JJ 0.0000920
Prudential NNP 0.0000303
operated VBN 0.0002657
operated VBD 0.0002631
feel VB 0.0022947
feel VBP 0.0038052
BNP NNP 0.0001214
swallow VB 0.0002550
Bulgarians NNPS 0.0015480
Declaring VBG 0.0004227
Jemison NNP 0.0000303
Pocosol NNP 0.0000303
beverage NN 0.0000460
Egurugbe NNP 0.0000303
umbrella NN 0.0000919
Oerlikon NNP 0.0000303
stagnant JJ 0.0000920
Denmark NNP 0.0005462
sack NN 0.0000460
sound-track JJ 0.0000920
obliged JJ 0.0000920
obliged VBN 0.0005313
partying VBG 0.0004227
Newbury NNP 0.0001214
colleague NN 0.0001379
neutral JJ 0.0000920
hopefuls VBZ 0.0004535
hopefuls NNS 0.0002217
Atlante NNP 0.0000607
remains VBZ 0.0018141
champion NN 0.0026194
champion VBP 0.0053272
repeatedly RB 0.0022039
enough RB 0.0030303
enough JJ 0.0001839
NAIROBI NNP 0.0000910
hovercraft NN 0.0000460
Mohamed NNP 0.0002124
Andria NNP 0.0000607
corrections NNS 0.0001109
NIS NNP 0.0000303
HAND NNP 0.0000303
nearest JJS 0.0042735
dilemma NN 0.0000460
Walsh NNP 0.0000303
Barry NNP 0.0001214
Producers NNP 0.0000303
Producers NNS 0.0001109
mentally RB 0.0002755
Mirren NNP 0.0000607
Alkmaar NNP 0.0002428
destruction NN 0.0000919
AL-ANWAR NN 0.0000919
Separately RB 0.0002755
captives NNS 0.0001109
Charleroi NNP 0.0001821
Charleroi VB 0.0002550
Scac NNP 0.0000303
abortion NN 0.0003676
Corina NNP 0.0000303
Two CD 0.0018486
Two PRP 0.0003465
Two NN 0.0000460
slaps VBZ 0.0004535
FIRST NNP 0.0016386
Mangala NNP 0.0000303
intimidation NN 0.0000460
expanding VBG 0.0012680
limelight-loving JJ 0.0000920
lasting JJ 0.0001839
little JJ 0.0023910
little RB 0.0013774
Marcos NNP 0.0000910
viruses NNS 0.0002217
famous JJ 0.0002759
enforce VB 0.0002550
red-haired JJ 0.0000920
succeeded VBN 0.0002657
succeeded VBD 0.0001315
Wealthy NNP 0.0000303
mentioning VBG 0.0004227
ANGELES NNP 0.0006069
departs VBZ 0.0004535
prisoners NNS 0.0004435
season NN 0.0036763
first-round NN 0.0000460
first-round JJ 0.0006437
Mate NNP 0.0000303
LANKADEEPA NNP 0.0000303
Wally NNP 0.0000607
Talbott RB 0.0002755
Talbott VB 0.0002550
Talbott NNP 0.0000607
KERDOS NNPS 0.0015480
government-appointed JJ 0.0000920
Ann NNP 0.0001517
Wroclaw NNP 0.0001517
Tunbridge NNP 0.0000303
x-Olympiakos NNS 0.0001109
pro FW 0.0058480
Frank NNP 0.0003641
declares VBZ 0.0013605
BEAT NN 0.0006893
BEAT : 0.0012141
BUNOL NNP 0.0000303
possessors NNS 0.0001109
Viljoen NNP 0.0000303
fixing VBG 0.0012680
AWAY NNP 0.0000303
Philippoussis NN 0.0000460
Philippoussis NNP 0.0003945
Philippoussis NNPS 0.0015480
Philippoussis JJ 0.0001839
Collstrop NNP 0.0001214
Collstrop VB 0.0005099
cell NN 0.0000919
Organisers NNS 0.0004435
Against IN 0.0001717
system NN 0.0010110
Moss NNP 0.0000910
floors NNS 0.0001109
Crawford NNP 0.0000303
brother NN 0.0000460
reconaisance VB 0.0002550
instructions NNS 0.0005543
green-and-yellow JJ 0.0000920
Neza NNP 0.0000607
Mandela NNP 0.0000607
scribble VB 0.0002550
Eletropaulo NNP 0.0000910
accelerate VB 0.0002550
fish NN 0.0000460
Kipkosgei NNP 0.0000303
EUROLIRA NNP 0.0000303
Prieto NNP 0.0000303
dispute NN 0.0002298
Ronaldo NNP 0.0001214
Daoud NNP 0.0000910
current JJ 0.0033106
Scorers NNS 0.0023282
Kuhn NNP 0.0000303
Zeleznik NNP 0.0000303
litre NN 0.0000460
Masserigne NNP 0.0000303
slippage NN 0.0000460
Grieg NNP 0.0000303
GATTING NNP 0.0000303
GATTING : 0.0004047
Rapid NNP 0.0001821
Novotna NNP 0.0001517
Munich NNP 0.0005766
Galo NNP 0.0000607
guessing VBG 0.0004227
oversubscribed VBN 0.0002657
Melli NNP 0.0000303
Wengert NNP 0.0000303
Wengert VBD 0.0001315
F.H. NNP 0.0000303
KEANE : 0.0004047
KEANE NNP 0.0000303
intercepted VBD 0.0003946
intercepted VBN 0.0002657
liberals NNS 0.0001109
farms NNS 0.0005543
Malcolm NNP 0.0000607
cathode NN 0.0000460
Henderson NNP 0.0000607
Martin NNP 0.0013048
Miss NNP 0.0002731
Nail NNP 0.0000303
BSM NNP 0.0000607
Voting NNP 0.0000607
Ulster NNP 0.0000303
Qualifier NN 0.0004136
Strip NNP 0.0000910
soared VBN 0.0002657
soared VBD 0.0001315
Soviet-era NNP 0.0000303
round RB 0.0011019
round NN 0.0044116
round JJ 0.0018392
TABAK NNP 0.0000303
Gremio NNP 0.0000910
Kerry NNP 0.0000303
SALES NNS 0.0003326
settle VB 0.0010199
stability NN 0.0001379
souls NNS 0.0001109
girlfriend NN 0.0000919
Agius NNPS 0.0030960
Hunger NNP 0.0000303
Magnus NNP 0.0001517
defoliant NN 0.0000460
separatist JJ 0.0013794
engulfed VBD 0.0001315
ATP NNP 0.0001214
Luehrs NNP 0.0001214
Nov NNP 0.0001517
Burnley FW 0.0058480
Burnley NNP 0.0000303
Burnley RB 0.0008264
ruined VBN 0.0002657
praying VBG 0.0008453
Peacekeepers NNS 0.0001109
Scout NNP 0.0000303
Barrington NNP 0.0000303
GOV NNP 0.0000910
Lihir NNP 0.0000303
forming VBG 0.0004227
ESSEX NNP 0.0000607
Stark NNP 0.0000910
followed VBD 0.0010522
followed VBN 0.0010627
Kassala NNP 0.0000607
CRUCES NNPS 0.0015480
Hennady NNP 0.0000303
wicket NN 0.0006893
Arendt NNP 0.0000607
DAX NNP 0.0000910
story NN 0.0001838
Bosnians NNP 0.0000303
Bosnians NNPS 0.0046440
southern JJ 0.0038624
feeder JJR 0.0028986
feeder NN 0.0000460
Elsewhere RB 0.0005510
spiritual JJ 0.0002759
applications NNS 0.0005543
Seguin NNP 0.0000607
ties NNS 0.0011086
pointedly RB 0.0002755
brings VBZ 0.0009070
grounded VBD 0.0001315
WINNERS NNP 0.0000303
WINNERS NNS 0.0001109
solve VB 0.0002550
warplanes NNS 0.0001109
voiced VBD 0.0002631
operate VB 0.0012749
Valkucak NNP 0.0000303
Benes NNP 0.0000303
Benes NNS 0.0001109
separatists NN 0.0000460
separatists NNS 0.0006652
Joyner NNP 0.0000303
scam NN 0.0001379
Neil NNP 0.0001214
combines NNS 0.0001109
combines VBZ 0.0009070
Emanuil NNP 0.0000303
Maru NNP 0.0000607
Dole NNP 0.0013655
disarmament NN 0.0002757
BC NN 0.0000460
post-Soviet JJ 0.0002759
post-Soviet NN 0.0000919
shouted VBD 0.0003946
Peng NNP 0.0000303
crossbar NN 0.0000460
tom NN 0.0000460
Welfare NNP 0.0000303
Hindu NNP 0.0000303
Banharn NN 0.0000460
Banharn NNP 0.0003338
Banharn JJ 0.0000920
Satoshi NNP 0.0000910
scoreless NNS 0.0003326
scoreless NN 0.0000919
promoted VBN 0.0007970
promoted VBD 0.0002631
setback NN 0.0000460
girl NN 0.0007353
Rebel NN 0.0000460
weaken VB 0.0002550
Laban NNP 0.0000607
TWO CD 0.0000528
CLINCH NNP 0.0000303
centre-left NN 0.0000460
unavailable JJ 0.0000920
receiving VBG 0.0038039
attackers NNS 0.0002217
Takemura NNP 0.0001821
Col NNP 0.0000303
Col JJ 0.0001839
Drechsler NNP 0.0000303
violating VBG 0.0008453
interrupted JJ 0.0000920
interrupted VBN 0.0002657
Pao NNP 0.0000303
Ignacio NNP 0.0000303
filling NN 0.0000460
GRID NNP 0.0000303
video NN 0.0001379
hack VB 0.0002550
bombings NNS 0.0001109
Lloyd NNP 0.0006069
six CD 0.0057571
London NNP 0.0022759
Abyss NNP 0.0000303
sets NNS 0.0011086
sets VBZ 0.0022676
Gounon NNP 0.0000910
P.V. NNP 0.0000303
mutton NN 0.0001379
Snyman NNP 0.0000607
Aqaba NNP 0.0000303
sidelines NNS 0.0002217
Resistance NN 0.0000460
three-year JJ 0.0002759
conducted VBN 0.0018597
conducted VBD 0.0001315
blue-and-white JJ 0.0000920
PRESSURE VBP 0.0007610
produce VB 0.0015298
produce VBP 0.0015221
Baltic NNP 0.0000303
Claudio NNP 0.0000303
Saunders NNP 0.0000303
requirements NNS 0.0004435
tbf NN 0.0001379
day-by-day JJ 0.0000920
Schutte JJ 0.0000920
Schutte NNP 0.0000607
moment NN 0.0005974
Goma NNP 0.0000303
Arabia NNP 0.0003035
Moenchengladbach NNP 0.0002428
Hassan NNP 0.0001517
P. NNP 0.0005462
violent JJ 0.0005518
U.S.-led JJ 0.0005518
guitar NN 0.0000919
Grabowski NNP 0.0000607
groin NN 0.0000919
maternity NN 0.0000460
costly JJ 0.0001839
KOMERCNI NNP 0.0000303
MONTGOMERY NNP 0.0000303
dipped VBD 0.0001315
Jaha NNP 0.0000607
Jaha NN 0.0000460
Muhammad NNP 0.0000910
Mar NNP 0.0000303
opposite JJ 0.0000920
MAE NNP 0.0000303
Oval JJ 0.0017473
Encephalopathy NNP 0.0001214
bullet NN 0.0000919
That DT 0.0019584
That IN 0.0002289
backers NNS 0.0001109
trawlers NNS 0.0001109
Aviv NNP 0.0000910
speculation NN 0.0004136
knack NN 0.0000460
Republika NNP 0.0000910
incompetent JJ 0.0002759
Mutola NNP 0.0001517
Mutola NN 0.0000460
Juan NNP 0.0005462
DAKOTA NNP 0.0000303
Bovine NNP 0.0000607
sealed VBN 0.0005313
sealed JJ 0.0001839
sealed VBD 0.0001315
Lynda NNP 0.0000303
incitement NN 0.0000460
decay NN 0.0000460
Rangers NNPS 0.0278638
compatriots NNS 0.0001109
bartering NN 0.0000460
WSC-India NNP 0.0000303
recruits NNS 0.0001109
massacred VBN 0.0002657
Whittall NNP 0.0001821
comparable JJ 0.0000920
salary NN 0.0000919
Machungwa NNP 0.0000303
celebrate VB 0.0007649
prices NNS 0.0056541
Bolger NNP 0.0000607
telecoms JJ 0.0001839
mational JJ 0.0000920
Here RB 0.0005510
SEP NN 0.0000460
SEP NNP 0.0002428
Jailed JJ 0.0000920
C NNP 0.0006373
begin VBP 0.0007610
begin VB 0.0030597
Corp. NNP 0.0003035
weakness NN 0.0001379
weakness VB 0.0002550
TONIGHT NNP 0.0000303
controlled VBD 0.0002631
controlled VBN 0.0010627
Georgios NNP 0.0000303
messed VBN 0.0002657
jet NN 0.0000919
SHORT NNP 0.0000607
Aleksandrovac NNP 0.0000303
maker NN 0.0001379
frequently RB 0.0005510
Cairo NN 0.0000460
Cairo NNP 0.0000910
Ribeiro NNP 0.0000303
consensus NN 0.0002757
arresting VBG 0.0004227
tightened VBD 0.0002631
TLUMACOV NNP 0.0000303
speculated VBD 0.0002631
speculated VBN 0.0005313
Jiangsu NNP 0.0000303
jump NN 0.0004136
Langrova NNP 0.0000607
currency NN 0.0005514
Liechtenstein NNP 0.0000607
Gorgona NNP 0.0000303
Charleston NNP 0.0000303
town NN 0.0023896
capitalisation NN 0.0000919
densely-populated JJ 0.0000920
profitable JJ 0.0000920
Exploration NN 0.0000460
Fabien NNP 0.0000607
promises NNS 0.0001109
promises VBZ 0.0009070
Stabaek NN 0.0000919
dedicate VB 0.0002550
Guantanamo NNP 0.0000910
book NN 0.0005974
Prayers NNS 0.0001109
accordingly RB 0.0002755
whose WP$ 0.9565217
auctions NNS 0.0005543
Fulke NNP 0.0000303
Bencevic NNP 0.0000303
executions NNS 0.0001109
R NN 0.0000460
Its PRP$ 0.0042254
style NN 0.0002298
overwhelmingly RB 0.0008264
Mothusi NNP 0.0000303
recover VBP 0.0007610
recover VB 0.0010199
ended VBD 0.0046034
ended VBN 0.0026567
Leonid NNP 0.0000303
award NN 0.0002298
Looi NNP 0.0000303
Looi FW 0.0058480
types NNS 0.0001109
invested VBN 0.0002657
Bergmann NNP 0.0000303
guide NN 0.0001379
Eliahu NNP 0.0000303
AKRAM NNP 0.0000303
object VB 0.0005099
THOMSON NNP 0.0000607
Abbaye NNP 0.0000607
Abbaye '' 0.0277778
Klongprem NNP 0.0000607
consumer NN 0.0006893
Gerhard NNP 0.0001517
Unseeded NNP 0.0000303
REVENUE NNP 0.0000303
Sakti NNP 0.0000303
Freetown NNP 0.0000303
tuscan NN 0.0000460
Malbak NNP 0.0000607
Villefranche NNP 0.0000303
destroying VBG 0.0004227
Hickey NNP 0.0000303
apiece RB 0.0013774
opposition NN 0.0024815
SUPPLY NNP 0.0000303
Wronki NNP 0.0001214
kilo NNS 0.0001109
castle NN 0.0000460
Anneke NNP 0.0000607
AMSTERDAM NN 0.0011488
really RB 0.0052342
falsified JJ 0.0000920
fantastic JJ 0.0000920
salaries NNS 0.0002217
received VBD 0.0015783
received VBN 0.0042508
sunstroke RB 0.0002755
Jun NNP 0.0000303
Test NNP 0.0001214
paper NN 0.0009650
landmark NN 0.0000919
slumped VBD 0.0001315
slumped VBN 0.0002657
VANCOUVER NNP 0.0000303
Ecumenical NNP 0.0000303
roadblock NN 0.0000919
Variety NNP 0.0000607
managed VBN 0.0007970
managed VBD 0.0010522
Wars NNP 0.0000303
Jiaxuan NNP 0.0000303
sandwich NN 0.0001379
nowhere RB 0.0005510
PRICE NNP 0.0001214
PRICE NNS 0.0001109
NINTH NNS 0.0001109
Vorskla NNP 0.0000607
Glasgow NNP 0.0000303
Itar-Tass JJ 0.0005518
HE PRP 0.0003465
examining VBG 0.0004227
Chen NNP 0.0001214
tour VBP 0.0007610
tour VB 0.0007649
tour NN 0.0012867
closet NN 0.0000460
Moyer NNP 0.0000607
Moyer JJR 0.0028986
Moyer RB 0.0002755
Gimnasia-La NNP 0.0000303
Rowing NN 0.0000460
Schwarz NNP 0.0000303
noble JJ 0.0001839
best JJS 0.1324786
best RBS 0.0487805
best RB 0.0005510
Sheets NNP 0.0000303
FIFA NNP 0.0000303
technology NN 0.0001838
second-half JJ 0.0002759
Fulcheri NNP 0.0000303
Fulcheri FW 0.0116959
Mumler NNP 0.0000303
Drummond NNP 0.0000910
York NNP 0.0019724
al-Qidra NNS 0.0001109
bench-clearing JJ 0.0000920
Inienger NNP 0.0000303
Haifa NNP 0.0000607
SV NNP 0.0002124
reprise VB 0.0002550
Widzew NNP 0.0001214
test NN 0.0018841
test VB 0.0002550
test VBP 0.0007610
cut VB 0.0033146
cut VBD 0.0006576
cut NN 0.0004595
cut VBN 0.0015940
Erbakan NNP 0.0001517
shot VBN 0.0013284
shot VBD 0.0010522
shot NN 0.0007812
looted VBN 0.0002657
shipload NN 0.0000460
DIGEST NNP 0.0003945
DIGEST VB 0.0020398
Newcastle NNP 0.0002731
Realtors NNPS 0.0015480
reservoir NN 0.0000460
Museum NNP 0.0000607
Boutros NNP 0.0001214
offensive NN 0.0000460
naira NN 0.0000460
Englishmen NNP 0.0000303
Yulia NNP 0.0000607
influence VB 0.0002550
influence NN 0.0001379
demilitarised VBN 0.0002657
CVRD NNP 0.0000607
end-of-season JJ 0.0001839
Buyoya NNP 0.0000607
Westwood NNP 0.0000910
routing VBG 0.0004227
Eleonora NNP 0.0000607
MOODY NNP 0.0001821
Intelligence NN 0.0000460
Intelligence NNP 0.0000607
mice NNS 0.0002217
ASEC NNP 0.0000303
nationals NNS 0.0004435
Symantec NNP 0.0000303
clown NN 0.0000460
RFDG NNP 0.0000303
Ankara NNP 0.0000607
Above-normal JJ 0.0000920
fallen VBN 0.0013284
ingrown JJ 0.0000920
honoured VBN 0.0002657
factors NNS 0.0006652
Yankees NNS 0.0002217
Yankees NNPS 0.0170279
FULL NNP 0.0000607
CA VBN 0.0002657
Mr NNP 0.0001214
prepared VBN 0.0013284
prepared JJ 0.0000920
overcame VBD 0.0002631
Celopek NN 0.0000460
irresponsible JJ 0.0000920
BankWatch NNP 0.0000303
shirtfront NN 0.0000460
Kamoga NNP 0.0000607
EQUITY NNP 0.0000303
EQUITY NNPS 0.0015480
snapped VBD 0.0011837
snapped VBN 0.0002657
snapped JJ 0.0003678
slashing VBG 0.0004227
Sun-ho NNP 0.0000303
Haldtime VB 0.0002550
beneficial JJ 0.0000920
Claus NNP 0.0000607
Arizona NNP 0.0000303
whites NNS 0.0002217
Ruhunu NNP 0.0000303
HOMER NNP 0.0000607
Xhosa NNP 0.0000607
Ines NNS 0.0002217
Hebron NNP 0.0000607
pro-life JJ 0.0000920
youth NN 0.0002298
dye NN 0.0000919
disappointing JJ 0.0007357
Soldiers NNS 0.0001109
Rohren NNP 0.0000303
Katarina NNP 0.0000910
masses NNS 0.0001109
BARUM NNP 0.0000303
partition NN 0.0001379
charge NN 0.0007353
charge VB 0.0002550
Saint-Germain NNP 0.0000607
producers NNS 0.0003326
Cartagena NNP 0.0000303
Prinosil NNP 0.0000607
refiners NNS 0.0001109
investigated VBN 0.0005313
dogged VBN 0.0002657
Harare NNP 0.0000303
speak VB 0.0028047
speak VBP 0.0007610
Kanstinger NNP 0.0000303
Warszawa NNP 0.0000303
Hart NNP 0.0000303
Eveningperformance NN 0.0000919
Shkirko NNP 0.0000607
OctNov JJ 0.0000920
Uruguay NNP 0.0000607
Nomo NN 0.0000460
Nomo NNP 0.0000303
sermon NN 0.0000460
Dearest JJS 0.0042735
INNINGS NNP 0.0000303
idiots NNS 0.0001109
COMMENT NNP 0.0000303
firebreathing JJ 0.0000920
Zanoli NNP 0.0000607
play-offs NNS 0.0001109
Florentine JJ 0.0000920
producer NN 0.0001838
Rights NNPS 0.0015480
Rights NNP 0.0001821
extra-base JJ 0.0000920
Perkins NNP 0.0000607
IMED NNP 0.0001214
IMED NN 0.0000460
helicopter NN 0.0002298
Anderlecht NN 0.0001379
Sheikh NN 0.0000460
Sheikh NNP 0.0000910
Lajos NNP 0.0000303
Juppe NNP 0.0002124
Juppe NN 0.0000460
delivered VBN 0.0010627
delivered VBD 0.0006576
Khum NNP 0.0000303
Farul NNP 0.0000607
Consultations NNS 0.0001109
shared VBN 0.0005313
shared VBD 0.0005261
armed JJ 0.0012875
armed VBN 0.0013284
armed VBD 0.0001315
naked JJ 0.0001839
Hiddink NN 0.0000460
Hiddink NNP 0.0000607
Edna NNP 0.0000303
sweep NN 0.0001838
Marshall NNP 0.0000910
Bernd NNP 0.0001517
Lazar NNP 0.0000607
old-timers JJ 0.0000920
arsenals NNS 0.0001109
Karachi NNP 0.0002124
murder NN 0.0007812
correct VB 0.0005099
spate NN 0.0000919
Valentine NNP 0.0000303
paramount JJ 0.0000920
Chili NNP 0.0000910
HAMLET NNP 0.0001214
HAMLET : 0.0016188
Fuel NN 0.0000919
Belga NNP 0.0000607
glancing NN 0.0000460
Peiris NNS 0.0001109
Peiris NNP 0.0000303
Peiris NNPS 0.0015480
prince NN 0.0000460
notorious JJ 0.0000920
Flora NNP 0.0000303
Pol NNP 0.0001517
afraid JJ 0.0000920
Stoke NNP 0.0000303
Stoke VB 0.0012749
rang VBD 0.0001315
Kentucky NNP 0.0000607
soybean NN 0.0000919
Grobbelaar NNP 0.0000910
Grobbelaar JJ 0.0000920
Grobbelaar NN 0.0000460
Mironov NNP 0.0000303
full JJ 0.0021151
Chor NNP 0.0001214
Max NNP 0.0003338
Stubbs NNP 0.0000303
tranches NNS 0.0002217
Vileujeux NNP 0.0000303
release NN 0.0005974
release VB 0.0012749
fights VBZ 0.0004535
AT VB 0.0010199
AT NNP 0.0041573
junior JJ 0.0008277
heaps NNS 0.0001109
Equivalents NNS 0.0001109
THU NNP 0.0001214
twin JJ 0.0000920
Kanther NNP 0.0000303
wheelchair NN 0.0001379
Tamils NNP 0.0000607
Tamils NNPS 0.0015480
Tamils NNS 0.0001109
ambassadors NNS 0.0001109
.Robbie NN 0.0000460
Eddo NNP 0.0000303
sold VBN 0.0045165
sold VBD 0.0009207
Kamyshin NNP 0.0000607
sank VBD 0.0003946
detecting NN 0.0000460
prominent JJ 0.0003678
volume NN 0.0010110
Candiotti NNP 0.0000607
travel VB 0.0017848
travel NN 0.0001838
travel VBP 0.0007610
Bank NNP 0.0018511
testosterone NN 0.0000919
restore VB 0.0007649
auto NN 0.0000460
Hendrik NNP 0.0000607
domestically RB 0.0002755
newly-promoted JJ 0.0000920
reaffirmed VBD 0.0001315
Berlin NNP 0.0005159
Berger NNP 0.0002124
Togo JJ 0.0002759
Togo NNP 0.0000607
reading NN 0.0001379
reading VBG 0.0004227
Nastase NNP 0.0000607
Lamont NNP 0.0000303
Jimi NNP 0.0000303
Marc NNP 0.0004248
Tamil NNP 0.0003945
ferrying VBG 0.0012680
rain NN 0.0009191
Turnover NN 0.0004136
permission NN 0.0002757
apparatus NN 0.0000460
holes NNS 0.0007761
Savi NNP 0.0000303
made VBD 0.0057872
made JJ 0.0000920
made VBN 0.0122210
mayor NN 0.0002757
everyone NN 0.0002298
goodwill NN 0.0001838
Naish JJ 0.0000920
Naish NNP 0.0000607
Lincoln NNP 0.0001517
prompt JJ 0.0003678
prompt VB 0.0010199
Corporate NNP 0.0000607
offended JJ 0.0000920
filing NN 0.0000460
praising VBG 0.0008453
Award-winning JJ 0.0000920
Voronova NNP 0.0000910
Muratovic NNP 0.0000607
Sint NNP 0.0000910
norms NNS 0.0003326
Dravid NNP 0.0000607
communism NN 0.0000919
access NN 0.0001838
violence NN 0.0010110
whitewash NN 0.0000460
Classic NNP 0.0001821
highest JJS 0.0213675
stone NN 0.0000919
old NN 0.0000460
old JJ 0.0025749
old NULL 0.1176471
Firsy RB 0.0002755
Construction NNP 0.0000303
law NN 0.0012867
EgyptAir NNP 0.0001214
feature NN 0.0000919
feature VB 0.0002550
Jordanian JJ 0.0005518
Jordanian NNP 0.0000303
terrific JJ 0.0000920
Individuals NNS 0.0001109
vice NN 0.0003676
weapon NN 0.0002757
PARTING NNP 0.0000303
rainwater VB 0.0002550
connected VBN 0.0002657
State NN 0.0004136
State NNP 0.0006373
Jetty NNP 0.0000607
Brentford NNP 0.0001214
Beauty NN 0.0000460
McMillan NNP 0.0000303
Jensen NNP 0.0000910
worth NN 0.0000460
worth JJ 0.0010116
Bianchi NNP 0.0000303
Lodge NNP 0.0000303
Frazier NNP 0.0000607
CENTRAL NNP 0.0004855
observe VB 0.0005099
Muthiah NNP 0.0000607
Humanitarian JJ 0.0000920
Humanitarian NNP 0.0000303
Status NNP 0.0000303
Wales NNP 0.0001214
Springboks NNP 0.0000607
Springboks NNPS 0.0015480
famished JJ 0.0000920
Bagwell NNP 0.0000303
delta NN 0.0000460
mutually RB 0.0002755
Party NNP 0.0014566
flanker NN 0.0000460
nominee NN 0.0002298
Dietsch NNP 0.0000303
Melissa NNP 0.0001821
tower NN 0.0001838
beautiful JJ 0.0000920
agreed JJ 0.0001839
agreed VBN 0.0053135
agreed VBD 0.0039458
Banco NNP 0.0000910
novelist NN 0.0000919
Leger NNP 0.0000303
ambushed VBD 0.0002631
Presently RB 0.0002755
BUCHAREST RB 0.0016529
golds NNS 0.0001109
edge NN 0.0002298
CONDITION NN 0.0000460
warmup NN 0.0000919
Because IN 0.0001144
ploughed VBN 0.0002657
ploughed VBD 0.0001315
Lira NNP 0.0000303
tripled VBD 0.0001315
ADRs NNS 0.0004435
ADRs NNPS 0.0015480
stage VB 0.0005099
stage NN 0.0009191
stage VBP 0.0007610
dn NN 0.0002757
hinted VBN 0.0005313
du FW 0.0058480
Gras NNP 0.0000607
CHAMP NNP 0.0000303
review NN 0.0001379
review VB 0.0007649
SCHUMACHER NNP 0.0000607
garner VB 0.0002550
Rostelekom NNP 0.0000303
spleens NNS 0.0002217
evasion NN 0.0000919
rapid JJ 0.0003678
threw VBD 0.0013153
Vialli NNP 0.0000303
inhuman JJ 0.0000920
tackles VBZ 0.0004535
O'Meara NNP 0.0000910
downplayed VBD 0.0001315
JULY NN 0.0000460
JULY NNP 0.0000303
Per IN 0.0001144
because IN 0.0051496
because RB 0.0027548
Flamengo RB 0.0002755
Flamengo NNP 0.0000607
notable JJ 0.0000920
favourite JJ 0.0000920
favourite NN 0.0000919
Pang NNP 0.0000303
strange JJ 0.0000920
remaking VBG 0.0004227
All-Star NNP 0.0000303
Rickey NNP 0.0000303
industries NNS 0.0001109
over-charging VBG 0.0004227
Stephane NNP 0.0001821
Pointer NNP 0.0000303
Hatoyama NNP 0.0001517
Essilor NNP 0.0000607
younger JJR 0.0057971
Critics NNS 0.0001109
vehicles NNS 0.0009978
Scott NNP 0.0004855
nominations NNS 0.0003326
kickoff NN 0.0000919
Doce NNP 0.0000303
Gothenburg NNP 0.0000607
Gothenburg VBG 0.0004227
material NN 0.0002757
material JJ 0.0000920
circles NNS 0.0002217
Evert NNP 0.0002124
treaty NN 0.0010569
blackmailed VBN 0.0002657
become VB 0.0043345
become VBN 0.0002657
suicidal JJ 0.0000920
BOURSE NNP 0.0000303
eradication NN 0.0000460
BioVest JJS 0.0042735
Knobl NNP 0.0000303
trust NN 0.0000919
trust VBP 0.0007610
disarmament-China NN 0.0000460
CYPRUS NNS 0.0001109
sinking NN 0.0000460
Prosecutors NNS 0.0001109
ordeal NN 0.0000919
ordeal RB 0.0002755
lashed VBD 0.0001315
Nachum NNP 0.0000303
sessions NNS 0.0003326
judiciary NN 0.0000919
Molde NNP 0.0000607
Lou NNP 0.0000303
knee NN 0.0003217
Gabrich NNP 0.0000607
treble NN 0.0000460
tossing VBG 0.0004227
unwound NN 0.0000460
McPherson NNP 0.0000303
gypsy NN 0.0000460
birdie NN 0.0001379
later RBR 0.0273973
later RB 0.0090909
later JJ 0.0003678
blocks NNS 0.0001109
sparked VBD 0.0003946
sparked VBN 0.0007970
penalty NN 0.0011029
worsened VBN 0.0007970
Abel NNP 0.0000303
Jenson NNP 0.0000303
shelter NN 0.0000919
described VBN 0.0005313
described VBD 0.0015783
Elijah NNP 0.0000303
questionable JJ 0.0000920
gene-therapy JJ 0.0000920
Feagin NNP 0.0000303
reported JJ 0.0000920
reported VBN 0.0050478
reported VBD 0.0077601
shots NNS 0.0005543
unbeaten JJ 0.0004598
opponents NNS 0.0009978
Uniceramic NNP 0.0000303
Scor NN 0.0000460
Union NNP 0.0013048
SINGAPORE JJR 0.0057971
analyst NN 0.0007353
self-confessed JJ 0.0000920
crossing NN 0.0000919
crossing VBG 0.0012680
partners NNS 0.0007761
YEDIOTH DT 0.0000816
terroritsts NNS 0.0001109
Chornomorets NNS 0.0002217
re-examine VB 0.0005099
telethon NN 0.0000460
taxes NNS 0.0005543
brewery NN 0.0000460
plenty RB 0.0002755
plenty NN 0.0000460
Joyce NNP 0.0001214
Barroso NNP 0.0000303
MCRAE NNP 0.0000303
