" , but ||| " , CC ||| 0.6 0.2 0.2 0.6 0.2 0.2
" , ||| " , ||| 0.955556 0.0222222 0.0222222 0.955556 0.0222222 0.0222222
" . ||| " . ||| 0.971014 0.0144928 0.0144928 0.971014 0.0144928 0.0144928
" A ||| " DT ||| 0.846154 0.0769231 0.0769231 0.846154 0.0769231 0.0769231
" After ||| " IN ||| 0.818182 0.0909091 0.0909091 0.818182 0.0909091 0.0909091
" Although ||| " IN ||| 0.6 0.2 0.2 0.6 0.2 0.2
" As the ||| " IN DT ||| 0.6 0.2 0.2 0.6 0.2 0.2
" As ||| " IN ||| 0.714286 0.142857 0.142857 0.714286 0.142857 0.142857
" But ||| " CC ||| 0.92 0.04 0.04 0.92 0.04 0.04
" Due to ||| " JJ TO ||| 0.6 0.2 0.2 0.6 0.2 0.2
" Due ||| " JJ ||| 0.6 0.2 0.2 0.6 0.2 0.2
" He ||| " PRP ||| 0.939394 0.030303 0.030303 0.939394 0.030303 0.030303
" I 'm ||| " PRP VBP ||| 0.846154 0.0769231 0.0769231 0.846154 0.0769231 0.0769231
" I have been ||| " PRP VBP VBN ||| 0.6 0.2 0.2 0.6 0.2 0.2
" I have ||| " PRP VBP ||| 0.846154 0.0769231 0.0769231 0.846154 0.0769231 0.0769231
" I think ||| " PRP VBP ||| 0.866667 0.0666667 0.0666667 0.866667 0.0666667 0.0666667
" I will ||| " PRP MD ||| 0.6 0.2 0.2 0.6 0.2 0.2
" I would like to ||| " PRP MD VB TO ||| 0.777778 0.111111 0.111111 0.777778 0.111111 0.111111
" I would like ||| " PRP MD VB ||| 0.777778 0.111111 0.111111 0.777778 0.111111 0.111111
" I would ||| " PRP MD ||| 0.818182 0.0909091 0.0909091 0.818182 0.0909091 0.0909091
" I ||| " PRP ||| 0.986928 0.00653595 0.00653595 0.986928 0.00653595 0.00653595
" If ||| " IN ||| 0.939394 0.030303 0.030303 0.939394 0.030303 0.030303
" In the ||| " IN DT ||| 0.818182 0.0909091 0.0909091 0.818182 0.0909091 0.0909091
" In ||| " IN ||| 0.882353 0.0588235 0.0588235 0.882353 0.0588235 0.0588235
" It 's a ||| " PRP VBZ DT ||| 0.714286 0.142857 0.142857 0.714286 0.142857 0.142857
" It 's very ||| " PRP VBZ RB ||| 0.6 0.2 0.2 0.6 0.2 0.2
" It 's ||| " PRP VBZ ||| 0.894737 0.0526316 0.0526316 0.894737 0.0526316 0.0526316
" It ||| " PRP ||| 0.975904 0.0120482 0.0120482 0.975904 0.0120482 0.0120482
" No ||| " DT ||| 0.6 0.2 0.2 0.6 0.2 0.2
" Obviously ||| " RB ||| 0.6 0.2 0.2 0.6 0.2 0.2
" On ||| " IN ||| 0.714286 0.142857 0.142857 0.714286 0.142857 0.142857
" Once ||| " RB ||| 0.6 0.2 0.2 0.6 0.2 0.2
" Our ||| " PRP$ ||| 0.882353 0.0588235 0.0588235 0.882353 0.0588235 0.0588235
" People who wish to hold conferences ||| " NNS WP VBP TO VB NNS ||| 0.6 0.2 0.2 0.6 0.2 0.2
" People who wish to hold ||| " NNS WP VBP TO VB ||| 0.6 0.2 0.2 0.6 0.2 0.2
" People who wish to ||| " NNS WP VBP TO ||| 0.6 0.2 0.2 0.6 0.2 0.2
" People who wish ||| " NNS WP VBP ||| 0.6 0.2 0.2 0.6 0.2 0.2
" People who ||| " NNS WP ||| 0.714286 0.142857 0.142857 0.714286 0.142857 0.142857
" People ||| " NNS ||| 0.777778 0.111111 0.111111 0.777778 0.111111 0.111111
" The ||| " DT ||| 0.990698 0.00465116 0.00465116 0.990698 0.00465116 0.00465116
" There 's ||| " EX VBZ ||| 0.714286 0.142857 0.142857 0.714286 0.142857 0.142857
" There will be ||| " EX MD VB ||| 0.6 0.2 0.2 0.6 0.2 0.2
" There will ||| " EX MD ||| 0.6 0.2 0.2 0.6 0.2 0.2
" There ||| " EX ||| 0.953488 0.0232558 0.0232558 0.953488 0.0232558 0.0232558
" These ( ||| " DT ( ||| 0.6 0.2 0.2 0.6 0.2 0.2
" These ||| " DT ||| 0.818182 0.0909091 0.0909091 0.818182 0.0909091 0.0909091
" They ||| " PRP ||| 0.942857 0.0285714 0.0285714 0.942857 0.0285714 0.0285714
" This is ||| " DT VBZ ||| 0.882353 0.0588235 0.0588235 0.882353 0.0588235 0.0588235
" This ||| " DT ||| 0.942857 0.0285714 0.0285714 0.942857 0.0285714 0.0285714
" Under ||| " IN ||| 0.6 0.2 0.2 0.6 0.2 0.2
" We 've ||| " PRP VBP ||| 0.818182 0.0909091 0.0909091 0.818182 0.0909091 0.0909091
" We are ||| " PRP VBP ||| 0.92 0.04 0.04 0.92 0.04 0.04
" We do ||| " PRP VBP ||| 0.818182 0.0909091 0.0909091 0.818182 0.0909091 0.0909091
" We have ||| " PRP VBP ||| 0.945946 0.027027 0.027027 0.945946 0.027027 0.027027
" We ||| " PRP ||| 0.987261 0.00636943 0.00636943 0.987261 0.00636943 0.00636943
" When ||| " WRB ||| 0.714286 0.142857 0.142857 0.714286 0.142857 0.142857
" You ||| " PRP ||| 0.777778 0.111111 0.111111 0.777778 0.111111 0.111111
" a police spokesman said ||| " DT NN NN VBD ||| 0.714286 0.142857 0.142857 0.714286 0.142857 0.142857
" a police spokesman ||| " DT NN NN ||| 0.777778 0.111111 0.111111 0.777778 0.111111 0.111111
" a police ||| " DT NN ||| 0.777778 0.111111 0.111111 0.777778 0.111111 0.111111
" a ||| " DT ||| 0.957447 0.0212766 0.0212766 0.957447 0.0212766 0.0212766
" has ||| " VBZ ||| 0.6 0.2 0.2 0.6 0.2 0.2
" he added , ||| " PRP VBD , ||| 0.6 0.2 0.2 0.6 0.2 0.2
" he added . ||| " PRP VBD . ||| 0.939394 0.030303 0.030303 0.939394 0.030303 0.030303
" he added ||| " PRP VBD ||| 0.942857 0.0285714 0.0285714 0.942857 0.0285714 0.0285714
" he said , adding ||| " PRP VBD , VBG ||| 0.777778 0.111111 0.111111 0.777778 0.111111 0.111111
" he said , ||| " PRP VBD , ||| 0.818182 0.0909091 0.0909091 0.818182 0.0909091 0.0909091
" he said . ||| " PRP VBD . ||| 0.985612 0.00719424 0.00719424 0.985612 0.00719424 0.00719424
" he said in ||| " PRP VBD IN ||| 0.818182 0.0909091 0.0909091 0.818182 0.0909091 0.0909091
" he said ||| " PRP VBD ||| 0.987578 0.00621118 0.00621118 0.987578 0.00621118 0.00621118
" he told the ||| " PRP VBD DT ||| 0.6 0.2 0.2 0.6 0.2 0.2
" he told ||| " PRP VBD ||| 0.92 0.04 0.04 0.92 0.04 0.04
" he ||| " PRP ||| 0.991111 0.00444444 0.00444444 0.991111 0.00444444 0.00444444
" his ||| " PRP$ ||| 0.6 0.2 0.2 0.6 0.2 0.2
" in the ||| " IN DT ||| 0.777778 0.111111 0.111111 0.777778 0.111111 0.111111
" in ||| " IN ||| 0.92 0.04 0.04 0.92 0.04 0.04
" is a ||| " VBZ DT ||| 0.6 0.2 0.2 0.6 0.2 0.2
" is ||| " VBZ ||| 0.818182 0.0909091 0.0909091 0.818182 0.0909091 0.0909091
" of ||| " IN ||| 0.846154 0.0769231 0.0769231 0.846154 0.0769231 0.0769231
" on the ||| " IN DT ||| 0.714286 0.142857 0.142857 0.714286 0.142857 0.142857
" on ||| " IN ||| 0.894737 0.0526316 0.0526316 0.894737 0.0526316 0.0526316
" one ||| " CD ||| 0.913043 0.0434783 0.0434783 0.913043 0.0434783 0.0434783
" policy ||| " NN ||| 0.6 0.2 0.2 0.6 0.2 0.2
" recommendation ||| " NN ||| 0.6 0.2 0.2 0.6 0.2 0.2
" said a ||| " VBD DT ||| 0.913043 0.0434783 0.0434783 0.913043 0.0434783 0.0434783
" said an ||| " VBD DT ||| 0.714286 0.142857 0.142857 0.714286 0.142857 0.142857
" said one dealer ||| " VBD CD NN ||| 0.6 0.2 0.2 0.6 0.2 0.2
" said one trader . ||| " VBD CD NN . ||| 0.6 0.2 0.2 0.6 0.2 0.2
" said one trader ||| " VBD CD NN ||| 0.6 0.2 0.2 0.6 0.2 0.2
" said one ||| " VBD CD ||| 0.882353 0.0588235 0.0588235 0.882353 0.0588235 0.0588235
" said the ||| " VBD DT ||| 0.913043 0.0434783 0.0434783 0.913043 0.0434783 0.0434783
" said ||| " VBD ||| 0.992032 0.00398406 0.00398406 0.992032 0.00398406 0.00398406
" she said . ||| " PRP VBD . ||| 0.925926 0.037037 0.037037 0.925926 0.037037 0.037037
" she said ||| " PRP VBD ||| 0.931034 0.0344828 0.0344828 0.931034 0.0344828 0.0344828
" she ||| " PRP ||| 0.942857 0.0285714 0.0285714 0.942857 0.0285714 0.0285714
" that ||| " IN ||| 0.6 0.2 0.2 0.6 0.2 0.2
" the source said . ||| " DT NN VBD . ||| 0.6 0.2 0.2 0.6 0.2 0.2
" the source said ||| " DT NN VBD ||| 0.6 0.2 0.2 0.6 0.2 0.2
" the source ||| " DT NN ||| 0.714286 0.142857 0.142857 0.714286 0.142857 0.142857
" the spokesman said ||| " DT NN VBD ||| 0.714286 0.142857 0.142857 0.714286 0.142857 0.142857
" the spokesman ||| " DT NN ||| 0.714286 0.142857 0.142857 0.714286 0.142857 0.142857
" the statement said . ||| " DT NN VBD . ||| 0.818182 0.0909091 0.0909091 0.818182 0.0909091 0.0909091
" the statement said ||| " DT NN VBD ||| 0.818182 0.0909091 0.0909091 0.818182 0.0909091 0.0909091
" the statement ||| " DT NN ||| 0.818182 0.0909091 0.0909091 0.818182 0.0909091 0.0909091
" the ||| " DT ||| 0.982609 0.00869565 0.00869565 0.982609 0.00869565 0.00869565
" they ||| " PRP ||| 0.777778 0.111111 0.111111 0.777778 0.111111 0.111111
" to ||| " TO ||| 0.894737 0.0526316 0.0526316 0.894737 0.0526316 0.0526316
" with the ||| " IN DT ||| 0.6 0.2 0.2 0.6 0.2 0.2
" with ||| " IN ||| 0.846154 0.0769231 0.0769231 0.846154 0.0769231 0.0769231
" ||| " ||| 0.998994 0.000251572 0.000754717 0.999497 0.000251572 0.000251572
$ ||| $ ||| 0.99689 0.00155521 0.00155521 0.99689 0.00155521 0.00155521
% ||| NN ||| 0.931034 0.0344828 0.0344828 0.931034 0.0344828 0.0344828
& Co . ||| CC NNP . ||| 0.846154 0.0769231 0.0769231 0.846154 0.0769231 0.0769231
& Co ||| CC NNP ||| 0.894737 0.0526316 0.0526316 0.894737 0.0526316 0.0526316
& ||| CC ||| 0.948718 0.025641 0.025641 0.948718 0.025641 0.025641
' ( ||| POS ( ||| 0.6 0.2 0.2 0.6 0.2 0.2
' Cup ||| POS JJ ||| 0.6 0.2 0.2 0.6 0.2 0.2
' Cup ||| POS NNP ||| 0.777778 0.111111 0.111111 0.777778 0.111111 0.111111
' ||| '' ||| 0.967213 0.0163934 0.0163934 0.967213 0.0163934 0.0163934
' ||| POS ||| 0.990148 0.00492611 0.00492611 0.990148 0.00492611 0.00492611
'S ||| POS ||| 0.960784 0.0196078 0.0196078 0.960784 0.0196078 0.0196078
'S ||| VBZ ||| 0.846154 0.0769231 0.0769231 0.846154 0.0769231 0.0769231
'd ||| MD ||| 0.6 0.2 0.2 0.6 0.2 0.2
'd ||| VBD ||| 0.6 0.2 0.2 0.6 0.2 0.2
'm a ||| VBP DT ||| 0.6 0.2 0.2 0.6 0.2 0.2
'm not ||| VBP RB ||| 0.714286 0.142857 0.142857 0.714286 0.142857 0.142857
'm still ||| VBP RB ||| 0.6 0.2 0.2 0.6 0.2 0.2
'm ||| VBP ||| 0.955556 0.0222222 0.0222222 0.955556 0.0222222 0.0222222
're always ||| VBP RB ||| 0.6 0.2 0.2 0.6 0.2 0.2
're doing ||| VBP VBG ||| 0.6 0.2 0.2 0.6 0.2 0.2
're rather ||| VBP RB ||| 0.6 0.2 0.2 0.6 0.2 0.2
're ||| VBP ||| 0.970149 0.0149254 0.0149254 0.970149 0.0149254 0.0149254
's Cup Winners ' Cup ||| POS NNP NNS POS JJ ||| 0.6 0.2 0.2 0.6 0.2 0.2
's Cup Winners ' ||| POS NNP NNS POS ||| 0.6 0.2 0.2 0.6 0.2 0.2
's Cup Winners ||| POS NNP NNS ||| 0.6 0.2 0.2 0.6 0.2 0.2
's Cup ||| POS NNP ||| 0.6 0.2 0.2 0.6 0.2 0.2
's Democratic ||| POS NNP ||| 0.6 0.2 0.2 0.6 0.2 0.2
's Heathrow ||| POS NNP ||| 0.6 0.2 0.2 0.6 0.2 0.2
's Party ||| POS NNP ||| 0.6 0.2 0.2 0.6 0.2 0.2
's Tsang ||| POS NNP ||| 0.6 0.2 0.2 0.6 0.2 0.2
's a ||| VBZ DT ||| 0.942857 0.0285714 0.0285714 0.942857 0.0285714 0.0285714
's been ||| VBZ VBN ||| 0.6 0.2 0.2 0.6 0.2 0.2
's chairman ||| POS NN ||| 0.6 0.2 0.2 0.6 0.2 0.2
's confidence " ||| POS NN " ||| 0.6 0.2 0.2 0.6 0.2 0.2
's confidence ||| POS NN ||| 0.6 0.2 0.2 0.6 0.2 0.2
's deputy ||| POS JJ ||| 0.714286 0.142857 0.142857 0.714286 0.142857 0.142857
's deputy ||| POS NN ||| 0.6 0.2 0.2 0.6 0.2 0.2
's economy ||| POS NN ||| 0.6 0.2 0.2 0.6 0.2 0.2
's first ||| POS JJ ||| 0.955556 0.0222222 0.0222222 0.955556 0.0222222 0.0222222
's future ||| POS JJ ||| 0.818182 0.0909091 0.0909091 0.818182 0.0909091 0.0909091
's goal ||| POS NN ||| 0.714286 0.142857 0.142857 0.714286 0.142857 0.142857
's market ||| POS NN ||| 0.714286 0.142857 0.142857 0.714286 0.142857 0.142857
's new ||| POS JJ ||| 0.894737 0.0526316 0.0526316 0.894737 0.0526316 0.0526316
's north and east . ||| POS RB CC JJ . ||| 0.6 0.2 0.2 0.6 0.2 0.2
's north and east ||| POS RB CC JJ ||| 0.6 0.2 0.2 0.6 0.2 0.2
's north and ||| POS RB CC ||| 0.6 0.2 0.2 0.6 0.2 0.2
's north ||| POS RB ||| 0.714286 0.142857 0.142857 0.714286 0.142857 0.142857
's official ||| POS JJ ||| 0.777778 0.111111 0.111111 0.777778 0.111111 0.111111
's official ||| POS NN ||| 0.714286 0.142857 0.142857 0.714286 0.142857 0.142857
's only ||| POS JJ ||| 0.846154 0.0769231 0.0769231 0.846154 0.0769231 0.0769231
's outgoing ||| POS JJ ||| 0.6 0.2 0.2 0.6 0.2 0.2
's plans ||| POS NNS ||| 0.714286 0.142857 0.142857 0.714286 0.142857 0.142857
's policy ||| POS NN ||| 0.6 0.2 0.2 0.6 0.2 0.2
's production ||| POS NN ||| 0.6 0.2 0.2 0.6 0.2 0.2
's southwest coast ||| POS NN NN ||| 0.6 0.2 0.2 0.6 0.2 0.2
's southwest ||| POS NN ||| 0.6 0.2 0.2 0.6 0.2 0.2
's stock ||| POS NN ||| 0.6 0.2 0.2 0.6 0.2 0.2
's top ||| POS CD ||| 0.6 0.2 0.2 0.6 0.2 0.2
's top ||| POS JJ ||| 0.894737 0.0526316 0.0526316 0.894737 0.0526316 0.0526316
's tour ||| POS NN ||| 0.6 0.2 0.2 0.6 0.2 0.2
's very ||| VBZ RB ||| 0.818182 0.0909091 0.0909091 0.818182 0.0909091 0.0909091
's violence pitting Moslem rebels against ||| POS NN VBG NNP NNS IN ||| 0.6 0.2 0.2 0.6 0.2 0.2
's violence pitting Moslem rebels ||| POS NN VBG NNP NNS ||| 0.6 0.2 0.2 0.6 0.2 0.2
's violence pitting Moslem ||| POS NN VBG NNP ||| 0.6 0.2 0.2 0.6 0.2 0.2
's violence pitting ||| POS NN VBG ||| 0.6 0.2 0.2 0.6 0.2 0.2
's violence ||| POS NN ||| 0.6 0.2 0.2 0.6 0.2 0.2
's visit ||| POS NN ||| 0.6 0.2 0.2 0.6 0.2 0.2
's world ||| POS NN ||| 0.777778 0.111111 0.111111 0.777778 0.111111 0.111111
's ||| POS ||| 0.999247 0.000376648 0.000376648 0.999247 0.000376648 0.000376648
's ||| PRP ||| 0.6 0.2 0.2 0.6 0.2 0.2
's ||| VBZ ||| 0.990521 0.00473934 0.00473934 0.990521 0.00473934 0.00473934
've been ||| VB VBN ||| 0.6 0.2 0.2 0.6 0.2 0.2
've been ||| VBP VBN ||| 0.714286 0.142857 0.142857 0.714286 0.142857 0.142857
've ||| VB ||| 0.6 0.2 0.2 0.6 0.2 0.2
've ||| VBP ||| 0.939394 0.030303 0.030303 0.939394 0.030303 0.030303
( $ ||| ( $ ||| 0.969231 0.0153846 0.0153846 0.969231 0.0153846 0.0153846
( Argentina ) , ||| ( NNP ) , ||| 0.6 0.2 0.2 0.6 0.2 0.2
( Argentina ) ||| ( NNP ) ||| 0.95122 0.0243902 0.0243902 0.95122 0.0243902 0.0243902
( Argentina ||| ( NNP ||| 0.95122 0.0243902 0.0243902 0.95122 0.0243902 0.0243902
( Australia ) , ||| ( NNP ) , ||| 0.882353 0.0588235 0.0588235 0.882353 0.0588235 0.0588235
( Australia ) ||| ( NNP ) ||| 0.988571 0.00571429 0.00571429 0.988571 0.00571429 0.00571429
( Australia ||| ( NNP ||| 0.988701 0.00564972 0.00564972 0.988701 0.00564972 0.00564972
( Brazil ) ||| ( NNP ) ||| 0.931034 0.0344828 0.0344828 0.931034 0.0344828 0.0344828
( Brazil ||| ( NNP ||| 0.931034 0.0344828 0.0344828 0.931034 0.0344828 0.0344828
( Britain ) ||| ( NNP ) ||| 0.984252 0.00787402 0.00787402 0.984252 0.00787402 0.00787402
( Britain ||| ( NNP ||| 0.985612 0.00719424 0.00719424 0.985612 0.00719424 0.00719424
( Canada ) ||| ( NNP ) ||| 0.935484 0.0322581 0.0322581 0.935484 0.0322581 0.0322581
( Canada ||| ( NNP ||| 0.935484 0.0322581 0.0322581 0.935484 0.0322581 0.0322581
( Chicago ||| ( NNP ||| 0.6 0.2 0.2 0.6 0.2 0.2
( EC ) No ||| ( NNP ) DT ||| 0.777778 0.111111 0.111111 0.777778 0.111111 0.111111
( EC ) ||| ( NNP ) ||| 0.777778 0.111111 0.111111 0.777778 0.111111 0.111111
( EC ||| ( NNP ||| 0.777778 0.111111 0.111111 0.777778 0.111111 0.111111
( EEC ) No ||| ( NNP ) DT ||| 0.6 0.2 0.2 0.6 0.2 0.2
( EEC ) ||| ( NNP ) ||| 0.6 0.2 0.2 0.6 0.2 0.2
( EEC ||| ( NNP ||| 0.6 0.2 0.2 0.6 0.2 0.2
( FIS ) ||| ( NNP ) ||| 0.6 0.2 0.2 0.6 0.2 0.2
( FIS ||| ( NNP ||| 0.6 0.2 0.2 0.6 0.2 0.2
( Finland ) ||| ( NNP ) ||| 0.960784 0.0196078 0.0196078 0.960784 0.0196078 0.0196078
( Finland ||| ( NNP ||| 0.960784 0.0196078 0.0196078 0.960784 0.0196078 0.0196078
( France ) , ||| ( NNP ) , ||| 0.777778 0.111111 0.111111 0.777778 0.111111 0.111111
( France ) Yamaha ||| ( NNP ) NNP ||| 0.6 0.2 0.2 0.6 0.2 0.2
( France ) beat ||| ( NNP ) VB ||| 0.945946 0.027027 0.027027 0.945946 0.027027 0.027027
( France ) ||| ( NNP ) ||| 0.986014 0.00699301 0.00699301 0.986014 0.00699301 0.00699301
( France ||| ( NNP ||| 0.986014 0.00699301 0.00699301 0.986014 0.00699301 0.00699301
( GDP ||| ( NNP ||| 0.6 0.2 0.2 0.6 0.2 0.2
( Germany ) beat ||| ( NNP ) VB ||| 0.92 0.04 0.04 0.92 0.04 0.04
( Germany ) ||| ( NNP ) ||| 0.988571 0.00571429 0.00571429 0.988571 0.00571429 0.00571429
( Germany ||| ( NNP ||| 0.988571 0.00571429 0.00571429 0.988571 0.00571429 0.00571429
( Ireland ) , ||| ( NNP ) , ||| 0.846154 0.0769231 0.0769231 0.846154 0.0769231 0.0769231
( Ireland ) ||| ( NNP ) ||| 0.948718 0.025641 0.025641 0.948718 0.025641 0.025641
( Ireland ||| ( NNP ||| 0.948718 0.025641 0.025641 0.948718 0.025641 0.025641
( Italy ) Honda ||| ( NNP ) NNP ||| 0.6 0.2 0.2 0.6 0.2 0.2
( Italy ) ||| ( NNP ) ||| 0.986755 0.00662252 0.00662252 0.986755 0.00662252 0.00662252
( Italy ||| ( NNP ||| 0.986755 0.00662252 0.00662252 0.986755 0.00662252 0.00662252
( Japan ) Honda ||| ( NNP ) NNP ||| 0.777778 0.111111 0.111111 0.777778 0.111111 0.111111
( Japan ) Yamaha ||| ( NNP ) NNP ||| 0.777778 0.111111 0.111111 0.777778 0.111111 0.111111
( Japan ) ||| ( NNP ) ||| 0.959596 0.010101 0.030303 0.979798 0.010101 0.010101
( Japan ||| ( NNP ||| 0.959596 0.010101 0.030303 0.979798 0.010101 0.010101
( LTTE ) ||| ( NNP ) ||| 0.6 0.2 0.2 0.6 0.2 0.2
( LTTE ||| ( NNP ||| 0.6 0.2 0.2 0.6 0.2 0.2
( Netherlands ) ||| ( NNP ) ||| 0.974684 0.0126582 0.0126582 0.974684 0.0126582 0.0126582
( Netherlands ||| ( NNP ||| 0.974684 0.0126582 0.0126582 0.974684 0.0126582 0.0126582
( Parent ) FORECAST FORECAST YEAR-AGO ||| ( NNP ) NNP NNP NNP ||| 0.6 0.2 0.2 0.6 0.2 0.2
( Parent ) FORECAST FORECAST ||| ( NNP ) NNP NNP ||| 0.6 0.2 0.2 0.6 0.2 0.2
( Parent ) FORECAST YEAR-AGO ||| ( NNP ) NNP NNP ||| 0.6 0.2 0.2 0.6 0.2 0.2
( Parent ) FORECAST ||| ( NNP ) NNP ||| 0.714286 0.142857 0.142857 0.714286 0.142857 0.142857
( Parent ) ||| ( NNP ) ||| 0.714286 0.142857 0.142857 0.714286 0.142857 0.142857
( Parent ||| ( NNP ||| 0.714286 0.142857 0.142857 0.714286 0.142857 0.142857
( Poland ) ||| ( NNP ) ||| 0.882353 0.0588235 0.0588235 0.882353 0.0588235 0.0588235
( Poland ||| ( NNP ||| 0.882353 0.0588235 0.0588235 0.882353 0.0588235 0.0588235
( Russia ) ||| ( NNP ) ||| 0.975309 0.0123457 0.0123457 0.975309 0.0123457 0.0123457
( Russia ||| ( NNP ||| 0.975309 0.0123457 0.0123457 0.975309 0.0123457 0.0123457
( South ||| ( NNP ||| 0.971831 0.0140845 0.0140845 0.971831 0.0140845 0.0140845
( Spain ) , ||| ( NNP ) , ||| 0.913043 0.0434783 0.0434783 0.913043 0.0434783 0.0434783
( Spain ) ||| ( NNP ) ||| 0.988166 0.00591716 0.00591716 0.988166 0.00591716 0.00591716
( Spain ||| ( NNP ||| 0.988166 0.00591716 0.00591716 0.988166 0.00591716 0.00591716
( Sweden ) , ||| ( NNP ) , ||| 0.925926 0.037037 0.037037 0.925926 0.037037 0.037037
( Sweden ) ||| ( NNP ) ||| 0.984496 0.00775194 0.00775194 0.984496 0.00775194 0.00775194
( Sweden ||| ( NNP ||| 0.984496 0.00775194 0.00775194 0.984496 0.00775194 0.00775194
( U.S. ) , ||| ( NNP ) , ||| 0.777778 0.111111 0.111111 0.777778 0.111111 0.111111
( U.S. ) ||| ( NNP ) ||| 0.993528 0.00323625 0.00323625 0.993528 0.00323625 0.00323625
( U.S. ||| ( NNP ||| 0.993528 0.00323625 0.00323625 0.993528 0.00323625 0.00323625
( Ukraine ) ||| ( NNP ) ||| 0.913043 0.0434783 0.0434783 0.913043 0.0434783 0.0434783
( Ukraine ||| ( NNP ||| 0.913043 0.0434783 0.0434783 0.913043 0.0434783 0.0434783
( and ) ||| ( CC ) ||| 0.6 0.2 0.2 0.6 0.2 0.2
( and ||| ( CC ||| 0.6 0.2 0.2 0.6 0.2 0.2
( best of ||| ( JJS IN ||| 0.6 0.2 0.2 0.6 0.2 0.2
( best ||| ( JJS ||| 0.6 0.2 0.2 0.6 0.2 0.2
( bln ||| ( NN ||| 0.714286 0.142857 0.142857 0.714286 0.142857 0.142857
( bpd ) ||| ( NN ) ||| 0.6 0.2 0.2 0.6 0.2 0.2
( bpd ||| ( NN ||| 0.6 0.2 0.2 0.6 0.2 0.2
( dollars per ||| ( NNS IN ||| 0.6 0.2 0.2 0.6 0.2 0.2
( dollars ||| ( NNS ||| 0.714286 0.142857 0.142857 0.714286 0.142857 0.142857
( four ||| ( CD ||| 0.714286 0.142857 0.142857 0.714286 0.142857 0.142857
( halftime ||| ( NN ||| 0.957447 0.0212766 0.0212766 0.957447 0.0212766 0.0212766
( in billions of yen unless specified ||| ( IN NNS IN NNS IN VBN ||| 0.818182 0.0909091 0.0909091 0.818182 0.0909091 0.0909091
( in billions of yen unless ||| ( IN NNS IN NNS IN ||| 0.818182 0.0909091 0.0909091 0.818182 0.0909091 0.0909091
( in billions of yen ||| ( IN NNS IN NNS ||| 0.818182 0.0909091 0.0909091 0.818182 0.0909091 0.0909091
( in billions of ||| ( IN NNS IN ||| 0.818182 0.0909091 0.0909091 0.818182 0.0909091 0.0909091
( in billions ||| ( IN NNS ||| 0.818182 0.0909091 0.0909091 0.818182 0.0909091 0.0909091
( in millions of ||| ( IN NNS IN ||| 0.777778 0.111111 0.111111 0.777778 0.111111 0.111111
( in millions ||| ( IN NNS ||| 0.777778 0.111111 0.111111 0.777778 0.111111 0.111111
( in ||| ( IN ||| 0.955556 0.0222222 0.0222222 0.955556 0.0222222 0.0222222
( miles ) ||| ( NNS ) ||| 0.6 0.2 0.2 0.6 0.2 0.2
( miles ||| ( NNS ||| 0.6 0.2 0.2 0.6 0.2 0.2
( nine ||| ( CD ||| 0.6 0.2 0.2 0.6 0.2 0.2
( on ||| ( IN ||| 0.777778 0.111111 0.111111 0.777778 0.111111 0.111111
( six ||| ( CD ||| 0.6 0.2 0.2 0.6 0.2 0.2
( the ||| ( DT ||| 0.894737 0.0526316 0.0526316 0.894737 0.0526316 0.0526316
( yards ) ||| ( NNS ) ||| 0.6 0.2 0.2 0.6 0.2 0.2
( yards ||| ( NNS ||| 0.6 0.2 0.2 0.6 0.2 0.2
( ||| ( ||| 0.998524 0.000184468 0.00129127 0.999631 0.000184468 0.000184468
) ( ||| ) ( ||| 0.931034 0.0344828 0.0344828 0.931034 0.0344828 0.0344828
) , " ||| ) , " ||| 0.818182 0.0909091 0.0909091 0.818182 0.0909091 0.0909091
) , David Gilford ||| ) , NNP NNP ||| 0.6 0.2 0.2 0.6 0.2 0.2
) , David ||| ) , NNP ||| 0.846154 0.0769231 0.0769231 0.846154 0.0769231 0.0769231
) , Ian ||| ) , NNP ||| 0.6 0.2 0.2 0.6 0.2 0.2
) , Mike ||| ) , NNP ||| 0.6 0.2 0.2 0.6 0.2 0.2
) , Paul Eales , ||| ) , NNP NNP , ||| 0.6 0.2 0.2 0.6 0.2 0.2
) , Paul Eales ||| ) , NNP NNP ||| 0.6 0.2 0.2 0.6 0.2 0.2
) , Paul ||| ) , NNP ||| 0.777778 0.111111 0.111111 0.777778 0.111111 0.111111
) , Scott ||| ) , NNP ||| 0.6 0.2 0.2 0.6 0.2 0.2
) , ||| ) , ||| 0.995717 0.00214133 0.00214133 0.995717 0.00214133 0.00214133
) . ||| ) . ||| 0.993311 0.00334448 0.00334448 0.993311 0.00334448 0.00334448
) : ||| ) : ||| 0.991189 0.00440529 0.00440529 0.991189 0.00440529 0.00440529
) FORECAST FORECAST YEAR-AGO ||| ) NNP NNP NNP ||| 0.6 0.2 0.2 0.6 0.2 0.2
) FORECAST FORECAST ||| ) NNP NNP ||| 0.6 0.2 0.2 0.6 0.2 0.2
) FORECAST YEAR-AGO ||| ) NNP NNP ||| 0.714286 0.142857 0.142857 0.714286 0.142857 0.142857
) FORECAST ||| ) NNP ||| 0.777778 0.111111 0.111111 0.777778 0.111111 0.111111
) Honda ||| ) NNP ||| 0.925926 0.037037 0.037037 0.925926 0.037037 0.037037
) Ltd , ||| ) NNP , ||| 0.6 0.2 0.2 0.6 0.2 0.2
) Ltd ||| ) NNP ||| 0.777778 0.111111 0.111111 0.777778 0.111111 0.111111
) No ||| ) DT ||| 0.818182 0.0909091 0.0909091 0.818182 0.0909091 0.0909091
) Suzuki ||| ) NNP ||| 0.6 0.2 0.2 0.6 0.2 0.2
) Yamaha ||| ) NNP ||| 0.904762 0.047619 0.047619 0.904762 0.047619 0.047619
) and ||| ) CC ||| 0.967213 0.0163934 0.0163934 0.967213 0.0163934 0.0163934
) are ||| ) VBP ||| 0.818182 0.0909091 0.0909091 0.818182 0.0909091 0.0909091
) away ||| ) RB ||| 0.6 0.2 0.2 0.6 0.2 0.2
) beat ||| ) VB ||| 0.996289 0.00185529 0.00185529 0.996289 0.00185529 0.00185529
) by ||| ) IN ||| 0.818182 0.0909091 0.0909091 0.818182 0.0909091 0.0909091
) east of ||| ) JJ IN ||| 0.6 0.2 0.2 0.6 0.2 0.2
) east ||| ) JJ ||| 0.6 0.2 0.2 0.6 0.2 0.2
) from a ||| ) IN DT ||| 0.6 0.2 0.2 0.6 0.2 0.2
) from the ||| ) IN DT ||| 0.714286 0.142857 0.142857 0.714286 0.142857 0.142857
) from ||| ) IN ||| 0.894737 0.0526316 0.0526316 0.894737 0.0526316 0.0526316
) in a ||| ) IN DT ||| 0.882353 0.0588235 0.0588235 0.882353 0.0588235 0.0588235
) in ||| ) IN ||| 0.967213 0.0163934 0.0163934 0.967213 0.0163934 0.0163934
) is ||| ) VBZ ||| 0.714286 0.142857 0.142857 0.714286 0.142857 0.142857
) of ||| ) IN ||| 0.935484 0.0322581 0.0322581 0.935484 0.0322581 0.0322581
) rebels ||| ) NNS ||| 0.6 0.2 0.2 0.6 0.2 0.2
) said . ||| ) VBD . ||| 0.714286 0.142857 0.142857 0.714286 0.142857 0.142857
) said ||| ) VBD ||| 0.948718 0.025641 0.025641 0.948718 0.025641 0.025641
) south of ||| ) RB IN ||| 0.904762 0.047619 0.047619 0.904762 0.047619 0.047619
) south ||| ) RB ||| 0.904762 0.047619 0.047619 0.904762 0.047619 0.047619
) the ||| ) DT ||| 0.714286 0.142857 0.142857 0.714286 0.142857 0.142857
) this ||| ) DT ||| 0.6 0.2 0.2 0.6 0.2 0.2
) to ||| ) TO ||| 0.92 0.04 0.04 0.92 0.04 0.04
) vs ||| ) NNP ||| 0.6 0.2 0.2 0.6 0.2 0.2
) west of Surabaya , ||| ) NN IN NNP , ||| 0.6 0.2 0.2 0.6 0.2 0.2
) west of Surabaya ||| ) NN IN NNP ||| 0.6 0.2 0.2 0.6 0.2 0.2
) west of ||| ) NN IN ||| 0.866667 0.0666667 0.0666667 0.866667 0.0666667 0.0666667
) west ||| ) NN ||| 0.866667 0.0666667 0.0666667 0.866667 0.0666667 0.0666667
) ||| ) ||| 0.999632 0.000183857 0.000183857 0.999632 0.000183857 0.000183857
* ||| SYM ||| 0.931034 0.0344828 0.0344828 0.931034 0.0344828 0.0344828
, " a police spokesman said ||| , " DT NN NN VBD ||| 0.714286 0.142857 0.142857 0.714286 0.142857 0.142857
, " a police spokesman ||| , " DT NN NN ||| 0.777778 0.111111 0.111111 0.777778 0.111111 0.111111
, " a police ||| , " DT NN ||| 0.777778 0.111111 0.111111 0.777778 0.111111 0.111111
, " a ||| , " DT ||| 0.942857 0.0285714 0.0285714 0.942857 0.0285714 0.0285714
, " he added , ||| , " PRP VBD , ||| 0.6 0.2 0.2 0.6 0.2 0.2
, " he added . ||| , " PRP VBD . ||| 0.939394 0.030303 0.030303 0.939394 0.030303 0.030303
, " he added ||| , " PRP VBD ||| 0.942857 0.0285714 0.0285714 0.942857 0.0285714 0.0285714
, " he said , adding ||| , " PRP VBD , VBG ||| 0.777778 0.111111 0.111111 0.777778 0.111111 0.111111
, " he said , ||| , " PRP VBD , ||| 0.818182 0.0909091 0.0909091 0.818182 0.0909091 0.0909091
, " he said . ||| , " PRP VBD . ||| 0.985185 0.00740741 0.00740741 0.985185 0.00740741 0.00740741
, " he said in ||| , " PRP VBD IN ||| 0.818182 0.0909091 0.0909091 0.818182 0.0909091 0.0909091
, " he said ||| , " PRP VBD ||| 0.987261 0.00636943 0.00636943 0.987261 0.00636943 0.00636943
, " he told the ||| , " PRP VBD DT ||| 0.6 0.2 0.2 0.6 0.2 0.2
, " he told ||| , " PRP VBD ||| 0.92 0.04 0.04 0.92 0.04 0.04
, " he ||| , " PRP ||| 0.99095 0.00452489 0.00452489 0.99095 0.00452489 0.00452489
, " one ||| , " CD ||| 0.894737 0.0526316 0.0526316 0.894737 0.0526316 0.0526316
, " said a ||| , " VBD DT ||| 0.913043 0.0434783 0.0434783 0.913043 0.0434783 0.0434783
, " said an ||| , " VBD DT ||| 0.714286 0.142857 0.142857 0.714286 0.142857 0.142857
, " said one dealer ||| , " VBD CD NN ||| 0.6 0.2 0.2 0.6 0.2 0.2
, " said one trader . ||| , " VBD CD NN . ||| 0.6 0.2 0.2 0.6 0.2 0.2
, " said one trader ||| , " VBD CD NN ||| 0.6 0.2 0.2 0.6 0.2 0.2
, " said one ||| , " VBD CD ||| 0.882353 0.0588235 0.0588235 0.882353 0.0588235 0.0588235
, " said the ||| , " VBD DT ||| 0.913043 0.0434783 0.0434783 0.913043 0.0434783 0.0434783
, " said ||| , " VBD ||| 0.991968 0.00401606 0.00401606 0.991968 0.00401606 0.00401606
, " she said . ||| , " PRP VBD . ||| 0.925926 0.037037 0.037037 0.925926 0.037037 0.037037
, " she said ||| , " PRP VBD ||| 0.931034 0.0344828 0.0344828 0.931034 0.0344828 0.0344828
, " she ||| , " PRP ||| 0.942857 0.0285714 0.0285714 0.942857 0.0285714 0.0285714
, " the source said . ||| , " DT NN VBD . ||| 0.6 0.2 0.2 0.6 0.2 0.2
, " the source said ||| , " DT NN VBD ||| 0.6 0.2 0.2 0.6 0.2 0.2
, " the source ||| , " DT NN ||| 0.714286 0.142857 0.142857 0.714286 0.142857 0.142857
, " the spokesman said ||| , " DT NN VBD ||| 0.714286 0.142857 0.142857 0.714286 0.142857 0.142857
, " the spokesman ||| , " DT NN ||| 0.714286 0.142857 0.142857 0.714286 0.142857 0.142857
, " the statement said . ||| , " DT NN VBD . ||| 0.818182 0.0909091 0.0909091 0.818182 0.0909091 0.0909091
, " the statement said ||| , " DT NN VBD ||| 0.818182 0.0909091 0.0909091 0.818182 0.0909091 0.0909091
, " the statement ||| , " DT NN ||| 0.818182 0.0909091 0.0909091 0.818182 0.0909091 0.0909091
, " the ||| , " DT ||| 0.980198 0.00990099 0.00990099 0.980198 0.00990099 0.00990099
, " ||| , " ||| 0.998244 0.000877963 0.000877963 0.998244 0.000877963 0.000877963
, ' ||| , '' ||| 0.882353 0.0588235 0.0588235 0.882353 0.0588235 0.0588235
, ( ||| , ( ||| 0.777778 0.111111 0.111111 0.777778 0.111111 0.111111
, Afghanistan ||| , NNP ||| 0.6 0.2 0.2 0.6 0.2 0.2
, Amsterdam newsroom ||| , NNP NN ||| 0.6 0.2 0.2 0.6 0.2 0.2
, Amsterdam ||| , NNP ||| 0.714286 0.142857 0.142857 0.714286 0.142857 0.142857
, Austria ||| , NNP ||| 0.6 0.2 0.2 0.6 0.2 0.2
, British ||| , JJ ||| 0.6 0.2 0.2 0.6 0.2 0.2
, British ||| , NNP ||| 0.846154 0.0769231 0.0769231 0.846154 0.0769231 0.0769231
, Calif. , ||| , NNP , ||| 0.6 0.2 0.2 0.6 0.2 0.2
, Calif. ||| , NNP ||| 0.846154 0.0769231 0.0769231 0.846154 0.0769231 0.0769231
, Corsica ||| , NNP ||| 0.6 0.2 0.2 0.6 0.2 0.2
, Costantino Rocca ||| , NNP NNP ||| 0.714286 0.142857 0.142857 0.714286 0.142857 0.142857
, Costantino ||| , NNP ||| 0.714286 0.142857 0.142857 0.714286 0.142857 0.142857
, David Gilford ||| , NNP NNP ||| 0.6 0.2 0.2 0.6 0.2 0.2
, David ||| , NNP ||| 0.931034 0.0344828 0.0344828 0.931034 0.0344828 0.0344828
, England ||| , NNP ||| 0.963636 0.0181818 0.0181818 0.963636 0.0181818 0.0181818
, Frankfurt Newsroom , ||| , NNP NNP , ||| 0.6 0.2 0.2 0.6 0.2 0.2
, Frankfurt Newsroom ||| , NNP NNP ||| 0.6 0.2 0.2 0.6 0.2 0.2
, Frankfurt ||| , NNP ||| 0.6 0.2 0.2 0.6 0.2 0.2
, Gavin Levenson ( South ||| , NNP NNP ( NNP ||| 0.6 0.2 0.2 0.6 0.2 0.2
, Gavin Levenson ( ||| , NNP NNP ( ||| 0.6 0.2 0.2 0.6 0.2 0.2
, Gavin Levenson ||| , NNP NNP ||| 0.6 0.2 0.2 0.6 0.2 0.2
, Gavin ||| , NNP ||| 0.6 0.2 0.2 0.6 0.2 0.2
, Germany ||| , NNP ||| 0.904762 0.047619 0.047619 0.904762 0.047619 0.047619
, I ||| , PRP ||| 0.953488 0.0232558 0.0232558 0.953488 0.0232558 0.0232558
, Ian ||| , NNP ||| 0.882353 0.0588235 0.0588235 0.882353 0.0588235 0.0588235
, Ireland ||| , NNP ||| 0.6 0.2 0.2 0.6 0.2 0.2
, Israel 's ||| , NNP POS ||| 0.6 0.2 0.2 0.6 0.2 0.2
, Israel ||| , NNP ||| 0.777778 0.111111 0.111111 0.777778 0.111111 0.111111
, Italy ||| , NNP ||| 0.777778 0.111111 0.111111 0.777778 0.111111 0.111111
, Joakim Haeggman ||| , NNP NNP ||| 0.6 0.2 0.2 0.6 0.2 0.2
, Joakim ||| , NNP ||| 0.6 0.2 0.2 0.6 0.2 0.2
, Jose Coceres ( Argentina ) ||| , NNP NNPS ( NNP ) ||| 0.6 0.2 0.2 0.6 0.2 0.2
, Jose Coceres ( Argentina ||| , NNP NNPS ( NNP ||| 0.6 0.2 0.2 0.6 0.2 0.2
, Jose Coceres ( ||| , NNP NNPS ( ||| 0.6 0.2 0.2 0.6 0.2 0.2
, Jose Coceres ||| , NNP NNPS ||| 0.6 0.2 0.2 0.6 0.2 0.2
, Jose ||| , NNP ||| 0.846154 0.0769231 0.0769231 0.846154 0.0769231 0.0769231
, Kan ||| , NNP ||| 0.6 0.2 0.2 0.6 0.2 0.2
, Lloyd ||| , NNP ||| 0.6 0.2 0.2 0.6 0.2 0.2
, London Newsroom ||| , NNP NNP ||| 0.6 0.2 0.2 0.6 0.2 0.2
, London ||| , NNP ||| 0.818182 0.0909091 0.0909091 0.818182 0.0909091 0.0909091
, Mark Roe ||| , NNP NNP ||| 0.714286 0.142857 0.142857 0.714286 0.142857 0.142857
, Mark ||| , NNP ||| 0.92 0.04 0.04 0.92 0.04 0.04
, Mexico ||| , NNP ||| 0.846154 0.0769231 0.0769231 0.846154 0.0769231 0.0769231
, Miguel Angel Jimenez ( Spain ) ||| , NNP NNP NNP ( NNP ) ||| 0.6 0.2 0.2 0.6 0.2 0.2
, Miguel Angel Jimenez ( Spain ||| , NNP NNP NNP ( NNP ||| 0.6 0.2 0.2 0.6 0.2 0.2
, Miguel Angel Jimenez ( ||| , NNP NNP NNP ( ||| 0.6 0.2 0.2 0.6 0.2 0.2
, Miguel Angel Jimenez ||| , NNP NNP NNP ||| 0.6 0.2 0.2 0.6 0.2 0.2
, Miguel Angel ||| , NNP NNP ||| 0.818182 0.0909091 0.0909091 0.818182 0.0909091 0.0909091
, Miguel ||| , NNP ||| 0.818182 0.0909091 0.0909091 0.818182 0.0909091 0.0909091
, Mike Clayton ||| , NNP NNP ||| 0.6 0.2 0.2 0.6 0.2 0.2
, Mike ||| , NNP ||| 0.818182 0.0909091 0.0909091 0.818182 0.0909091 0.0909091
, Morocco ||| , NNP ||| 0.6 0.2 0.2 0.6 0.2 0.2
, N.J. ||| , NNP ||| 0.818182 0.0909091 0.0909091 0.818182 0.0909091 0.0909091
, New York ||| , NNP NNP ||| 0.894737 0.0526316 0.0526316 0.894737 0.0526316 0.0526316
, New ||| , NNP ||| 0.925926 0.037037 0.037037 0.925926 0.037037 0.037037
, Norwegian ||| , JJ ||| 0.6 0.2 0.2 0.6 0.2 0.2
, Pakistan ||| , NNP ||| 0.894737 0.0526316 0.0526316 0.894737 0.0526316 0.0526316
, Paul Eales , ||| , NNP NNP , ||| 0.6 0.2 0.2 0.6 0.2 0.2
, Paul Eales ||| , NNP NNP ||| 0.6 0.2 0.2 0.6 0.2 0.2
, Paul Eales ||| , NNP NNPS ||| 0.777778 0.111111 0.111111 0.777778 0.111111 0.111111
, Paul ||| , NNP ||| 0.948718 0.025641 0.025641 0.948718 0.025641 0.025641
, Peter ||| , NNP ||| 0.818182 0.0909091 0.0909091 0.818182 0.0909091 0.0909091
, Philip Walton ( Ireland ) ||| , NNP NNP ( NNP ) ||| 0.6 0.2 0.2 0.6 0.2 0.2
, Philip Walton ( Ireland ||| , NNP NNP ( NNP ||| 0.6 0.2 0.2 0.6 0.2 0.2
, Philip Walton ( ||| , NNP NNP ( ||| 0.6 0.2 0.2 0.6 0.2 0.2
, Philip Walton ||| , NNP NNP ||| 0.6 0.2 0.2 0.6 0.2 0.2
, Philip ||| , NNP ||| 0.777778 0.111111 0.111111 0.777778 0.111111 0.111111
, Retief Goosen ( South ||| , NNP NNP ( NNP ||| 0.6 0.2 0.2 0.6 0.2 0.2
, Retief Goosen ( ||| , NNP NNP ( ||| 0.6 0.2 0.2 0.6 0.2 0.2
, Retief Goosen ||| , NNP NNP ||| 0.6 0.2 0.2 0.6 0.2 0.2
, Retief ||| , NN ||| 0.6 0.2 0.2 0.6 0.2 0.2
, Retief ||| , NNP ||| 0.6 0.2 0.2 0.6 0.2 0.2
, Ronald ||| , NNP ||| 0.6 0.2 0.2 0.6 0.2 0.2
, S. ||| , NNP ||| 0.846154 0.0769231 0.0769231 0.846154 0.0769231 0.0769231
, Sachs ||| , NNP ||| 0.6 0.2 0.2 0.6 0.2 0.2
, Scotland ||| , NNP ||| 0.6 0.2 0.2 0.6 0.2 0.2
, Scott ||| , NNP ||| 0.714286 0.142857 0.142857 0.714286 0.142857 0.142857
, The ||| , DT ||| 0.6 0.2 0.2 0.6 0.2 0.2
, Tsang ||| , NNP ||| 0.714286 0.142857 0.142857 0.714286 0.142857 0.142857
, Virginia , ||| , NNP , ||| 0.6 0.2 0.2 0.6 0.2 0.2
, Virginia ||| , NNP ||| 0.6 0.2 0.2 0.6 0.2 0.2
, Wales ||| , NNP ||| 0.6 0.2 0.2 0.6 0.2 0.2
, Wall Street ||| , NNP NNP ||| 0.714286 0.142857 0.142857 0.714286 0.142857 0.142857
, Wall ||| , NNP ||| 0.714286 0.142857 0.142857 0.714286 0.142857 0.142857
, Wayne Riley ( Australia ) ||| , NNP NNP ( NNP ) ||| 0.6 0.2 0.2 0.6 0.2 0.2
, Wayne Riley ( Australia ||| , NNP NNP ( NNP ||| 0.6 0.2 0.2 0.6 0.2 0.2
, Wayne Riley ( ||| , NNP NNP ( ||| 0.6 0.2 0.2 0.6 0.2 0.2
, Wayne Riley ||| , NNP NNP ||| 0.6 0.2 0.2 0.6 0.2 0.2
, Wayne ||| , NNP ||| 0.714286 0.142857 0.142857 0.714286 0.142857 0.142857
, West Bank ||| , NNP NNP ||| 0.818182 0.0909091 0.0909091 0.818182 0.0909091 0.0909091
, West ||| , NNP ||| 0.846154 0.0769231 0.0769231 0.846154 0.0769231 0.0769231
, Yemen ||| , NNP ||| 0.6 0.2 0.2 0.6 0.2 0.2
, a British colony ||| , DT JJ NN ||| 0.714286 0.142857 0.142857 0.714286 0.142857 0.142857
, a British ||| , DT JJ ||| 0.714286 0.142857 0.142857 0.714286 0.142857 0.142857
, a former ||| , DT JJ ||| 0.894737 0.0526316 0.0526316 0.894737 0.0526316 0.0526316
, a group of ||| , DT NN IN ||| 0.6 0.2 0.2 0.6 0.2 0.2
, a group ||| , DT NN ||| 0.777778 0.111111 0.111111 0.777778 0.111111 0.111111
, a police ||| , DT NN ||| 0.818182 0.0909091 0.0909091 0.818182 0.0909091 0.0909091
, a spokesman ||| , DT NN ||| 0.818182 0.0909091 0.0909091 0.818182 0.0909091 0.0909091
, a unit of ||| , DT NN IN ||| 0.714286 0.142857 0.142857 0.714286 0.142857 0.142857
, a unit ||| , DT NN ||| 0.714286 0.142857 0.142857 0.714286 0.142857 0.142857
, a ||| , DT ||| 0.99455 0.0027248 0.0027248 0.99455 0.0027248 0.0027248
, according to ||| , VBG TO ||| 0.953488 0.0232558 0.0232558 0.953488 0.0232558 0.0232558
, according ||| , VBG ||| 0.953488 0.0232558 0.0232558 0.953488 0.0232558 0.0232558
, adding that the ||| , VBG IN DT ||| 0.818182 0.0909091 0.0909091 0.818182 0.0909091 0.0909091
, adding that ||| , VBG IN ||| 0.894737 0.0526316 0.0526316 0.894737 0.0526316 0.0526316
, adding ||| , VBG ||| 0.904762 0.047619 0.047619 0.904762 0.047619 0.047619
, after ||| , IN ||| 0.925926 0.037037 0.037037 0.925926 0.037037 0.037037
, alleged ||| , JJ ||| 0.6 0.2 0.2 0.6 0.2 0.2
, alleging ||| , VBG ||| 0.6 0.2 0.2 0.6 0.2 0.2
, also ||| , RB ||| 0.939394 0.030303 0.030303 0.939394 0.030303 0.030303
, an official ||| , DT JJ ||| 0.777778 0.111111 0.111111 0.777778 0.111111 0.111111
, an official ||| , DT NN ||| 0.818182 0.0909091 0.0909091 0.818182 0.0909091 0.0909091
, an ||| , DT ||| 0.979381 0.0103093 0.0103093 0.979381 0.0103093 0.0103093
, and are ||| , CC VBP ||| 0.6 0.2 0.2 0.6 0.2 0.2
, and his ||| , CC PRP$ ||| 0.6 0.2 0.2 0.6 0.2 0.2
, and the ||| , CC DT ||| 0.846154 0.0769231 0.0769231 0.846154 0.0769231 0.0769231
, and we ||| , CC PRP ||| 0.777778 0.111111 0.111111 0.777778 0.111111 0.111111
, and ||| , CC ||| 0.993884 0.0030581 0.0030581 0.993884 0.0030581 0.0030581
, announced ||| , VBD ||| 0.6 0.2 0.2 0.6 0.2 0.2
, are ||| , VBP ||| 0.846154 0.0769231 0.0769231 0.846154 0.0769231 0.0769231
, arrived ||| , VBD ||| 0.6 0.2 0.2 0.6 0.2 0.2
, as well as ||| , RB RB IN ||| 0.777778 0.111111 0.111111 0.777778 0.111111 0.111111
, as well ||| , RB RB ||| 0.777778 0.111111 0.111111 0.777778 0.111111 0.111111
, as ||| , IN ||| 0.942857 0.0285714 0.0285714 0.942857 0.0285714 0.0285714
, as ||| , RB ||| 0.846154 0.0769231 0.0769231 0.846154 0.0769231 0.0769231
, attacked ||| , VBD ||| 0.6 0.2 0.2 0.6 0.2 0.2
, backed ||| , VBD ||| 0.6 0.2 0.2 0.6 0.2 0.2
, before ||| , IN ||| 0.866667 0.0666667 0.0666667 0.866667 0.0666667 0.0666667
, bonds ||| , NNS ||| 0.6 0.2 0.2 0.6 0.2 0.2
, both ||| , DT ||| 0.913043 0.0434783 0.0434783 0.913043 0.0434783 0.0434783
, but a ||| , CC DT ||| 0.6 0.2 0.2 0.6 0.2 0.2
, but added ||| , CC VBD ||| 0.6 0.2 0.2 0.6 0.2 0.2
, but did not ||| , CC VBD RB ||| 0.818182 0.0909091 0.0909091 0.818182 0.0909091 0.0909091
, but did ||| , CC VBD ||| 0.818182 0.0909091 0.0909091 0.818182 0.0909091 0.0909091
, but it ||| , CC PRP ||| 0.904762 0.047619 0.047619 0.904762 0.047619 0.047619
, but the ||| , CC DT ||| 0.92 0.04 0.04 0.92 0.04 0.04
, but there were no reports of ||| , CC EX VBD DT NNS IN ||| 0.6 0.2 0.2 0.6 0.2 0.2
, but there were no reports ||| , CC EX VBD DT NNS ||| 0.6 0.2 0.2 0.6 0.2 0.2
, but there were no ||| , CC EX VBD DT ||| 0.6 0.2 0.2 0.6 0.2 0.2
, but there were ||| , CC EX VBD ||| 0.6 0.2 0.2 0.6 0.2 0.2
, but there ||| , CC EX ||| 0.818182 0.0909091 0.0909091 0.818182 0.0909091 0.0909091
, but they ||| , CC PRP ||| 0.818182 0.0909091 0.0909091 0.818182 0.0909091 0.0909091
, but this ||| , CC DT ||| 0.714286 0.142857 0.142857 0.714286 0.142857 0.142857
, but ||| , CC ||| 0.992032 0.00398406 0.00398406 0.992032 0.00398406 0.00398406
, by ||| , IN ||| 0.818182 0.0909091 0.0909091 0.818182 0.0909091 0.0909091
, claimed the ||| , VBD DT ||| 0.6 0.2 0.2 0.6 0.2 0.2
, claimed ||| , VBD ||| 0.714286 0.142857 0.142857 0.714286 0.142857 0.142857
, close ||| , JJ ||| 0.714286 0.142857 0.142857 0.714286 0.142857 0.142857
, compared with ||| , VBN IN ||| 0.6 0.2 0.2 0.6 0.2 0.2
, compared ||| , VBN ||| 0.818182 0.0909091 0.0909091 0.818182 0.0909091 0.0909091
, crashed ||| , VBD ||| 0.6 0.2 0.2 0.6 0.2 0.2
, crashing ||| , VBG ||| 0.6 0.2 0.2 0.6 0.2 0.2
, depending on the ||| , VBG IN DT ||| 0.6 0.2 0.2 0.6 0.2 0.2
, depending on ||| , VBG IN ||| 0.6 0.2 0.2 0.6 0.2 0.2
, depending ||| , VBG ||| 0.6 0.2 0.2 0.6 0.2 0.2
, despite ||| , IN ||| 0.777778 0.111111 0.111111 0.777778 0.111111 0.111111
, did not ||| , VBD RB ||| 0.818182 0.0909091 0.0909091 0.818182 0.0909091 0.0909091
, did ||| , VBD ||| 0.818182 0.0909091 0.0909091 0.818182 0.0909091 0.0909091
, director of ||| , NN IN ||| 0.818182 0.0909091 0.0909091 0.818182 0.0909091 0.0909091
, director ||| , NN ||| 0.818182 0.0909091 0.0909091 0.818182 0.0909091 0.0909091
, down from ||| , RB IN ||| 0.818182 0.0909091 0.0909091 0.818182 0.0909091 0.0909091
, down ||| , RB ||| 0.904762 0.047619 0.047619 0.904762 0.047619 0.047619
, due to be held in London ||| , JJ TO VB VBN IN NNP ||| 0.6 0.2 0.2 0.6 0.2 0.2
, due to be held in ||| , JJ TO VB VBN IN ||| 0.6 0.2 0.2 0.6 0.2 0.2
, due to be held ||| , JJ TO VB VBN ||| 0.6 0.2 0.2 0.6 0.2 0.2
, due to be ||| , JJ TO VB ||| 0.6 0.2 0.2 0.6 0.2 0.2
, due to ||| , JJ TO ||| 0.6 0.2 0.2 0.6 0.2 0.2
, due ||| , JJ ||| 0.6 0.2 0.2 0.6 0.2 0.2
, ended ||| , VBD ||| 0.714286 0.142857 0.142857 0.714286 0.142857 0.142857
, even though ||| , RB IN ||| 0.714286 0.142857 0.142857 0.714286 0.142857 0.142857
, even ||| , RB ||| 0.818182 0.0909091 0.0909091 0.818182 0.0909091 0.0909091
, fighting a ||| , VBG DT ||| 0.6 0.2 0.2 0.6 0.2 0.2
, fighting ||| , VBG ||| 0.6 0.2 0.2 0.6 0.2 0.2
, flew ||| , VBD ||| 0.6 0.2 0.2 0.6 0.2 0.2
, for about ||| , IN IN ||| 0.714286 0.142857 0.142857 0.714286 0.142857 0.142857
, for ||| , IN ||| 0.925926 0.037037 0.037037 0.925926 0.037037 0.037037
, forced ||| , VBN ||| 0.714286 0.142857 0.142857 0.714286 0.142857 0.142857
, forcing the ||| , VBG DT ||| 0.6 0.2 0.2 0.6 0.2 0.2
, forcing ||| , VBG ||| 0.818182 0.0909091 0.0909091 0.818182 0.0909091 0.0909091
, had been ||| , VBD VBN ||| 0.818182 0.0909091 0.0909091 0.818182 0.0909091 0.0909091
, had gone ||| , VBD VBN ||| 0.6 0.2 0.2 0.6 0.2 0.2
, had ||| , VBD ||| 0.967213 0.0163934 0.0163934 0.967213 0.0163934 0.0163934
, has ||| , VBZ ||| 0.977011 0.0114943 0.0114943 0.977011 0.0114943 0.0114943
, have been ||| , VBP VBN ||| 0.818182 0.0909091 0.0909091 0.818182 0.0909091 0.0909091
, have ||| , VB ||| 0.6 0.2 0.2 0.6 0.2 0.2
, have ||| , VBP ||| 0.948718 0.025641 0.025641 0.948718 0.025641 0.025641
, having ||| , VBG ||| 0.714286 0.142857 0.142857 0.714286 0.142857 0.142857
, he said . ||| , PRP VBD . ||| 0.935484 0.0322581 0.0322581 0.935484 0.0322581 0.0322581
, he said ||| , PRP VBD ||| 0.95122 0.0243902 0.0243902 0.95122 0.0243902 0.0243902
, he ||| , PRP ||| 0.980583 0.00970874 0.00970874 0.980583 0.00970874 0.00970874
, held ||| , VBD ||| 0.6 0.2 0.2 0.6 0.2 0.2
, held ||| , VBN ||| 0.777778 0.111111 0.111111 0.777778 0.111111 0.111111
, helped ||| , VBN ||| 0.6 0.2 0.2 0.6 0.2 0.2
, his first ||| , PRP$ JJ ||| 0.6 0.2 0.2 0.6 0.2 0.2
, his ||| , PRP$ ||| 0.92 0.04 0.04 0.92 0.04 0.04
, however , ||| , RB , ||| 0.894737 0.0526316 0.0526316 0.894737 0.0526316 0.0526316
, however ||| , RB ||| 0.913043 0.0434783 0.0434783 0.913043 0.0434783 0.0434783
, if ||| , IN ||| 0.913043 0.0434783 0.0434783 0.913043 0.0434783 0.0434783
, in its ||| , IN PRP$ ||| 0.6 0.2 0.2 0.6 0.2 0.2
, in the ||| , IN DT ||| 0.894737 0.0526316 0.0526316 0.894737 0.0526316 0.0526316
, in ||| , IN ||| 0.975309 0.0123457 0.0123457 0.975309 0.0123457 0.0123457
, including children . ||| , VBG NNS . ||| 0.6 0.2 0.2 0.6 0.2 0.2
, including children ||| , VBG NNS ||| 0.6 0.2 0.2 0.6 0.2 0.2
, including the ||| , VBG DT ||| 0.818182 0.0909091 0.0909091 0.818182 0.0909091 0.0909091
, including ||| , VBG ||| 0.967213 0.0163934 0.0163934 0.967213 0.0163934 0.0163934
, industry sources said ||| , NN NNS VBD ||| 0.6 0.2 0.2 0.6 0.2 0.2
, industry sources ||| , NN NNS ||| 0.6 0.2 0.2 0.6 0.2 0.2
, industry ||| , NN ||| 0.6 0.2 0.2 0.6 0.2 0.2
, insurance ||| , NN ||| 0.6 0.2 0.2 0.6 0.2 0.2
, is expected to have ||| , VBZ VBN TO VB ||| 0.6 0.2 0.2 0.6 0.2 0.2
, is expected to ||| , VBZ VBN TO ||| 0.777778 0.111111 0.111111 0.777778 0.111111 0.111111
, is expected ||| , VBZ VBN ||| 0.777778 0.111111 0.111111 0.777778 0.111111 0.111111
, is looking ||| , VBZ VBG ||| 0.6 0.2 0.2 0.6 0.2 0.2
, is ||| , VBZ ||| 0.978947 0.0105263 0.0105263 0.978947 0.0105263 0.0105263
, it will not be ||| , PRP MD RB VB ||| 0.6 0.2 0.2 0.6 0.2 0.2
, it will not ||| , PRP MD RB ||| 0.6 0.2 0.2 0.6 0.2 0.2
, it will ||| , PRP MD ||| 0.777778 0.111111 0.111111 0.777778 0.111111 0.111111
, it would ||| , PRP MD ||| 0.6 0.2 0.2 0.6 0.2 0.2
, it ||| , PRP ||| 0.978022 0.010989 0.010989 0.978022 0.010989 0.010989
, just ||| , RB ||| 0.882353 0.0588235 0.0588235 0.882353 0.0588235 0.0588235
, killing at least ||| , VBG IN JJS ||| 0.6 0.2 0.2 0.6 0.2 0.2
, killing at ||| , VBG IN ||| 0.6 0.2 0.2 0.6 0.2 0.2
, killing ||| , VBG ||| 0.866667 0.0666667 0.0666667 0.866667 0.0666667 0.0666667
, led ||| , VBD ||| 0.6 0.2 0.2 0.6 0.2 0.2
, led ||| , VBN ||| 0.777778 0.111111 0.111111 0.777778 0.111111 0.111111
, made ||| , VBD ||| 0.882353 0.0588235 0.0588235 0.882353 0.0588235 0.0588235
, many ||| , JJ ||| 0.777778 0.111111 0.111111 0.777778 0.111111 0.111111
, members of ||| , NNS IN ||| 0.6 0.2 0.2 0.6 0.2 0.2
, members ||| , NNS ||| 0.6 0.2 0.2 0.6 0.2 0.2
, most of ||| , JJS IN ||| 0.6 0.2 0.2 0.6 0.2 0.2
, most ||| , JJS ||| 0.714286 0.142857 0.142857 0.714286 0.142857 0.142857
, mostly ||| , RB ||| 0.818182 0.0909091 0.0909091 0.818182 0.0909091 0.0909091
, named ||| , VBD ||| 0.6 0.2 0.2 0.6 0.2 0.2
, no ||| , DT ||| 0.882353 0.0588235 0.0588235 0.882353 0.0588235 0.0588235
, not ||| , RB ||| 0.894737 0.0526316 0.0526316 0.894737 0.0526316 0.0526316
, now in its ||| , RB IN PRP$ ||| 0.6 0.2 0.2 0.6 0.2 0.2
, now in ||| , RB IN ||| 0.6 0.2 0.2 0.6 0.2 0.2
, now ||| , RB ||| 0.92 0.04 0.04 0.92 0.04 0.04
, of which ||| , IN WDT ||| 0.6 0.2 0.2 0.6 0.2 0.2
, of ||| , IN ||| 0.92 0.04 0.04 0.92 0.04 0.04
, offered ||| , VBN ||| 0.6 0.2 0.2 0.6 0.2 0.2
, officials said . ||| , NNS VBD . ||| 0.904762 0.047619 0.047619 0.904762 0.047619 0.047619
, officials said on Wednesday . ||| , NNS VBD IN NNP . ||| 0.6 0.2 0.2 0.6 0.2 0.2
, officials said on Wednesday ||| , NNS VBD IN NNP ||| 0.6 0.2 0.2 0.6 0.2 0.2
, officials said on ||| , NNS VBD IN ||| 0.818182 0.0909091 0.0909091 0.818182 0.0909091 0.0909091
, officials said ||| , NNS VBD ||| 0.931034 0.0344828 0.0344828 0.931034 0.0344828 0.0344828
, officials ||| , NNS ||| 0.935484 0.0322581 0.0322581 0.935484 0.0322581 0.0322581
, or ||| , CC ||| 0.948718 0.025641 0.025641 0.948718 0.025641 0.025641
, ordered ||| , VBD ||| 0.6 0.2 0.2 0.6 0.2 0.2
, part of ||| , NN IN ||| 0.714286 0.142857 0.142857 0.714286 0.142857 0.142857
, part ||| , NN ||| 0.777778 0.111111 0.111111 0.777778 0.111111 0.111111
, perhaps ||| , RB ||| 0.714286 0.142857 0.142857 0.714286 0.142857 0.142857
, police said . ||| , NN VBD . ||| 0.882353 0.0588235 0.0588235 0.882353 0.0588235 0.0588235
, police said . ||| , NNS VBD . ||| 0.925926 0.037037 0.037037 0.925926 0.037037 0.037037
, police said on Thursday . ||| , NN VBD IN NNP . ||| 0.6 0.2 0.2 0.6 0.2 0.2
, police said on Thursday . ||| , NNS VBD IN NNP . ||| 0.714286 0.142857 0.142857 0.714286 0.142857 0.142857
, police said on Thursday ||| , NN VBD IN NNP ||| 0.6 0.2 0.2 0.6 0.2 0.2
, police said on Thursday ||| , NNS VBD IN NNP ||| 0.714286 0.142857 0.142857 0.714286 0.142857 0.142857
, police said on ||| , NN VBD IN ||| 0.818182 0.0909091 0.0909091 0.818182 0.0909091 0.0909091
, police said on ||| , NNS VBD IN ||| 0.777778 0.111111 0.111111 0.777778 0.111111 0.111111
, police said ||| , NN VBD ||| 0.92 0.04 0.04 0.92 0.04 0.04
, police said ||| , NNS VBD ||| 0.939394 0.030303 0.030303 0.939394 0.030303 0.030303
, police ||| , NN ||| 0.935484 0.0322581 0.0322581 0.935484 0.0322581 0.0322581
, police ||| , NNS ||| 0.948718 0.025641 0.025641 0.948718 0.025641 0.025641
, run ||| , VB ||| 0.714286 0.142857 0.142857 0.714286 0.142857 0.142857
, run ||| , VBN ||| 0.6 0.2 0.2 0.6 0.2 0.2
, said John ||| , VBD NNP ||| 0.6 0.2 0.2 0.6 0.2 0.2
, said he ||| , VBD PRP ||| 0.882353 0.0588235 0.0588235 0.882353 0.0588235 0.0588235
, said on ||| , VBD IN ||| 0.846154 0.0769231 0.0769231 0.846154 0.0769231 0.0769231
, said ||| , VBD ||| 0.988024 0.00598802 0.00598802 0.988024 0.00598802 0.00598802
, saying : ||| , VBG : ||| 0.6 0.2 0.2 0.6 0.2 0.2
, saying it was ||| , VBG PRP VBD ||| 0.714286 0.142857 0.142857 0.714286 0.142857 0.142857
, saying it ||| , VBG PRP ||| 0.777778 0.111111 0.111111 0.777778 0.111111 0.111111
, saying that ||| , VBG IN ||| 0.6 0.2 0.2 0.6 0.2 0.2
, saying ||| , VBG ||| 0.948718 0.025641 0.025641 0.948718 0.025641 0.025641
, scheduled to ||| , VBN TO ||| 0.6 0.2 0.2 0.6 0.2 0.2
, scheduled ||| , VBN ||| 0.714286 0.142857 0.142857 0.714286 0.142857 0.142857
, several ||| , JJ ||| 0.6 0.2 0.2 0.6 0.2 0.2
, shortly ||| , RB ||| 0.6 0.2 0.2 0.6 0.2 0.2
, showed ||| , VBD ||| 0.882353 0.0588235 0.0588235 0.882353 0.0588235 0.0588235
, so ||| , IN ||| 0.866667 0.0666667 0.0666667 0.866667 0.0666667 0.0666667
, so ||| , RB ||| 0.882353 0.0588235 0.0588235 0.882353 0.0588235 0.0588235
, some of which ||| , DT IN WDT ||| 0.714286 0.142857 0.142857 0.714286 0.142857 0.142857
, some of ||| , DT IN ||| 0.846154 0.0769231 0.0769231 0.846154 0.0769231 0.0769231
, some ||| , DT ||| 0.925926 0.037037 0.037037 0.925926 0.037037 0.037037
, that the ||| , IN DT ||| 0.6 0.2 0.2 0.6 0.2 0.2
, that ||| , DT ||| 0.714286 0.142857 0.142857 0.714286 0.142857 0.142857
, that ||| , IN ||| 0.882353 0.0588235 0.0588235 0.882353 0.0588235 0.0588235
, that ||| , WDT ||| 0.846154 0.0769231 0.0769231 0.846154 0.0769231 0.0769231
, the Republican ||| , DT JJ ||| 0.6 0.2 0.2 0.6 0.2 0.2
, the Republican ||| , DT NNP ||| 0.6 0.2 0.2 0.6 0.2 0.2
, the U.S. ||| , DT NNP ||| 0.714286 0.142857 0.142857 0.714286 0.142857 0.142857
, the United States and ||| , DT NNP NNPS CC ||| 0.714286 0.142857 0.142857 0.714286 0.142857 0.142857
, the United States ||| , DT NNP NNPS ||| 0.714286 0.142857 0.142857 0.714286 0.142857 0.142857
, the United ||| , DT NNP ||| 0.777778 0.111111 0.111111 0.777778 0.111111 0.111111
, the company said . ||| , DT NN VBD . ||| 0.714286 0.142857 0.142857 0.714286 0.142857 0.142857
, the company said ||| , DT NN VBD ||| 0.846154 0.0769231 0.0769231 0.846154 0.0769231 0.0769231
, the company ||| , DT NN ||| 0.894737 0.0526316 0.0526316 0.894737 0.0526316 0.0526316
, the daily ||| , DT JJ ||| 0.6 0.2 0.2 0.6 0.2 0.2
, the embassy said ||| , DT NN VBD ||| 0.6 0.2 0.2 0.6 0.2 0.2
, the embassy ||| , DT NN ||| 0.714286 0.142857 0.142857 0.714286 0.142857 0.142857
, the first ||| , DT JJ ||| 0.818182 0.0909091 0.0909091 0.818182 0.0909091 0.0909091
, the main ||| , DT JJ ||| 0.6 0.2 0.2 0.6 0.2 0.2
, the news agency ||| , DT NN NN ||| 0.6 0.2 0.2 0.6 0.2 0.2
, the news ||| , DT NN ||| 0.6 0.2 0.2 0.6 0.2 0.2
, the official ||| , DT JJ ||| 0.6 0.2 0.2 0.6 0.2 0.2
, the official ||| , DT NN ||| 0.818182 0.0909091 0.0909091 0.818182 0.0909091 0.0909091
, the only ||| , DT JJ ||| 0.777778 0.111111 0.111111 0.777778 0.111111 0.111111
, the statement said . ||| , DT NN VBD . ||| 0.777778 0.111111 0.111111 0.777778 0.111111 0.111111
, the statement said ||| , DT NN VBD ||| 0.777778 0.111111 0.111111 0.777778 0.111111 0.111111
, the statement ||| , DT NN ||| 0.777778 0.111111 0.111111 0.777778 0.111111 0.111111
, the ||| , DT ||| 0.996947 0.00152672 0.00152672 0.996947 0.00152672 0.00152672
, then ||| , RB ||| 0.913043 0.0434783 0.0434783 0.913043 0.0434783 0.0434783
, there are ||| , EX VBP ||| 0.6 0.2 0.2 0.6 0.2 0.2
, there is ||| , EX VBZ ||| 0.777778 0.111111 0.111111 0.777778 0.111111 0.111111
, there ||| , EX ||| 0.846154 0.0769231 0.0769231 0.846154 0.0769231 0.0769231
, they had no ||| , PRP VBD DT ||| 0.6 0.2 0.2 0.6 0.2 0.2
, they had ||| , PRP VBD ||| 0.6 0.2 0.2 0.6 0.2 0.2
, they said . ||| , PRP VBD . ||| 0.913043 0.0434783 0.0434783 0.913043 0.0434783 0.0434783
, they said ||| , PRP VBD ||| 0.913043 0.0434783 0.0434783 0.913043 0.0434783 0.0434783
, they ||| , PRP ||| 0.970149 0.0149254 0.0149254 0.970149 0.0149254 0.0149254
, three ||| , CD ||| 0.866667 0.0666667 0.0666667 0.866667 0.0666667 0.0666667
, to a ||| , TO DT ||| 0.6 0.2 0.2 0.6 0.2 0.2
, to ||| , TO ||| 0.964912 0.0175439 0.0175439 0.964912 0.0175439 0.0175439
, told the ||| , VBD DT ||| 0.846154 0.0769231 0.0769231 0.846154 0.0769231 0.0769231
, told ||| , VBD ||| 0.968254 0.015873 0.015873 0.968254 0.015873 0.015873
, told ||| , VBN ||| 0.6 0.2 0.2 0.6 0.2 0.2
, trade ||| , NN ||| 0.6 0.2 0.2 0.6 0.2 0.2
, traders said ||| , NNS VBD ||| 0.894737 0.0526316 0.0526316 0.894737 0.0526316 0.0526316
, traders ||| , NNS ||| 0.894737 0.0526316 0.0526316 0.894737 0.0526316 0.0526316
, tried ||| , VBD ||| 0.6 0.2 0.2 0.6 0.2 0.2
, under ||| , IN ||| 0.714286 0.142857 0.142857 0.714286 0.142857 0.142857
, up from ||| , RB IN ||| 0.846154 0.0769231 0.0769231 0.846154 0.0769231 0.0769231
, up ||| , IN ||| 0.6 0.2 0.2 0.6 0.2 0.2
, up ||| , RB ||| 0.95122 0.0243902 0.0243902 0.95122 0.0243902 0.0243902
, was ||| , VBD ||| 0.989637 0.00518135 0.00518135 0.989637 0.00518135 0.00518135
, we 've ||| , PRP VBP ||| 0.6 0.2 0.2 0.6 0.2 0.2
, we ||| , PRP ||| 0.939394 0.030303 0.030303 0.939394 0.030303 0.030303
, well ||| , RB ||| 0.6 0.2 0.2 0.6 0.2 0.2
, were ||| , VBD ||| 0.969231 0.0153846 0.0153846 0.969231 0.0153846 0.0153846
, when ||| , WRB ||| 0.945946 0.027027 0.027027 0.945946 0.027027 0.027027
, where the ||| , WRB DT ||| 0.866667 0.0666667 0.0666667 0.866667 0.0666667 0.0666667
, where they ||| , WRB PRP ||| 0.777778 0.111111 0.111111 0.777778 0.111111 0.111111
, where ||| , WRB ||| 0.975904 0.0120482 0.0120482 0.975904 0.0120482 0.0120482
, which ended at ||| , WDT VBD IN ||| 0.6 0.2 0.2 0.6 0.2 0.2
, which ended ||| , WDT VBD ||| 0.714286 0.142857 0.142857 0.714286 0.142857 0.142857
, which had ||| , WDT VBD ||| 0.6 0.2 0.2 0.6 0.2 0.2
, which has ||| , WDT VBZ ||| 0.935484 0.0322581 0.0322581 0.935484 0.0322581 0.0322581
, which he ||| , WDT PRP ||| 0.6 0.2 0.2 0.6 0.2 0.2
, which included a ||| , WDT VBD DT ||| 0.6 0.2 0.2 0.6 0.2 0.2
, which included ||| , WDT VBD ||| 0.6 0.2 0.2 0.6 0.2 0.2
, which includes ||| , WDT VBZ ||| 0.714286 0.142857 0.142857 0.714286 0.142857 0.142857
, which is ||| , WDT VBZ ||| 0.945946 0.027027 0.027027 0.945946 0.027027 0.027027
, which left ||| , WDT VBD ||| 0.6 0.2 0.2 0.6 0.2 0.2
, which makes ||| , WDT VBZ ||| 0.6 0.2 0.2 0.6 0.2 0.2
, which was seen as ||| , WDT VBD VBN IN ||| 0.6 0.2 0.2 0.6 0.2 0.2
, which was seen ||| , WDT VBD VBN ||| 0.6 0.2 0.2 0.6 0.2 0.2
, which was ||| , WDT VBD ||| 0.935484 0.0322581 0.0322581 0.935484 0.0322581 0.0322581
, which will ||| , WDT MD ||| 0.777778 0.111111 0.111111 0.777778 0.111111 0.111111
, which ||| , WDT ||| 0.992395 0.00380228 0.00380228 0.992395 0.00380228 0.00380228
, while ||| , IN ||| 0.969231 0.0153846 0.0153846 0.969231 0.0153846 0.0153846
, who are fighting ||| , WP VBP VBG ||| 0.6 0.2 0.2 0.6 0.2 0.2
, who are ||| , WP VBP ||| 0.714286 0.142857 0.142857 0.714286 0.142857 0.142857
, who had ||| , WP VBD ||| 0.935484 0.0322581 0.0322581 0.935484 0.0322581 0.0322581
, who has ||| , WP VBZ ||| 0.963636 0.0181818 0.0181818 0.963636 0.0181818 0.0181818
, who made ||| , WP VBD ||| 0.714286 0.142857 0.142857 0.714286 0.142857 0.142857
, who now ||| , WP RB ||| 0.6 0.2 0.2 0.6 0.2 0.2
, who was ||| , WP VBD ||| 0.959184 0.0204082 0.0204082 0.959184 0.0204082 0.0204082
, who ||| , WP ||| 0.995927 0.00203666 0.00203666 0.995927 0.00203666 0.00203666
, will be ||| , MD VB ||| 0.894737 0.0526316 0.0526316 0.894737 0.0526316 0.0526316
, will ||| , MD ||| 0.966102 0.0169492 0.0169492 0.966102 0.0169492 0.0169492
, with a ||| , IN DT ||| 0.894737 0.0526316 0.0526316 0.894737 0.0526316 0.0526316
, with some ||| , IN DT ||| 0.6 0.2 0.2 0.6 0.2 0.2
, with the ||| , IN DT ||| 0.894737 0.0526316 0.0526316 0.894737 0.0526316 0.0526316
, with ||| , IN ||| 0.981308 0.00934579 0.00934579 0.981308 0.00934579 0.00934579
, witnesses said . ||| , NNS VBD . ||| 0.846154 0.0769231 0.0769231 0.846154 0.0769231 0.0769231
, witnesses said ||| , NNS VBD ||| 0.846154 0.0769231 0.0769231 0.846154 0.0769231 0.0769231
, witnesses ||| , NNS ||| 0.866667 0.0666667 0.0666667 0.866667 0.0666667 0.0666667
, yet ||| , CC ||| 0.714286 0.142857 0.142857 0.714286 0.142857 0.142857
, you ||| , PRP ||| 0.925926 0.037037 0.037037 0.925926 0.037037 0.037037
, ||| , NNP ||| 0.6 0.2 0.2 0.2 0.2 0.6
, ||| , ||| 0.999851 7.45545e-05 7.45545e-05 0.999702 7.45545e-05 0.000223664
- $ ||| : $ ||| 0.904762 0.047619 0.047619 0.904762 0.047619 0.047619
- - - - ||| : : : : ||| 0.818182 0.0909091 0.0909091 0.818182 0.0909091 0.0909091
- - - ||| : : : ||| 0.894737 0.0526316 0.0526316 0.894737 0.0526316 0.0526316
- - ||| : : ||| 0.960784 0.0196078 0.0196078 0.960784 0.0196078 0.0196078
- AUSTRIA ||| : NNP ||| 0.714286 0.142857 0.142857 0.714286 0.142857 0.142857
- Aug ||| : NNP ||| 0.931034 0.0344828 0.0344828 0.931034 0.0344828 0.0344828
- August ||| : NNP ||| 0.866667 0.0666667 0.0666667 0.866667 0.0666667 0.0666667
- BRITISH MASTERS ||| : JJ NNS ||| 0.714286 0.142857 0.142857 0.714286 0.142857 0.142857
- BRITISH ||| : JJ ||| 0.714286 0.142857 0.142857 0.714286 0.142857 0.142857
- ENGLISH ||| : JJ ||| 0.942857 0.0285714 0.0285714 0.942857 0.0285714 0.0285714
- ENGLISH ||| : NNP ||| 0.6 0.2 0.2 0.6 0.2 0.2
- FRENCH ||| : VB ||| 0.913043 0.0434783 0.0434783 0.913043 0.0434783 0.0434783
- Government ||| : NN ||| 0.714286 0.142857 0.142857 0.714286 0.142857 0.142857
- Government ||| : NNP ||| 0.6 0.2 0.2 0.6 0.2 0.2
- India ||| : NNP ||| 0.6 0.2 0.2 0.6 0.2 0.2
- OJ L ||| : NN NNP ||| 0.6 0.2 0.2 0.6 0.2 0.2
- OJ ||| : NN ||| 0.6 0.2 0.2 0.6 0.2 0.2
- OJ ||| : NNP ||| 0.714286 0.142857 0.142857 0.714286 0.142857 0.142857
- Opposition leader ||| : NN NN ||| 0.6 0.2 0.2 0.6 0.2 0.2
- Opposition ||| : NN ||| 0.6 0.2 0.2 0.6 0.2 0.2
- Pakistan ||| : NNP ||| 0.714286 0.142857 0.142857 0.714286 0.142857 0.142857
- Prime Minister ||| : NNP NNP ||| 0.777778 0.111111 0.111111 0.777778 0.111111 0.111111
- Prime ||| : NNP ||| 0.818182 0.0909091 0.0909091 0.818182 0.0909091 0.0909091
- Spain - Aug ||| : NNP : NNP ||| 0.6 0.2 0.2 0.6 0.2 0.2
- Spain - ||| : NNP : ||| 0.6 0.2 0.2 0.6 0.2 0.2
- Spain ||| : NNP ||| 0.6 0.2 0.2 0.6 0.2 0.2
- The ||| : DT ||| 0.939394 0.030303 0.030303 0.939394 0.030303 0.030303
- The ||| : NNP ||| 0.714286 0.142857 0.142857 0.714286 0.142857 0.142857
- USDA . ||| : NNP . ||| 0.6 0.2 0.2 0.6 0.2 0.2
- USDA ||| : NNP ||| 0.777778 0.111111 0.111111 0.777778 0.111111 0.111111
- WORLD ||| : NN ||| 0.714286 0.142857 0.142857 0.714286 0.142857 0.142857
- officials . ||| : NNS . ||| 0.6 0.2 0.2 0.6 0.2 0.2
- officials ||| : NNS ||| 0.6 0.2 0.2 0.6 0.2 0.2
- updated ||| : VBN ||| 0.6 0.2 0.2 0.6 0.2 0.2
- ||| : NNP ||| 0.714286 0.142857 0.142857 0.714286 0.142857 0.142857
- ||| : ||| 0.99896 0.000520021 0.000520021 0.99688 0.000520021 0.0026001
-- Helsinki Newsroom ||| : NNP NNP ||| 0.6 0.2 0.2 0.6 0.2 0.2
-- Helsinki ||| : NNP ||| 0.714286 0.142857 0.142857 0.714286 0.142857 0.142857
-- John Gilardi , Frankfurt Newsroom , ||| : NNP NNP , NNP NNP , ||| 0.6 0.2 0.2 0.6 0.2 0.2
-- John Gilardi , Frankfurt Newsroom ||| : NNP NNP , NNP NNP ||| 0.6 0.2 0.2 0.6 0.2 0.2
-- John Gilardi , Frankfurt ||| : NNP NNP , NNP ||| 0.6 0.2 0.2 0.6 0.2 0.2
-- John Gilardi , ||| : NNP NNP , ||| 0.6 0.2 0.2 0.6 0.2 0.2
-- John Gilardi ||| : NNP NNP ||| 0.6 0.2 0.2 0.6 0.2 0.2
-- John ||| : NNP ||| 0.6 0.2 0.2 0.6 0.2 0.2
-- New York Newsdesk ||| : NNP NNP NNP ||| 0.6 0.2 0.2 0.6 0.2 0.2
-- New York newsroom , ( ||| : NNP NNP NN , ( ||| 0.714286 0.142857 0.142857 0.714286 0.142857 0.142857
-- New York newsroom , ||| : NNP NNP NN , ||| 0.714286 0.142857 0.142857 0.714286 0.142857 0.142857
-- New York newsroom ||| : NNP NNP NN ||| 0.714286 0.142857 0.142857 0.714286 0.142857 0.142857
-- New York ||| : NNP NNP ||| 0.818182 0.0909091 0.0909091 0.818182 0.0909091 0.0909091
-- New ||| : NNP ||| 0.866667 0.0666667 0.0666667 0.866667 0.0666667 0.0666667
-- Paris newsroom ||| : NNP NN ||| 0.777778 0.111111 0.111111 0.777778 0.111111 0.111111
-- Paris ||| : NNP ||| 0.882353 0.0588235 0.0588235 0.882353 0.0588235 0.0588235
-- Reuters ||| : NNP ||| 0.777778 0.111111 0.111111 0.777778 0.111111 0.111111
-- Singapore Newsroom ( ||| : NNP NNP ( ||| 0.6 0.2 0.2 0.6 0.2 0.2
-- Singapore Newsroom ||| : NNP NNP ||| 0.6 0.2 0.2 0.6 0.2 0.2
-- Singapore ||| : NNP ||| 0.714286 0.142857 0.142857 0.714286 0.142857 0.142857
-- but ||| : CC ||| 0.6 0.2 0.2 0.6 0.2 0.2
-- next ||| : JJ ||| 0.6 0.2 0.2 0.6 0.2 0.2
-- we 're ||| : PRP VBP ||| 0.6 0.2 0.2 0.6 0.2 0.2
-- we ||| : PRP ||| 0.6 0.2 0.2 0.6 0.2 0.2
-- ||| : ||| 0.996965 0.00151745 0.00151745 0.996965 0.00151745 0.00151745
-DOCSTART- ||| -X- ||| 0.99885 0.000575043 0.000575043 0.99885 0.000575043 0.000575043
. " ||| . " ||| 0.997257 0.00137174 0.00137174 0.997257 0.00137174 0.00137174
. ||| . ||| 0.999409 7.38171e-05 0.00051672 0.999852 7.38171e-05 7.38171e-05
. ||| NN . ||| 0.6 0.2 0.2 0.6 0.2 0.2
.. ||| NNS ||| 0.904762 0.047619 0.047619 0.904762 0.047619 0.047619
/ shr ||| SYM NN ||| 0.777778 0.111111 0.111111 0.777778 0.111111 0.111111
/ yr ||| SYM NN ||| 0.846154 0.0769231 0.0769231 0.846154 0.0769231 0.0769231
/ ||| SYM ||| 0.994695 0.00265252 0.00265252 0.994695 0.00265252 0.00265252
: " I ||| : " PRP ||| 0.866667 0.0666667 0.0666667 0.866667 0.0666667 0.0666667
: " If ||| : " IN ||| 0.6 0.2 0.2 0.6 0.2 0.2
: " It 's ||| : " PRP VBZ ||| 0.6 0.2 0.2 0.6 0.2 0.2
: " It ||| : " PRP ||| 0.6 0.2 0.2 0.6 0.2 0.2
: " We ||| : " PRP ||| 0.894737 0.0526316 0.0526316 0.894737 0.0526316 0.0526316
: " ||| : " ||| 0.979381 0.0103093 0.0103093 0.979381 0.0103093 0.0103093
: ||| : NNP ||| 0.2 0.2 0.6 0.2 0.2 0.6
: ||| : ||| 0.996967 0.00075815 0.00227445 0.996967 0.00075815 0.00227445
? " ||| . " ||| 0.866667 0.0666667 0.0666667 0.866667 0.0666667 0.0666667
? ' ||| . '' ||| 0.6 0.2 0.2 0.6 0.2 0.2
? ||| . ||| 0.92 0.04 0.04 0.92 0.04 0.04
A consortium ||| DT NN ||| 0.6 0.2 0.2 0.6 0.2 0.2
A large ||| DT JJ ||| 0.6 0.2 0.2 0.6 0.2 0.2
A person ||| DT NN ||| 0.6 0.2 0.2 0.6 0.2 0.2
A second ||| DT JJ ||| 0.777778 0.111111 0.111111 0.777778 0.111111 0.111111
A spokesman for ||| DT NN IN ||| 0.866667 0.0666667 0.0666667 0.866667 0.0666667 0.0666667
A spokesman ||| DT NN ||| 0.866667 0.0666667 0.0666667 0.866667 0.0666667 0.0666667
A ||| DT ||| 0.994398 0.00280112 0.00280112 0.994398 0.00280112 0.00280112
A ||| NNP ||| 0.925926 0.037037 0.037037 0.925926 0.037037 0.037037
AB ||| NNP ||| 0.777778 0.111111 0.111111 0.777778 0.111111 0.111111
ABC ||| NNP ||| 0.846154 0.0769231 0.0769231 0.846154 0.0769231 0.0769231
ACTUAL ||| NNP ||| 0.714286 0.142857 0.142857 0.714286 0.142857 0.142857
ACTUAL ||| NNS ||| 0.6 0.2 0.2 0.6 0.2 0.2
AG , ||| NNP , ||| 0.777778 0.111111 0.111111 0.777778 0.111111 0.111111
AG said on ||| NNP VBD IN ||| 0.6 0.2 0.2 0.6 0.2 0.2
AG said ||| NNP VBD ||| 0.6 0.2 0.2 0.6 0.2 0.2
AG ||| NNP ||| 0.913043 0.0434783 0.0434783 0.913043 0.0434783 0.0434783
AGENT ||| NNP ||| 0.6 0.2 0.2 0.6 0.2 0.2
AMMAN ||| NNP ||| 0.777778 0.111111 0.111111 0.777778 0.111111 0.111111
AMSTERDAM ||| NN ||| 0.962264 0.0188679 0.0188679 0.962264 0.0188679 0.0188679
AMT ||| NNP ||| 0.777778 0.111111 0.111111 0.777778 0.111111 0.111111
AND ||| CC ||| 0.953488 0.0232558 0.0232558 0.953488 0.0232558 0.0232558
ARA ||| NNP ||| 0.818182 0.0909091 0.0909091 0.818182 0.0909091 0.0909091
AUGUST ||| NN ||| 0.818182 0.0909091 0.0909091 0.818182 0.0909091 0.0909091
AUGUST ||| NNP ||| 0.931034 0.0344828 0.0344828 0.931034 0.0344828 0.0344828
AUGUST ||| RB ||| 0.818182 0.0909091 0.0909091 0.818182 0.0909091 0.0909091
AUSTRIA ||| NNP ||| 0.714286 0.142857 0.142857 0.714286 0.142857 0.142857
Abdul Rashid Dostum ||| NNP NNP NNP ||| 0.714286 0.142857 0.142857 0.714286 0.142857 0.142857
Abdul Rashid ||| NNP NNP ||| 0.714286 0.142857 0.142857 0.714286 0.142857 0.142857
Abdul ||| NNP ||| 0.846154 0.0769231 0.0769231 0.846154 0.0769231 0.0769231
Abdul-Karim al-Kabariti ||| NNP NN ||| 0.6 0.2 0.2 0.6 0.2 0.2
Abdul-Karim al-Kabariti ||| NNP VBZ ||| 0.6 0.2 0.2 0.6 0.2 0.2
Abdul-Karim ||| NNP ||| 0.714286 0.142857 0.142857 0.714286 0.142857 0.142857
Aberdeen ||| NNP ||| 0.777778 0.111111 0.111111 0.777778 0.111111 0.111111
About ||| IN ||| 0.882353 0.0588235 0.0588235 0.882353 0.0588235 0.0588235
Afghan ||| JJ ||| 0.925926 0.037037 0.037037 0.925926 0.037037 0.037037
Afghan ||| NNP ||| 0.6 0.2 0.2 0.6 0.2 0.2
Afghanistan in ||| NNP IN ||| 0.6 0.2 0.2 0.6 0.2 0.2
Afghanistan ||| NNP ||| 0.913043 0.0434783 0.0434783 0.913043 0.0434783 0.0434783
Africa ) , ||| NNP ) , ||| 0.818182 0.0909091 0.0909091 0.818182 0.0909091 0.0909091
Africa ) ||| NNP ) ||| 0.970149 0.0149254 0.0149254 0.970149 0.0149254 0.0149254
Africa ||| NNP ||| 0.984496 0.00775194 0.00775194 0.984496 0.00775194 0.00775194
African ) ||| NNP ) ||| 0.6 0.2 0.2 0.6 0.2 0.2
African Americans ||| NNP NNPS ||| 0.6 0.2 0.2 0.6 0.2 0.2
African ||| JJ ||| 0.970149 0.0149254 0.0149254 0.970149 0.0149254 0.0149254
African ||| NNP ||| 0.945946 0.027027 0.027027 0.945946 0.027027 0.027027
After ||| IN ||| 0.960784 0.0196078 0.0196078 0.960784 0.0196078 0.0196078
Against ||| IN ||| 0.777778 0.111111 0.111111 0.777778 0.111111 0.111111
Agency ||| NNP ||| 0.866667 0.0666667 0.0666667 0.866667 0.0666667 0.0666667
Agnieszka ||| NNP ||| 0.6 0.2 0.2 0.6 0.2 0.2
Agriculture Ministry ||| NNP NNP ||| 0.777778 0.111111 0.111111 0.777778 0.111111 0.111111
Agriculture ||| NNP ||| 0.846154 0.0769231 0.0769231 0.846154 0.0769231 0.0769231
Air ||| NNP NNP ||| 0.777778 0.111111 0.111111 0.777778 0.111111 0.111111
Air ||| NNP ||| 0.6 0.0666667 0.333333 0.866667 0.0666667 0.0666667
Airlines ||| NNP ||| 0.714286 0.142857 0.142857 0.714286 0.142857 0.142857
Airlines ||| NNPS ||| 0.6 0.2 0.2 0.6 0.2 0.2
Airport ||| NNP ||| 0.714286 0.142857 0.142857 0.714286 0.142857 0.142857
Alan ||| NNP ||| 0.931034 0.0344828 0.0344828 0.931034 0.0344828 0.0344828
Alex ||| NNP ||| 0.955556 0.0222222 0.0222222 0.955556 0.0222222 0.0222222
Alexandre ||| NNP ||| 0.6 0.2 0.2 0.6 0.2 0.2
Algeria 's violence pitting Moslem rebels against ||| NNP POS NN VBG NNP NNS IN ||| 0.6 0.2 0.2 0.6 0.2 0.2
Algeria 's violence pitting Moslem rebels ||| NNP POS NN VBG NNP NNS ||| 0.6 0.2 0.2 0.6 0.2 0.2
Algeria 's violence pitting Moslem ||| NNP POS NN VBG NNP ||| 0.6 0.2 0.2 0.6 0.2 0.2
Algeria 's violence pitting ||| NNP POS NN VBG ||| 0.6 0.2 0.2 0.6 0.2 0.2
Algeria 's violence ||| NNP POS NN ||| 0.6 0.2 0.2 0.6 0.2 0.2
Algeria 's ||| NNP POS ||| 0.777778 0.111111 0.111111 0.777778 0.111111 0.111111
Algeria , ||| NNP , ||| 0.6 0.2 0.2 0.6 0.2 0.2
Algeria ||| NNP ||| 0.894737 0.0526316 0.0526316 0.894737 0.0526316 0.0526316
Algerian government ||| JJ NN ||| 0.6 0.2 0.2 0.6 0.2 0.2
Algerian newspaper ||| JJ NN ||| 0.6 0.2 0.2 0.6 0.2 0.2
Algerian security forces ||| JJ NN NNS ||| 0.714286 0.142857 0.142857 0.714286 0.142857 0.142857
Algerian security ||| JJ NN ||| 0.714286 0.142857 0.142857 0.714286 0.142857 0.142857
Algerian ||| JJ ||| 0.866667 0.0666667 0.0666667 0.866667 0.0666667 0.0666667
Algiers ||| NNP ||| 0.777778 0.111111 0.111111 0.777778 0.111111 0.111111
Ali ||| NNP ||| 0.866667 0.0666667 0.0666667 0.866667 0.0666667 0.0666667
All ||| DT ||| 0.942857 0.0285714 0.0285714 0.942857 0.0285714 0.0285714
All ||| PDT ||| 0.6 0.2 0.2 0.6 0.2 0.2
Allenby ( Australia ) ||| NNP ( NNP ) ||| 0.714286 0.142857 0.142857 0.714286 0.142857 0.142857
Allenby ( Australia ||| NNP ( NNP ||| 0.714286 0.142857 0.142857 0.714286 0.142857 0.142857
Allenby ( ||| NNP ( ||| 0.714286 0.142857 0.142857 0.714286 0.142857 0.142857
Allenby ||| JJ ||| 0.6 0.2 0.2 0.6 0.2 0.2
Allenby ||| NNP ||| 0.777778 0.111111 0.111111 0.777778 0.111111 0.111111
Alliance ||| NNP ||| 0.6 0.2 0.2 0.6 0.2 0.2
Although ||| IN ||| 0.913043 0.0434783 0.0434783 0.913043 0.0434783 0.0434783
America , ||| NNP , ||| 0.6 0.2 0.2 0.6 0.2 0.2
America Online ||| NNP NNP ||| 0.6 0.2 0.2 0.6 0.2 0.2
America ||| NNP ||| 0.942857 0.0285714 0.0285714 0.942857 0.0285714 0.0285714
American ||| JJ ||| 0.935484 0.0322581 0.0322581 0.935484 0.0322581 0.0322581
American ||| NNP ||| 0.979798 0.010101 0.010101 0.979798 0.010101 0.010101
Americans and ||| NNS CC ||| 0.6 0.2 0.2 0.6 0.2 0.2
Americans ||| NNPS ||| 0.818182 0.0909091 0.0909091 0.818182 0.0909091 0.0909091
Americans ||| NNS ||| 0.6 0.2 0.2 0.6 0.2 0.2
Amman on ||| NNP IN ||| 0.714286 0.142857 0.142857 0.714286 0.142857 0.142857
Amman ||| JJ ||| 0.714286 0.142857 0.142857 0.714286 0.142857 0.142857
Amman ||| NNP ||| 0.925926 0.037037 0.037037 0.925926 0.037037 0.037037
Amount $ ||| NN $ ||| 0.714286 0.142857 0.142857 0.714286 0.142857 0.142857
Amount ||| NN ||| 0.714286 0.142857 0.142857 0.714286 0.142857 0.142857
Amount ||| NNP ||| 0.846154 0.0769231 0.0769231 0.846154 0.0769231 0.0769231
Amsterdam newsroom ||| NN NN ||| 0.846154 0.0769231 0.0769231 0.846154 0.0769231 0.0769231
Amsterdam newsroom ||| NNP NN ||| 0.6 0.2 0.2 0.6 0.2 0.2
Amsterdam ||| NN ||| 0.882353 0.0588235 0.0588235 0.882353 0.0588235 0.0588235
Amsterdam ||| NNP ||| 0.95122 0.0243902 0.0243902 0.853659 0.0243902 0.121951
An estimated ||| DT VBN ||| 0.714286 0.142857 0.142857 0.714286 0.142857 0.142857
An ||| DT ||| 0.967213 0.0163934 0.0163934 0.967213 0.0163934 0.0163934
An ||| NNP ||| 0.6 0.2 0.2 0.6 0.2 0.2
And he ||| CC PRP ||| 0.6 0.2 0.2 0.6 0.2 0.2
And ||| CC ||| 0.913043 0.0434783 0.0434783 0.913043 0.0434783 0.0434783
Andrew ||| NNP ||| 0.904762 0.047619 0.047619 0.904762 0.047619 0.047619
Angel Jimenez ( Spain ) ||| NNP NNP ( NNP ) ||| 0.6 0.2 0.2 0.6 0.2 0.2
Angel Jimenez ( Spain ||| NNP NNP ( NNP ||| 0.6 0.2 0.2 0.6 0.2 0.2
Angel Jimenez ( ||| NNP NNP ( ||| 0.6 0.2 0.2 0.6 0.2 0.2
Angel Jimenez ||| NNP NNP ||| 0.6 0.2 0.2 0.6 0.2 0.2
Angel Martin ( Spain ) , ||| NNP NNP ( NNP ) , ||| 0.6 0.2 0.2 0.6 0.2 0.2
Angel Martin ( Spain ) ||| NNP NNP ( NNP ) ||| 0.777778 0.111111 0.111111 0.777778 0.111111 0.111111
Angel Martin ( Spain ||| NNP NNP ( NNP ||| 0.777778 0.111111 0.111111 0.777778 0.111111 0.111111
Angel Martin ( ||| NNP NNP ( ||| 0.777778 0.111111 0.111111 0.777778 0.111111 0.111111
Angel Martin ||| NNP NNP ||| 0.818182 0.0909091 0.0909091 0.818182 0.0909091 0.0909091
Angel ||| NNP ||| 0.882353 0.0588235 0.0588235 0.882353 0.0588235 0.0588235
Angeles ||| NNP ||| 0.95122 0.0243902 0.0243902 0.95122 0.0243902 0.0243902
Ankara to ||| NNP TO ||| 0.6 0.2 0.2 0.6 0.2 0.2
Ankara ||| NNP ||| 0.714286 0.142857 0.142857 0.714286 0.142857 0.142857
Annett Neumann ( Germany ) beat ||| NN NNP ( NNP ) VB ||| 0.6 0.2 0.2 0.6 0.2 0.2
Annett Neumann ( Germany ) ||| NN NNP ( NNP ) ||| 0.6 0.2 0.2 0.6 0.2 0.2
Annett Neumann ( Germany ||| NN NNP ( NNP ||| 0.6 0.2 0.2 0.6 0.2 0.2
Annett Neumann ( ||| NN NNP ( ||| 0.6 0.2 0.2 0.6 0.2 0.2
Annett Neumann ||| NN NNP ||| 0.6 0.2 0.2 0.6 0.2 0.2
Annett ||| NN ||| 0.6 0.2 0.2 0.6 0.2 0.2
Another ||| DT ||| 0.777778 0.111111 0.111111 0.777778 0.111111 0.111111
Antoine Lebouc ( France ) ||| NNP NNP ( NNP ) ||| 0.6 0.2 0.2 0.6 0.2 0.2
Antoine Lebouc ( France ||| NNP NNP ( NNP ||| 0.6 0.2 0.2 0.6 0.2 0.2
Antoine Lebouc ( ||| NNP NNP ( ||| 0.6 0.2 0.2 0.6 0.2 0.2
Antoine Lebouc ||| NNP NNP ||| 0.6 0.2 0.2 0.6 0.2 0.2
Antoine ||| NNP ||| 0.6 0.2 0.2 0.6 0.2 0.2
April , ||| NNP , ||| 0.6 0.2 0.2 0.6 0.2 0.2
April . ||| NNP . ||| 0.714286 0.142857 0.142857 0.714286 0.142857 0.142857
April ||| NNP ||| 0.966102 0.0169492 0.0169492 0.966102 0.0169492 0.0169492
Arab East Jerusalem ||| NNP NNP NNP ||| 0.777778 0.111111 0.111111 0.777778 0.111111 0.111111
Arab East ||| NNP NNP ||| 0.777778 0.111111 0.111111 0.777778 0.111111 0.111111
Arab and ||| NNP CC ||| 0.6 0.2 0.2 0.6 0.2 0.2
Arab ||| JJ ||| 0.925926 0.037037 0.037037 0.925926 0.037037 0.037037
Arab ||| NNP ||| 0.846154 0.0769231 0.0769231 0.846154 0.0769231 0.0769231
Arabia , ||| NNP , ||| 0.714286 0.142857 0.142857 0.714286 0.142857 0.142857
Arabia . ||| NNP . ||| 0.6 0.2 0.2 0.6 0.2 0.2
Arabia ||| NNP ||| 0.894737 0.0526316 0.0526316 0.894737 0.0526316 0.0526316
Arafat called ||| NNP VBD ||| 0.6 0.2 0.2 0.6 0.2 0.2
Arafat to ||| NN TO ||| 0.6 0.2 0.2 0.6 0.2 0.2
Arafat to ||| NNP TO ||| 0.846154 0.0769231 0.0769231 0.846154 0.0769231 0.0769231
Arafat ||| NN ||| 0.6 0.2 0.2 0.6 0.2 0.2
Arafat ||| NNP ||| 0.975904 0.0120482 0.0120482 0.975904 0.0120482 0.0120482
Area ||| NNP ||| 0.714286 0.142857 0.142857 0.714286 0.142857 0.142857
Argentina ) , ||| NNP ) , ||| 0.6 0.2 0.2 0.6 0.2 0.2
Argentina ) ||| NNP ) ||| 0.95122 0.0243902 0.0243902 0.95122 0.0243902 0.0243902
Argentina ||| NN ||| 0.6 0.2 0.2 0.6 0.2 0.2
Argentina ||| NNP ||| 0.966102 0.0169492 0.0169492 0.966102 0.0169492 0.0169492
Armed ||| NNP ||| 0.846154 0.0769231 0.0769231 0.846154 0.0769231 0.0769231
Army . ||| NNP . ||| 0.6 0.2 0.2 0.6 0.2 0.2
Army ||| NN ||| 0.714286 0.142857 0.142857 0.714286 0.142857 0.142857
Army ||| NNP ||| 0.846154 0.0769231 0.0769231 0.846154 0.0769231 0.0769231
As the ||| IN DT ||| 0.6 0.2 0.2 0.6 0.2 0.2
As ||| IN ||| 0.948718 0.025641 0.025641 0.948718 0.025641 0.025641
As ||| RB ||| 0.714286 0.142857 0.142857 0.714286 0.142857 0.142857
Asif Ali ||| NNP NNP ||| 0.6 0.2 0.2 0.6 0.2 0.2
Asif ||| NNP ||| 0.92 0.04 0.04 0.92 0.04 0.04
Association ||| NNP ||| 0.960784 0.0196078 0.0196078 0.960784 0.0196078 0.0196078
At ||| IN ||| 0.988166 0.00591716 0.00591716 0.988166 0.00591716 0.00591716
Atlanta ||| NNP ||| 0.964912 0.0175439 0.0175439 0.964912 0.0175439 0.0175439
Atlantic Ocean ||| NNP NNP ||| 0.714286 0.142857 0.142857 0.714286 0.142857 0.142857
Atlantic ||| NNP ||| 0.882353 0.0588235 0.0588235 0.882353 0.0588235 0.0588235
Attendance : ||| NN : ||| 0.939394 0.030303 0.030303 0.939394 0.030303 0.030303
Attendance : ||| NNP : ||| 0.866667 0.0666667 0.0666667 0.866667 0.0666667 0.0666667
Attendance ||| NN ||| 0.948718 0.025641 0.025641 0.948718 0.025641 0.025641
Attendance ||| NNP ||| 0.969231 0.0153846 0.0153846 0.969231 0.0153846 0.0153846
Attendance ||| VB ||| 0.6 0.2 0.2 0.6 0.2 0.2
Aug ||| NN ||| 0.714286 0.142857 0.142857 0.714286 0.142857 0.142857
Aug ||| NNP ||| 0.964912 0.0175439 0.0175439 0.964912 0.0175439 0.0175439
Aug ||| VBG ||| 0.714286 0.142857 0.142857 0.714286 0.142857 0.142857
August . ||| NNP . ||| 0.846154 0.0769231 0.0769231 0.846154 0.0769231 0.0769231
August ||| NNP ||| 0.989418 0.00529101 0.00529101 0.989418 0.00529101 0.00529101
Australia ) , ||| NNP ) , ||| 0.882353 0.0588235 0.0588235 0.882353 0.0588235 0.0588235
Australia ) ||| NNP ) ||| 0.988571 0.00571429 0.00571429 0.988571 0.00571429 0.00571429
Australia ||| NNP ||| 0.992395 0.00380228 0.00380228 0.992395 0.00380228 0.00380228
Austria ||| NNP ||| 0.974684 0.0126582 0.0126582 0.974684 0.0126582 0.0126582
Austrian ||| JJ ||| 0.931034 0.0344828 0.0344828 0.931034 0.0344828 0.0344828
Authority ||| NNP ||| 0.894737 0.0526316 0.0526316 0.894737 0.0526316 0.0526316
Ayres ||| NNP ||| 0.6 0.2 0.2 0.6 0.2 0.2
Azerbaijan ||| NNP ||| 0.777778 0.111111 0.111111 0.777778 0.111111 0.111111
BALANCE OF ||| NN IN ||| 0.6 0.2 0.2 0.6 0.2 0.2
BALANCE ||| NN ||| 0.6 0.2 0.2 0.6 0.2 0.2
BALANCE ||| NNP ||| 0.6 0.2 0.2 0.6 0.2 0.2
BANGKOK ||| NNP ||| 0.846154 0.0769231 0.0769231 0.846154 0.0769231 0.0769231
BEAT ||| NN ||| 0.925926 0.037037 0.037037 0.925926 0.037037 0.037037
BONN ||| NN ||| 0.95122 0.0243902 0.0243902 0.95122 0.0243902 0.0243902
BORROWER ||| NNP ||| 0.714286 0.142857 0.142857 0.714286 0.142857 0.142857
BOSTON ||| NNP ||| 0.959184 0.0204082 0.0204082 0.959184 0.0204082 0.0204082
BRITISH MASTERS ||| JJ NNS ||| 0.714286 0.142857 0.142857 0.714286 0.142857 0.142857
BRITISH ||| JJ ||| 0.714286 0.142857 0.142857 0.714286 0.142857 0.142857
BRUSSELS ||| NNP ||| 0.942857 0.0285714 0.0285714 0.942857 0.0285714 0.0285714
BUSINESS ||| NNP ||| 0.714286 0.142857 0.142857 0.714286 0.142857 0.142857
Baker ||| NNP ||| 0.714286 0.142857 0.142857 0.714286 0.142857 0.142857
Bangkok ||| NNP ||| 0.777778 0.111111 0.111111 0.777778 0.111111 0.111111
Bangladesh 's ||| NNP POS ||| 0.777778 0.111111 0.111111 0.777778 0.111111 0.111111
Bangladesh ||| NNP ||| 0.92 0.04 0.04 0.92 0.04 0.04
Bank , ||| NNP , ||| 0.714286 0.142857 0.142857 0.714286 0.142857 0.142857
Bank . ||| NNP . ||| 0.777778 0.111111 0.111111 0.777778 0.111111 0.111111
Bank and Gaza ||| NNP CC NNP ||| 0.846154 0.0769231 0.0769231 0.846154 0.0769231 0.0769231
Bank and ||| NNP CC ||| 0.846154 0.0769231 0.0769231 0.846154 0.0769231 0.0769231
Bank city ||| NNP NN ||| 0.6 0.2 0.2 0.6 0.2 0.2
Bank of Japan ||| NNP IN NNP ||| 0.714286 0.142857 0.142857 0.714286 0.142857 0.142857
Bank of ||| NNP IN ||| 0.945946 0.027027 0.027027 0.945946 0.027027 0.027027
Bank on Thursday ||| NNP IN NNP ||| 0.6 0.2 0.2 0.6 0.2 0.2
Bank on ||| NNP IN ||| 0.714286 0.142857 0.142857 0.714286 0.142857 0.142857
Bank town of Ramallah ||| NNP NN IN NNP ||| 0.714286 0.142857 0.142857 0.714286 0.142857 0.142857
Bank town of ||| NNP NN IN ||| 0.714286 0.142857 0.142857 0.714286 0.142857 0.142857
Bank town ||| NNP NN ||| 0.714286 0.142857 0.142857 0.714286 0.142857 0.142857
Bank ||| NNP ||| 0.984 0.008 0.008 0.984 0.008 0.008
Barros ||| NNP ||| 0.6 0.2 0.2 0.6 0.2 0.2
Barry Lane ||| NNP NNP ||| 0.714286 0.142857 0.142857 0.714286 0.142857 0.142857
Barry ||| NNP ||| 0.818182 0.0909091 0.0909091 0.818182 0.0909091 0.0909091
Basketball Association ||| NNP NNP ||| 0.777778 0.111111 0.111111 0.777778 0.111111 0.111111
Basketball ||| NNP ||| 0.777778 0.111111 0.111111 0.777778 0.111111 0.111111
Basque Country ||| NNP NNP ||| 0.6 0.2 0.2 0.6 0.2 0.2
Basque ||| JJ ||| 0.714286 0.142857 0.142857 0.714286 0.142857 0.142857
Basque ||| NNP ||| 0.866667 0.0666667 0.0666667 0.866667 0.0666667 0.0666667
Beach ||| NNP ||| 0.6 0.2 0.2 0.6 0.2 0.2
Because of ||| IN IN ||| 0.6 0.2 0.2 0.6 0.2 0.2
Because ||| IN ||| 0.714286 0.142857 0.142857 0.714286 0.142857 0.142857
Beijing , ||| NNP , ||| 0.714286 0.142857 0.142857 0.714286 0.142857 0.142857
Beijing ||| NNP ||| 0.931034 0.0344828 0.0344828 0.931034 0.0344828 0.0344828
Belgian ||| JJ ||| 0.95122 0.0243902 0.0243902 0.95122 0.0243902 0.0243902
Belgian ||| NNP ||| 0.894737 0.0526316 0.0526316 0.894737 0.0526316 0.0526316
Belgium ||| NN ||| 0.6 0.2 0.2 0.6 0.2 0.2
Belgium ||| NNP ||| 0.985612 0.00719424 0.00719424 0.985612 0.00719424 0.00719424
Benazir Bhutto ||| NNP NNP ||| 0.6 0.2 0.2 0.6 0.2 0.2
Benazir ||| NNP ||| 0.714286 0.142857 0.142857 0.714286 0.142857 0.142857
Benelux ||| NNP ||| 0.6 0.2 0.2 0.6 0.2 0.2
Bhutto ||| NNP ||| 0.866667 0.0666667 0.0666667 0.866667 0.0666667 0.0666667
Bill Birch . ||| NNP NNP . ||| 0.6 0.2 0.2 0.6 0.2 0.2
Bill Birch ||| NNP NNP ||| 0.6 0.2 0.2 0.6 0.2 0.2
Bill Clinton 's ||| NNP NNP POS ||| 0.882353 0.0588235 0.0588235 0.882353 0.0588235 0.0588235
Bill Clinton ||| NNP NNP ||| 0.935484 0.0322581 0.0322581 0.935484 0.0322581 0.0322581
Bill ||| NNP ||| 0.953488 0.0232558 0.0232558 0.953488 0.0232558 0.0232558
Birch . ||| NNP . ||| 0.6 0.2 0.2 0.6 0.2 0.2
Birch ||| NNP ||| 0.6 0.2 0.2 0.6 0.2 0.2
Block ||| NNP ||| 0.6 0.2 0.2 0.6 0.2 0.2
Board ||| NNP ||| 0.894737 0.0526316 0.0526316 0.894737 0.0526316 0.0526316
Bob Dole in the ||| NNP NNP IN DT ||| 0.6 0.2 0.2 0.6 0.2 0.2
Bob Dole in ||| NNP NNP IN ||| 0.6 0.2 0.2 0.6 0.2 0.2
Bob Dole ||| NNP NNP ||| 0.882353 0.0588235 0.0588235 0.882353 0.0588235 0.0588235
Bob ||| NNP ||| 0.942857 0.0285714 0.0285714 0.942857 0.0285714 0.0285714
Boeing ||| NNP ||| 0.6 0.2 0.2 0.6 0.2 0.2
Both ||| DT ||| 0.913043 0.0434783 0.0434783 0.913043 0.0434783 0.0434783
Brazil ) ||| NNP ) ||| 0.931034 0.0344828 0.0344828 0.931034 0.0344828 0.0344828
Brazil ||| NN ||| 0.6 0.2 0.2 0.6 0.2 0.2
Brazil ||| NNP ||| 0.977011 0.0114943 0.0114943 0.977011 0.0114943 0.0114943
Brazil ||| VB ||| 0.6 0.2 0.2 0.6 0.2 0.2
Britain 's ||| NNP POS ||| 0.939394 0.030303 0.030303 0.939394 0.030303 0.030303
Britain ) ||| NNP ) ||| 0.984252 0.00787402 0.00787402 0.984252 0.00787402 0.00787402
Britain , " ||| NNP , " ||| 0.6 0.2 0.2 0.6 0.2 0.2
Britain , ||| NNP , ||| 0.818182 0.0909091 0.0909091 0.818182 0.0909091 0.0909091
Britain over ||| NNP IN ||| 0.6 0.2 0.2 0.6 0.2 0.2
Britain ||| NNP ||| 0.992095 0.00395257 0.00395257 0.992095 0.00395257 0.00395257
British Foreign Secretary Malcolm Rifkind said on ||| NNP NNP NNP NNP NNP VBD IN ||| 0.6 0.2 0.2 0.6 0.2 0.2
British Foreign Secretary Malcolm Rifkind said ||| NNP NNP NNP NNP NNP VBD ||| 0.6 0.2 0.2 0.6 0.2 0.2
British Foreign Secretary Malcolm Rifkind ||| NNP NNP NNP NNP NNP ||| 0.6 0.2 0.2 0.6 0.2 0.2
British Foreign Secretary Malcolm ||| NNP NNP NNP NNP ||| 0.6 0.2 0.2 0.6 0.2 0.2
British Foreign Secretary ||| NNP NNP NNP ||| 0.6 0.2 0.2 0.6 0.2 0.2
British Foreign ||| NNP NNP ||| 0.714286 0.142857 0.142857 0.714286 0.142857 0.142857
British Jewish groups have also ||| NNP NNP NNS VBP RB ||| 0.6 0.2 0.2 0.6 0.2 0.2
British Jewish groups have ||| NNP NNP NNS VBP ||| 0.6 0.2 0.2 0.6 0.2 0.2
British Jewish groups ||| NNP NNP NNS ||| 0.6 0.2 0.2 0.6 0.2 0.2
British Jewish ||| NNP NNP ||| 0.6 0.2 0.2 0.6 0.2 0.2
British Masters on ||| NNP NNP IN ||| 0.6 0.2 0.2 0.6 0.2 0.2
British Masters ||| NNP NNP ||| 0.714286 0.142857 0.142857 0.714286 0.142857 0.142857
British colony ||| JJ NN ||| 0.846154 0.0769231 0.0769231 0.846154 0.0769231 0.0769231
British embassy in ||| JJ NN IN ||| 0.6 0.2 0.2 0.6 0.2 0.2
British embassy ||| JJ NN ||| 0.6 0.2 0.2 0.6 0.2 0.2
British law was broken . ||| JJ NN VBD VBN . ||| 0.6 0.2 0.2 0.6 0.2 0.2
British law was broken ||| JJ NN VBD VBN ||| 0.6 0.2 0.2 0.6 0.2 0.2
British law was ||| JJ NN VBD ||| 0.6 0.2 0.2 0.6 0.2 0.2
British law ||| JJ NN ||| 0.6 0.2 0.2 0.6 0.2 0.2
British ||| JJ ||| 0.984252 0.00787402 0.00787402 0.984252 0.00787402 0.00787402
British ||| NNP ||| 0.953488 0.0232558 0.0232558 0.953488 0.0232558 0.0232558
British-based ||| JJ ||| 0.777778 0.111111 0.111111 0.777778 0.111111 0.111111
Brothers ||| NNPS ||| 0.714286 0.142857 0.142857 0.714286 0.142857 0.142857
Brussels ||| NNP ||| 0.939394 0.030303 0.030303 0.939394 0.030303 0.030303
Bush ||| NNP ||| 0.6 0.2 0.2 0.6 0.2 0.2
Business Machines ||| NNP NNPS ||| 0.6 0.2 0.2 0.6 0.2 0.2
Business ||| NN ||| 0.714286 0.142857 0.142857 0.714286 0.142857 0.142857
Business ||| NNP ||| 0.818182 0.0909091 0.0909091 0.818182 0.0909091 0.0909091
But analysts ||| CC NNS ||| 0.6 0.2 0.2 0.6 0.2 0.2
But he ||| CC PRP ||| 0.92 0.04 0.04 0.92 0.04 0.04
But the ||| CC DT ||| 0.955556 0.0222222 0.0222222 0.955556 0.0222222 0.0222222
But ||| CC ||| 0.993174 0.00341297 0.00341297 0.993174 0.00341297 0.00341297
C$ ||| $ ||| 0.945946 0.027027 0.027027 0.945946 0.027027 0.027027
CAIRO ||| NNP ||| 0.866667 0.0666667 0.0666667 0.866667 0.0666667 0.0666667
CDU ||| NNP ||| 0.846154 0.0769231 0.0769231 0.846154 0.0769231 0.0769231
CEO ||| NNP ||| 0.6 0.2 0.2 0.6 0.2 0.2
CHAMPIONSHIP RESULTS . ||| NN NNS . ||| 0.6 0.2 0.2 0.6 0.2 0.2
CHAMPIONSHIP RESULTS . ||| WDT NNS . ||| 0.6 0.2 0.2 0.6 0.2 0.2
CHAMPIONSHIP RESULTS ||| NN NNS ||| 0.6 0.2 0.2 0.6 0.2 0.2
CHAMPIONSHIP RESULTS ||| NNP NNS ||| 0.6 0.2 0.2 0.6 0.2 0.2
CHAMPIONSHIP RESULTS ||| WDT NNS ||| 0.6 0.2 0.2 0.6 0.2 0.2
CHAMPIONSHIP ||| NN ||| 0.714286 0.142857 0.142857 0.714286 0.142857 0.142857
CHAMPIONSHIP ||| NNP ||| 0.6 0.2 0.2 0.6 0.2 0.2
CHAMPIONSHIP ||| WDT ||| 0.882353 0.0588235 0.0588235 0.882353 0.0588235 0.0588235
CHICAGO ||| NNP ||| 0.982301 0.00884956 0.00884956 0.982301 0.00884956 0.00884956
CINCO DIAS ||| NNP NNP ||| 0.6 0.2 0.2 0.6 0.2 0.2
CINCO ||| NNP ||| 0.6 0.2 0.2 0.6 0.2 0.2
COLOMBO ||| NNP ||| 0.931034 0.0344828 0.0344828 0.931034 0.0344828 0.0344828
CONTENTS - OJ L ||| NNS : NN NNP ||| 0.6 0.2 0.2 0.6 0.2 0.2
CONTENTS - OJ ||| NNS : NN ||| 0.6 0.2 0.2 0.6 0.2 0.2
CONTENTS - OJ ||| NNS : NNP ||| 0.714286 0.142857 0.142857 0.714286 0.142857 0.142857
CONTENTS - ||| NNS : ||| 0.777778 0.111111 0.111111 0.777778 0.111111 0.111111
CONTENTS ||| NNS ||| 0.777778 0.111111 0.111111 0.777778 0.111111 0.111111
COUPON ||| NN ||| 0.6 0.2 0.2 0.6 0.2 0.2
COUPON ||| NNP ||| 0.6 0.2 0.2 0.6 0.2 0.2
CPI ( ||| NNP ( ||| 0.6 0.2 0.2 0.6 0.2 0.2
CPI ||| NNP ||| 0.846154 0.0769231 0.0769231 0.846154 0.0769231 0.0769231
CYCLING - WORLD ||| VBG : NN ||| 0.714286 0.142857 0.142857 0.714286 0.142857 0.142857
CYCLING - ||| VBG : ||| 0.894737 0.0526316 0.0526316 0.894737 0.0526316 0.0526316
CYCLING ||| VBG ||| 0.925926 0.037037 0.037037 0.925926 0.037037 0.037037
Cabinet ||| NNP ||| 0.714286 0.142857 0.142857 0.714286 0.142857 0.142857
Cairo . ||| NNP . ||| 0.6 0.2 0.2 0.6 0.2 0.2
Cairo ||| NN ||| 0.6 0.2 0.2 0.6 0.2 0.2
Cairo ||| NNP ||| 0.777778 0.111111 0.111111 0.777778 0.111111 0.111111
Calif. , ||| NNP , ||| 0.6 0.2 0.2 0.6 0.2 0.2
Calif. ||| NNP ||| 0.846154 0.0769231 0.0769231 0.846154 0.0769231 0.0769231
California ||| NNP ||| 0.964912 0.0175439 0.0175439 0.964912 0.0175439 0.0175439
Call ||| VB ||| 0.714286 0.142857 0.142857 0.714286 0.142857 0.142857
Caltex ||| NNP ||| 0.6 0.2 0.2 0.6 0.2 0.2
Canada 's ||| NNP POS ||| 0.925926 0.037037 0.037037 0.925926 0.037037 0.037037
Canada ) ||| NNP ) ||| 0.935484 0.0322581 0.0322581 0.935484 0.0322581 0.0322581
Canada said ||| NNP VBD ||| 0.6 0.2 0.2 0.6 0.2 0.2
Canada ||| NNP ||| 0.972603 0.0136986 0.0136986 0.972603 0.0136986 0.0136986
Canadian ||| JJ ||| 0.92 0.04 0.04 0.92 0.04 0.04
Canadian ||| NNP ||| 0.894737 0.0526316 0.0526316 0.894737 0.0526316 0.0526316
Carlos ||| NNP ||| 0.942857 0.0285714 0.0285714 0.942857 0.0285714 0.0285714
Catalan nationalists ||| JJ NNS ||| 0.714286 0.142857 0.142857 0.714286 0.142857 0.142857
Catalan ||| JJ ||| 0.714286 0.142857 0.142857 0.714286 0.142857 0.142857
Cea ( Spain ) , ||| NNP ( NNP ) , ||| 0.6 0.2 0.2 0.6 0.2 0.2
Cea ( Spain ) ||| NNP ( NNP ) ||| 0.818182 0.0909091 0.0909091 0.818182 0.0909091 0.0909091
Cea ( Spain ||| NNP ( NNP ||| 0.818182 0.0909091 0.0909091 0.818182 0.0909091 0.0909091
Cea ( ||| NNP ( ||| 0.818182 0.0909091 0.0909091 0.818182 0.0909091 0.0909091
Cea ||| NNP ||| 0.818182 0.0909091 0.0909091 0.818182 0.0909091 0.0909091
Charleston ||| NNP ||| 0.6 0.2 0.2 0.6 0.2 0.2
Chemical ||| NNP ||| 0.6 0.2 0.2 0.6 0.2 0.2
Chicago . ||| NNP . ||| 0.777778 0.111111 0.111111 0.777778 0.111111 0.111111
Chicago newsdesk ||| NNP NN ||| 0.818182 0.0909091 0.0909091 0.818182 0.0909091 0.0909091
Chicago newsdesk ||| NNP UH ||| 0.6 0.2 0.2 0.6 0.2 0.2
Chicago on Tuesday ||| NNP IN NNP ||| 0.6 0.2 0.2 0.6 0.2 0.2
Chicago on ||| NNP IN ||| 0.714286 0.142857 0.142857 0.714286 0.142857 0.142857
Chicago ||| NNP ||| 0.974684 0.0126582 0.0126582 0.974684 0.0126582 0.0126582
Chilean ||| JJ ||| 0.714286 0.142857 0.142857 0.714286 0.142857 0.142857
China , ||| NNP , ||| 0.894737 0.0526316 0.0526316 0.894737 0.0526316 0.0526316
China . ||| NNP . ||| 0.913043 0.0434783 0.0434783 0.913043 0.0434783 0.0434783
China at midnight on June ||| NNP IN NN IN NNP ||| 0.6 0.2 0.2 0.6 0.2 0.2
China at midnight on ||| NNP IN NN IN ||| 0.6 0.2 0.2 0.6 0.2 0.2
China at midnight ||| NNP IN NN ||| 0.6 0.2 0.2 0.6 0.2 0.2
China at ||| NNP IN ||| 0.6 0.2 0.2 0.6 0.2 0.2
China on ||| NNP IN ||| 0.777778 0.111111 0.111111 0.777778 0.111111 0.111111
China ||| NNP ||| 0.98895 0.00552486 0.00552486 0.98895 0.00552486 0.00552486
Chinese ||| JJ ||| 0.953488 0.0232558 0.0232558 0.953488 0.0232558 0.0232558
Chinese ||| NNP ||| 0.777778 0.111111 0.111111 0.777778 0.111111 0.111111
Chris ||| NNP ||| 0.948718 0.025641 0.025641 0.948718 0.025641 0.025641
Christchurch ||| NNP ||| 0.6 0.2 0.2 0.6 0.2 0.2
City , ||| NNP , ||| 0.866667 0.0666667 0.0666667 0.866667 0.0666667 0.0666667
City ||| NNP ||| 0.971831 0.0140845 0.0140845 0.971831 0.0140845 0.0140845
Civil servants ||| JJ NNS ||| 0.6 0.2 0.2 0.6 0.2 0.2
Civil ||| JJ ||| 0.6 0.2 0.2 0.6 0.2 0.2
Civil ||| NNP ||| 0.6 0.2 0.2 0.6 0.2 0.2
Clayton ( Australia ) ||| NNP ( NNP ) ||| 0.6 0.2 0.2 0.6 0.2 0.2
Clayton ( Australia ||| NNP ( NNP ||| 0.6 0.2 0.2 0.6 0.2 0.2
Clayton ( ||| NNP ( ||| 0.6 0.2 0.2 0.6 0.2 0.2
Clayton ||| NNP ||| 0.777778 0.111111 0.111111 0.777778 0.111111 0.111111
Clinton 's ||| NNP POS ||| 0.931034 0.0344828 0.0344828 0.931034 0.0344828 0.0344828
Clinton administration ||| NNP NN ||| 0.714286 0.142857 0.142857 0.714286 0.142857 0.142857
Clinton is ||| NNP VBZ ||| 0.6 0.2 0.2 0.6 0.2 0.2
Clinton was ||| NNP VBD ||| 0.777778 0.111111 0.111111 0.777778 0.111111 0.111111
Clinton ||| NNP ||| 0.986928 0.00653595 0.00653595 0.986928 0.00653595 0.00653595
Co , ||| NNP , ||| 0.714286 0.142857 0.142857 0.714286 0.142857 0.142857
Co . ||| NNP . ||| 0.882353 0.0588235 0.0588235 0.882353 0.0588235 0.0588235
Co Ltd ||| NNP NNP ||| 0.777778 0.111111 0.111111 0.777778 0.111111 0.111111
Co of ||| NNP IN ||| 0.6 0.2 0.2 0.6 0.2 0.2
Co said ||| NNP VBD ||| 0.6 0.2 0.2 0.6 0.2 0.2
Co ||| NNP ||| 0.964912 0.0175439 0.0175439 0.964912 0.0175439 0.0175439
Coceres ( Argentina ) , ||| NNPS ( NNP ) , ||| 0.6 0.2 0.2 0.6 0.2 0.2
Coceres ( Argentina ) ||| NNPS ( NNP ) ||| 0.714286 0.142857 0.142857 0.714286 0.142857 0.142857
Coceres ( Argentina ||| NNPS ( NNP ||| 0.714286 0.142857 0.142857 0.714286 0.142857 0.142857
Coceres ( ||| NNPS ( ||| 0.714286 0.142857 0.142857 0.714286 0.142857 0.142857
Coceres ||| NNPS ||| 0.714286 0.142857 0.142857 0.714286 0.142857 0.142857
Colin ||| NNP ||| 0.904762 0.047619 0.047619 0.904762 0.047619 0.047619
Colo . ||| NNP . ||| 0.6 0.2 0.2 0.6 0.2 0.2
Colo ||| NNP ||| 0.6 0.2 0.2 0.6 0.2 0.2
Colombo ||| NN ||| 0.6 0.2 0.2 0.6 0.2 0.2
Colombo ||| NNP ||| 0.894737 0.0526316 0.0526316 0.894737 0.0526316 0.0526316
Commercial ||| JJ ||| 0.714286 0.142857 0.142857 0.714286 0.142857 0.142857
Commission Regulation ( EC ) No ||| NNP NNP ( NNP ) DT ||| 0.777778 0.111111 0.111111 0.777778 0.111111 0.111111
Commission Regulation ( EC ) ||| NNP NNP ( NNP ) ||| 0.777778 0.111111 0.111111 0.777778 0.111111 0.111111
Commission Regulation ( EC ||| NNP NNP ( NNP ||| 0.777778 0.111111 0.111111 0.777778 0.111111 0.111111
Commission Regulation ( ||| NNP NNP ( ||| 0.777778 0.111111 0.111111 0.777778 0.111111 0.111111
Commission Regulation ||| NNP NNP ||| 0.777778 0.111111 0.111111 0.777778 0.111111 0.111111
Commission ||| NN ||| 0.777778 0.111111 0.111111 0.777778 0.111111 0.111111
Commission ||| NNP ||| 0.977011 0.0114943 0.0114943 0.977011 0.0114943 0.0114943
Committee ||| NNP ||| 0.846154 0.0769231 0.0769231 0.846154 0.0769231 0.0769231
Communications ||| NNP ||| 0.777778 0.111111 0.111111 0.777778 0.111111 0.111111
Community ||| NNP ||| 0.846154 0.0769231 0.0769231 0.846154 0.0769231 0.0769231
Company ||| NN ||| 0.777778 0.111111 0.111111 0.777778 0.111111 0.111111
Company ||| NNP ||| 0.714286 0.142857 0.142857 0.714286 0.142857 0.142857
Concern ||| NN ||| 0.6 0.2 0.2 0.6 0.2 0.2
Consumer ||| NN ||| 0.6 0.2 0.2 0.6 0.2 0.2
Convention ||| NNP ||| 0.866667 0.0666667 0.0666667 0.866667 0.0666667 0.0666667
Corp , ||| NNP , ||| 0.777778 0.111111 0.111111 0.777778 0.111111 0.111111
Corp . ||| NNP . ||| 0.818182 0.0909091 0.0909091 0.818182 0.0909091 0.0909091
Corp ||| NNP ||| 0.974026 0.012987 0.012987 0.974026 0.012987 0.012987
Corporation and ||| NNP CC ||| 0.6 0.2 0.2 0.6 0.2 0.2
Corporation ||| NNP ||| 0.882353 0.0588235 0.0588235 0.882353 0.0588235 0.0588235
Corps ||| NNP ||| 0.6 0.2 0.2 0.6 0.2 0.2
Corsica ||| NNP ||| 0.6 0.2 0.2 0.6 0.2 0.2
Costantino Rocca ||| NNP NNP ||| 0.846154 0.0769231 0.0769231 0.846154 0.0769231 0.0769231
Costantino ||| NNP ||| 0.846154 0.0769231 0.0769231 0.846154 0.0769231 0.0769231
Council ||| NNP ||| 0.955556 0.0222222 0.0222222 0.955556 0.0222222 0.0222222
Country ||| NNP ||| 0.6 0.2 0.2 0.6 0.2 0.2
Court ||| NNP ||| 0.942857 0.0285714 0.0285714 0.942857 0.0285714 0.0285714
Craig ||| NNP ||| 0.925926 0.037037 0.037037 0.925926 0.037037 0.037037
Credit Rating ||| NNP NNP ||| 0.6 0.2 0.2 0.6 0.2 0.2
Credit ||| NNP ||| 0.777778 0.111111 0.111111 0.777778 0.111111 0.111111
Cup . ||| NNP . ||| 0.866667 0.0666667 0.0666667 0.866667 0.0666667 0.0666667
Cup Winners ' Cup ||| NNP NNS POS JJ ||| 0.6 0.2 0.2 0.6 0.2 0.2
Cup Winners ' Cup ||| NNP NNS POS NNP ||| 0.714286 0.142857 0.142857 0.714286 0.142857 0.142857
Cup Winners ' ||| NNP NNS POS ||| 0.818182 0.0909091 0.0909091 0.818182 0.0909091 0.0909091
Cup Winners ||| NNP NNS ||| 0.818182 0.0909091 0.0909091 0.818182 0.0909091 0.0909091
Cup campaign ||| NNP NN ||| 0.6 0.2 0.2 0.6 0.2 0.2
Cup on ||| NNP IN ||| 0.6 0.2 0.2 0.6 0.2 0.2
Cup ||| JJ ||| 0.6 0.2 0.2 0.6 0.2 0.2
Cup ||| NNP ||| 0.989071 0.00546448 0.00546448 0.989071 0.00546448 0.00546448
Current ||| JJ ||| 0.846154 0.0769231 0.0769231 0.846154 0.0769231 0.0769231
Customs ||| NNP ||| 0.6 0.2 0.2 0.6 0.2 0.2
Customs ||| NNPS ||| 0.6 0.2 0.2 0.6 0.2 0.2
DATE ||| NN ||| 0.6 0.2 0.2 0.6 0.2 0.2
DATE ||| NNP ||| 0.714286 0.142857 0.142857 0.714286 0.142857 0.142857
DE LOS NEGOCIOS ||| NNP NNP NNS ||| 0.6 0.2 0.2 0.6 0.2 0.2
DE LOS ||| NNP NNP ||| 0.6 0.2 0.2 0.6 0.2 0.2
DE ||| NNP ||| 0.866667 0.0666667 0.0666667 0.866667 0.0666667 0.0666667
DELHI ||| NNPS ||| 0.777778 0.111111 0.111111 0.777778 0.111111 0.111111
DIARIO ||| VBG ||| 0.6 0.2 0.2 0.6 0.2 0.2
DIAS ||| NNP ||| 0.6 0.2 0.2 0.6 0.2 0.2
DIGEST - Spain - Aug ||| NNP : NNP : NNP ||| 0.6 0.2 0.2 0.6 0.2 0.2
DIGEST - Spain - ||| NNP : NNP : ||| 0.6 0.2 0.2 0.6 0.2 0.2
DIGEST - Spain ||| NNP : NNP ||| 0.6 0.2 0.2 0.6 0.2 0.2
DIGEST - ||| NNP : ||| 0.931034 0.0344828 0.0344828 0.931034 0.0344828 0.0344828
DIGEST - ||| VB : ||| 0.894737 0.0526316 0.0526316 0.894737 0.0526316 0.0526316
DIGEST ||| NNP ||| 0.931034 0.0344828 0.0344828 0.931034 0.0344828 0.0344828
DIGEST ||| VB ||| 0.894737 0.0526316 0.0526316 0.894737 0.0526316 0.0526316
DOCUMENT . ||| NN . ||| 0.777778 0.111111 0.111111 0.777778 0.111111 0.111111
DOCUMENT ||| NN ||| 0.777778 0.111111 0.111111 0.777778 0.111111 0.111111
DUBAI ||| NNP ||| 0.777778 0.111111 0.111111 0.777778 0.111111 0.111111
Darcy ( Ireland ) , ||| NNP ( NNP ) , ||| 0.6 0.2 0.2 0.6 0.2 0.2
Darcy ( Ireland ) ||| NNP ( NNP ) ||| 0.714286 0.142857 0.142857 0.714286 0.142857 0.142857
Darcy ( Ireland ||| NNP ( NNP ||| 0.714286 0.142857 0.142857 0.714286 0.142857 0.142857
Darcy ( ||| NNP ( ||| 0.714286 0.142857 0.142857 0.714286 0.142857 0.142857
Darcy ||| NNP ||| 0.714286 0.142857 0.142857 0.714286 0.142857 0.142857
Data ||| NNP ||| 0.894737 0.0526316 0.0526316 0.894737 0.0526316 0.0526316
Data ||| NNPS ||| 0.777778 0.111111 0.111111 0.777778 0.111111 0.111111
Date ||| NN ||| 0.6 0.2 0.2 0.6 0.2 0.2
Date ||| NNP ||| 0.931034 0.0344828 0.0344828 0.931034 0.0344828 0.0344828
David Gilford ||| NNP NNP ||| 0.714286 0.142857 0.142857 0.714286 0.142857 0.142857
David ||| NNP ||| 0.978947 0.0105263 0.0105263 0.978947 0.0105263 0.0105263
Dealers said ||| NNS VBD ||| 0.777778 0.111111 0.111111 0.777778 0.111111 0.111111
Dealers ||| NNPS ||| 0.6 0.2 0.2 0.6 0.2 0.2
Dealers ||| NNS ||| 0.866667 0.0666667 0.0666667 0.866667 0.0666667 0.0666667
Democratic convention ||| JJ NN ||| 0.818182 0.0909091 0.0909091 0.818182 0.0909091 0.0909091
Democratic party ||| JJ NN ||| 0.818182 0.0909091 0.0909091 0.818182 0.0909091 0.0909091
Democratic ||| JJ ||| 0.95122 0.0243902 0.0243902 0.95122 0.0243902 0.0243902
Democratic ||| NNP ||| 0.962264 0.0188679 0.0188679 0.962264 0.0188679 0.0188679
Democratic ||| NNS ||| 0.6 0.2 0.2 0.6 0.2 0.2
Department ||| NNP ||| 0.953488 0.0232558 0.0232558 0.953488 0.0232558 0.0232558
Deputy Prime Minister ||| NNP NNP NNP ||| 0.714286 0.142857 0.142857 0.714286 0.142857 0.142857
Deputy Prime ||| NNP NNP ||| 0.714286 0.142857 0.142857 0.714286 0.142857 0.142857
Deputy ||| NNP ||| 0.904762 0.047619 0.047619 0.904762 0.047619 0.047619
Derivatives ||| JJ ||| 0.6 0.2 0.2 0.6 0.2 0.2
Desk ||| NNP ||| 0.913043 0.0434783 0.0434783 0.913043 0.0434783 0.0434783
Detective ||| NNP ||| 0.6 0.2 0.2 0.6 0.2 0.2
Dick Morris ||| NNP NNP ||| 0.777778 0.111111 0.111111 0.777778 0.111111 0.111111
Dick ||| NNP ||| 0.818182 0.0909091 0.0909091 0.818182 0.0909091 0.0909091
Division three ||| NN CD ||| 0.818182 0.0909091 0.0909091 0.818182 0.0909091 0.0909091
Division two ||| NN CD ||| 0.777778 0.111111 0.111111 0.777778 0.111111 0.111111
Division two ||| NNP CD ||| 0.6 0.2 0.2 0.6 0.2 0.2
Division ||| NN ||| 0.925926 0.037037 0.037037 0.925926 0.037037 0.037037
Division ||| NNP ||| 0.846154 0.0769231 0.0769231 0.846154 0.0769231 0.0769231
Dole in the ||| NNP IN DT ||| 0.714286 0.142857 0.142857 0.714286 0.142857 0.142857
Dole in ||| NNP IN ||| 0.777778 0.111111 0.111111 0.777778 0.111111 0.111111
Dole ||| NNP ||| 0.978495 0.0107527 0.0107527 0.978495 0.0107527 0.0107527
Donald Tsang ||| NNP NNP ||| 0.6 0.2 0.2 0.6 0.2 0.2
Donald ||| NNP ||| 0.714286 0.142857 0.142857 0.714286 0.142857 0.142857
Dostum ||| NNP ||| 0.777778 0.111111 0.111111 0.777778 0.111111 0.111111
Dreyfus ||| NNP ||| 0.6 0.2 0.2 0.6 0.2 0.2
Dubnicoff ( Canada ) ||| NNP ( NNP ) ||| 0.6 0.2 0.2 0.6 0.2 0.2
Dubnicoff ( Canada ||| NNP ( NNP ||| 0.6 0.2 0.2 0.6 0.2 0.2
Dubnicoff ( ||| NNP ( ||| 0.6 0.2 0.2 0.6 0.2 0.2
Dubnicoff ||| NNP ||| 0.6 0.2 0.2 0.6 0.2 0.2
Due to ||| JJ TO ||| 0.6 0.2 0.2 0.6 0.2 0.2
Due ||| JJ ||| 0.6 0.2 0.2 0.6 0.2 0.2
Duff ||| NNP ||| 0.6 0.2 0.2 0.6 0.2 0.2
EC ) No ||| NNP ) DT ||| 0.777778 0.111111 0.111111 0.777778 0.111111 0.111111
EC ) ||| NNP ) ||| 0.777778 0.111111 0.111111 0.777778 0.111111 0.111111
EC ||| NNP ||| 0.777778 0.111111 0.111111 0.777778 0.111111 0.111111
EEC ) No ||| NNP ) DT ||| 0.6 0.2 0.2 0.6 0.2 0.2
EEC ) ||| NNP ) ||| 0.6 0.2 0.2 0.6 0.2 0.2
EEC ||| NNP ||| 0.6 0.2 0.2 0.6 0.2 0.2
EL MUNDO ||| NNP NNP ||| 0.6 0.2 0.2 0.6 0.2 0.2
EL PAIS ||| NNP NNP ||| 0.6 0.2 0.2 0.6 0.2 0.2
EL ||| NNP ||| 0.714286 0.142857 0.142857 0.714286 0.142857 0.142857
END OF DOCUMENT . ||| NNP IN NN . ||| 0.777778 0.111111 0.111111 0.777778 0.111111 0.111111
END OF DOCUMENT ||| NNP IN NN ||| 0.777778 0.111111 0.111111 0.777778 0.111111 0.111111
END OF ||| NNP IN ||| 0.777778 0.111111 0.111111 0.777778 0.111111 0.111111
END ||| NNP ||| 0.818182 0.0909091 0.0909091 0.818182 0.0909091 0.0909091
ENGLISH ||| JJ ||| 0.942857 0.0285714 0.0285714 0.942857 0.0285714 0.0285714
ENGLISH ||| NNP ||| 0.6 0.2 0.2 0.6 0.2 0.2
EU 's ||| NNP POS ||| 0.818182 0.0909091 0.0909091 0.818182 0.0909091 0.0909091
EU ||| JJ ||| 0.6 0.2 0.2 0.6 0.2 0.2
EU ||| NN ||| 0.6 0.2 0.2 0.6 0.2 0.2
EU ||| NNP ||| 0.948718 0.025641 0.025641 0.948718 0.025641 0.025641
EUROPEAN ||| JJ ||| 0.846154 0.0769231 0.0769231 0.846154 0.0769231 0.0769231
EUROPEAN ||| NNP ||| 0.714286 0.142857 0.142857 0.714286 0.142857 0.142857
EXPANSION ||| NN ||| 0.6 0.2 0.2 0.6 0.2 0.2
Each ||| DT ||| 0.714286 0.142857 0.142857 0.714286 0.142857 0.142857
Eales , ||| NNP , ||| 0.6 0.2 0.2 0.6 0.2 0.2
Eales ||| NNP ||| 0.6 0.2 0.2 0.6 0.2 0.2
Eales ||| NNPS ||| 0.777778 0.111111 0.111111 0.777778 0.111111 0.111111
Eamonn Darcy ( Ireland ) , ||| VBG NNP ( NNP ) , ||| 0.6 0.2 0.2 0.6 0.2 0.2
Eamonn Darcy ( Ireland ) ||| NNP NNP ( NNP ) ||| 0.6 0.2 0.2 0.6 0.2 0.2
Eamonn Darcy ( Ireland ) ||| VBG NNP ( NNP ) ||| 0.6 0.2 0.2 0.6 0.2 0.2
Eamonn Darcy ( Ireland ||| NNP NNP ( NNP ||| 0.6 0.2 0.2 0.6 0.2 0.2
Eamonn Darcy ( Ireland ||| VBG NNP ( NNP ||| 0.6 0.2 0.2 0.6 0.2 0.2
Eamonn Darcy ( ||| NNP NNP ( ||| 0.6 0.2 0.2 0.6 0.2 0.2
Eamonn Darcy ( ||| VBG NNP ( ||| 0.6 0.2 0.2 0.6 0.2 0.2
Eamonn Darcy ||| NNP NNP ||| 0.6 0.2 0.2 0.6 0.2 0.2
Eamonn Darcy ||| VBG NNP ||| 0.6 0.2 0.2 0.6 0.2 0.2
Eamonn ||| NNP ||| 0.6 0.2 0.2 0.6 0.2 0.2
Eamonn ||| VBG ||| 0.6 0.2 0.2 0.6 0.2 0.2
East Jerusalem ||| NNP NNP ||| 0.904762 0.047619 0.047619 0.904762 0.047619 0.047619
East peace process ||| NNP NN NN ||| 0.6 0.2 0.2 0.6 0.2 0.2
East peace ||| NNP NN ||| 0.6 0.2 0.2 0.6 0.2 0.2
East ||| JJ ||| 0.6 0.2 0.2 0.6 0.2 0.2
East ||| NNP ||| 0.970149 0.0149254 0.0149254 0.970149 0.0149254 0.0149254
Edward ||| NNP ||| 0.714286 0.142857 0.142857 0.714286 0.142857 0.142857
Eelam ( LTTE ) ||| NNP ( NNP ) ||| 0.6 0.2 0.2 0.6 0.2 0.2
Eelam ( LTTE ||| NNP ( NNP ||| 0.6 0.2 0.2 0.6 0.2 0.2
Eelam ( ||| NNP ( ||| 0.6 0.2 0.2 0.6 0.2 0.2
Eelam ||| NNP ||| 0.777778 0.111111 0.111111 0.777778 0.111111 0.111111
Egypt , ||| NNP , ||| 0.714286 0.142857 0.142857 0.714286 0.142857 0.142857
Egypt ||| NN ||| 0.6 0.2 0.2 0.6 0.2 0.2
Egypt ||| NNP ||| 0.960784 0.0196078 0.0196078 0.960784 0.0196078 0.0196078
Egyptian ||| JJ ||| 0.846154 0.0769231 0.0769231 0.846154 0.0769231 0.0769231
Egyptian ||| NNP ||| 0.6 0.2 0.2 0.6 0.2 0.2
England ||| NNP ||| 0.992032 0.00398406 0.00398406 0.992032 0.00398406 0.00398406
English league ||| JJ NN ||| 0.846154 0.0769231 0.0769231 0.846154 0.0769231 0.0769231
English league ||| NNP NN ||| 0.6 0.2 0.2 0.6 0.2 0.2
English premier league ||| JJ JJ NN ||| 0.714286 0.142857 0.142857 0.714286 0.142857 0.142857
English premier ||| JJ JJ ||| 0.714286 0.142857 0.142857 0.714286 0.142857 0.142857
English premier ||| JJ NN ||| 0.714286 0.142857 0.142857 0.714286 0.142857 0.142857
English ||| JJ ||| 0.963636 0.0181818 0.0181818 0.963636 0.0181818 0.0181818
English ||| NNP ||| 0.935484 0.0322581 0.0322581 0.935484 0.0322581 0.0322581
Erbakan ||| NNP ||| 0.846154 0.0769231 0.0769231 0.846154 0.0769231 0.0769231
Eriksson ( Sweden ) ||| NNP ( NNP ) ||| 0.818182 0.0909091 0.0909091 0.818182 0.0909091 0.0909091
Eriksson ( Sweden ||| NNP ( NNP ||| 0.818182 0.0909091 0.0909091 0.818182 0.0909091 0.0909091
Eriksson ( ||| NNP ( ||| 0.818182 0.0909091 0.0909091 0.818182 0.0909091 0.0909091
Eriksson ||| NNP ||| 0.866667 0.0666667 0.0666667 0.866667 0.0666667 0.0666667
Europe . ||| NNP . ||| 0.882353 0.0588235 0.0588235 0.882353 0.0588235 0.0588235
Europe ||| NNP ||| 0.974026 0.012987 0.012987 0.974026 0.012987 0.012987
European Union , ||| NNP NNP , ||| 0.714286 0.142857 0.142857 0.714286 0.142857 0.142857
European Union ||| NNP NNP ||| 0.95122 0.0243902 0.0243902 0.95122 0.0243902 0.0243902
European championship ||| JJ NN ||| 0.846154 0.0769231 0.0769231 0.846154 0.0769231 0.0769231
European soccer ||| JJ NN ||| 0.6 0.2 0.2 0.6 0.2 0.2
European ||| JJ ||| 0.972603 0.0136986 0.0136986 0.972603 0.0136986 0.0136986
European ||| NNP ||| 0.977528 0.011236 0.011236 0.977528 0.011236 0.011236
Exchange Commission ||| NNP NNP ||| 0.818182 0.0909091 0.0909091 0.818182 0.0909091 0.0909091
Exchange and ||| NNP CC ||| 0.6 0.2 0.2 0.6 0.2 0.2
Exchange index ||| NNP NN ||| 0.714286 0.142857 0.142857 0.714286 0.142857 0.142857
Exchange ||| NNP ||| 0.960784 0.0196078 0.0196078 0.960784 0.0196078 0.0196078
Export ||| NN ||| 0.6 0.2 0.2 0.6 0.2 0.2
Export ||| NNP ||| 0.777778 0.111111 0.111111 0.777778 0.111111 0.111111
Exports ||| NNS ||| 0.714286 0.142857 0.142857 0.714286 0.142857 0.142857
FBI ||| NNP ||| 0.714286 0.142857 0.142857 0.714286 0.142857 0.142857
