\data\
ngram 1=49
ngram 2=1155
ngram 3=9552

\1-grams:
-2.9081326	<unk>	0
0	<s>	-2.3207648
-1.572243	</s>	0
-2.7776816	-X-	-0.3829863
-1.4613144	NNP	-1.0087473
-1.5320355	VBZ	-0.74171454
-1.4723301	JJ	-0.92887866
-1.495237	NN	-1.0108092
-1.5320355	TO	-0.78481007
-1.5865176	VB	-0.71759945
-1.5865176	.	-1.0621475
-1.4723301	CD	-0.97563136
-1.495237	DT	-0.8418292
-1.5194197	VBD	-0.87261033
-1.4836326	IN	-0.96187806
-1.5584227	PRP	-0.75525934
-1.4836326	NNS	-0.9685056
-1.5865176	VBP	-0.7034578
-1.6323926	MD	-0.6235264
-1.5194197	VBN	-0.8468369
-2.0657604	POS	-0.33788306
-1.6488283	JJR	-0.67265683
-1.5584227	"	-0.67057294
-1.495237	RB	-0.915903
-1.5450287	,	-0.8408242
-1.7854983	FW	-0.41489312
-1.5584227	CC	-0.7777821
-1.9510814	WDT	-0.44869608
-1.5584227	(	-0.6613492
-1.6836922	)	-0.5546137
-1.6659105	:	-0.61738634
-1.6323926	PRP$	-0.72663295
-1.8090724	RBR	-0.5551015
-1.5865176	VBG	-0.8521532
-1.9860477	EX	-0.56105053
-1.7022332	WP	-0.5812817
-1.7631383	WRB	-0.60102075
-1.6836922	$	-0.886335
-1.7854983	RP	-0.5931778
-1.6323926	NNPS	-0.5734612
-1.8339999	SYM	-0.45453495
-2.1118724	RBS	-0.39037904
-2.1634686	UH	-0.356807
-2.0240777	PDT	-0.7651705
-2.0240777	''	-0.32218403
-2.4685118	LS	-0.25031897
-1.7854983	JJS	-0.4811297
-2.369992	WP$	-0.2827745
-2.7776816	NN|SYM	-0.3829863

\2-grams:
-0.22397247	-X- </s>	0
-1.440832	NNP </s>	0
-1.887117	VBZ </s>	0
-1.5423254	JJ </s>	0
-1.5554132	NN </s>	0
-2.1598508	TO </s>	0
-1.7764081	VB </s>	0
-0.30124933	. </s>	0
-1.2625071	CD </s>	0
-1.9032029	DT </s>	0
-1.8506045	VBD </s>	0
-1.7787882	IN </s>	0
-2.097628	PRP </s>	0
-1.4979571	NNS </s>	0
-2.1014779	VBP </s>	0
-1.9904511	VBN </s>	0
-1.6023844	POS </s>	0
-1.9689369	JJR </s>	0
-2.0303473	" </s>	0
-1.888608	RB </s>	0
-1.6055704	, </s>	0
-1.6704599	FW </s>	0
-1.7520614	CC </s>	0
-1.9988916	( </s>	0
-1.0930498	) </s>	0
-1.0924186	: </s>	0
-2.2539728	VBG </s>	0
-1.8685994	WP </s>	0
-1.5687643	NNPS </s>	0
-1.0864109	SYM </s>	0
-1.1866462	'' </s>	0
-1.208377	<s> -X-	-2.773871
-0.43477088	<s> NNP	-2.117655
-1.2712945	NNP NNP	-2.3046196
-1.179767	VBZ NNP	-0.6444997
-1.2068458	JJ NNP	-1.3115073
-1.3652239	NN NNP	-1.3606806
-1.0296359	TO NNP	-1.0291057
-1.2771294	VB NNP	-1.1899457
-1.2273128	CD NNP	-1.6683961
-1.1859875	DT NNP	-1.6420656
-1.2501603	VBD NNP	-1.1938378
-1.2057276	IN NNP	-1.9145598
-2.0289202	PRP NNP	-0.27397376
-1.4212456	NNS NNP	-0.7382591
-1.5804205	VBP NNP	-0.44759136
-1.3577137	MD NNP	-0.25524378
-1.1639816	VBN NNP	-0.7061866
-1.1759634	POS NNP	-1.0491357
-1.4406481	JJR NNP	-0.2957694
-1.1086328	" NNP	-1.0995185
-1.4996629	RB NNP	-0.44883713
-1.2328116	, NNP	-1.6165669
-0.76723707	FW NNP	-0.73725295
-1.2327545	CC NNP	-1.2251424
-1.2440224	WDT NNP	-0.44871065
-0.8581283	( NNP	-1.9604285
-1.197005	) NNP	-1.2382596
-1.1105257	: NNP	-1.4939126
-1.1085566	PRP$ NNP	-0.6092939
-1.7357693	RBR NNP	-0.25524378
-1.257023	VBG NNP	-0.7411579
-1.6179329	WP NNP	-0.25524378
-0.9173369	WRB NNP	-0.59924936
-1.5948383	$ NNP	-0.25524378
-1.1998138	RP NNP	-0.4768765
-1.1518552	NNPS NNP	-0.6427969
-0.8199881	SYM NNP	-1.0807428
-0.9770632	UH NNP	-0.27885333
-1.1625578	'' NNP	-0.27397376
-1.2267853	JJS NNP	-0.26450783
-1.1156284	WP$ NNP	-0.25524378
-3.3455365	<s> VBZ	-0.25524378
-1.437792	NNP VBZ	-1.1594977
-1.8716303	VBZ VBZ	-0.2799149
-1.5673479	JJ VBZ	-0.40355226
-1.4697744	NN VBZ	-1.2099317
-1.9724661	TO VBZ	-0.25524378
-2.0693347	VB VBZ	-0.25524378
-1.5766983	CD VBZ	-0.47478908
-1.5891012	DT VBZ	-0.63069135
-2.2713103	VBD VBZ	-0.25524378
-1.822171	IN VBZ	-0.27738374
-1.1127512	PRP VBZ	-1.0671643
-1.6685637	NNS VBZ	-0.5099517
-1.4662595	VBP VBZ	-0.32567236
-1.7994788	MD VBZ	-0.25524378
-1.8756042	VBN VBZ	-0.27583104
-1.468557	POS VBZ	-0.26317224
-1.947176	JJR VBZ	-0.25524378
-1.4729266	" VBZ	-0.26638457
-1.4502453	RB VBZ	-0.5084102
-1.5201944	, VBZ	-0.80836487
-1.6506023	FW VBZ	-0.25524378
-1.4771721	CC VBZ	-0.70332986
-0.9645779	WDT VBZ	-0.7316982
-1.9070978	( VBZ	-0.28365064
-1.7715371	) VBZ	-0.32567236
-1.7148407	: VBZ	-0.25524378
-2.2264123	VBG VBZ	-0.25524378
-0.65787655	EX VBZ	-0.7479987
-0.9977553	WP VBZ	-0.7238675
-1.9029615	RP VBZ	-0.25524378
-1.8929191	NNPS VBZ	-0.27397376
-1.6150289	SYM VBZ	-0.28365064
-1.6643631	JJS VBZ	-0.25524378
-1.2890322	<s> JJ	-1.3060051
-1.4327719	NNP JJ	-1.1247665
-1.1807992	VBZ JJ	-0.9200606
-1.2352048	JJ JJ	-1.5315709
-1.4463867	NN JJ	-1.0463039
-1.1713432	TO JJ	-0.9350415
-1.451465	VB JJ	-1.106737
-1.2421159	CD JJ	-1.1620691
-1.1083137	DT JJ	-1.8987502
-1.2701728	VBD JJ	-1.1118267
-1.2473559	IN JJ	-1.6132798
-1.4589477	PRP JJ	-0.34816924
-1.4649161	NNS JJ	-0.75536096
-1.1502815	VBP JJ	-0.787974
-1.3574822	VBN JJ	-0.9233014
-1.0891615	POS JJ	-1.2581
-1.2731826	JJR JJ	-0.39565083
-1.1344564	" JJ	-0.6766101
-1.2695045	RB JJ	-1.0866648
-1.4458371	, JJ	-1.0259106
-1.6194	FW JJ	-0.25524378
-1.3352678	CC JJ	-1.1879541
-1.2463759	WDT JJ	-0.6804493
-1.0533228	( JJ	-0.8683399
-1.3571788	) JJ	-0.6324447
-1.1418208	: JJ	-0.8068038
-0.72392493	PRP$ JJ	-1.3661697
-0.87268627	RBR JJ	-0.44487244
-1.1703355	VBG JJ	-0.9421637
-1.8139011	WP JJ	-0.25524378
-1.073733	WRB JJ	-0.50626
-1.4650557	$ JJ	-0.39435297
-1.2013366	RP JJ	-0.5146454
-1.8553599	NNPS JJ	-0.26638457
-1.0737109	SYM JJ	-0.2799149
-0.48855746	RBS JJ	-0.543377
-1.2685214	UH JJ	-0.25524378
-1.3492051	JJS JJ	-0.54812384
-0.99448663	WP$ JJ	-0.25524378
-1.1381704	<s> NN	-1.4267384
-1.2985938	NNP NN	-1.4920038
-1.2310848	VBZ NN	-0.74207264
-1.1583204	JJ NN	-2.0067725
-1.3677826	NN NN	-1.7363302
-1.202006	TO NN	-0.7204722
-1.28124	VB NN	-1.066822
-1.1893849	CD NN	-1.3507483
-1.0430441	DT NN	-2.0233214
-1.2344763	VBD NN	-0.99898213
-1.2785428	IN NN	-1.5576279
-1.5749478	PRP NN	-0.31311223
-1.4244567	NNS NN	-0.8042549
-1.2112848	VBP NN	-0.43529528
-1.6927261	MD NN	-0.25524378
-1.2631401	VBN NN	-0.8296543
-1.0934238	POS NN	-1.1461864
-0.8057872	JJR NN	-0.729697
-1.1117369	" NN	-0.61750203
-1.4464016	RB NN	-0.56156945
-1.3656027	, NN	-0.97205573
-0.94574994	FW NN	-0.27738374
-1.3101562	CC NN	-0.9846533
-1.3690051	WDT NN	-0.25524378
-1.0551813	( NN	-0.98409504
-1.1595197	) NN	-0.53667474
-1.2504293	: NN	-0.64132136
-0.74482447	PRP$ NN	-1.2471799
-1.6696169	RBR NN	-0.28365064
-1.0987686	VBG NN	-1.012631
-1.4617693	WP NN	-0.25524378
-1.3225046	WRB NN	-0.36784995
-1.1486987	RP NN	-0.46287137
-1.4647528	NNPS NN	-0.2894964
-0.9980575	SYM NN	-0.6921596
-0.99429995	JJS NN	-0.7201667
-0.99837613	WP$ NN	-0.34501418
-2.4192529	<s> TO	-1.0189251
-1.4560671	NNP TO	-1.2488449
-1.4250778	VBZ TO	-0.93958116
-1.3929254	JJ TO	-1.1541713
-1.3854247	NN TO	-1.4900331
-1.5076281	VB TO	-1.0530909
-1.467511	CD TO	-0.9554543
-1.8904008	DT TO	-0.2886687
-1.2748945	VBD TO	-1.2746074
-1.5808017	IN TO	-0.74484414
-1.5217844	PRP TO	-0.84031963
-1.370062	NNS TO	-1.2634472
-1.3226634	VBP TO	-1.0061246
-1.5607557	MD TO	-0.31247252
-1.2884979	VBN TO	-1.228202
-1.6503193	POS TO	-0.25524378
-1.8710353	JJR TO	-0.25524378
-1.7847469	" TO	-0.5439412
-1.3318712	RB TO	-0.92254955
-1.6954893	, TO	-0.64001083
-1.6506023	FW TO	-0.25524378
-1.674251	CC TO	-0.78351855
-1.7383369	WDT TO	-0.25524378
-1.9070978	( TO	-0.5404811
-1.631266	) TO	-0.4835237
-1.8507509	: TO	-0.25524378
-1.9779544	PRP$ TO	-0.25524378
-1.5469716	RBR TO	-0.2712481
-1.2389119	VBG TO	-1.1092848
-1.7694567	WP TO	-0.31247252
-1.7063252	WRB TO	-0.53432125
-1.2736784	RP TO	-0.60252064
-1.2894238	NNPS TO	-0.5687529
-1.6643631	JJS TO	-0.43741125
-1.9966425	<s> VB	-1.0192019
-1.779772	NNP VB	-0.3077179
-1.8924044	VBZ VB	-0.2886687
-2.1219487	JJ VB	-0.28722906
-1.7205765	NN VB	-0.34231517
-0.88347274	TO VB	-1.5862229
-1.6291498	VB VB	-0.3094286
-1.959177	CD VB	-0.31741783
-1.6967156	DT VB	-0.35619515
-1.8541937	VBD VB	-0.2621732
-1.960558	IN VB	-0.25524378
-1.3091389	PRP VB	-0.35720766
-1.8535327	NNS VB	-0.40736383
-2.1109831	VBP VB	-0.25524378
-0.425789	MD VB	-1.3663961
-1.9957167	VBN VB	-0.25524378
-1.9764397	JJR VB	-0.25524378
-1.4291333	" VB	-0.37982622
-1.403563	RB VB	-1.0284724
-1.7656083	, VB	-0.28183645
-1.347659	CC VB	-0.7205374
-1.8148048	( VB	-0.2886687
-1.3792069	) VB	-1.5307426
-1.5404683	: VB	-0.8482876
-1.7053062	RBR VB	-0.25524378
-2.2058382	VBG VB	-0.4347967
-1.6609025	WP VB	-0.28592443
-1.8260411	NNPS VB	-0.25524378
-1.2970545	UH VB	-0.25524378
-1.6879258	JJS VB	-0.25524378
-3.4397073	<s> .	-0.30071327
-1.4241518	NNP .	-2.733253
-1.5750453	VBZ .	-1.0788645
-1.3770751	JJ .	-1.7943927
-1.3738122	NN .	-2.668711
-1.3894541	VB .	-1.4981091
-1.3646917	CD .	-2.2245173
-1.9075555	DT .	-0.76477015
-1.446982	VBD .	-2.3088381
-1.7812619	IN .	-0.7104125
-1.4281703	PRP .	-1.3051733
-1.3067424	NNS .	-2.451276
-1.6968226	VBP .	-0.80586326
-1.822639	MD .	-0.25524378
-1.3165364	VBN .	-1.7246529
-1.6093538	POS .	-0.4468413
-1.2868853	JJR .	-0.69538295
-1.4291333	" .	-1.2138969
-1.403563	RB .	-1.6524158
-1.4497455	FW .	-0.31247252
-2.2144372	CC .	-0.25524378
-1.2622797	) .	-1.8656447
-1.373231	RBR .	-0.73677564
-1.5794275	VBG .	-1.1471051
-1.8507017	WRB .	-0.28365064
-1.1582618	RP .	-0.9322613
-1.2491319	NNPS .	-1.3581408
-0.99303746	UH .	-0.6135025
-0.7400116	LS .	-0.6135025
-1.7713723	JJS .	-0.28365064
-1.1330347	<s> CD	-1.5493834
-1.3522657	NNP CD	-1.9784338
-1.3443027	VBZ CD	-0.78681445
-1.3676792	JJ CD	-1.1761928
-1.4290923	NN CD	-1.3967434
-1.2000451	TO CD	-1.0479603
-1.3396803	VB CD	-0.9952639
-1.2279847	CD CD	-2.323377
-1.1536955	DT CD	-1.1322693
-1.3111274	VBD CD	-1.1981443
-1.2769864	IN CD	-1.5007845
-1.7196144	PRP CD	-0.3187764
-1.5651716	NNS CD	-0.9524509
-1.5147027	VBP CD	-0.55605775
-1.2401104	VBN CD	-0.81575894
-1.2912638	POS CD	-0.8012192
-1.5614736	JJR CD	-0.35193777
-1.4101454	" CD	-0.45249754
-1.3069766	RB CD	-1.0579937
-1.4773366	, CD	-1.074074
-1.1178426	FW CD	-0.42933786
-1.257054	CC CD	-0.9691541
-1.522319	WDT CD	-0.27885333
-0.93175024	( CD	-1.4497399
-1.1180785	) CD	-1.6841601
-1.1418208	: CD	-1.0360051
-1.1600593	PRP$ CD	-0.55606353
-1.3094712	VBG CD	-0.9285515
-1.8139011	WP CD	-0.25524378
-1.5252028	WRB CD	-0.26638457
-0.0954403	$ CD	-1.1045458
-1.1460047	RP CD	-0.5156088
-1.2797568	NNPS CD	-0.762882
-1.0737109	SYM CD	-0.38563317
-1.2685214	UH CD	-0.25524378
-1.1651692	'' CD	-0.25524378
-1.2288839	JJS CD	-0.52811956
-1.1181948	WP$ CD	-0.25524378
-0.22189163	NN|SYM CD	-0.27397376
-1.0759084	<s> DT	-1.6129069
-1.5813489	NNP DT	-0.9260216
-1.1000313	VBZ DT	-1.1063339
-1.5057026	JJ DT	-0.75327736
-1.5704426	NN DT	-1.0914061
-0.9750695	TO DT	-1.2784781
-1.2534333	VB DT	-1.4200284
-1.8120706	CD DT	-0.73721915
-1.5828428	DT DT	-0.3836761
-1.1998918	VBD DT	-1.63074
-1.2077099	IN DT	-2.130836
-1.5749478	PRP DT	-0.5518663
-1.5681528	NNS DT	-0.8226038
-1.1005378	VBP DT	-0.8551762
-1.2217925	VBN DT	-1.200484
-1.9264536	JJR DT	-0.28365064
-1.221317	" DT	-1.1211773
-1.3289415	RB DT	-1.0192019
-1.2957563	, DT	-1.4645108
-1.6316134	FW DT	-0.25524378
-1.1927503	CC DT	-1.2366868
-1.5313212	WDT DT	-0.4707405
-1.132047	( DT	-0.40892085
-1.6180124	) DT	-0.37989452
-1.4503446	: DT	-0.72185737
-1.8809496	PRP$ DT	-0.25524378
-0.78666055	RBR DT	-1.2977493
-1.1719031	VBG DT	-1.315576
-1.1683475	WP DT	-0.34986296
-0.83094966	WRB DT	-1.0423197
-1.2043979	RP DT	-0.88530666
-1.8699962	NNPS DT	-0.26921502
-1.4713197	SYM DT	-0.34210595
-1.2606696	RBS DT	-0.25524378
-0.10516658	PDT DT	-0.66541976
-1.2852515	'' DT	-0.25524378
-1.7228379	JJS DT	-0.25524378
-2.4614973	<s> VBD	-0.589044
-1.313294	NNP VBD	-1.6734362
-1.7684212	VBZ VBD	-0.40622595
-1.5085502	JJ VBD	-0.5298505
-1.4001123	NN VBD	-1.5217192
-1.5563009	VB VBD	-0.26921502
-1.4911096	CD VBD	-0.51011944
-1.5081277	DT VBD	-0.5166205
-1.7121755	VBD VBD	-0.27972323
-1.7690319	IN VBD	-0.27361447
-0.9964704	PRP VBD	-1.5148342
-1.318349	NNS VBD	-1.3849151
-1.4110208	VBP VBD	-0.34958968
-1.5676105	VBN VBD	-0.43455094
-1.5755749	POS VBD	-0.26921502
-1.4518099	JJR VBD	-0.25524378
-1.6796321	" VBD	-1.1087061
-1.3308923	RB VBD	-0.9821859
-1.3681278	, VBD	-1.2931064
-1.4298373	FW VBD	-0.26638457
-1.1745187	CC VBD	-1.1527352
-0.9633463	WDT VBD	-0.79821575
-1.9673461	( VBD	-0.25524378
-1.4374845	) VBD	-0.5690558
-1.6077849	: VBD	-0.26317224
-1.9712987	PRP$ VBD	-0.25524378
-1.6795181	RBR VBD	-0.25524378
-2.0743103	VBG VBD	-0.27397376
-0.65740687	EX VBD	-0.677871
-0.77621365	WP VBD	-1.015025
-1.7015595	WRB VBD	-0.26921502
-1.8953551	RP VBD	-0.25524378
-1.2874732	NNPS VBD	-0.67336416
-0.96267325	RBS VBD	-0.25524378
-1.5328261	JJS VBD	-0.25524378
-1.4423641	<s> IN	-1.2857552
-1.3530958	NNP IN	-1.7284372
-1.159648	VBZ IN	-0.9868864
-1.2655458	JJ IN	-1.279057
-1.2990524	NN IN	-2.1281688
-1.5456992	TO IN	-0.5047649
-1.0599865	VB IN	-1.2473346
-1.242811	CD IN	-1.4269338
-1.3536264	DT IN	-0.74667776
-1.1671178	VBD IN	-1.5333126
-1.362277	IN IN	-1.1189631
-1.2985014	PRP IN	-0.7714164
-1.2565552	NNS IN	-1.8193463
-1.179713	VBP IN	-0.77244776
-1.6883388	MD IN	-0.25524378
-1.1164536	VBN IN	-1.6665477
-1.5565008	POS IN	-0.27397376
-0.7820003	JJR IN	-0.8694758
-1.2522154	" IN	-0.8461124
-1.2703542	RB IN	-1.2985973
-1.2163763	, IN	-1.0410994
-1.5462995	FW IN	-0.25524378
-1.3662724	CC IN	-0.6595353
-1.5267967	WDT IN	-0.30071327
-1.0909036	( IN	-0.89281905
-1.3595718	) IN	-1.015605
-1.2106388	: IN	-0.38878337
-1.8756181	PRP$ IN	-0.25524378
-0.7860201	RBR IN	-0.49954802
-1.1711186	VBG IN	-1.1180856
-1.5443147	EX IN	-0.25524378
-1.8203733	WP IN	-0.25524378
-1.4121338	WRB IN	-0.26638457
-1.5986989	$ IN	-0.43741125
-1.0539314	RP IN	-0.89877784
-1.0282648	NNPS IN	-0.69880545
-1.5937917	SYM IN	-0.25524378
-0.69549423	JJS IN	-0.74604595
-1.4135716	<s> PRP	-1.6161183
-1.8611679	NNP PRP	-0.8728262
-1.4287204	VBZ PRP	-0.50018924
-1.7160646	JJ PRP	-0.5082964
-1.5540975	NN PRP	-0.91603714
-1.4959095	TO PRP	-0.3896162
-1.465966	VB PRP	-0.7744938
-2.1318932	CD PRP	-0.35974345
-2.1268694	DT PRP	-0.26921502
-1.3644426	VBD PRP	-1.0098202
-1.3317305	IN PRP	-1.2518747
-2.0894346	PRP PRP	-0.25524378
-1.6376864	NNS PRP	-0.66077346
-1.4168122	VBP PRP	-0.58997214
-1.7153537	MD PRP	-0.26921502
-1.5313711	VBN PRP	-0.49478698
-1.6660413	POS PRP	-0.28365064
-1.5379499	" PRP	-1.5358888
-1.617262	RB PRP	-0.7501515
-1.3011489	, PRP	-1.221519
-1.2414159	CC PRP	-1.2434188
-1.1682464	WDT PRP	-0.70433813
-1.9205468	( PRP	-0.25524378
-1.9397196	) PRP	-0.25524378
-1.7243563	: PRP	-0.32874197
-1.7839447	RBR PRP	-0.25524378
-1.484741	VBG PRP	-0.5990111
-0.87485254	WP PRP	-0.85654056
-0.78334665	WRB PRP	-1.075811
-1.908902	NNPS PRP	-0.25524378
-1.3028721	'' PRP	-0.25524378
-1.7569431	JJS PRP	-0.25524378
-1.2638597	<s> NNS	-1.3389484
-1.3996828	NNP NNS	-1.0986787
-1.4589646	VBZ NNS	-0.40765962
-1.1950634	JJ NNS	-1.5673511
-1.3384926	NN NNS	-1.3957611
-1.2649891	TO NNS	-0.6010057
-1.2798655	VB NNS	-0.7993016
-1.2016633	CD NNS	-1.5511916
-1.1544671	DT NNS	-1.2986478
-1.4081236	VBD NNS	-0.86987054
-1.3264754	IN NNS	-1.2283274
-1.5724723	PRP NNS	-0.27885333
-1.4891398	NNS NNS	-0.60970783
-1.5171443	VBP NNS	-0.4834113
-1.2621605	VBN NNS	-0.74729204
-1.4486974	POS NNS	-0.8764399
-0.94511163	JJR NNS	-0.6311658
-1.3248881	" NNS	-0.4067752
-1.4728936	RB NNS	-0.3945156
-1.4178863	, NNS	-1.0330232
-1.6254637	FW NNS	-0.25524378
-1.3088771	CC NNS	-0.827568
-1.5267967	WDT NNS	-0.35656494
-1.1309371	( NNS	-0.5369916
-1.613683	) NNS	-0.4633203
-1.2906777	: NNS	-0.5322269
-0.8899485	PRP$ NNS	-0.9369499
-1.7473215	RBR NNS	-0.25524378
-1.1516827	VBG NNS	-0.8629693
-1.7468578	WP NNS	-0.29744297
-1.244921	WRB NNS	-0.43574566
-1.2665305	RP NNS	-0.52509815
-1.8626164	NNPS NNS	-0.25524378
-1.4674288	SYM NNS	-0.8296657
-1.2578892	RBS NNS	-0.25524378
-1.2818116	'' NNS	-0.25524378
-0.99307597	JJS NNS	-0.4529046
-0.81685346	WP$ NNS	-0.2829162
-3.5347743	<s> VBP	-0.26921502
-1.6455147	NNP VBP	-0.7120975
-2.1728199	VBZ VBP	-0.25524378
-1.7666981	JJ VBP	-0.27011886
-1.7550838	NN VBP	-0.66635853
-1.7280006	TO VBP	-0.27781868
-2.1045294	VB VBP	-0.25524378
-1.6891946	CD VBP	-0.47004485
-1.64433	DT VBP	-0.4891048
-2.357493	IN VBP	-0.25524378
-1.0540847	PRP VBP	-1.1008658
-1.3390107	NNS VBP	-1.1007115
-2.1109831	VBP VBP	-0.25524378
-2.2770815	VBN VBP	-0.25524378
-1.9444047	" VBP	-0.25524378
-1.4838777	RB VBP	-0.4512607
-1.7063878	, VBP	-0.522274
-1.6264776	CC VBP	-0.33638
-1.172207	WDT VBP	-0.40626407
-1.9344256	( VBP	-0.28365064
-1.7970573	) VBP	-0.26764026
-1.9751028	: VBP	-0.25524378
-1.7968725	RBR VBP	-0.25524378
-2.2635627	VBG VBP	-0.345221
-0.9248293	EX VBP	-0.43240196
-1.1113278	WP VBP	-0.55396
-1.9347936	RP VBP	-0.25524378
-1.2491319	NNPS VBP	-0.40971276
-1.637358	SYM VBP	-0.25524378
-1.3101255	'' VBP	-0.25524378
-3.8146129	<s> MD	-0.25524378
-1.5956354	NNP MD	-1.6710418
-2.148012	VBZ MD	-0.28365064
-2.038204	JJ MD	-0.4688879
-1.6092427	NN MD	-1.5904818
-1.8992872	VB MD	-0.37989452
-1.7853503	CD MD	-0.73677564
-1.7656622	DT MD	-0.8321922
-2.0550027	VBD MD	-0.6135025
-2.4390774	IN MD	-0.25524378
-1.0761714	PRP MD	-1.6249888
-1.4353356	NNS MD	-1.6490543
-1.9723885	VBP MD	-0.2886687
-1.7392253	MD MD	-0.25524378
-1.7080324	POS MD	-0.25524378
-1.6244804	" MD	-0.5048332
-1.66974	RB MD	-0.73582673
-1.4973285	, MD	-1.2511142
-1.5810454	CC MD	-0.9258319
-1.1782165	WDT MD	-1.1399639
-1.8172324	) MD	-0.36784995
-2.0016012	: MD	-0.29744297
-2.2320843	VBG MD	-0.25524378
-0.9274439	EX MD	-0.6804493
-1.1151674	WP MD	-0.6891715
-1.871224	WRB MD	-0.31247252
-1.8467042	NNPS MD	-0.43741125
-2.2199087	<s> VBN	-0.6508162
-1.6981809	NNP VBN	-0.44930226
-1.1413623	VBZ VBN	-1.2064458
-1.5657154	JJ VBN	-0.465468
-1.5501742	NN VBN	-1.0720513
-2.06696	TO VBN	-0.25524378
-1.4596919	VB VBN	-1.0365158
-1.7208072	CD VBN	-0.45505083
-1.4413981	DT VBN	-0.7599969
-1.2941192	VBD VBN	-1.444629
-1.4476111	IN VBN	-0.5962964
-1.5195935	PRP VBN	-0.3094286
-1.4696591	NNS VBN	-1.0034583
-1.1276836	VBP VBN	-1.010145
-1.5259494	VBN VBN	-1.0623888
-1.4635063	POS VBN	-0.442131
-1.7425038	JJR VBN	-0.26921502
-1.3719956	" VBN	-0.27842197
-1.3106936	RB VBN	-1.0668974
-1.451937	, VBN	-0.93395245
-1.5618403	FW VBN	-0.25524378
-1.4375482	CC VBN	-0.59558165
-1.6591172	WDT VBN	-0.27397376
-1.2841955	( VBN	-0.7032684
-1.8590878	) VBN	-0.25524378
-1.6077849	: VBN	-0.26921502
-1.9712987	PRP$ VBN	-0.25524378
-1.6795181	RBR VBN	-0.3794193
-1.4057012	VBG VBN	-0.68252736
-1.7636957	WP VBN	-0.27397376
-1.5380213	WRB VBN	-0.36784995
-1.8276817	RP VBN	-0.25524378
-1.8851429	NNPS VBN	-0.27781868
-1.6906995	SYM VBN	-0.30071327
-1.7361603	JJS VBN	-0.25524378
-1.4441786	NNP POS	-1.4708241
-2.443691	JJ POS	-0.26921502
-1.7609435	NN POS	-1.3786122
-2.6030393	CD POS	-0.25524378
-2.692161	IN POS	-0.25524378
-2.419303	PRP POS	-0.25524378
-1.5255369	NNS POS	-1.1343626
-2.549808	VBN POS	-0.25524378
-1.4688853	NNPS POS	-0.44077724
-1.3902206	'' POS	-0.26921502
-2.6295283	<s> JJR	-0.45881516
-2.461088	NNP JJR	-0.25524378
-1.8059875	VBZ JJR	-0.32567236
-2.0430675	JJ JJR	-0.28309968
-2.0697079	NN JJR	-0.5839462
-1.8592397	TO JJR	-0.30071327
-1.9050384	VB JJR	-0.492369
-1.7877834	CD JJR	-0.47353423
-1.4242715	DT JJR	-0.6754909
-1.6347537	VBD JJR	-0.67257994
-1.6622087	IN JJR	-0.75155437
-2.1410882	PRP JJR	-0.25524378
-1.9954635	NNS JJR	-0.3963735
-1.7118936	VBP JJR	-0.27397376
-1.9089967	VBN JJR	-0.29279667
-2.1355653	" JJR	-0.25524378
-1.6718785	RB JJR	-0.5315287
-2.1784644	, JJR	-0.26921502
-1.7057171	FW JJR	-0.25524378
-1.5834424	CC JJR	-0.45224735
-1.963589	( JJR	-0.6135025
-1.9982522	) JJR	-0.25524378
-1.8019087	PRP$ JJR	-0.25524378
-1.6427479	VBG JJR	-0.33218876
-1.878286	WRB JJR	-0.25524378
-1.9691446	RP JJR	-0.25524378
-1.3825486	<s> "	-1.3160238
-1.9682178	NNP "	-0.42117837
-1.8818932	VBZ "	-0.26317224
-1.5706314	JJ "	-0.3668015
-1.6278487	NN "	-0.6630003
-1.632619	TO "	-0.27206397
-1.8716207	VB "	-0.30392233
-0.4038876	. "	-2.403553
-2.3943057	CD "	-0.27397376
-1.5933242	DT "	-0.7333538
-1.7789178	VBD "	-0.3621596
-1.6161945	IN "	-0.6048506
-1.8512372	PRP "	-0.2829162
-1.7100216	NNS "	-0.38668263
-2.092176	VBP "	-0.25524378
-1.5673132	MD "	-0.25524378
-1.6727498	VBN "	-0.2607785
-1.478838	POS "	-0.29279667
-2.0742817	" "	-0.25524378
-1.7576232	RB "	-0.2799149
-1.1869271	, "	-1.4682167
-2.0592608	CC "	-0.27885333
-1.5546784	WDT "	-0.25524378
-1.9907877	( "	-0.25524378
-1.9397196	) "	-0.25524378
-1.2585816	: "	-0.58987725
-1.9086355	PRP$ "	-0.26921502
-1.484741	VBG "	-0.34914953
-1.9117101	WRB "	-0.25524378
-1.8474828	RP "	-0.25524378
-1.8127925	NNPS "	-0.25524378
-1.3028721	'' "	-0.25524378
-1.8685373	<s> RB	-0.89774376
-1.4529189	NNP RB	-0.83980453
-1.1606333	VBZ RB	-1.0461161
-1.4324279	JJ RB	-0.47353882
-1.4484419	NN RB	-0.97297907
-1.341382	TO RB	-0.5153704
-1.5007273	VB RB	-0.7514349
-1.4407179	CD RB	-0.86673206
-1.4384174	DT RB	-0.74646616
-1.2528595	VBD RB	-1.2484635
-1.3449148	IN RB	-0.7165475
-1.1564701	PRP RB	-0.80062354
-1.4244567	NNS RB	-0.79934555
-1.1808403	VBP RB	-0.99068004
-0.647659	MD RB	-1.355774
-1.4178298	VBN RB	-0.8321944
-1.2980717	POS RB	-0.26921502
-1.4473107	JJR RB	-0.26450783
-1.3682305	" RB	-0.3602024
-1.289611	RB RB	-0.8556479
-1.2957563	, RB	-0.887046
-1.2359823	CC RB	-0.70336115
-1.5313212	WDT RB	-0.47353423
-1.7788582	( RB	-0.27397376
-1.6180124	) RB	-0.7027687
-1.6004907	: RB	-0.25524378
-1.3644391	PRP$ RB	-0.28722906
-1.3562521	RBR RB	-0.26638457
-1.2849952	VBG RB	-0.6897902
-1.5479479	EX RB	-0.25524378
-1.4617693	WP RB	-0.5261377
-1.8062814	WRB RB	-0.28365064
-1.4339281	RP RB	-0.27532372
-1.8699962	NNPS RB	-0.25524378
-1.5990045	SYM RB	-0.69538295
-1.1378641	RBS RB	-0.25524378
-1.647494	JJS RB	-0.27397376
-3.0576284	<s> ,	-0.29279667
-1.3572702	NNP ,	-1.6967443
-1.6265917	VBZ ,	-0.3171923
-1.3017012	JJ ,	-0.9285656
-1.3425093	NN ,	-1.5817775
-1.9782975	TO ,	-0.25524378
-1.286782	VB ,	-0.50947577
-1.3256426	CD ,	-1.2365898
-1.8146473	DT ,	-0.35314235
-1.578146	VBD ,	-0.93760467
-1.6145015	IN ,	-0.8567865
-1.3051193	PRP ,	-0.6065871
-1.3042915	NNS ,	-1.3088297
-1.4684427	VBP ,	-0.3567099
-1.7107328	MD ,	-0.29744297
-1.2895389	VBN ,	-0.8509977
-1.5887729	POS ,	-0.25524378
-1.0620313	JJR ,	-0.35314235
-1.4753186	" ,	-0.30417886
-1.2931817	RB ,	-0.860993
-1.4376915	FW ,	-0.25524378
-1.8254192	CC ,	-0.28309968
-1.5499054	WDT ,	-0.25524378
-1.3717394	) ,	-0.99966305
-0.9881474	RBR ,	-0.31804535
-1.4831303	VBG ,	-0.3314263
-1.775295	WP ,	-0.25524378
-1.2105863	RP ,	-0.659615
-1.1261468	NNPS ,	-0.47931367
-1.2719725	RBS ,	-0.25524378
-0.6269194	UH ,	-0.2621732
-0.79409295	'' ,	-0.2886687
-1.5413806	JJS ,	-0.25524378
-2.7578585	<s> FW	-0.5024861
-1.7286531	NNP FW	-1.028191
-2.301825	VBZ FW	-0.25524378
-2.191791	JJ FW	-0.2829162
-2.4478822	NN FW	-0.5439412
-2.2867246	VB FW	-0.25524378
-2.3668938	CD FW	-0.27397376
-2.412404	DT FW	-0.25524378
-2.5402586	IN FW	-0.25524378
-2.3816376	NNS FW	-0.25524378
-2.1561167	VBP FW	-0.25524378
-2.148329	" FW	-0.25524378
-2.0829022	, FW	-0.25524378
-1.497048	FW FW	-0.25524378
-2.277559	CC FW	-0.25524378
-2.0013103	) FW	-0.39435297
-1.95992	: FW	-0.25524378
-2.1055171	NNPS FW	-0.27397376
-1.8090967	SYM FW	-0.25524378
-1.9637067	<s> CC	-0.9003612
-1.3732675	NNP CC	-1.3209563
-1.6984974	VBZ CC	-0.31318405
-1.3372732	JJ CC	-0.929984
-1.4191482	NN CC	-1.3912516
-1.3859359	VB CC	-0.5560484
-1.3628535	CD CC	-0.84116673
-1.8988935	DT CC	-0.28722906
-1.6218992	VBD CC	-0.4652903
-1.6889223	IN CC	-0.42943364
-1.3815736	PRP CC	-0.45097888
-1.371962	NNS CC	-1.2425407
-1.6894788	VBP CC	-0.29049206
-1.8109045	MD CC	-0.25524378
-1.3944983	VBN CC	-0.61381155
-1.6660413	POS CC	-0.25524378
-1.4586473	JJR CC	-0.26450783
-1.4777237	" CC	-0.3771512
-1.3776014	RB CC	-0.51677805
-1.3011489	, CC	-0.967261
-1.5779581	FW CC	-0.25524378
-2.145381	CC CC	-0.28365064
-1.9907877	( CC	-0.25524378
-1.3742143	) CC	-0.4918482
-1.2585816	: CC	-0.27610186
-1.7839447	RBR CC	-0.25524378
-1.4097552	VBG CC	-0.5392896
-1.566584	EX CC	-0.25524378
-1.5659525	RP CC	-0.25524378
-1.4082952	NNPS CC	-0.5690031
-1.6260499	SYM CC	-0.26921502
-1.7569431	JJS CC	-0.25524378
-3.4383886	<s> WDT	-0.29279667
-2.1167204	NNP WDT	-0.399252
-1.754644	NN WDT	-1.032227
-2.3602343	TO WDT	-0.25524378
-2.3796449	VB WDT	-0.27397376
-2.4263217	CD WDT	-0.2829162
-1.774523	IN WDT	-0.57626474
-1.6723897	NNS WDT	-0.8306668
-2.2220237	" WDT	-0.28365064
-1.6010771	, WDT	-0.9784918
-2.223267	CC WDT	-0.2886687
-2.0694969	) WDT	-0.27397376
-2.1525526	: WDT	-0.25524378
-2.0087664	<s> (	-0.96599746
-1.4974105	NNP (	-2.0576978
-2.0142615	VBZ (	-0.27397376
-1.5706314	JJ (	-0.7718563
-1.6278487	NN (	-1.0519934
-2.0891168	TO (	-0.25524378
-1.8716207	VB (	-0.27885333
-1.446239	CD (	-1.3542016
-1.8988935	DT (	-0.45067137
-1.8470448	VBD (	-0.27885333
-2.3391843	IN (	-0.25524378
-1.7445644	PRP (	-0.34986296
-1.6723497	NNS (	-1.0099156
-2.092176	VBP (	-0.25524378
-1.8837147	VBN (	-0.27781868
-1.5955254	POS (	-0.25524378
-1.9615614	JJR (	-0.25524378
-1.9305022	" (	-0.3368453
-2.1963882	RB (	-0.25524378
-2.215683	, (	-0.27397376
-1.2593516	FW (	-0.37989452
-2.145381	CC (	-0.25524378
-1.9907877	( (	-0.25524378
-1.6403319	) (	-0.6187083
-1.6189611	: (	-0.27885333
-1.9915798	PRP$ (	-0.25524378
-2.1891825	VBG (	-0.25524378
-1.566584	EX (	-0.25524378
-1.8613733	WP (	-0.25524378
-1.9117101	WRB (	-0.25524378
-1.6714969	NNPS (	-0.7021426
-1.7569431	JJS (	-0.25524378
-3.7992408	<s> )	-0.25524378
-1.6554015	NNP )	-1.6757487
-2.2384102	VBZ )	-1.1082126
-1.5840197	JJ )	-0.86120886
-1.668986	NN )	-0.8554814
-2.1633258	VB )	-0.34986296
-1.5320146	CD )	-1.3039149
-2.2891142	DT )	-0.25524378
-2.218482	VBD )	-0.28365064
-2.417563	IN )	-0.6496255
-2.226393	PRP )	-0.25524378
-1.7269353	NNS )	-0.7194032
-2.172848	VBP )	-0.25524378
-2.0287259	VBN )	-0.3864069
-1.5225838	POS )	-0.26921502
-2.1580784	" )	-0.25524378
-2.3590927	RB )	-0.25524378
-2.2809396	CC )	-0.25524378
-2.0196579	) )	-0.25524378
-2.260019	VBG )	-0.6804493
-1.9873959	RP )	-0.37533197
-1.7109333	NNPS )	-0.31842276
-1.768519	SYM )	-0.25524378
-0.5492778	LS )	-0.30071327
-1.5937068	<s> :	-1.2363585
-1.5270367	NNP :	-1.3191323
-1.9198527	VBZ :	-0.26317224
-1.6152829	JJ :	-0.5862738
-1.563392	NN :	-1.12646
-1.6447635	VB :	-0.6696172
-1.5306628	CD :	-1.2913892
-2.2787085	DT :	-0.25524378
-2.0666013	VBD :	-0.8363759
-2.4069564	IN :	-0.26638457
-2.1503274	PRP :	-0.25524378
-1.5309657	NNS :	-0.93199176
-1.7157444	VBP :	-0.27583104
-2.023047	VBN :	-0.3963735
-1.7260356	POS :	-0.43741125
-2.016031	JJR :	-0.36784995
-1.7198302	" :	-0.25524378
-1.7221606	RB :	-0.31741783
-1.7131255	FW :	-0.25524378
-1.222495	) :	-1.355347
-1.6462152	: :	-0.78959376
-1.8734388	VBG :	-0.54137766
-1.9781744	RP :	-0.25524378
-1.5916764	NNPS :	-0.28722906
-1.7608393	SYM :	-0.25524378
-2.5135415	<s> PRP$	-0.81822294
-1.8747627	NNP PRP$	-0.45224735
-1.5827993	VBZ PRP$	-0.62182575
-1.9558544	JJ PRP$	-0.37989452
-1.7613897	NN PRP$	-0.6074281
-1.2119453	TO PRP$	-0.8297905
-1.4766284	VB PRP$	-1.2694142
-1.8363739	DT PRP$	-0.34986296
-1.514995	VBD PRP$	-1.2532277
-1.3540944	IN PRP$	-1.6432357
-2.0267303	PRP PRP$	-0.27397376
-2.3995128	NNS PRP$	-0.28365064
-1.5449485	VBP PRP$	-0.65926
-1.5405606	VBN PRP$	-0.8155253
-1.999759	JJR PRP$	-0.25524378
-1.8204069	" PRP$	-0.62480193
-1.8319223	RB PRP$	-0.40491387
-2.033318	, PRP$	-0.74441844
-1.4905493	CC PRP$	-0.78445613
-2.0016012	: PRP$	-0.25524378
-1.8170155	RBR PRP$	-0.25524378
-1.2953035	VBG PRP$	-0.9912348
-1.8987695	WP PRP$	-0.25524378
-1.5648525	WRB PRP$	-0.28722906
-1.3649511	RP PRP$	-0.64313596
-2.013565	NNPS PRP$	-0.25524378
-1.2770722	PDT PRP$	-0.25524378
-3.2222855	<s> RBR	-0.2925465
-2.1828458	NNP RBR	-0.28722906
-1.9614506	VBZ RBR	-0.29744297
-2.4648657	JJ RBR	-0.25524378
-1.8646942	NN RBR	-0.5994323
-2.294707	TO RBR	-0.25524378
-2.115957	VB RBR	-0.26317224
-1.7950306	DT RBR	-0.49278867
-1.8997496	VBD RBR	-0.43214566
-2.0080469	IN RBR	-0.49278867
-2.298874	PRP RBR	-0.25524378
-1.8338476	NNS RBR	-0.29147825
-2.245013	VBP RBR	-0.25524378
-1.9451722	VBN RBR	-0.27637288
-2.2336001	" RBR	-0.25524378
-1.7393445	RB RBR	-0.3864069
-2.2494094	, RBR	-0.27397376
-2.047259	RP RBR	-0.25524378
-1.905363	<s> VBG	-0.89869165
-1.7421213	NNP VBG	-0.5684458
-1.3580716	VBZ VBG	-0.6618133
-1.6791035	JJ VBG	-0.35732096
-1.513467	NN VBG	-0.82033515
-1.5634004	TO VBG	-0.31305054
-1.6291498	VB VBG	-0.5114701
-1.8305178	CD VBG	-0.33855417
-1.390164	DT VBG	-0.9109677
-1.446982	VBD VBG	-0.9004804
-1.35132	IN VBG	-1.2378172
-2.1059792	PRP VBG	-0.25524378
-1.6412115	NNS VBG	-0.7289256
-1.3289675	VBP VBG	-0.6474964
-1.6248287	VBN VBG	-0.5787091
-1.6093538	POS VBG	-0.27397376
-1.9764397	JJR VBG	-0.27397376
-1.4291333	" VBG	-0.30499727
-1.403563	RB VBG	-0.69825405
-1.32578	, VBG	-1.1515923
-1.5270649	CC VBG	-0.584232
-1.8148048	( VBG	-0.27397376
-1.8772864	: VBG	-0.26450783
-1.4746526	PRP$ VBG	-0.3368453
-1.8541296	VBG VBG	-0.25524378
-1.8507017	WRB VBG	-0.25524378
-1.5730739	RP VBG	-0.25524378
-1.5725001	NNPS VBG	-0.26317224
-1.724355	SYM VBG	-0.25524378
-1.554537	JJS VBG	-0.25524378
-2.6541493	<s> EX	-0.7284919
-2.6438322	NNP EX	-0.31247252
-2.409788	VBZ EX	-0.25524378
-2.3538115	NN EX	-0.28722906
-2.397266	VB EX	-0.25524378
-1.8441962	VBD EX	-0.7657899
-1.6894488	IN EX	-0.5444488
-2.3316069	VBP EX	-0.28365064
-1.9083849	" EX	-0.64882076
-2.004622	, EX	-0.39435297
-1.7448707	CC EX	-0.56235003
-2.4867768	VBG EX	-0.25524378
-3.4757779	<s> WP	-0.26638457
-1.9393275	NNP WP	-0.5687529
-1.8192681	VBZ WP	-0.27397376
-2.1650765	JJ WP	-0.43741125
-1.7342823	NN WP	-0.8388053
-1.8728396	TO WP	-0.2886687
-2.0712883	VB WP	-0.38000968
-2.1833172	CD WP	-0.25524378
-1.9393101	DT WP	-0.31838024
-1.5983512	IN WP	-0.50828004
-2.237664	PRP WP	-0.25524378
-1.5337204	NNS WP	-1.0662779
-2.1840732	VBP WP	-0.27397376
-2.1862872	VBN WP	-0.25524378
-2.0329368	JJR WP	-0.25524378
-1.9968994	" WP	-0.48856378
-2.2662768	RB WP	-0.27397376
-1.5042024	, WP	-1.2200706
-2.129323	CC WP	-0.26638457
-2.0307698	) WP	-0.25524378
-2.039652	: WP	-0.27397376
-2.2697449	VBG WP	-0.27397376
-1.7161245	NNPS WP	-0.28365064
-2.878783	<s> WRB	-0.32315147
-1.9490495	NNP WRB	-0.66811085
-1.8329678	VBZ WRB	-0.40199578
-1.984806	JJ WRB	-0.34487647
-1.8593553	NN WRB	-0.81252724
-2.271035	TO WRB	-0.25524378
-2.0975347	VB WRB	-0.5144953
-1.9221327	CD WRB	-0.35343754
-2.0970304	VBD WRB	-0.35823
-1.757753	IN WRB	-0.345221
-2.2733457	PRP WRB	-0.25524378
-1.7795365	NNS WRB	-0.54992175
-1.9358419	VBN WRB	-0.43418387
-1.8592591	" WRB	-0.25524378
-1.790152	RB WRB	-0.45224735
-1.734894	, WRB	-0.68573993
-1.8837103	CC WRB	-0.2829162
-2.0659206	) WRB	-0.25524378
-2.1426756	: WRB	-0.25524378
-2.3003013	VBG WRB	-0.25524378
-3.257441	<s> $	-0.7384412
-1.9965212	NNP $	-1.0114425
-2.0746098	VBZ $	-0.7384412
-2.1586468	JJ $	-0.7384412
-1.8959	NN $	-1.0394713
-1.454748	TO $	-1.3538651
-2.2220743	VB $	-0.6135025
-2.3229134	CD $	-0.6135025
-1.7752327	DT $	-0.8960491
-1.8038645	VBD $	-1.1141049
-1.4604561	IN $	-1.815957
-2.3355021	NNS $	-0.31247252
-1.917762	VBN $	-0.53432125
-1.7353251	POS $	-0.25524378
-2.0014758	RB $	-0.78959376
-2.0512555	, $	-0.8767439
-1.8649273	CC $	-0.8767439
-1.6710571	( $	-1.3794193
-1.9516726	) $	-0.28365064
-1.7646517	: $	-0.80932635
-2.0508063	PRP$ $	-0.25524378
-2.260019	VBG $	-0.43741125
-1.905176	RP $	-0.31247252
-1.768519	SYM $	-0.25524378
-3.4978197	<s> RP	-0.53432125
-2.4387653	NNP RP	-0.26921502
-1.9552585	VBZ RP	-0.2621732
-2.191791	JJ RP	-0.47514802
-2.100949	NN RP	-0.39435297
-1.4497194	VB RP	-0.7609182
-2.47905	CD RP	-0.28365064
-2.2330916	DT RP	-0.25524378
-1.4333599	VBD RP	-0.85365653
-2.2103164	PRP RP	-0.28819957
-2.114267	NNS RP	-0.25524378
-1.6443906	VBP RP	-0.45034754
-1.412101	VBN RP	-0.655889
-2.1415553	RB RP	-0.82391244
-2.4164834	, RP	-0.25524378
-2.0013103	) RP	-0.25524378
-1.4277741	VBG RP	-0.57309973
-2.0366912	RP RP	-0.25524378
-2.0301907	NNPS RP	-0.25524378
-2.7860503	<s> NNPS	-0.3466285
-1.622169	NNP NNPS	-0.9551139
-2.148012	VBZ NNPS	-0.25524378
-1.7277375	JJ NNPS	-0.33239478
-2.065423	NN NNPS	-0.32698357
-2.0150323	TO NNPS	-0.25524378
-1.5775617	VB NNPS	-0.26535985
-1.5010808	CD NNPS	-0.5698317
-1.4228362	DT NNPS	-0.67060524
-2.1941612	VBD NNPS	-0.26638457
-1.7887688	IN NNPS	-0.5306409
-1.9723885	VBP NNPS	-0.25524378
-2.308575	VBN NNPS	-0.25524378
-1.6309586	POS NNPS	-0.25524378
-2.033318	, NNPS	-0.26921502
-1.6984329	FW NNPS	-0.25524378
-1.9569573	CC NNPS	-0.28309968
-1.7929051	WDT NNPS	-0.25524378
-1.6596724	( NNPS	-0.911918
-1.9879323	) NNPS	-0.29744297
-1.7490995	: NNPS	-0.26317224
-1.9382071	PRP$ NNPS	-0.25524378
-2.2320843	VBG NNPS	-0.2886687
-1.4950609	NNPS NNPS	-0.345221
-1.7458758	SYM NNPS	-0.27397376
-1.7064766	JJS NNPS	-0.25524378
-1.1502373	WP$ NNPS	-0.25524378
-2.5194423	<s> SYM	-0.7161286
-1.7326169	NNP SYM	-1.0357465
-2.08948	JJ SYM	-0.6182223
-1.8673884	NN SYM	-0.7408845
-1.6745107	CD SYM	-0.87029994
-2.4710124	VBD SYM	-0.28365064
-2.312224	PRP SYM	-0.31247252
-2.4015572	NNS SYM	-0.9709879
-2.1779833	VBP SYM	-0.25524378
-1.9077789	MD SYM	-0.25524378
-2.5113266	RB SYM	-0.25524378
-2.1832201	CC SYM	-0.28365064
-2.131829	( SYM	-0.25524378
-2.0228713	) SYM	-0.82014763
-2.1822343	: SYM	-0.25524378
-2.1319058	NNPS SYM	-0.25524378
-1.8264525	SYM SYM	-0.25524378
-4.1035576	<s> RBS	-0.25524378
-2.4657753	VBZ RBS	-0.27397376
-2.7943535	NN RBS	-0.25524378
-2.4548728	VB RBS	-0.25524378
-1.8265299	DT RBS	-0.8269842
-2.5145373	VBD RBS	-0.28365064
-2.4370067	PRP RBS	-0.25524378
-1.9055734	POS RBS	-0.27397376
-2.1898441	PRP$ RBS	-0.25524378
-3.1122053	<s> UH	-0.37989452
-2.8085976	NNP UH	-0.25524378
-2.6362166	IN UH	-0.25524378
-2.4554632	PRP UH	-0.25524378
-2.2947114	" UH	-0.25524378
-2.1618917	, UH	-0.36784995
-1.9144832	SYM UH	-0.25524378
-1.3758845	UH UH	-0.25524378
-3.978854	<s> PDT	-0.28365064
-2.660372	NNP PDT	-0.28365064
-2.4276602	VBZ PDT	-0.25524378
-2.1873877	VB PDT	-0.43741125
-2.571219	VBD PDT	-0.25524378
-1.9578016	IN PDT	-0.64313596
-2.6877089	NNS PDT	-0.25524378
-2.3478796	VBP PDT	-0.25524378
-2.5312362	VBN PDT	-0.25524378
-2.5216844	RB PDT	-0.43741125
-2.3848634	CC PDT	-0.28365064
-3.671015	<s> ''	-0.43741125
-2.660372	NNP ''	-0.28365064
-2.566256	JJ ''	-0.27397376
-2.5391226	NN ''	-0.26921502
-1.6097258	. ''	-0.6804493
-2.5418136	DT ''	-0.25524378
-2.571219	VBD ''	-0.25524378
-2.4022927	PRP ''	-0.25524378
-2.6107633	RB ''	-0.25524378
-1.9109609	, ''	-0.35974345
-2.2741406	: ''	-0.25524378
-4.1189995	<s> LS	-0.28365064
-2.9268777	NN LS	-0.25524378
-2.3074024	( LS	-0.28365064
-2.1060925	: LS	-0.47353423
-2.8147116	<s> JJS	-0.38682052
-2.6042864	NNP JJS	-0.25524378
-1.989104	JJ JJS	-0.39435297
-2.4478822	NN JJS	-0.27397376
-2.2008321	TO JJS	-0.25524378
-2.2867246	VB JJS	-0.31247252
-2.5462062	CD JJS	-0.25524378
-1.5369654	DT JJS	-0.86256474
-2.103381	VBD JJS	-0.53432125
-1.5734564	IN JJS	-0.7544805
-2.3360746	VBN JJS	-0.25524378
-1.5523463	POS JJS	-0.785462
-2.2200656	" JJS	-0.25524378
-2.4826684	RB JJS	-0.25524378
-2.2398813	, JJS	-0.27947697
-2.004958	CC JJS	-0.30071327
-2.1101604	( JJS	-0.25524378
-1.1809554	PRP$ JJS	-0.3547751
-1.9312239	WRB JJS	-0.25524378
-2.8863022	NNP WP$	-0.25524378
-2.8969402	NN WP$	-0.25524378
-2.807158	IN WP$	-0.25524378
-2.5451982	NNS WP$	-0.39435297
-2.186185	, WP$	-0.5261377
-2.3720372	) NN|SYM	-0.31247252

\3-grams:
-0.00029463047	<s> -X- </s>
-2.0989332	<s> NNP </s>
-1.3635947	NNP NNP </s>
-1.8239386	JJ NNP </s>
-2.4788177	NN NNP </s>
-2.0579267	TO NNP </s>
-1.9164124	VB NNP </s>
-1.6197485	CD NNP </s>
-2.289074	DT NNP </s>
-1.9527287	VBD NNP </s>
-2.75356	IN NNP </s>
-1.7135475	NNS NNP </s>
-1.7177926	VBN NNP </s>
-2.2954192	POS NNP </s>
-1.4989464	RB NNP </s>
-1.534739	, NNP </s>
-1.4248167	FW NNP </s>
-2.4267478	CC NNP </s>
-2.467592	( NNP </s>
-0.83423805	) NNP </s>
-1.9713435	: NNP </s>
-1.7580496	PRP$ NNP </s>
-2.0281794	VBG NNP </s>
-1.706259	NNPS NNP </s>
-1.7565249	SYM NNP </s>
-2.4218578	NNP VBZ </s>
-1.8040181	NNS VBZ </s>
-0.8413385	POS VBZ </s>
-1.7402118	, VBZ </s>
-2.197904	<s> JJ </s>
-1.7633373	NNP JJ </s>
-1.6302701	JJ JJ </s>
-1.6113337	NN JJ </s>
-1.1758451	CD JJ </s>
-2.5333166	DT JJ </s>
-2.3094342	VBD JJ </s>
-1.9963521	IN JJ </s>
-2.3477614	POS JJ </s>
-2.4121063	RB JJ </s>
-2.0046237	, JJ </s>
-1.3898816	( JJ </s>
-1.1187339	) JJ </s>
-2.036045	: JJ </s>
-2.6457214	PRP$ JJ </s>
-2.0254896	<s> NN </s>
-1.9613645	NNP NN </s>
-1.6602727	JJ NN </s>
-2.1629193	NN NN </s>
-1.8970085	TO NN </s>
-2.3826778	VB NN </s>
-1.5160449	CD NN </s>
-2.9488144	DT NN </s>
-2.2164853	IN NN </s>
-1.8935249	NNS NN </s>
-2.0532303	POS NN </s>
-1.3913376	RB NN </s>
-1.888558	, NN </s>
-0.95619285	FW NN </s>
-1.4099259	( NN </s>
-1.2301103	) NN </s>
-1.7501684	: NN </s>
-2.6462545	PRP$ NN </s>
-0.4210287	SYM NN </s>
-2.2617474	VBZ TO </s>
-1.5734836	<s> VB </s>
-1.4557707	NN VB </s>
-3.017846	TO VB </s>
-2.560309	RB VB </s>
-2.4013999	) VB </s>
-0.2534771	<s> . </s>
-0.011693449	NNP . </s>
-0.0332439	VBZ . </s>
-0.03476404	JJ . </s>
-0.02860036	NN . </s>
-0.055306796	VB . </s>
-0.0044550193	CD . </s>
-0.327399	DT . </s>
-0.03971773	VBD . </s>
-0.0969367	IN . </s>
-0.07188842	PRP . </s>
-0.018374952	NNS . </s>
-0.06457822	VBP . </s>
-0.30115184	MD . </s>
-0.028965937	VBN . </s>
-0.16482735	POS . </s>
-0.068197004	JJR . </s>
-0.019558774	" . </s>
-0.06995173	RB . </s>
-0.12126122	FW . </s>
-0.14142455	CC . </s>
-0.004285425	) . </s>
-0.061535347	RBR . </s>
-0.056490265	VBG . </s>
-0.13096705	WRB . </s>
-0.075735986	RP . </s>
-0.013941422	NNPS . </s>
-0.056412056	UH . </s>
-0.056412056	LS . </s>
-0.13096705	JJS . </s>
-1.3395641	<s> CD </s>
-0.4378354	NNP CD </s>
-1.8391852	VBZ CD </s>
-0.8848249	JJ CD </s>
-0.6747657	NN CD </s>
-1.0479562	TO CD </s>
-0.75943416	VB CD </s>
-0.69115907	CD CD </s>
-1.732142	DT CD </s>
-1.2543577	IN CD </s>
-0.7948159	NNS CD </s>
-1.0595548	VBN CD </s>
-1.8561801	POS CD </s>
-1.0543253	JJR CD </s>
-0.6746997	RB CD </s>
-0.95406044	, CD </s>
-1.283377	FW CD </s>
-1.9860168	CC CD </s>
-0.604485	WDT CD </s>
-2.3792799	( CD </s>
-0.3191445	) CD </s>
-0.55639637	: CD </s>
-0.78233665	VBG CD </s>
-1.4170748	$ CD </s>
-0.78757924	RP CD </s>
-0.27086222	NNPS CD </s>
-1.3212575	SYM CD </s>
-0.7483807	'' CD </s>
-0.45742518	NN|SYM CD </s>
-2.3223445	IN DT </s>
-2.2936485	VBP DT </s>
-2.9347277	, DT </s>
-1.9344375	: DT </s>
-1.0320691	SYM DT </s>
-1.6267854	<s> VBD </s>
-2.7690496	NNP VBD </s>
-2.9478805	NN VBD </s>
-1.6552087	CD VBD </s>
-2.6384523	NNS VBD </s>
-1.9772286	) VBD </s>
-2.2299118	<s> IN </s>
-2.4333982	NNP IN </s>
-1.733417	JJ IN </s>
-2.757707	NN IN </s>
-1.8651972	DT IN </s>
-2.3862078	NNS IN </s>
-3.160343	VBN IN </s>
-2.5917764	VBG IN </s>
-1.875444	JJS IN </s>
-2.3002408	NN PRP </s>
-1.1958965	: PRP </s>
-2.059244	<s> NNS </s>
-1.7237757	NNP NNS </s>
-2.2299404	JJ NNS </s>
-1.9282668	NN NNS </s>
-2.086428	VB NNS </s>
-1.1354713	CD NNS </s>
-2.6629424	DT NNS </s>
-2.1737669	VBD NNS </s>
-2.4864933	IN NNS </s>
-0.97586966	NNS NNS </s>
-0.7060603	POS NNS </s>
-1.3956201	RB NNS </s>
-0.9826885	, NNS </s>
-2.158842	CC NNS </s>
-1.6003522	( NNS </s>
-0.6438294	) NNS </s>
-1.0885592	: NNS </s>
-1.7203615	SYM NNS </s>
-2.5059655	NNS VBP </s>
-2.1206312	<s> VBN </s>
-1.835341	JJ VBN </s>
-2.2582755	NNS VBN </s>
-0.50457245	SYM VBN </s>
-2.7144635	NNP POS </s>
-2.308075	NNS POS </s>
-0.34642518	FW JJR </s>
-2.6769183	<s> " </s>
-0.0017022019	. " </s>
-2.3993697	<s> RB </s>
-2.3176742	NNP RB </s>
-1.217051	CD RB </s>
-2.8244276	VBD RB </s>
-2.350019	NNS RB </s>
-0.48598248	JJS RB </s>
-2.1777372	NNP , </s>
-1.3811824	VBZ , </s>
-1.380181	JJ , </s>
-2.3998613	NN , </s>
-1.3111776	CD , </s>
-1.3329545	VBD , </s>
-2.2395115	NNS , </s>
-2.006696	VBN , </s>
-1.1074549	) , </s>
-1.4622316	RP , </s>
-2.058741	NNP FW </s>
-2.6478958	NNP CC </s>
-2.3510556	JJ CC </s>
-2.91224	NN CC </s>
-2.277548	CD CC </s>
-2.7387486	NNS CC </s>
-1.717384	) CC </s>
-3.019185	NNP ( </s>
-1.0554549	NNP ) </s>
-1.7042536	VBZ ) </s>
-0.74502665	JJ ) </s>
-0.6486908	NN ) </s>
-1.0019504	VB ) </s>
-0.5243484	CD ) </s>
-0.5500627	VBD ) </s>
-1.1696956	NNS ) </s>
-0.44991565	VBN ) </s>
-0.8109971	POS ) </s>
-0.71448743	RB ) </s>
-1.1962829	RP ) </s>
-1.084223	NNPS ) </s>
-1.6945205	<s> : </s>
-0.6001009	NNP : </s>
-0.8427495	JJ : </s>
-0.86980104	NN : </s>
-0.86409104	VB : </s>
-0.7334911	CD : </s>
-1.2116411	VBD : </s>
-0.62781316	IN : </s>
-0.51961946	NNS : </s>
-1.007088	VBP : </s>
-0.37092468	VBN : </s>
-0.65703154	RB : </s>
-0.04387694	) : </s>
-0.32100004	: : </s>
-1.2493904	VBG : </s>
-0.5823978	NNPS : </s>
-2.7801125	, VBG </s>
-2.582604	, WP </s>
-1.5020628	<s> NNPS </s>
-1.2314472	NNP NNPS </s>
-1.7766781	CD NNPS </s>
-0.33780497	FW NNPS </s>
-0.39972517	) NNPS </s>
-0.1986356	<s> SYM </s>
-1.1490518	NNP SYM </s>
-1.5343314	NN SYM </s>
-1.7617466	NNS SYM </s>
-0.30985472	MD SYM </s>
-1.4140636	) SYM </s>
-0.18143336	<s> '' </s>
-0.09427612	. '' </s>
-0.34813294	<s> NNP NNP
-0.6477565	NNP NNP NNP
-0.6956322	VBZ NNP NNP
-0.4662536	JJ NNP NNP
-0.18108039	NN NNP NNP
-0.6255258	TO NNP NNP
-0.21451174	VB NNP NNP
-0.29905215	CD NNP NNP
-0.3261565	DT NNP NNP
-0.5796644	VBD NNP NNP
-0.78868806	IN NNP NNP
-0.7529392	PRP NNP NNP
-0.47294903	NNS NNP NNP
-0.47227937	VBP NNP NNP
-0.6317258	VBN NNP NNP
-0.23730937	POS NNP NNP
-0.78483224	JJR NNP NNP
-0.6826983	" NNP NNP
-1.0533459	RB NNP NNP
-0.27242535	, NNP NNP
-0.5845579	FW NNP NNP
-0.44636178	CC NNP NNP
-0.9602525	WDT NNP NNP
-0.9433889	( NNP NNP
-0.5802774	) NNP NNP
-0.18978927	: NNP NNP
-0.6288052	PRP$ NNP NNP
-0.55711555	VBG NNP NNP
-0.71450377	WRB NNP NNP
-0.3240788	$ NNP NNP
-0.3518273	RP NNP NNP
-0.67968696	NNPS NNP NNP
-0.2684479	SYM NNP NNP
-0.45815095	'' NNP NNP
-0.98636925	JJS NNP NNP
-0.9554788	<s> VBZ NNP
-1.0193324	NNP VBZ NNP
-0.8499388	VBZ VBZ NNP
-1.1567603	JJ VBZ NNP
-1.187254	NN VBZ NNP
-0.7331495	TO VBZ NNP
-0.5868157	VB VBZ NNP
-1.474325	CD VBZ NNP
-2.0414886	PRP VBZ NNP
-1.4931495	NNS VBZ NNP
-1.1210766	VBP VBZ NNP
-1.0429778	VBN VBZ NNP
-0.31773305	JJR VBZ NNP
-1.2250098	RB VBZ NNP
-1.6972445	, VBZ NNP
-1.7278261	CC VBZ NNP
-1.2157465	WDT VBZ NNP
-0.83023965	: VBZ NNP
-0.5868157	VBG VBZ NNP
-1.0661173	<s> JJ NNP
-1.0053673	NNP JJ NNP
-1.6428028	VBZ JJ NNP
-1.2330027	JJ JJ NNP
-1.1031461	NN JJ NNP
-1.1019875	TO JJ NNP
-1.4825145	VB JJ NNP
-1.4283094	CD JJ NNP
-1.2361628	DT JJ NNP
-1.1334902	VBD JJ NNP
-0.97794306	IN JJ NNP
-1.3182108	PRP JJ NNP
-1.7171984	NNS JJ NNP
-1.8312304	VBP JJ NNP
-1.1044664	VBN JJ NNP
-1.3520756	POS JJ NNP
-1.2462769	JJR JJ NNP
-1.6984935	" JJ NNP
-1.5609647	RB JJ NNP
-1.2973458	, JJ NNP
-0.3197416	FW JJ NNP
-1.0151511	CC JJ NNP
-1.4576935	( JJ NNP
-0.8455949	) JJ NNP
-0.6417021	: JJ NNP
-1.4406885	PRP$ JJ NNP
-1.3658938	VBG JJ NNP
-0.9945497	WRB JJ NNP
-0.94335747	$ JJ NNP
-1.3850007	RP JJ NNP
-0.646916	NNPS JJ NNP
-0.6912176	SYM JJ NNP
-1.5577673	<s> NN NNP
-0.91914356	NNP NN NNP
-1.7898227	VBZ NN NNP
-1.3287432	JJ NN NNP
-1.1985518	NN NN NNP
-1.4505998	TO NN NNP
-1.8622193	VB NN NNP
-1.4256532	CD NN NNP
-1.9682804	DT NN NNP
-1.2589407	VBD NN NNP
-1.7230678	IN NN NNP
-0.9244386	NNS NN NNP
-1.5936126	VBP NN NNP
-1.929112	VBN NN NNP
-1.4309704	POS NN NNP
-0.9019327	" NN NNP
-1.2380936	RB NN NNP
-1.2388713	, NN NNP
-1.4455544	CC NN NNP
-2.0968616	( NN NNP
-1.0792798	) NN NNP
-1.0017385	: NN NNP
-1.6953758	PRP$ NN NNP
-1.2835948	VBG NN NNP
-1.2555231	WRB NN NNP
-1.2610487	RP NN NNP
-1.0503248	NNPS NN NNP
-1.4789808	SYM NN NNP
-1.6846217	JJS NN NNP
-1.5679989	<s> TO NNP
-0.89762235	NNP TO NNP
-1.5696898	VBZ TO NNP
-1.5900468	JJ TO NNP
-0.84994745	NN TO NNP
-0.9895246	VB TO NNP
-1.085094	CD TO NNP
-1.0854992	VBD TO NNP
-1.0644907	IN TO NNP
-1.2053863	PRP TO NNP
-1.368541	NNS TO NNP
-1.8177258	VBP TO NNP
-1.0872034	VBN TO NNP
-1.1187683	" TO NNP
-0.8579267	RB TO NNP
-1.4218588	, TO NNP
-1.4115496	CC TO NNP
-1.1482548	) TO NNP
-0.7878223	: TO NNP
-0.9449903	RBR TO NNP
-0.95305985	VBG TO NNP
-1.361246	RP TO NNP
-0.7827649	<s> VB NNP
-0.86517847	NNP VB NNP
-0.9353228	VBZ VB NNP
-1.1745317	TO VB NNP
-1.2835783	VB VB NNP
-1.2427586	CD VB NNP
-1.2719173	MD VB NNP
-0.8524684	VBN VB NNP
-1.447109	RB VB NNP
-1.3118453	, VB NNP
-1.8594909	CC VB NNP
-0.09266543	) VB NNP
-0.35825643	: VB NNP
-0.9410175	WP VB NNP
-0.75083303	NNPS VB NNP
-0.29996753	<s> CD NNP
-0.9419815	NNP CD NNP
-1.1028267	VBZ CD NNP
-1.5510999	JJ CD NNP
-0.79601127	NN CD NNP
-1.6682621	TO CD NNP
-1.0621411	VB CD NNP
-2.4409196	CD CD NNP
-1.0740982	DT CD NNP
-1.4810989	VBD CD NNP
-1.6057851	IN CD NNP
-0.87996167	NNS CD NNP
-1.6620443	VBN CD NNP
-1.4024103	POS CD NNP
-1.2520037	JJR CD NNP
-1.4202771	" CD NNP
-1.418466	RB CD NNP
-1.6918547	, CD NNP
-1.0430675	FW CD NNP
-1.4344462	CC CD NNP
-1.2624735	( CD NNP
-1.4531505	) CD NNP
-1.006557	: CD NNP
-1.3727275	PRP$ CD NNP
-1.2216909	VBG CD NNP
-0.91733456	WRB CD NNP
-1.4445622	$ CD NNP
-1.1472416	NNPS CD NNP
-1.4427807	SYM CD NNP
-0.5932511	UH CD NNP
-1.2018565	JJS CD NNP
-0.7880823	<s> DT NNP
-0.9946208	NNP DT NNP
-1.7397211	VBZ DT NNP
-1.6979443	JJ DT NNP
-1.069836	NN DT NNP
-0.81028676	TO DT NNP
-1.3534269	VB DT NNP
-0.7747114	DT DT NNP
-1.0463103	VBD DT NNP
-0.83271515	IN DT NNP
-1.7672708	NNS DT NNP
-1.684719	VBP DT NNP
-1.3562081	VBN DT NNP
-0.90188396	" DT NNP
-1.5039848	RB DT NNP
-0.7743235	, DT NNP
-0.7326317	CC DT NNP
-1.2867594	WDT DT NNP
-1.1040121	( DT NNP
-0.8280012	: DT NNP
-1.1945602	VBG DT NNP
-1.0333703	WP DT NNP
-0.84708524	WRB DT NNP
-1.2171081	RP DT NNP
-0.932411	SYM DT NNP
-1.4626389	<s> VBD NNP
-1.010449	NNP VBD NNP
-1.2691869	VBZ VBD NNP
-1.040933	JJ VBD NNP
-1.3725455	NN VBD NNP
-0.95792127	VB VBD NNP
-1.3385005	CD VBD NNP
-1.1335288	DT VBD NNP
-1.2418796	VBD VBD NNP
-0.95912445	IN VBD NNP
-1.4436902	PRP VBD NNP
-1.4807959	NNS VBD NNP
-1.3520755	VBP VBD NNP
-0.5685787	POS VBD NNP
-0.20737073	" VBD NNP
-1.0790298	RB VBD NNP
-1.14807	, VBD NNP
-1.5945979	CC VBD NNP
-1.110296	WDT VBD NNP
-0.32272217	( VBD NNP
-1.4147513	) VBD NNP
-0.5961325	RBR VBD NNP
-1.4054403	WP VBD NNP
-0.44044277	<s> IN NNP
-0.4259168	NNP IN NNP
-0.59708464	VBZ IN NNP
-0.70740855	JJ IN NNP
-0.6201635	NN IN NNP
-0.75972587	VB IN NNP
-0.85125345	CD IN NNP
-1.2104785	DT IN NNP
-0.46599185	VBD IN NNP
-0.8340688	IN IN NNP
-1.0135612	PRP IN NNP
-0.6900418	NNS IN NNP
-1.0040208	VBP IN NNP
-0.59040487	MD IN NNP
-0.62156427	VBN IN NNP
-0.45239806	POS IN NNP
-1.2691233	JJR IN NNP
-0.9852408	" IN NNP
-0.7283414	RB IN NNP
-0.7250847	, IN NNP
-0.7720423	CC IN NNP
-1.0054629	( IN NNP
-0.41586846	) IN NNP
-0.68403274	: IN NNP
-0.7381851	PRP$ IN NNP
-0.9475237	RBR IN NNP
-0.77938193	VBG IN NNP
-0.83654594	WP IN NNP
-0.646749	WRB IN NNP
-0.89485747	RP IN NNP
-0.5043744	NNPS IN NNP
-0.59040487	SYM IN NNP
-0.8539076	JJS IN NNP
-2.179918	NNP PRP NNP
-1.1915398	: PRP NNP
-1.4528066	<s> NNS NNP
-1.4596155	NNP NNS NNP
-1.3971832	VBZ NNS NNP
-1.9679097	JJ NNS NNP
-1.8875861	NN NNS NNP
-2.2845247	CD NNS NNP
-2.4089956	DT NNS NNP
-1.8703227	VBD NNS NNP
-2.055976	IN NNS NNP
-1.6621646	NNS NNS NNP
-1.6114371	VBP NNS NNP
-1.9626324	VBN NNS NNP
-1.6976181	POS NNS NNP
-1.7371067	JJR NNS NNP
-1.5124325	" NNS NNP
-1.5531301	RB NNS NNP
-2.2518234	, NNS NNP
-1.876294	CC NNS NNP
-1.1806283	( NNS NNP
-1.6946405	: NNS NNP
-1.7969763	VBG NNS NNP
-1.5158566	NNP VBP NNP
-1.8795048	NN VBP NNP
-2.3603709	PRP VBP NNP
-1.3463793	NNS VBP NNP
-1.8034437	WP VBP NNP
-1.0821124	NNPS VBP NNP
-2.5046601	NN MD NNP
-0.7491914	VB MD NNP
-0.95289654	VBP MD NNP
-1.4544666	WP MD NNP
-1.1589298	<s> VBN NNP
-1.3357198	NNP VBN NNP
-1.4214088	VBZ VBN NNP
-1.0607446	JJ VBN NNP
-0.9820039	NN VBN NNP
-1.8532616	VB VBN NNP
-0.8790611	DT VBN NNP
-1.8079848	VBD VBN NNP
-1.181468	IN VBN NNP
-1.2235819	PRP VBN NNP
-1.9467696	NNS VBN NNP
-1.6253082	VBP VBN NNP
-1.996875	VBN VBN NNP
-0.8297882	JJR VBN NNP
-1.1358367	" VBN NNP
-1.4777193	RB VBN NNP
-1.7713723	, VBN NNP
-1.4865103	CC VBN NNP
-0.72996736	) VBN NNP
-1.0341775	: VBN NNP
-0.6047205	RBR VBN NNP
-1.7064388	VBG VBN NNP
-0.73373294	WP VBN NNP
-0.6420807	NNPS VBN NNP
-0.645632	SYM VBN NNP
-0.6399571	NNP POS NNP
-1.0686685	NN POS NNP
-1.6473141	NNS POS NNP
-1.0330081	NNPS POS NNP
-0.8327435	'' POS NNP
-1.2106471	VBZ JJR NNP
-1.4332787	CD JJR NNP
-1.4354364	DT JJR NNP
-1.6824422	VBD JJR NNP
-1.8199384	IN JJR NNP
-1.0414478	<s> " NNP
-0.9748259	VBZ " NNP
-1.3285497	JJ " NNP
-1.3394094	NN " NNP
-0.70275044	DT " NNP
-0.5837376	VBD " NNP
-0.89478207	IN " NNP
-1.3426322	NNS " NNP
-1.0596998	VBN " NNP
-0.5284432	POS " NNP
-0.48942697	, " NNP
-0.58363855	CC " NNP
-0.31187275	( " NNP
-1.4066628	: " NNP
-0.81532	PRP$ " NNP
-0.57598865	RP " NNP
-0.718059	NNPS " NNP
-0.57598865	'' " NNP
-1.6434042	<s> RB NNP
-1.9614347	NNP RB NNP
-1.9274685	VBZ RB NNP
-1.7054007	JJ RB NNP
-1.7993352	NN RB NNP
-1.9166962	DT RB NNP
-1.8827577	VBD RB NNP
-1.6228088	IN RB NNP
-1.527363	NNS RB NNP
-1.0396249	JJR RB NNP
-1.5824821	" RB NNP
-1.7668116	RB RB NNP
-1.819761	, RB NNP
-1.4935229	CC RB NNP
-0.9596233	<s> , NNP
-0.47039646	NNP , NNP
-1.0356069	VBZ , NNP
-1.0127211	JJ , NNP
-0.95325726	NN , NNP
-1.5933199	VB , NNP
-0.4205551	CD , NNP
-1.8444163	IN , NNP
-1.4729137	PRP , NNP
-1.2705982	NNS , NNP
-1.1022654	VBP , NNP
-1.009185	VBN , NNP
-1.2209105	JJR , NNP
-0.82406557	" , NNP
-0.98755527	RB , NNP
-0.91583097	FW , NNP
-1.0653191	CC , NNP
-0.16987237	) , NNP
-0.99178034	RBR , NNP
-1.3392121	VBG , NNP
-0.2890431	RP , NNP
-0.75502956	NNPS , NNP
-1.0577884	UH , NNP
-0.709303	<s> FW NNP
-0.07449958	NNP FW NNP
-0.46143323	JJ FW NNP
-0.1776422	NN FW NNP
-0.2681189	VB FW NNP
-0.38650608	CD FW NNP
-0.68601215	NNS FW NNP
-0.7355675	, FW NNP
-0.23902656	) FW NNP
-0.38650608	NNPS FW NNP
-0.61767787	<s> CC NNP
-0.27757862	NNP CC NNP
-1.3783797	JJ CC NNP
-1.1273763	NN CC NNP
-1.5862997	VB CC NNP
-0.8917528	CD CC NNP
-0.6019584	DT CC NNP
-0.8474753	VBD CC NNP
-1.2868866	PRP CC NNP
-1.2555423	NNS CC NNP
-1.686424	VBN CC NNP
-0.59394944	POS CC NNP
-1.2212898	" CC NNP
-1.4746175	RB CC NNP
-0.87994105	, CC NNP
-0.59394944	FW CC NNP
-0.51156986	) CC NNP
-1.2309188	: CC NNP
-0.4150142	NNPS CC NNP
-2.0686722	NN WDT NNP
-1.1743011	IN WDT NNP
-1.1459266	NNS WDT NNP
-1.4972594	, WDT NNP
-0.8453381	: WDT NNP
-0.24133681	<s> ( NNP
-0.066749774	NNP ( NNP
-1.0907234	JJ ( NNP
-0.7370947	NN ( NNP
-0.5239975	TO ( NNP
-0.533419	VB ( NNP
-0.41230455	CD ( NNP
-0.29842	DT ( NNP
-0.533419	VBD ( NNP
-0.90159106	PRP ( NNP
-0.71473956	NNS ( NNP
-0.28280228	VBP ( NNP
-0.7255506	POS ( NNP
-0.41884047	" ( NNP
-0.3178784	FW ( NNP
-0.5239975	CC ( NNP
-0.16102394	) ( NNP
-0.86507213	: ( NNP
-0.18447661	NNPS ( NNP
-0.28280228	JJS ( NNP
-0.94386643	NNP ) NNP
-0.750775	JJ ) NNP
-1.2002425	NN ) NNP
-1.2574633	CD ) NNP
-0.73652023	DT ) NNP
-0.58921957	VBP ) NNP
-0.94579226	VBN ) NNP
-0.83778656	POS ) NNP
-0.31902504	) ) NNP
-0.99794674	NNPS ) NNP
-0.18878344	<s> : NNP
-0.3184916	NNP : NNP
-0.5157882	JJ : NNP
-0.41252595	NN : NNP
-0.25407422	VB : NNP
-0.23636913	CD : NNP
-0.38948396	NNS : NNP
-0.63179344	VBP : NNP
-0.8610694	VBN : NNP
-0.17844112	POS : NNP
-0.34064993	JJR : NNP
-1.16069	RB : NNP
-1.3676399	) : NNP
-0.28097185	VBG : NNP
-0.75192493	NNPS : NNP
-1.6542052	<s> PRP$ NNP
-1.2098799	NNP PRP$ NNP
-1.3538895	TO PRP$ NNP
-1.5562431	VB PRP$ NNP
-1.5013183	VBD PRP$ NNP
-1.3519614	IN PRP$ NNP
-1.6819717	VBN PRP$ NNP
-1.2474185	CC PRP$ NNP
-1.8673397	VBG PRP$ NNP
-0.984281	WRB PRP$ NNP
-1.231011	<s> RBR NNP
-0.94487816	<s> VBG NNP
-1.2474196	NNP VBG NNP
-1.5565957	VBZ VBG NNP
-1.3516095	JJ VBG NNP
-0.9807782	NN VBG NNP
-1.2621217	TO VBG NNP
-1.4455261	VB VBG NNP
-1.1346915	CD VBG NNP
-0.9556673	DT VBG NNP
-1.710732	VBD VBG NNP
-1.0983915	IN VBG NNP
-1.2297623	NNS VBG NNP
-1.6220088	VBP VBG NNP
-1.0321908	VBN VBG NNP
-1.7014873	RB VBG NNP
-1.1853026	, VBG NNP
-1.2995272	CC VBG NNP
-0.9221831	VBG VBG NNP
-1.6518584	IN WP NNP
-0.7917543	VBN WP NNP
-0.33932513	JJR WP NNP
-0.96672904	<s> WRB NNP
-0.8967384	NNP WRB NNP
-0.7377266	JJ WRB NNP
-0.91980106	NN WRB NNP
-1.1228364	VB WRB NNP
-0.9447911	CD WRB NNP
-0.6841982	VBD WRB NNP
-0.9408929	IN WRB NNP
-0.53848404	PRP WRB NNP
-1.0585568	NNS WRB NNP
-1.1508641	VBN WRB NNP
-0.8066269	" WRB NNP
-1.114164	RB WRB NNP
-0.9863193	, WRB NNP
-2.4253833	IN $ NNP
-0.562641	NNP RP NNP
-1.2108605	JJ RP NNP
-1.1555272	NN RP NNP
-1.4173976	VB RP NNP
-1.450376	VBD RP NNP
-0.8258555	VBP RP NNP
-1.5836506	VBN RP NNP
-1.5949067	VBG RP NNP
-1.1340883	<s> NNPS NNP
-0.6918687	NNP NNPS NNP
-1.0362917	JJ NNPS NNP
-0.5012576	NN NNPS NNP
-0.8010448	CD NNPS NNP
-1.7090961	DT NNPS NNP
-1.4141374	IN NNPS NNP
-0.5827458	POS NNPS NNP
-1.0292984	, NNPS NNP
-0.99164015	: NNPS NNP
-0.45691085	NNPS NNPS NNP
-0.5827458	JJS NNPS NNP
-0.95310783	<s> SYM NNP
-0.21055837	NNP SYM NNP
-0.17237785	JJ SYM NNP
-0.36454538	NN SYM NNP
-0.62803566	CD SYM NNP
-0.2530891	VBD SYM NNP
-1.4605814	NNS SYM NNP
-0.2769531	RB SYM NNP
-0.49680483	CC SYM NNP
-0.08654985	) SYM NNP
-0.906966	<s> UH NNP
-0.5516397	IN UH NNP
-0.32941827	, UH NNP
-0.5578419	NN '' NNP
-0.31639504	VBD '' NNP
-1.3512062	<s> JJS NNP
-0.3211481	NNP JJS NNP
-1.6895714	DT JJS NNP
-1.2369335	PRP$ JJS NNP
-0.59318304	WRB JJS NNP
-1.2631327	, WP$ NNP
-1.4733285	<s> NNP VBZ
-1.8221434	NNP NNP VBZ
-1.528561	VBZ NNP VBZ
-1.8656816	JJ NNP VBZ
-1.717411	NN NNP VBZ
-2.354219	VB NNP VBZ
-2.7175188	CD NNP VBZ
-1.9553803	DT NNP VBZ
-1.8823402	VBD NNP VBZ
-1.8864108	IN NNP VBZ
-1.8358161	NNS NNP VBZ
-1.0103115	VBP NNP VBZ
-1.7166586	VBN NNP VBZ
-1.6588042	POS NNP VBZ
-1.2580568	" NNP VBZ
-1.3649242	RB NNP VBZ
-2.0933201	, NNP VBZ
-1.8346312	CC NNP VBZ
-0.5528622	WDT NNP VBZ
-3.1929605	( NNP VBZ
-1.7061449	: NNP VBZ
-1.8977224	VBG NNP VBZ
-0.7736294	WP NNP VBZ
-1.3388934	WRB NNP VBZ
-1.0886581	<s> VBZ VBZ
-2.1208687	NNP VBZ VBZ
-2.8042507	NN VBZ VBZ
-2.3394234	PRP VBZ VBZ
-2.458537	<s> JJ VBZ
-2.33298	NNP JJ VBZ
-2.2267652	VBZ JJ VBZ
-2.906016	JJ JJ VBZ
-2.5303974	CD JJ VBZ
-3.2005208	DT JJ VBZ
-2.8608513	IN JJ VBZ
-2.5464702	POS JJ VBZ
-1.6842555	" JJ VBZ
-2.1528416	, JJ VBZ
-2.3313084	CC JJ VBZ
-2.0480337	: JJ VBZ
-2.659206	PRP$ JJ VBZ
-2.2233324	VBG JJ VBZ
-1.260873	<s> NN VBZ
-1.6409609	NNP NN VBZ
-1.5695591	JJ NN VBZ
-1.5110341	NN NN VBZ
-1.8591428	TO NN VBZ
-2.0729706	CD NN VBZ
-1.5143588	DT NN VBZ
-2.2842157	VBD NN VBZ
-1.8080084	IN NN VBZ
-1.3866552	NNS NN VBZ
-1.4776249	VBP NN VBZ
-1.6037916	VBN NN VBZ
-1.3184017	POS NN VBZ
-1.293982	" NN VBZ
-1.5332689	RB NN VBZ
-1.5962431	, NN VBZ
-2.1760492	CC NN VBZ
-0.9677148	WDT NN VBZ
-1.3911242	) NN VBZ
-1.0675861	: NN VBZ
-1.4372196	PRP$ NN VBZ
-1.8865955	VBG NN VBZ
-0.7715514	WP$ NN VBZ
-2.6918213	NNS TO VBZ
-2.2863607	RB TO VBZ
-1.5373389	NNPS TO VBZ
-3.3328555	TO VB VBZ
-2.7301798	) VB VBZ
-2.6493242	<s> CD VBZ
-3.0284266	NNP CD VBZ
-2.4960916	JJ CD VBZ
-2.7493346	NN CD VBZ
-2.1332235	VB CD VBZ
-3.313078	CD CD VBZ
-2.058876	VBD CD VBZ
-2.127196	IN CD VBZ
-2.2564306	NNS CD VBZ
-2.2202303	RB CD VBZ
-2.2616012	, CD VBZ
-1.9998441	CC CD VBZ
-1.7127106	PRP$ CD VBZ
-2.2302847	VBG CD VBZ
-1.8584646	<s> DT VBZ
-2.3082576	NN DT VBZ
-2.919733	IN DT VBZ
-1.6140214	PRP DT VBZ
-1.8191099	VBP DT VBZ
-1.3333232	" DT VBZ
-2.2505615	RB DT VBZ
-2.465532	, DT VBZ
-1.5608985	CC DT VBZ
-0.338454	'' DT VBZ
-2.641926	WP VBD VBZ
-2.7798977	<s> IN VBZ
-3.257857	NNP IN VBZ
-2.792628	JJ IN VBZ
-3.5601594	NN IN VBZ
-3.073852	VBD IN VBZ
-2.2021978	VBP IN VBZ
-1.8897458	CC IN VBZ
-2.6127243	VBG IN VBZ
-0.8964044	<s> PRP VBZ
-1.3879786	NNP PRP VBZ
-0.69062203	VBZ PRP VBZ
-1.1084902	NN PRP VBZ
-1.1357622	TO PRP VBZ
-1.384297	VB PRP VBZ
-1.4109845	VBD PRP VBZ
-0.953825	IN PRP VBZ
-0.8276124	NNS PRP VBZ
-0.82785857	VBP PRP VBZ
-1.139109	VBN PRP VBZ
-1.0377108	" PRP VBZ
-1.0744827	RB PRP VBZ
-1.1694995	, PRP VBZ
-0.87433505	CC PRP VBZ
-0.70598024	WDT PRP VBZ
-0.7102528	: PRP VBZ
-0.8458386	WP PRP VBZ
-1.1261566	WRB PRP VBZ
-0.31223652	JJS PRP VBZ
-2.3650315	<s> NNS VBZ
-2.5916893	NNP NNS VBZ
-2.2510574	JJ NNS VBZ
-2.1660156	NN NNS VBZ
-3.0538132	CD NNS VBZ
-2.3597882	DT NNS VBZ
-2.1955361	IN NNS VBZ
-2.0994563	VBN NNS VBZ
-2.26117	POS NNS VBZ
-2.3899357	, NNS VBZ
-1.8133928	: NNS VBZ
-2.3235273	PRP$ NNS VBZ
-0.8877653	<s> VBP VBZ
-1.521482	CD VBP VBZ
-2.424234	PRP VBP VBZ
-2.2838526	NNS VBP VBZ
-1.5567808	WDT VBP VBZ
-1.1685587	) VBP VBZ
-0.8686	VBG VBP VBZ
-1.5849806	NNPS VBP VBZ
-1.9826276	WDT MD VBZ
-1.8418083	<s> VBN VBZ
-2.537007	VBZ VBN VBZ
-2.383032	VB VBN VBZ
-2.5279212	VBP VBN VBZ
-1.3560728	" VBN VBZ
-2.53899	NNP POS VBZ
-2.4138384	NN POS VBZ
-2.0382957	NNS POS VBZ
-1.7596147	<s> JJR VBZ
-1.6408957	NNP " VBZ
-1.5539236	JJ " VBZ
-1.7396353	NN " VBZ
-1.7225868	IN " VBZ
-1.3677244	NNS " VBZ
-1.2013255	VBN " VBZ
-2.7149959	, " VBZ
-1.7559273	: " VBZ
-2.0194263	<s> RB VBZ
-1.5441636	NNP RB VBZ
-2.3224635	VBZ RB VBZ
-1.6780312	JJ RB VBZ
-1.5169355	NN RB VBZ
-2.0165262	VB RB VBZ
-1.8928503	DT RB VBZ
-2.3312562	VBD RB VBZ
-1.0156271	PRP RB VBZ
-1.9649066	NNS RB VBZ
-1.5556917	" RB VBZ
-2.0114331	RB RB VBZ
-1.4273868	, RB VBZ
-1.2072572	CC RB VBZ
-0.4087474	WDT RB VBZ
-0.7751099	NNPS RB VBZ
-1.9138398	NNP , VBZ
-1.889651	JJ , VBZ
-1.5143127	NN , VBZ
-1.5964365	VB , VBZ
-1.5342581	CD , VBZ
-1.8618547	VBD , VBZ
-0.7839351	IN , VBZ
-1.7863123	PRP , VBZ
-1.823581	NNS , VBZ
-1.420603	VBP , VBZ
-0.96370816	RB , VBZ
-1.5894684	NNPS , VBZ
-0.62962615	CC FW VBZ
-2.0131588	NNP CC VBZ
-0.6746632	VBZ CC VBZ
-2.0435786	JJ CC VBZ
-1.6278749	NN CC VBZ
-1.4860996	CD CC VBZ
-1.3300531	NNS CC VBZ
-1.8398739	VBN CC VBZ
-1.516484	" CC VBZ
-1.758811	RB CC VBZ
-1.5505073	, CC VBZ
-1.3427078	: CC VBZ
-0.8882159	<s> WDT VBZ
-0.6186749	NNP WDT VBZ
-0.42983967	NN WDT VBZ
-1.4218887	IN WDT VBZ
-1.5324622	NNS WDT VBZ
-0.2707951	" WDT VBZ
-0.44563115	, WDT VBZ
-0.68640244	) WDT VBZ
-0.7660332	: WDT VBZ
-2.3388278	<s> ( VBZ
-2.719662	CD ( VBZ
-2.3812644	NNP ) VBZ
-2.757589	CD ) VBZ
-0.34312624	PRP ) VBZ
-2.7544606	NNP : VBZ
-2.573137	NN : VBZ
-2.6627378	CD : VBZ
-2.3662214	NNS : VBZ
-2.7008336	IN VBG VBZ
-0.4695774	<s> EX VBZ
-0.24675883	VBZ EX VBZ
-0.47712386	NN EX VBZ
-0.4506468	IN EX VBZ
-0.22621515	VBP EX VBZ
-0.2412001	" EX VBZ
-0.22441168	, EX VBZ
-0.805729	CC EX VBZ
-0.6085939	<s> WP VBZ
-0.9293626	NNP WP VBZ
-0.7538773	NN WP VBZ
-0.8520403	TO WP VBZ
-1.0637739	VB WP VBZ
-1.0689248	DT WP VBZ
-1.1995666	IN WP VBZ
-0.42804265	RB WP VBZ
-0.7021926	, WP VBZ
-0.42804265	: WP VBZ
-2.2930436	VBD RP VBZ
-2.3136463	NNP NNPS VBZ
-1.9207959	IN NNPS VBZ
-1.8239098	<s> SYM VBZ
-0.3392399	( SYM VBZ
-1.5362772	<s> JJS VBZ
-1.8772105	IN JJS VBZ
-2.1432476	<s> NNP JJ
-2.0157	NNP NNP JJ
-1.8229803	JJ NNP JJ
-1.9940796	NN NNP JJ
-1.9101261	TO NNP JJ
-2.3515377	VB NNP JJ
-2.3123827	CD NNP JJ
-1.5292754	DT NNP JJ
-1.8814418	VBD NNP JJ
-1.9193931	IN NNP JJ
-1.9822328	NNS NNP JJ
-1.3454008	VBP NNP JJ
-1.7147752	VBN NNP JJ
-1.5835084	POS NNP JJ
-2.3434923	" NNP JJ
-1.8473561	, NNP JJ
-1.7338235	FW NNP JJ
-1.8858373	CC NNP JJ
-1.7836177	( NNP JJ
-1.8028727	) NNP JJ
-2.3264408	: NNP JJ
-1.5603132	PRP$ NNP JJ
-1.7857072	VBG NNP JJ
-1.5730916	NNPS NNP JJ
-0.9558207	<s> VBZ JJ
-1.1472452	NNP VBZ JJ
-0.68694043	VBZ VBZ JJ
-1.0177504	JJ VBZ JJ
-1.0793622	NN VBZ JJ
-1.4750063	CD VBZ JJ
-1.11057	DT VBZ JJ
-1.1009469	IN VBZ JJ
-0.9682892	PRP VBZ JJ
-1.0594934	NNS VBZ JJ
-1.0433767	VBN VBZ JJ
-1.0960805	" VBZ JJ
-1.453321	RB VBZ JJ
-1.5779908	, VBZ JJ
-1.2376565	CC VBZ JJ
-1.2159543	WDT VBZ JJ
-1.1215022	) VBZ JJ
-1.1581016	EX VBZ JJ
-1.0589553	WP VBZ JJ
-0.9724613	<s> JJ JJ
-1.2826986	NNP JJ JJ
-1.2805872	VBZ JJ JJ
-1.0534332	JJ JJ JJ
-1.5075785	NN JJ JJ
-1.1698916	TO JJ JJ
-1.4865842	VB JJ JJ
-1.0918875	CD JJ JJ
-0.96819043	DT JJ JJ
-1.3185408	VBD JJ JJ
-0.93706703	IN JJ JJ
-1.1567808	PRP JJ JJ
-1.6291745	NNS JJ JJ
-1.444564	VBP JJ JJ
-1.5106837	VBN JJ JJ
-0.77344877	POS JJ JJ
-1.2585367	JJR JJ JJ
-1.5648179	" JJ JJ
-1.624612	RB JJ JJ
-1.0582935	, JJ JJ
-1.2007735	CC JJ JJ
-1.7478735	( JJ JJ
-1.1674681	: JJ JJ
-0.85384893	PRP$ JJ JJ
-1.2157059	RBR JJ JJ
-0.9683907	VBG JJ JJ
-0.9998301	WRB JJ JJ
-1.1821208	RP JJ JJ
-0.8159741	RBS JJ JJ
-1.0706762	JJS JJ JJ
-2.1687474	<s> NN JJ
-2.0085092	NNP NN JJ
-1.8270099	VBZ NN JJ
-1.909902	JJ NN JJ
-2.0876942	NN NN JJ
-1.8480744	TO NN JJ
-2.3165839	VB NN JJ
-1.5420144	CD NN JJ
-2.0030937	DT NN JJ
-2.008023	VBD NN JJ
-2.056555	IN NN JJ
-1.7102003	NNS NN JJ
-1.4687363	VBP NN JJ
-2.1083062	VBN NN JJ
-1.8173656	POS NN JJ
-1.7109524	JJR NN JJ
-1.6521776	RB NN JJ
-2.0065255	, NN JJ
-1.5450664	CC NN JJ
-1.4975923	( NN JJ
-1.8708942	: NN JJ
-1.9774275	PRP$ NN JJ
-1.8805436	VBG NN JJ
-1.9001044	JJS NN JJ
-1.8286362	<s> TO JJ
-1.6234984	NNP TO JJ
-1.6207666	VBZ TO JJ
-1.34703	JJ TO JJ
-1.4574995	NN TO JJ
-1.562045	VB TO JJ
-1.9082778	CD TO JJ
-0.9081422	DT TO JJ
-1.8323779	VBD TO JJ
-1.6810495	IN TO JJ
-1.7379923	PRP TO JJ
-1.5005901	NNS TO JJ
-1.5584778	VBN TO JJ
-1.4078269	RB TO JJ
-1.5999364	VBG TO JJ
-1.4314185	RP TO JJ
-0.9703202	VBZ VB JJ
-1.1810793	TO VB JJ
-1.3590568	PRP VB JJ
-1.1078906	MD VB JJ
-1.1978025	RB VB JJ
-1.1927718	, VB JJ
-1.1018555	CC VB JJ
-0.9703202	( VB JJ
-1.9896529	) VB JJ
-0.61645275	RBR VB JJ
-1.3979008	<s> CD JJ
-2.334463	NNP CD JJ
-1.1798438	VBZ CD JJ
-1.5060495	JJ CD JJ
-1.5886365	NN CD JJ
-1.9152403	TO CD JJ
-1.3709488	VB CD JJ
-2.2408502	CD CD JJ
-0.9371113	DT CD JJ
-1.2169445	VBD CD JJ
-1.347807	IN CD JJ
-1.168217	PRP CD JJ
-1.48441	NNS CD JJ
-1.4630288	VBP CD JJ
-1.1006027	VBN CD JJ
-1.2000663	POS CD JJ
-1.2434185	" CD JJ
-1.0182049	RB CD JJ
-1.8726945	, CD JJ
-0.97334677	CC CD JJ
-1.028636	WDT CD JJ
-1.7625701	( CD JJ
-1.4242014	) CD JJ
-1.4152334	: CD JJ
-1.3784182	PRP$ CD JJ
-1.2710252	VBG CD JJ
-0.921212	WRB CD JJ
-1.8510242	$ CD JJ
-0.7448445	'' CD JJ
-1.3450139	JJS CD JJ
-0.6294883	<s> DT JJ
-0.6765362	NNP DT JJ
-0.43055633	VBZ DT JJ
-0.7496654	JJ DT JJ
-0.7560895	NN DT JJ
-0.54068065	TO DT JJ
-0.5464077	VB DT JJ
-1.0047822	CD DT JJ
-1.0680404	DT DT JJ
-0.55465543	VBD DT JJ
-0.53812146	IN DT JJ
-0.41032583	PRP DT JJ
-1.2728883	NNS DT JJ
-0.726161	VBP DT JJ
-0.5068562	VBN DT JJ
-0.76264083	" DT JJ
-0.5516309	RB DT JJ
-0.53903896	, DT JJ
-0.66050625	CC DT JJ
-0.8895438	WDT DT JJ
-0.76586694	( DT JJ
-0.94914067	) DT JJ
-0.59315133	: DT JJ
-0.57593656	PRP$ DT JJ
-0.5808245	VBG DT JJ
-1.0074183	WP DT JJ
-0.78224814	WRB DT JJ
-0.62942356	RP DT JJ
-0.81523263	NNPS DT JJ
-0.7472819	PDT DT JJ
-1.4709357	<s> VBD JJ
-1.3849399	NNP VBD JJ
-1.0445143	JJ VBD JJ
-1.2851399	NN VBD JJ
-1.181016	VB VBD JJ
-1.1965203	CD VBD JJ
-1.054833	VBD VBD JJ
-1.1829381	IN VBD JJ
-1.3001928	PRP VBD JJ
-1.3136038	NNS VBD JJ
-1.1824046	VBP VBD JJ
-1.118281	VBN VBD JJ
-0.853925	POS VBD JJ
-1.0300624	JJR VBD JJ
-1.8050812	" VBD JJ
-1.6435673	RB VBD JJ
-1.2402341	, VBD JJ
-1.344879	CC VBD JJ
-1.5717155	WDT VBD JJ
-1.4225271	) VBD JJ
-0.99118304	EX VBD JJ
-1.2926399	WP VBD JJ
-1.5266583	<s> IN JJ
-1.4278319	NNP IN JJ
-1.0549511	VBZ IN JJ
-1.1640191	JJ IN JJ
-1.0888072	NN IN JJ
-1.0724721	VB IN JJ
-1.2385135	CD IN JJ
-1.4162405	DT IN JJ
-1.3076228	VBD IN JJ
-1.1186222	IN IN JJ
-1.329922	PRP IN JJ
-0.95127785	NNS IN JJ
-0.90894043	VBP IN JJ
-1.0113025	VBN IN JJ
-1.2753719	JJR IN JJ
-1.0642297	" IN JJ
-1.1197766	RB IN JJ
-1.1938142	, IN JJ
-0.5957859	FW IN JJ
-1.5562503	CC IN JJ
-2.07154	) IN JJ
-1.2112656	: IN JJ
-0.74576634	PRP$ IN JJ
-0.9545138	RBR IN JJ
-1.1382378	VBG IN JJ
-0.84607553	WP IN JJ
-0.18348292	$ IN JJ
-0.9846543	RP IN JJ
-1.2977297	NNPS IN JJ
-1.3377721	JJS IN JJ
-1.9994533	NNP PRP JJ
-1.6661955	VBZ PRP JJ
-1.7410277	VB PRP JJ
-1.5510447	VBD PRP JJ
-2.1020288	IN PRP JJ
-1.7151235	VBP PRP JJ
-1.7097614	VBN PRP JJ
-2.3452933	, PRP JJ
-1.7949028	VBG PRP JJ
-2.3095489	<s> NNS JJ
-1.765127	NNP NNS JJ
-1.9053379	JJ NNS JJ
-1.8084586	NN NNS JJ
-1.9120437	VB NNS JJ
-1.8973088	CD NNS JJ
-1.8933167	DT NNS JJ
-1.8863829	VBD NNS JJ
-1.7636052	IN NNS JJ
-1.0887009	PRP NNS JJ
-1.6331197	VBP NNS JJ
-1.9892946	VBN NNS JJ
-2.1434968	POS NNS JJ
-1.5330005	" NNS JJ
-1.894282	CC NNS JJ
-1.3544571	( NNS JJ
-1.7716482	PRP$ NNS JJ
-0.99670196	RP NNS JJ
-1.7119627	SYM NNS JJ
-0.82633317	<s> VBP JJ
-1.2282767	NNP VBP JJ
-1.1057693	JJ VBP JJ
-1.0353377	NN VBP JJ
-1.1293548	DT VBP JJ
-1.228079	PRP VBP JJ
-1.1127179	NNS VBP JJ
-0.976905	RB VBP JJ
-1.1493568	, VBP JJ
-0.944586	CC VBP JJ
-0.68520653	WDT VBP JJ
-1.0575954	) VBP JJ
-1.0579774	VBG VBP JJ
-1.1156389	EX VBP JJ
-1.550618	WP VBP JJ
-1.1456076	NNPS VBP JJ
-1.5507959	<s> VBN JJ
-1.288065	VBZ VBN JJ
-1.4087971	JJ VBN JJ
-1.4360355	NN VBN JJ
-1.3752133	VB VBN JJ
-1.2603388	DT VBN JJ
-1.414411	VBD VBN JJ
-1.4920734	IN VBN JJ
-1.3217196	PRP VBN JJ
-1.2902914	VBP VBN JJ
-1.3913769	VBN VBN JJ
-1.4327171	RB VBN JJ
-1.7017288	, VBN JJ
-1.288674	CC VBN JJ
-1.654401	( VBN JJ
-1.1906179	VBG VBN JJ
-0.61004496	NNP POS JJ
-0.80990094	JJ POS JJ
-0.64668775	NN POS JJ
-0.31010962	PRP POS JJ
-0.94352716	NNS POS JJ
-0.45132703	NNPS POS JJ
-1.1697967	VB JJR JJ
-1.5323613	DT JJR JJ
-1.5489262	IN JJR JJ
-1.4845165	RB JJR JJ
-0.64865804	( JJR JJ
-0.75017786	PRP$ JJR JJ
-0.91819483	VBG JJR JJ
-1.8829204	<s> " JJ
-1.2020549	NNP " JJ
-0.7518964	VBZ " JJ
-1.217548	JJ " JJ
-1.4758544	NN " JJ
-0.8692335	TO " JJ
-1.2316284	VB " JJ
-0.49568248	DT " JJ
-0.53318536	IN " JJ
-0.9495522	PRP " JJ
-0.58009374	VBP " JJ
-1.0560431	RB " JJ
-2.1569822	, " JJ
-0.99099135	CC " JJ
-1.30412	: " JJ
-0.5539783	PRP$ " JJ
-0.71776974	VBG " JJ
-1.8254551	<s> RB JJ
-0.7994699	VBZ RB JJ
-1.5401914	NN RB JJ
-0.67157555	TO RB JJ
-1.2314008	VB RB JJ
-1.7972777	CD RB JJ
-0.25673923	DT RB JJ
-0.947063	VBD RB JJ
-1.0755877	IN RB JJ
-1.5171715	PRP RB JJ
-1.412994	NNS RB JJ
-0.9010448	VBP RB JJ
-1.2937065	VBN RB JJ
-0.8273333	POS RB JJ
-1.0269368	" RB JJ
-0.88541794	RB RB JJ
-1.507853	, RB JJ
-1.1826068	CC RB JJ
-1.2588161	WDT RB JJ
-1.624701	) RB JJ
-1.0298487	: RB JJ
-0.6062352	PRP$ RB JJ
-0.6557083	RBR RB JJ
-1.1692821	VBG RB JJ
-1.5714316	NNP , JJ
-0.9768747	JJ , JJ
-1.6068038	NN , JJ
-1.7330501	VB , JJ
-1.64004	CD , JJ
-1.30041	DT , JJ
-2.148833	VBD , JJ
-1.7507758	PRP , JJ
-1.2202768	NNS , JJ
-1.94307	VBN , JJ
-1.290395	RB , JJ
-1.837762	) , JJ
-1.2466756	VBG , JJ
-1.7174624	NNPS , JJ
-1.2499244	NN FW JJ
-1.0876338	<s> CC JJ
-1.1527609	NNP CC JJ
-1.246782	VBZ CC JJ
-0.3101629	JJ CC JJ
-1.040358	NN CC JJ
-1.4724338	VB CC JJ
-1.7930893	CD CC JJ
-1.5065004	VBD CC JJ
-1.32514	PRP CC JJ
-0.9899153	NNS CC JJ
-1.0439631	VBN CC JJ
-1.5260301	RB CC JJ
-1.1635003	, CC JJ
-1.5473468	) CC JJ
-1.281953	: CC JJ
-2.0701299	NN WDT JJ
-0.45605743	VB WDT JJ
-1.4606881	IN WDT JJ
-1.8372325	NNS WDT JJ
-2.0361042	, WDT JJ
-1.5513282	<s> ( JJ
-1.4930261	NNP ( JJ
-1.1386995	JJ ( JJ
-1.0812857	NN ( JJ
-0.5664804	TO ( JJ
-2.0645366	CD ( JJ
-0.8953409	DT ( JJ
-1.588374	NNS ( JJ
-0.62253904	VBN ( JJ
-0.7952244	POS ( JJ
-0.7952244	RB ( JJ
-0.30667105	PRP$ ( JJ
-1.2855318	NNPS ( JJ
-1.7425411	NNP ) JJ
-1.8003691	JJ ) JJ
-2.0628161	NN ) JJ
-1.8089077	CD ) JJ
-1.3791335	NNS ) JJ
-1.0837657	RP ) JJ
-0.66995513	LS ) JJ
-1.1903087	<s> : JJ
-1.3046434	NNP : JJ
-1.512667	JJ : JJ
-1.134501	NN : JJ
-1.5665196	VB : JJ
-2.1077394	CD : JJ
-0.5812273	PRP : JJ
-1.5323318	NNS : JJ
-1.0279082	VBP : JJ
-0.9788341	JJR : JJ
-0.9425292	" : JJ
-1.1773224	RB : JJ
-1.9384124	) : JJ
-1.4429255	VBG : JJ
-0.64343965	<s> PRP$ JJ
-0.4699472	NNP PRP$ JJ
-0.54373443	VBZ PRP$ JJ
-0.29937866	JJ PRP$ JJ
-0.76050466	NN PRP$ JJ
-0.42040217	TO PRP$ JJ
-0.5626492	VB PRP$ JJ
-0.83014494	DT PRP$ JJ
-0.46456784	VBD PRP$ JJ
-0.51441395	IN PRP$ JJ
-0.37653494	PRP PRP$ JJ
-0.5713266	VBP PRP$ JJ
-0.7968122	VBN PRP$ JJ
-1.149102	" PRP$ JJ
-0.33016986	RB PRP$ JJ
-0.33012077	, PRP$ JJ
-0.638335	CC PRP$ JJ
-0.48529646	: PRP$ JJ
-0.26017365	RBR PRP$ JJ
-0.405409	VBG PRP$ JJ
-0.6298778	WRB PRP$ JJ
-0.46829745	RP PRP$ JJ
-0.26017365	NNPS PRP$ JJ
-0.92910117	<s> RBR JJ
-0.34453556	VBZ RBR JJ
-1.3298438	NN RBR JJ
-0.8644713	VB RBR JJ
-0.2143283	DT RBR JJ
-0.8206655	VBD RBR JJ
-1.0058777	IN RBR JJ
-0.86316824	NNS RBR JJ
-0.2849223	VBP RBR JJ
-0.54380476	RB RBR JJ
-1.4607143	<s> VBG JJ
-1.2227823	NNP VBG JJ
-1.214425	VBZ VBG JJ
-1.3021421	JJ VBG JJ
-1.4364394	NN VBG JJ
-1.2173022	TO VBG JJ
-1.292576	VB VBG JJ
-0.96684855	CD VBG JJ
-1.1726135	DT VBG JJ
-1.2558199	VBD VBG JJ
-1.1648992	IN VBG JJ
-1.2132596	NNS VBG JJ
-1.1595982	VBP VBG JJ
-1.017364	VBN VBG JJ
-0.70816255	POS VBG JJ
-1.0113715	" VBG JJ
-1.6510482	RB VBG JJ
-1.0948801	, VBG JJ
-0.8605478	CC VBG JJ
-1.0622056	PRP$ VBG JJ
-0.95232964	RP VBG JJ
-0.9985196	NNPS VBG JJ
-2.564796	, WP JJ
-1.281332	NNP WRB JJ
-0.88820845	VBZ WRB JJ
-0.9278538	JJ WRB JJ
-1.1027334	NN WRB JJ
-0.7763244	VB WRB JJ
-0.874245	CD WRB JJ
-1.1812062	IN WRB JJ
-1.3144677	NNS WRB JJ
-1.1940119	RB WRB JJ
-1.0192796	, WRB JJ
-0.94026405	DT $ JJ
-1.4033852	: $ JJ
-1.211383	JJ RP JJ
-1.6732204	VB RP JJ
-1.2970762	VBD RP JJ
-1.1584659	PRP RP JJ
-1.3514355	VBP RP JJ
-1.2314371	VBN RP JJ
-1.4527738	VBG RP JJ
-0.5898107	NNPS RP JJ
-1.9727522	NNP NNPS JJ
-1.2086456	NNPS NNPS JJ
-1.4141965	<s> SYM JJ
-1.7897284	NNP SYM JJ
-1.3014308	JJ SYM JJ
-1.527816	NN SYM JJ
-1.6894016	CD SYM JJ
-0.7099161	VBP SYM JJ
-0.3075992	VBZ RBS JJ
-0.077830836	DT RBS JJ
-0.18805744	VBD RBS JJ
-0.20426457	PRP RBS JJ
-0.3075992	POS RBS JJ
-0.20426457	PRP$ RBS JJ
-0.5983537	IN UH JJ
-0.93698466	DT JJS JJ
-1.7611604	IN JJS JJ
-1.6344078	POS JJS JJ
-1.0541239	PRP$ JJS JJ
-0.88696444	NNS WP$ JJ
-1.0058222	, WP$ JJ
-1.5395404	<s> NNP NN
-1.4318852	NNP NNP NN
-0.8742697	VBZ NNP NN
-0.79232407	JJ NNP NN
-1.5758241	NN NNP NN
-1.4209125	TO NNP NN
-1.4101481	VB NNP NN
-1.8105927	CD NNP NN
-0.72391284	DT NNP NN
-1.3096834	VBD NNP NN
-1.3990234	IN NNP NN
-1.3306936	NNS NNP NN
-1.1596439	VBP NNP NN
-0.9324924	MD NNP NN
-1.2743824	VBN NNP NN
-0.9602329	POS NNP NN
-0.61029387	JJR NNP NN
-1.5070004	" NNP NN
-1.3181722	RB NNP NN
-1.6992292	, NNP NN
-1.2333608	CC NNP NN
-3.1011074	( NNP NN
-1.8972094	) NNP NN
-1.1737913	: NNP NN
-0.45636496	PRP$ NNP NN
-1.5033026	VBG NNP NN
-1.4090439	RP NNP NN
-1.5262749	NNPS NNP NN
-1.8870808	SYM NNP NN
-1.046025	UH NNP NN
-0.75722855	'' NNP NN
-0.7276753	JJS NNP NN
-0.32574198	WP$ NNP NN
-0.9718273	<s> VBZ NN
-1.1389328	NNP VBZ NN
-1.0957686	VBZ VBZ NN
-1.3625736	JJ VBZ NN
-1.1475974	NN VBZ NN
-1.5146326	DT VBZ NN
-0.3214436	VBD VBZ NN
-1.5469003	PRP VBZ NN
-1.5250765	NNS VBZ NN
-1.1415261	VBP VBZ NN
-1.1177696	" VBZ NN
-1.4818197	RB VBZ NN
-1.4197307	, VBZ NN
-1.612703	WDT VBZ NN
-0.8424344	: VBZ NN
-1.3422675	EX VBZ NN
-1.6187993	WP VBZ NN
-0.4675498	<s> JJ NN
-0.31558663	NNP JJ NN
-0.5976362	VBZ JJ NN
-0.2536052	JJ JJ NN
-0.46301055	NN JJ NN
-0.39945817	TO JJ NN
-0.58341944	VB JJ NN
-0.68081963	CD JJ NN
-0.18710546	DT JJ NN
-0.69259655	VBD JJ NN
-0.44747066	IN JJ NN
-0.71665895	PRP JJ NN
-0.7229429	NNS JJ NN
-0.881027	VBP JJ NN
-0.62911415	VBN JJ NN
-0.21574154	POS JJ NN
-0.55173695	JJR JJ NN
-0.41745818	" JJ NN
-0.79143983	RB JJ NN
-0.34391442	, JJ NN
-0.42851794	CC JJ NN
-0.49880022	( JJ NN
-1.0676185	) JJ NN
-0.5024586	: JJ NN
-0.24761759	PRP$ JJ NN
-0.8836356	RBR JJ NN
-0.46520847	VBG JJ NN
-0.8670697	WRB JJ NN
-0.27098775	$ JJ NN
-0.45819074	RP JJ NN
-0.897941	NNPS JJ NN
-0.84457225	SYM JJ NN
-0.41255885	RBS JJ NN
-0.31605804	UH JJ NN
-0.253242	JJS JJ NN
-0.7288035	WP$ JJ NN
-1.0113548	<s> NN NN
-0.82352895	NNP NN NN
-0.84142005	VBZ NN NN
-0.95252174	JJ NN NN
-0.9957038	NN NN NN
-0.9208204	TO NN NN
-0.93375397	VB NN NN
-1.0278934	CD NN NN
-0.8869575	DT NN NN
-0.8412404	VBD NN NN
-0.94330657	IN NN NN
-1.0127528	NNS NN NN
-1.033052	VBP NN NN
-0.8582727	VBN NN NN
-0.81436837	POS NN NN
-1.087019	JJR NN NN
-0.9949224	" NN NN
-1.2386163	RB NN NN
-0.83014107	, NN NN
-0.67744523	CC NN NN
-0.8935609	( NN NN
-0.8439332	) NN NN
-0.520103	: NN NN
-1.0274057	PRP$ NN NN
-0.94656724	VBG NN NN
-1.2617406	RP NN NN
-1.1957364	NNPS NN NN
-1.1878525	SYM NN NN
-0.801277	JJS NN NN
-1.490161	NNP TO NN
-1.6304505	VBZ TO NN
-1.2417624	JJ TO NN
-1.33879	NN TO NN
-1.5685346	VB TO NN
-1.2823126	VBD TO NN
-1.6986284	IN TO NN
-1.4126523	PRP TO NN
-1.4609575	NNS TO NN
-1.7177334	VBP TO NN
-1.2174677	VBN TO NN
-1.5260959	RB TO NN
-1.2144614	) TO NN
-0.8356594	: TO NN
-1.6061563	VBG TO NN
-1.1387088	<s> VB NN
-1.3459412	NNP VB NN
-0.7850639	JJ VB NN
-1.4378247	NN VB NN
-1.140405	TO VB NN
-0.9348159	VB VB NN
-0.90085584	DT VB NN
-1.0724976	IN VB NN
-1.1107919	NNS VB NN
-1.1952472	MD VB NN
-1.1366471	RB VB NN
-1.3141675	, VB NN
-1.0419228	CC VB NN
-1.5750434	: VB NN
-1.1707455	WP VB NN
-1.5296977	<s> CD NN
-1.7046326	NNP CD NN
-0.8467924	VBZ CD NN
-1.1540368	JJ CD NN
-1.0914688	NN CD NN
-0.85179543	TO CD NN
-1.1693954	VB CD NN
-1.98034	CD CD NN
-0.593681	DT CD NN
-0.65313685	VBD CD NN
-0.874296	IN CD NN
-1.6580621	NNS CD NN
-1.2370527	VBP CD NN
-1.1943387	VBN CD NN
-0.8309495	POS CD NN
-1.2337375	JJR CD NN
-0.4092758	" CD NN
-0.75050145	RB CD NN
-0.99196494	, CD NN
-1.0335242	FW CD NN
-0.6600501	CC CD NN
-0.9289616	( CD NN
-1.8431749	) CD NN
-1.2916214	: CD NN
-0.6042298	PRP$ CD NN
-1.0375592	VBG CD NN
-0.5881671	WP CD NN
-0.9069475	WRB CD NN
-1.5095727	$ CD NN
-0.87326497	RP CD NN
-1.2852724	SYM CD NN
-0.73504347	'' CD NN
-1.0276073	JJS CD NN
-0.7386361	NN|SYM CD NN
-0.4090456	<s> DT NN
-0.37884092	NNP DT NN
-0.36521232	VBZ DT NN
-0.29489058	JJ DT NN
-0.24315085	NN DT NN
-0.3994441	TO DT NN
-0.30851313	VB DT NN
-0.19753234	CD DT NN
-0.7483837	DT DT NN
-0.33219227	VBD DT NN
-0.38681072	IN DT NN
-0.6225961	PRP DT NN
-0.13823885	NNS DT NN
-0.3896901	VBP DT NN
-0.37386727	VBN DT NN
-0.27842322	JJR DT NN
-0.31343624	" DT NN
-0.2584588	RB DT NN
-0.38728204	, DT NN
-0.30563667	FW DT NN
-0.420197	CC DT NN
-0.3310846	WDT DT NN
-0.75355804	( DT NN
-0.779858	) DT NN
-0.44159675	: DT NN
-0.020368144	RBR DT NN
-0.31123635	VBG DT NN
-0.3944997	WP DT NN
-0.30773914	WRB DT NN
-0.30038098	RP DT NN
-0.5398293	NNPS DT NN
-0.7420694	SYM DT NN
-0.30563667	RBS DT NN
-0.36484325	PDT DT NN
-0.30563667	JJS DT NN
-1.6148959	<s> VBD NN
-1.5694678	NNP VBD NN
-1.3722725	JJ VBD NN
-1.5227703	NN VBD NN
-1.5811151	CD VBD NN
-1.5588759	DT VBD NN
-0.7978128	IN VBD NN
-1.4723496	PRP VBD NN
-1.6160209	NNS VBD NN
-1.3226743	VBN VBD NN
-1.0183307	JJR VBD NN
-1.1658247	" VBD NN
-1.3043826	RB VBD NN
-1.4662517	, VBD NN
-0.9192232	FW VBD NN
-1.5047791	CC VBD NN
-1.2493522	WDT VBD NN
-1.2660782	) VBD NN
-1.0947868	VBG VBD NN
-1.675213	EX VBD NN
-1.2888715	WP VBD NN
-0.84631604	WRB VBD NN
-0.32167476	RP VBD NN
-0.743484	RBS VBD NN
-1.2421503	<s> IN NN
-1.2276486	NNP IN NN
-0.81705105	VBZ IN NN
-1.0346813	JJ IN NN
-1.011879	NN IN NN
-0.97428113	VB IN NN
-0.8805176	CD IN NN
-1.1488621	DT IN NN
-1.0972956	VBD IN NN
-1.0340116	IN IN NN
-0.9850791	PRP IN NN
-0.95150864	NNS IN NN
-0.9420982	VBP IN NN
-1.0184097	VBN IN NN
-1.5540326	JJR IN NN
-1.6963787	" IN NN
-1.0666809	RB IN NN
-1.0661765	, IN NN
-1.1744277	CC IN NN
-0.47606015	WDT IN NN
-0.9296292	) IN NN
-1.2227291	: IN NN
-1.5472336	RBR IN NN
-1.1578124	VBG IN NN
-0.9303449	WRB IN NN
-1.2445226	RP IN NN
-1.3045443	NNPS IN NN
-1.7036723	JJS IN NN
-2.8335555	<s> PRP NN
-1.7214195	VBZ PRP NN
-1.5203927	TO PRP NN
-1.8475635	VBD PRP NN
-2.5963337	IN PRP NN
-2.7077792	" PRP NN
-2.1825976	CC PRP NN
-1.772955	<s> NNS NN
-1.2537166	NNP NNS NN
-1.5781639	VBZ NNS NN
-1.635884	JJ NNS NN
-1.6747458	NN NNS NN
-2.0397432	VB NNS NN
-1.9898554	CD NNS NN
-1.4896853	DT NNS NN
-2.1253428	VBD NNS NN
-1.9332937	IN NNS NN
-1.3745068	NNS NNS NN
-1.6130688	VBP NNS NN
-1.8505323	POS NNS NN
-1.5548812	RB NNS NN
-2.0974154	, NNS NN
-1.4794576	CC NNS NN
-1.2709093	WDT NNS NN
-1.0794936	: NNS NN
-2.1792452	PRP$ NNS NN
-0.614195	NNPS NNS NN
-1.5355908	JJS NNS NN
-1.2416983	NNP VBP NN
-1.1342628	JJ VBP NN
-1.5300096	NN VBP NN
-1.4590662	DT VBP NN
-0.59114945	IN VBP NN
-1.6902491	PRP VBP NN
-1.3445121	NNS VBP NN
-1.3610208	RB VBP NN
-1.4840647	, VBP NN
-1.286294	CC VBP NN
-1.4149926	WDT VBP NN
-1.0831577	) VBP NN
-1.5925333	WP VBP NN
-1.1680992	NNPS VBP NN
-2.7060921	PRP MD NN
-0.6317566	MD MD NN
-1.107173	<s> VBN NN
-1.2646687	NNP VBN NN
-1.2648652	VBZ VBN NN
-0.7395571	JJ VBN NN
-1.697324	NN VBN NN
-2.1960905	VB VBN NN
-1.4150333	CD VBN NN
-0.29698458	DT VBN NN
-1.6833404	VBD VBN NN
-0.93145865	IN VBN NN
-2.0036767	NNS VBN NN
-1.525485	VBP VBN NN
-0.32457694	POS VBN NN
-1.1819673	" VBN NN
-1.3606914	RB VBN NN
-1.8153182	, VBN NN
-0.87448204	CC VBN NN
-0.75161344	WDT VBN NN
-1.0710747	: VBN NN
-1.1759628	VBG VBN NN
-0.45797202	NNP POS NN
-0.5479375	JJ POS NN
-0.40273982	NN POS NN
-0.50139016	NNS POS NN
-0.31050172	VBN POS NN
-0.6765716	NNPS POS NN
-0.99562997	<s> JJR NN
-0.92693055	VBZ JJR NN
-0.5624598	JJ JJR NN
-1.109037	NN JJR NN
-0.41335225	TO JJR NN
-0.46615362	VB JJR NN
-0.85992247	CD JJR NN
-0.2575737	DT JJR NN
-1.3343377	VBD JJR NN
-0.7096473	IN JJR NN
-0.62888455	PRP JJR NN
-0.7711964	NNS JJR NN
-0.80329853	VBP JJR NN
-0.9780475	RB JJR NN
-0.48954633	, JJR NN
-1.048718	CC JJR NN
-0.62888455	PRP$ JJR NN
-0.77288723	VBG JJR NN
-0.62888455	WRB JJR NN
-1.6594516	<s> " NN
-0.87786984	NNP " NN
-0.85242474	JJ " NN
-1.2440172	NN " NN
-0.86251676	TO " NN
-0.9379783	VB " NN
-0.44265395	CD " NN
-0.56649446	DT " NN
-0.8207758	IN " NN
-1.2160689	NNS " NN
-0.576493	VBP " NN
-1.0612184	VBN " NN
-0.7005817	POS " NN
-0.8322163	RB " NN
-1.607193	, " NN
-0.9822594	CC " NN
-1.4082453	: " NN
-0.71378887	VBG " NN
-1.544495	<s> RB NN
-1.0544655	NNP RB NN
-1.1628785	VBZ RB NN
-1.5003238	JJ RB NN
-2.1428716	NN RB NN
-1.2387943	DT RB NN
-1.9354655	VBD RB NN
-1.8671329	IN RB NN
-2.022589	PRP RB NN
-1.9629068	NNS RB NN
-0.8565346	POS RB NN
-0.74637246	JJR RB NN
-1.5535496	" RB NN
-1.8967677	RB RB NN
-1.6983767	, RB NN
-1.7371471	CC RB NN
-0.99187136	<s> , NN
-1.3916397	NNP , NN
-1.6621985	JJ , NN
-1.3262315	NN , NN
-1.409126	VB , NN
-1.874149	CD , NN
-1.266353	NNS , NN
-2.0449839	VBN , NN
-1.032021	JJR , NN
-1.3710735	" , NN
-1.1447346	RB , NN
-0.76427585	WDT , NN
-2.2056444	) , NN
-1.0746117	VBG , NN
-1.6401118	RP , NN
-1.6660078	NNPS , NN
-1.1017488	UH , NN
-1.3090231	NNP FW NN
-0.75931734	NNS FW NN
-0.8186336	, FW NN
-0.75931734	FW FW NN
-0.5449184	CC FW NN
-0.68103933	NNPS FW NN
-0.2946844	SYM FW NN
-1.5310396	<s> CC NN
-1.5758789	NNP CC NN
-1.0513483	JJ CC NN
-0.7057113	NN CC NN
-1.4626901	VB CC NN
-1.5410659	CD CC NN
-1.4993742	PRP CC NN
-0.98157096	NNS CC NN
-0.83869857	VBP CC NN
-0.32641733	MD CC NN
-1.591493	VBN CC NN
-1.2478063	RB CC NN
-1.4802543	, CC NN
-1.0661354	: CC NN
-0.9515681	VBG CC NN
-0.32641733	JJS CC NN
-1.4392233	NNP WDT NN
-0.7672885	VB WDT NN
-1.5097889	IN WDT NN
-2.111455	, WDT NN
-1.1900817	<s> ( NN
-1.5588684	NNP ( NN
-1.4354326	JJ ( NN
-1.0511714	NN ( NN
-1.1563655	CD ( NN
-0.8957977	DT ( NN
-0.56681633	IN ( NN
-0.98784715	PRP ( NN
-0.8733117	NNS ( NN
-1.0172796	" ( NN
-0.7957934	RB ( NN
-0.3068557	WP ( NN
-0.3068557	WRB ( NN
-0.58388567	<s> ) NN
-1.9124492	NNP ) NN
-1.3405952	JJ ) NN
-1.6182237	NN ) NN
-1.9721404	CD ) NN
-0.72905105	DT ) NN
-1.0739768	NNS ) NN
-0.5574345	POS ) NN
-0.31615373	" ) NN
-0.31615373	CC ) NN
-1.2718841	NNPS ) NN
-1.0380832	<s> : NN
-1.9497665	NNP : NN
-1.0262508	VBZ : NN
-0.7844487	JJ : NN
-1.3009164	NN : NN
-1.4287257	VB : NN
-2.1557112	CD : NN
-1.6473534	VBD : NN
-1.3839221	NNS : NN
-1.1430823	VBN : NN
-1.159769	VBG : NN
-0.29670778	<s> PRP$ NN
-0.47397915	NNP PRP$ NN
-0.38273817	VBZ PRP$ NN
-0.37531832	NN PRP$ NN
-0.44703025	TO PRP$ NN
-0.3248903	VB PRP$ NN
-0.35347334	DT PRP$ NN
-0.32390076	VBD PRP$ NN
-0.32929635	IN PRP$ NN
-0.24166411	NNS PRP$ NN
-0.49977958	VBP PRP$ NN
-0.30250892	VBN PRP$ NN
-0.17872487	" PRP$ NN
-0.75101745	RB PRP$ NN
-0.4258554	, PRP$ NN
-0.32800502	CC PRP$ NN
-0.49189046	: PRP$ NN
-0.3792491	VBG PRP$ NN
-0.2640883	WP PRP$ NN
-0.50481236	WRB PRP$ NN
-0.3674755	RP PRP$ NN
-0.49189046	PDT PRP$ NN
-1.2045993	DT RBR NN
-1.5902796	VBD RBR NN
-1.2281672	<s> VBG NN
-0.8383103	NNP VBG NN
-1.1315013	VBZ VBG NN
-0.6174324	JJ VBG NN
-0.9657547	NN VBG NN
-1.0057265	TO VBG NN
-1.0272149	VB VBG NN
-1.0731902	CD VBG NN
-0.32413584	DT VBG NN
-1.2080737	VBD VBG NN
-0.9998489	IN VBG NN
-1.0468525	NNS VBG NN
-1.0187175	VBP VBG NN
-1.188488	VBN VBG NN
-0.6941087	POS VBG NN
-0.44115573	JJR VBG NN
-0.68040687	" VBG NN
-1.119479	RB VBG NN
-1.1385765	, VBG NN
-0.8964279	CC VBG NN
-0.72004724	( VBG NN
-0.93036354	: VBG NN
-0.450933	PRP$ VBG NN
-0.92692155	RP VBG NN
-0.97084457	NNPS VBG NN
-0.71580964	JJS VBG NN
-1.9017863	NN WP NN
-1.2706398	DT WP NN
-1.5929906	IN WP NN
-2.0039973	NNS WP NN
-1.337222	<s> WRB NN
-1.5012299	NNP WRB NN
-1.7270819	NN WRB NN
-1.4903822	VB WRB NN
-1.3599894	VBN WRB NN
-1.1497872	, WRB NN
-1.0251317	VBZ RP NN
-0.9824208	VB RP NN
-0.7267976	DT RP NN
-1.6672106	VBD RP NN
-0.9449318	NNS RP NN
-1.4539083	VBN RP NN
-0.3152815	, RP NN
-1.3136129	VBG RP NN
-0.58227134	NNPS RP NN
-1.2812496	NNP NNPS NN
-1.2769997	JJ NNPS NN
-1.2290248	VB NNPS NN
-1.7283901	CD NNPS NN
-1.6407773	DT NNPS NN
-1.7366859	IN NNPS NN
-1.3807218	<s> SYM NN
-1.0239698	NNP SYM NN
-1.0548297	JJ SYM NN
-0.44586313	NN SYM NN
-1.0666883	CD SYM NN
-0.35243985	NNS SYM NN
-1.3836303	) SYM NN
-0.4700476	<s> JJS NN
-0.530524	JJ JJS NN
-0.55517936	TO JJS NN
-0.34035793	DT JJS NN
-1.2960418	IN JJS NN
-0.21660838	POS JJS NN
-0.6152314	CC JJS NN
-0.5264405	PRP$ JJS NN
-0.300878	NN WP$ NN
-0.2453554	, WP$ NN
-3.3435946	<s> NNP TO
-2.1448503	NNP NNP TO
-1.4239761	VBZ NNP TO
-2.415409	JJ NNP TO
-2.2574055	NN NNP TO
-1.5295835	TO NNP TO
-2.0049558	VB NNP TO
-2.836501	CD NNP TO
-2.4211526	DT NNP TO
-1.9558539	VBD NNP TO
-1.7171671	IN NNP TO
-1.9971716	NNS NNP TO
-1.5638813	VBP NNP TO
-1.4617912	VBN NNP TO
-2.0242019	POS NNP TO
-2.2053292	" NNP TO
-2.82396	, NNP TO
-2.3346727	CC NNP TO
-2.4282029	) NNP TO
-2.3321724	: NNP TO
-1.765759	PRP$ NNP TO
-1.651333	VBG NNP TO
-1.8776315	NNPS NNP TO
-1.4981666	NNP VBZ TO
-1.2877796	NN VBZ TO
-1.1096025	CD VBZ TO
-1.1366686	PRP VBZ TO
-1.6324831	NNS VBZ TO
-1.2062594	VBP VBZ TO
-1.0757898	POS VBZ TO
-1.0138087	RB VBZ TO
-1.5469359	, VBZ TO
-1.8838657	CC VBZ TO
-1.3298869	WDT VBZ TO
-2.2571585	<s> JJ TO
-1.6808211	NNP JJ TO
-0.7676091	VBZ JJ TO
-2.6673646	JJ JJ TO
-1.0715065	NN JJ TO
-0.96464086	VB JJ TO
-2.4343166	DT JJ TO
-0.91262776	VBD JJ TO
-2.6700404	IN JJ TO
-1.4162171	PRP JJ TO
-0.97231764	NNS JJ TO
-0.8969108	VBP JJ TO
-1.2039529	VBN JJ TO
-2.4461012	POS JJ TO
-1.8106681	" JJ TO
-0.9402496	RB JJ TO
-1.601671	, JJ TO
-2.257155	CC JJ TO
-2.5578697	PRP$ JJ TO
-1.8351595	VBG JJ TO
-1.2194649	RP JJ TO
-1.9246801	<s> NN TO
-2.000885	NNP NN TO
-1.1883203	VBZ NN TO
-1.4406999	JJ NN TO
-1.5486662	NN NN TO
-1.7060928	TO NN TO
-1.2749782	VB NN TO
-1.4266659	CD NN TO
-1.4603213	DT NN TO
-1.2937669	VBD NN TO
-1.4118183	IN NN TO
-1.2437145	PRP NN TO
-1.9317148	NNS NN TO
-1.3136573	VBP NN TO
-1.4293139	VBN NN TO
-1.3137347	POS NN TO
-1.6890856	JJR NN TO
-1.6677816	" NN TO
-1.6242472	RB NN TO
-1.9818877	, NN TO
-1.6480986	CC NN TO
-0.9517331	WDT NN TO
-1.6808352	) NN TO
-1.0497341	PRP$ NN TO
-1.671144	VBG NN TO
-1.2621462	WRB NN TO
-1.4854803	RP NN TO
-1.6925374	JJS NN TO
-1.8573679	<s> VB TO
-1.0994987	JJ VB TO
-1.0621301	NN VB TO
-1.5449504	TO VB TO
-1.3634114	DT VB TO
-1.378181	PRP VB TO
-1.1422393	MD VB TO
-1.0878804	RB VB TO
-1.2123365	CC VB TO
-2.3094246	NNP CD TO
-2.5351415	NN CD TO
-1.9604818	VB CD TO
-3.2820807	CD CD TO
-2.0381155	DT CD TO
-1.5025938	VBD CD TO
-1.7895745	IN CD TO
-2.1947715	NNS CD TO
-1.5530164	VBP CD TO
-2.0515137	VBN CD TO
-1.9715667	POS CD TO
-1.7786894	RB CD TO
-2.0929723	, CD TO
-2.2421653	CC CD TO
-1.6362052	$ CD TO
-1.3836576	RP CD TO
-1.868211	NNPS CD TO
-1.5897558	SYM CD TO
-2.5761807	VBZ DT TO
-1.965859	JJ DT TO
-2.629132	VBN DT TO
-2.9299598	, DT TO
-2.168501	RP DT TO
-1.6394497	<s> VBD TO
-1.4974244	NNP VBD TO
-0.5628439	VBZ VBD TO
-1.4128578	NN VBD TO
-1.1830784	VB VBD TO
-1.6084449	CD VBD TO
-1.5844032	DT VBD TO
-1.0563376	VBD VBD TO
-1.3072294	PRP VBD TO
-1.3557098	NNS VBD TO
-1.0426074	VBP VBD TO
-1.1194997	VBN VBD TO
-1.031566	JJR VBD TO
-1.3438797	RB VBD TO
-1.4093263	, VBD TO
-0.9294559	FW VBD TO
-1.1163591	CC VBD TO
-1.5732145	WDT VBD TO
-1.4243299	) VBD TO
-1.0340658	: VBD TO
-1.126512	WP VBD TO
-0.9267061	JJS VBD TO
-2.1946738	<s> IN TO
-2.9685342	NNP IN TO
-2.30831	VBZ IN TO
-2.374654	JJ IN TO
-3.0982008	NN IN TO
-1.748628	VB IN TO
-2.0704005	VBD IN TO
-1.5666084	IN IN TO
-2.092225	PRP IN TO
-3.238316	NNS IN TO
-3.0465186	VBN IN TO
-2.533217	RB IN TO
-2.420311	, IN TO
-2.319785	VBG IN TO
-1.4902059	VBZ PRP TO
-2.114124	NN PRP TO
-1.0488225	VB PRP TO
-1.3248589	VBD PRP TO
-1.9087223	IN PRP TO
-1.1753682	VBP PRP TO
-1.1169107	VBN PRP TO
-1.0071142	VBG PRP TO
-2.1805446	<s> NNS TO
-1.7979176	NNP NNS TO
-1.2427309	VBZ NNS TO
-1.4554192	JJ NNS TO
-1.5293939	NN NNS TO
-1.3690488	TO NNS TO
-1.2201232	VB NNS TO
-1.542337	CD NNS TO
-1.3798367	DT NNS TO
-1.5167866	VBD NNS TO
-1.3891585	IN NNS TO
-1.0658551	PRP NNS TO
-1.1584845	NNS NNS TO
-1.3986311	VBP NNS TO
-0.8761703	VBN NNS TO
-1.2986187	POS NNS TO
-1.3694038	JJR NNS TO
-1.3506584	RB NNS TO
-1.9516256	, NNS TO
-1.6206747	CC NNS TO
-1.3312178	( NNS TO
-1.493522	: NNS TO
-1.1017675	PRP$ NNS TO
-1.1833558	VBG NNS TO
-1.8640767	NNP VBP TO
-0.6044402	VB VBP TO
-1.460494	CD VBP TO
-1.0318094	PRP VBP TO
-1.3552314	NNS VBP TO
-0.327129	VBP VBP TO
-1.285611	RB VBP TO
-1.5432283	, VBP TO
-1.343751	CC VBP TO
-1.1245646	) VBP TO
-0.86434937	WP VBP TO
-2.5673885	NN MD TO
-2.6699262	PRP MD TO
-2.4579206	NNS MD TO
-1.639816	<s> VBN TO
-1.3969774	NNP VBN TO
-0.87213063	VBZ VBN TO
-1.2510661	JJ VBN TO
-1.1413692	NN VBN TO
-1.0842967	VB VBN TO
-0.8912982	CD VBN TO
-0.96194655	VBD VBN TO
-1.4669898	IN VBN TO
-1.2892	PRP VBN TO
-1.0139543	NNS VBN TO
-0.9368148	VBP VBN TO
-0.94104415	VBN VBN TO
-0.9843817	RB VBN TO
-1.1722109	, VBN TO
-0.99576455	CC VBN TO
-1.4060808	( VBN TO
-1.0796748	: VBN TO
-1.106578	VBG VBN TO
-2.8998685	NNP POS TO
-1.5571918	VB JJR TO
-1.6767429	RB JJR TO
-2.8071148	<s> " TO
-1.5524789	NNP " TO
-1.3586988	NN " TO
-1.2720882	VBN " TO
-1.5203972	NNP RB TO
-1.6241442	VBZ RB TO
-1.0561233	JJ RB TO
-1.1743695	NN RB TO
-1.1399161	VB RB TO
-1.5052551	VBD RB TO
-1.705373	IN RB TO
-1.685334	PRP RB TO
-1.4940248	NNS RB TO
-1.418841	VBP RB TO
-2.3485963	MD RB TO
-1.376338	VBN RB TO
-1.0026262	JJR RB TO
-1.4661193	RB RB TO
-1.9909339	, RB TO
-1.7898948	CC RB TO
-1.6516137	) RB TO
-0.9427087	RBR RB TO
-1.1037438	VBG RB TO
-1.1863732	RP RB TO
-0.75942284	NNPS RB TO
-1.3250712	<s> , TO
-2.4720905	NNP , TO
-2.3968132	JJ , TO
-2.295487	NN , TO
-2.558683	CD , TO
-2.3716707	NNS , TO
-1.5062643	" , TO
-2.405253	) , TO
-0.9082527	NNS FW TO
-2.2528338	<s> CC TO
-2.77943	NNP CC TO
-1.9761957	NN CC TO
-1.6609322	PRP CC TO
-2.5280206	NNS CC TO
-2.136918	, CC TO
-1.634353	VBG CC TO
-1.8564945	IN WDT TO
-2.8118875	NNP ( TO
-1.9865571	NN ( TO
-2.7058723	NNP ) TO
-1.9206519	NN ) TO
-2.5060604	CD ) TO
-1.8693851	NNS ) TO
-2.6056852	NNP : TO
-2.6411288	NN : TO
-1.7126846	VBG : TO
-1.9789339	VBN PRP$ TO
-0.95379096	NN RBR TO
-1.1025387	VB RBR TO
-1.334893	NNS RBR TO
-1.1331189	<s> VBG TO
-1.1331272	NNP VBG TO
-0.76667506	VBZ VBG TO
-1.3416256	JJ VBG TO
-1.3302907	NN VBG TO
-1.4368224	VB VBG TO
-1.3126764	CD VBG TO
-1.0767491	VBD VBG TO
-1.2401277	IN VBG TO
-1.0671599	NNS VBG TO
-0.78977954	VBP VBG TO
-0.9557785	VBN VBG TO
-0.93026114	RB VBG TO
-1.0544045	, VBG TO
-1.671912	CC VBG TO
-0.9174561	VBG VBG TO
-0.59473044	WRB VBG TO
-0.9742062	RP VBG TO
-0.77341086	NNPS VBG TO
-0.98714054	VB WP TO
-0.8024906	VBN WP TO
-1.6235958	VB WRB TO
-0.97852683	IN WRB TO
-1.4765462	VBN WRB TO
-0.8546459	NNP RP TO
-1.0722803	VBZ RP TO
-1.7088987	VB RP TO
-1.1013813	VBD RP TO
-0.98441654	NNS RP TO
-1.2475044	VBN RP TO
-1.6425062	VBG RP TO
-1.3722253	<s> NNPS TO
-1.5356315	NNP NNPS TO
-0.855009	VBZ NNPS TO
-1.3874208	JJ NNPS TO
-1.1657333	VB NNPS TO
-1.6329609	CD NNPS TO
-1.8109868	DT NNPS TO
-0.9329629	VBD NNPS TO
-1.4828598	IN NNPS TO
-1.2742828	JJ JJS TO
-0.92264	PRP$ JJS TO
-3.20745	<s> NNP VB
-3.3780484	NNP NNP VB
-2.8456318	JJ NNP VB
-3.1652203	CD NNP VB
-2.9799778	IN NNP VB
-2.1735063	NNS NNP VB
-2.1714609	VBN NNP VB
-3.152172	, NNP VB
-3.1529367	( NNP VB
-2.573718	) NNP VB
-3.0105433	: NNP VB
-2.5707443	NNP VBZ VB
-0.63955474	VB VBZ VB
-1.9661481	RB VBZ VB
-2.316741	, VBZ VB
-3.066261	DT JJ VB
-2.7378845	VBD JJ VB
-1.6273112	PRP JJ VB
-2.8692338	PRP$ JJ VB
-2.939723	<s> NN VB
-2.3530493	NNP NN VB
-2.134032	VBZ NN VB
-2.8238688	JJ NN VB
-3.2838786	NN NN VB
-2.879322	CD NN VB
-2.9822843	DT NN VB
-2.9497209	IN NN VB
-2.0023751	" NN VB
-2.423408	, NN VB
-1.6070619	) NN VB
-2.593383	PRP$ NN VB
-2.2589002	VBG NN VB
-0.48868275	<s> TO VB
-0.2347523	NNP TO VB
-0.10868671	VBZ TO VB
-0.15018365	JJ TO VB
-0.3039524	NN TO VB
-0.2960654	VB TO VB
-0.68355477	CD TO VB
-0.42587987	DT TO VB
-0.19546892	VBD TO VB
-0.6024279	IN TO VB
-0.1303032	PRP TO VB
-0.19187129	NNS TO VB
-0.08040466	VBP TO VB
-0.2390582	MD TO VB
-0.23667479	VBN TO VB
-0.2864543	POS TO VB
-0.18520631	" TO VB
-0.3140156	RB TO VB
-0.19211742	, TO VB
-0.104169294	CC TO VB
-0.2864543	WDT TO VB
-0.16361028	( TO VB
-0.26240996	) TO VB
-0.2864543	PRP$ TO VB
-0.68391716	RBR TO VB
-0.24460086	VBG TO VB
-0.2390582	WP TO VB
-0.1272533	WRB TO VB
-0.29098037	RP TO VB
-0.2695453	NNPS TO VB
-0.16588661	JJS TO VB
-1.4192574	NN VB VB
-2.3773723	TO VB VB
-1.1636705	IN VB VB
-2.5560677	MD VB VB
-0.906047	VBN VB VB
-2.084272	CC VB VB
-1.9129621	: VB VB
-2.9859986	NNP CD VB
-2.936074	NN CD VB
-2.3035452	VBD CD VB
-2.96222	IN CD VB
-2.167348	NNS CD VB
-1.7900703	SYM CD VB
-2.7447283	<s> DT VB
-2.6635802	TO DT VB
-2.6730733	VB DT VB
-2.7693715	VBD DT VB
-3.3664815	IN DT VB
-2.2112985	VBP DT VB
-2.5520961	VBN DT VB
-2.6835864	VBG DT VB
-3.0826707	NNP VBD VB
-3.1093204	PRP VBD VB
-2.7832732	NNS VBD VB
-2.3559895	" VBD VB
-2.6477613	CC VBD VB
-2.2657194	WDT VBD VB
-3.10284	NNP IN VB
-2.8551486	JJ IN VB
-3.611314	NN IN VB
-2.800354	VB IN VB
-3.1407022	VBD IN VB
-2.635629	IN IN VB
-2.1111743	<s> PRP VB
-1.5834713	VBZ PRP VB
-2.0002487	NN PRP VB
-1.5442358	VB PRP VB
-1.0709822	CD PRP VB
-2.1000369	VBD PRP VB
-1.8027148	IN PRP VB
-0.86168313	MD PRP VB
-2.399398	" PRP VB
-1.7741461	, PRP VB
-1.9624994	CC PRP VB
-1.7068458	VBG PRP VB
-1.9283087	WRB PRP VB
-1.9773372	<s> NNS VB
-2.3909817	NNP NNS VB
-2.3736165	JJ NNS VB
-2.7063773	NN NNS VB
-2.8927703	DT NNS VB
-2.8328333	IN NNS VB
-2.4704506	, NNS VB
-1.3645309	WDT NNS VB
-2.5387578	PRP VBP VB
-0.18519256	<s> MD VB
-0.05524653	NNP MD VB
-0.17081095	VBZ MD VB
-0.19943485	JJ MD VB
-0.10411633	NN MD VB
-0.2368745	VB MD VB
-0.073118165	CD MD VB
-0.06975304	DT MD VB
-0.0716806	VBD MD VB
-0.18519256	IN MD VB
-0.111685075	PRP MD VB
-0.07691102	NNS MD VB
-0.30034062	VBP MD VB
-0.36588848	MD MD VB
-0.18519256	POS MD VB
-0.16450147	" MD VB
-0.0852802	RB MD VB
-0.07769622	, MD VB
-0.16876896	CC MD VB
-0.08088225	WDT MD VB
-0.2335907	) MD VB
-0.24117549	: MD VB
-0.36588848	VBG MD VB
-0.06068726	EX MD VB
-0.12176087	WP MD VB
-0.112508625	NNPS MD VB
-2.7986727	VBZ VBN VB
-1.3179489	POS VBN VB
-2.6690245	RB VBN VB
-0.64241797	RP VBN VB
-1.9741274	DT JJR VB
-2.4619339	<s> " VB
-1.5306953	JJ " VB
-0.93623596	TO " VB
-1.3902915	VB " VB
-0.77257776	MD " VB
-0.7200098	RB " VB
-2.4005375	, " VB
-1.0805252	CC " VB
-1.7337716	: " VB
-2.0628307	NNP RB VB
-1.2602273	VBZ RB VB
-1.6509095	JJ RB VB
-2.015914	NN RB VB
-0.49515593	TO RB VB
-1.9854852	VB RB VB
-2.0282445	CD RB VB
-1.8690338	DT RB VB
-0.78499603	VBD RB VB
-1.3431509	PRP RB VB
-1.5934397	NNS RB VB
-0.6358732	VBP RB VB
-0.045342375	MD RB VB
-2.0335808	VBN RB VB
-1.0545293	RB RB VB
-2.031903	, RB VB
-1.5792108	CC RB VB
-1.2983893	WDT RB VB
-2.7098355	NNP , VB
-2.2558186	JJ , VB
-2.4222653	NN , VB
-2.761159	CD , VB
-2.5500436	NNS , VB
-2.153736	RB , VB
-2.4398081	) , VB
-2.0668752	<s> CC VB
-1.9311192	NNP CC VB
-1.3197432	NN CC VB
-0.31810644	VB CC VB
-1.908034	CD CC VB
-1.3293858	PRP CC VB
-1.508962	NNS CC VB
-0.6667905	VBP CC VB
-1.4521728	" CC VB
-0.86247575	RB CC VB
-1.7071317	, CC VB
-0.3284946	RBR CC VB
-1.5219253	VBG CC VB
-0.94373155	RP CC VB
-1.598837	NNPS CC VB
-1.8897425	<s> ( VB
-1.1528522	PRP ( VB
-0.922224	RB ( VB
-0.8075563	NNP ) VB
-1.9878521	JJ ) VB
-2.0783002	NN ) VB
-2.5255964	CD ) VB
-1.2310934	IN ) VB
-1.9150211	NNS ) VB
-1.0456774	NNPS ) VB
-2.360662	<s> : VB
-1.464077	NNP : VB
-1.1898478	NN : VB
-2.5749466	CD : VB
-1.9804064	NNS : VB
-2.289415	) : VB
-1.7440453	NN RBR VB
-0.34164646	TO RBR VB
-1.3803213	DT VBG VB
-2.9493797	IN VBG VB
-0.9092775	CD WP VB
-1.4970598	, WP VB
-0.34052354	) WP VB
-1.5843345	<s> NNPS VB
-2.4883788	NNP NNPS VB
-1.2055665	NNPS NNPS VB
-0.32565078	PRP UH VB
-1.2780668	JJ JJS VB
-2.0699308	DT JJS VB
-2.5968103	<s> NNP .
-1.3217418	NNP NNP .
-1.2589737	VBZ NNP .
-1.0327417	JJ NNP .
-1.4842063	NN NNP .
-1.0177648	TO NNP .
-1.2245513	VB NNP .
-1.9674664	CD NNP .
-1.7360203	DT NNP .
-0.9723591	VBD NNP .
-0.81012416	IN NNP .
-1.2785447	NNS NNP .
-1.0865527	VBN NNP .
-1.5189536	POS NNP .
-0.9897119	RB NNP .
-1.7212198	, NNP .
-0.8683158	FW NNP .
-1.1014595	CC NNP .
-0.65447384	WDT NNP .
-1.9308648	: NNP .
-1.7494557	PRP$ NNP .
-1.1750417	VBG NNP .
-1.458672	RP NNP .
-0.9577151	NNPS NNP .
-2.065107	SYM NNP .
-1.9124017	NNP VBZ .
-1.5600516	NN VBZ .
-1.6922692	CD VBZ .
-2.4126918	PRP VBZ .
-1.1079017	POS VBZ .
-1.8213464	RB VBZ .
-0.625279	VBG VBZ .
-0.625279	JJS VBZ .
-1.9519813	<s> JJ .
-1.2040579	VBZ JJ .
-2.3205533	JJ JJ .
-1.3822031	NN JJ .
-1.4480792	VB JJ .
-1.5437158	CD JJ .
-2.4689012	DT JJ .
-1.2162653	VBD JJ .
-1.897791	IN JJ .
-0.8721336	PRP JJ .
-1.2586776	NNS JJ .
-1.359489	VBP JJ .
-1.6543721	VBN JJ .
-2.4361453	POS JJ .
-1.8018634	" JJ .
-0.9025811	RB JJ .
-1.709801	CC JJ .
-1.5437789	) JJ .
-2.2707996	PRP$ JJ .
-1.1013126	RBR JJ .
-2.1146126	VBG JJ .
-0.95230293	NNPS JJ .
-2.3896596	<s> NN .
-0.99519354	NNP NN .
-1.4122677	VBZ NN .
-0.96604	JJ NN .
-0.91178674	NN NN .
-0.95002764	TO NN .
-0.919444	VB NN .
-1.0692532	CD NN .
-1.0556195	DT NN .
-1.2287637	VBD NN .
-0.86951774	IN NN .
-1.0650749	NNS NN .
-1.439238	VBP NN .
-1.2229407	VBN NN .
-1.0489742	POS NN .
-1.2591158	JJR NN .
-1.3894205	" NN .
-1.9769595	, NN .
-0.7539297	FW NN .
-1.2557402	CC NN .
-1.080561	) NN .
-1.0579779	: NN .
-0.9933987	PRP$ NN .
-1.1977979	VBG NN .
-0.8709703	WP NN .
-1.4804058	RP NN .
-1.1978103	NNPS NN .
-1.3107591	SYM NN .
-1.8593127	JJS NN .
-2.1515439	<s> VB .
-1.0604995	NNP VB .
-1.337714	NN VB .
-1.5846232	TO VB .
-1.3358693	VB VB .
-1.2891822	CD VB .
-1.1067202	IN VB .
-1.5087669	PRP VB .
-2.090382	MD VB .
-1.428787	RB VB .
-1.6818315	CC VB .
-0.7064949	: VB .
-1.3244678	<s> CD .
-1.3924316	NNP CD .
-1.7202284	VBZ CD .
-1.758796	JJ CD .
-1.765928	NN CD .
-0.97149134	TO CD .
-2.1848576	VB CD .
-2.27981	CD CD .
-1.9048692	DT CD .
-2.2675526	VBD CD .
-1.0020397	IN CD .
-1.2137635	PRP CD .
-1.8612049	NNS CD .
-1.8378206	VBN CD .
-1.7388921	POS CD .
-1.7583895	RB CD .
-1.1365008	, CD .
-1.4553108	CC CD .
-2.8409557	) CD .
-1.3168129	$ CD .
-1.0219253	RP CD .
-1.8205391	NNPS CD .
-1.366422	SYM CD .
-2.234785	NNP DT .
-2.7377996	VB DT .
-1.7675271	CD DT .
-2.6951048	IN DT .
-1.6868799	PRP DT .
-1.7337109	<s> VBD .
-1.0002143	NNP VBD .
-1.2825711	JJ VBD .
-1.0076935	NN VBD .
-1.2498298	VB VBD .
-1.7151638	CD VBD .
-1.2513281	IN VBD .
-0.87868655	PRP VBD .
-0.99394244	NNS VBD .
-1.4522669	VBP VBD .
-1.8760298	RB VBD .
-2.4641876	, VBD .
-2.4225495	CC VBD .
-1.4820694	) VBD .
-0.9010544	VBG VBD .
-2.3690963	VB IN .
-2.1022022	DT IN .
-2.868554	VBD IN .
-2.5623078	IN IN .
-2.190862	PRP IN .
-3.3659854	NNS IN .
-2.9687734	VBN IN .
-2.6123645	RB IN .
-2.3926408	VBG IN .
-2.0671773	NN PRP .
-0.5916935	TO PRP .
-1.0429531	VB PRP .
-0.8821488	DT PRP .
-2.167974	VBD PRP .
-1.1912004	IN PRP .
-1.72748	NNS PRP .
-1.4962479	VBP PRP .
-1.3874398	VBN PRP .
-1.6000249	VBG PRP .
-0.81680465	NNP NNS .
-1.5086839	VBZ NNS .
-0.8610782	JJ NNS .
-0.8261176	NN NNS .
-1.6650411	TO NNS .
-0.9279737	VB NNS .
-0.9623724	CD NNS .
-1.1061904	DT NNS .
-0.96893865	VBD NNS .
-0.9346113	IN NNS .
-1.0484062	PRP NNS .
-1.0130337	NNS NNS .
-0.95132077	VBP NNS .
-1.1043802	VBN NNS .
-0.8728678	POS NNS .
-0.8219884	JJR NNS .
-1.4532988	" NNS .
-1.1947271	RB NNS .
-2.0420816	, NNS .
-0.98068064	CC NNS .
-0.9929244	WDT NNS .
-1.4185936	) NNS .
-1.6278564	: NNS .
-0.850446	PRP$ NNS .
-0.93768245	VBG NNS .
-0.6027198	NNPS NNS .
-0.115415715	SYM NNS .
-1.4780276	JJS NNS .
-1.925709	NN VBP .
-1.5964204	CD VBP .
-2.1178033	PRP VBP .
-1.6741612	NNS VBP .
-1.6877801	NNPS VBP .
-2.4479787	PRP MD .
-1.7939496	<s> VBN .
-0.7247187	NNP VBN .
-2.2945285	VBZ VBN .
-2.082201	NN VBN .
-1.012069	VB VBN .
-1.0765811	CD VBN .
-1.6123326	DT VBN .
-1.4000909	VBD VBN .
-1.3278689	IN VBN .
-1.6695577	NNS VBN .
-1.9797509	VBP VBN .
-1.0752633	VBN VBN .
-1.1617612	RB VBN .
-1.8366958	, VBN .
-1.5611765	CC VBN .
-1.2742503	VBG VBN .
-1.0234164	WRB VBN .
-0.6037848	RP VBN .
-2.3156195	NNP POS .
-2.4606051	NN POS .
-0.75243133	NNP JJR .
-1.0837185	JJ JJR .
-1.1732317	VB JJR .
-1.5375643	DT JJR .
-1.4068335	VBD JJR .
-1.4910182	RB JJR .
-0.32504064	RP JJR .
-1.0243515	NNP " .
-1.0767763	VBZ " .
-1.0318089	JJ " .
-0.7906437	NN " .
-1.1915294	TO " .
-1.7515849	DT " .
-1.035167	NNS " .
-1.1616557	RB " .
-1.3522543	VBG " .
-1.372715	NNP RB .
-1.5741923	VBZ RB .
-0.9750894	JJ RB .
-0.92379355	NN RB .
-1.1039133	VB RB .
-1.2575293	CD RB .
-1.5108505	VBD RB .
-1.4053297	IN RB .
-1.0976644	PRP RB .
-0.993157	NNS RB .
-2.0492494	VBP RB .
-1.0210869	VBN RB .
-1.1354864	RB RB .
-1.6045648	, RB .
-1.3877561	CC RB .
-0.9575673	RBR RB .
-1.1884027	VBG RB .
-0.7935624	RP RB .
-1.5385166	<s> FW .
-0.33335808	IN FW .
-0.8833038	FW FW .
-1.9447218	VB CC .
-1.6614721	NNP ) .
-1.7513437	VBZ ) .
-0.7293339	JJ ) .
-1.1030918	NN ) .
-0.8781558	CD ) .
-1.7104206	NNS ) .
-1.2016553	VBN ) .
-0.4872685	RP ) .
-1.0167575	NNPS ) .
-0.94029254	NN RBR .
-1.2674392	VBD RBR .
-1.0450156	NNS RBR .
-0.8467828	VBN RBR .
-1.9883131	VBZ VBG .
-1.5175151	NN VBG .
-1.3916379	TO VBG .
-2.1404614	DT VBG .
-1.6830754	VBD VBG .
-1.5237377	IN VBG .
-0.625551	PRP VBG .
-1.4231509	RB VBG .
-1.544601	CC VBG .
-1.6558133	VB WRB .
-1.0892713	CC WRB .
-1.0290405	VBZ RP .
-0.2783502	JJ RP .
-0.74013114	NN RP .
-1.4050939	VB RP .
-1.8837006	VBD RP .
-0.9366571	PRP RP .
-0.9482314	NNS RP .
-1.323488	VBN RP .
-1.4317021	VBG RP .
-1.1835746	NNP NNPS .
-0.9070535	JJ NNPS .
-1.1196574	NN NNPS .
-1.0434966	CD NNPS .
-1.237483	DT NNPS .
-0.9230159	VBD NNPS .
-0.8610748	IN NNPS .
-0.7460767	VBP NNPS .
-1.0661806	, NNPS .
-1.0710319	CC NNPS .
-0.5952438	<s> UH .
-0.9294803	, UH .
-0.3002795	UH UH .
-0.2632003	NN LS .
-0.18642417	: LS .
-1.8350486	DT JJS .
-0.6345577	<s> NNP CD
-0.8998467	NNP NNP CD
-1.399961	VBZ NNP CD
-1.3513932	JJ NNP CD
-1.5273062	NN NNP CD
-1.3201592	TO NNP CD
-1.6721833	VB NNP CD
-0.46935537	CD NNP CD
-1.748132	DT NNP CD
-1.4556735	VBD NNP CD
-1.3279715	IN NNP CD
-1.2684484	NNS NNP CD
-1.5133182	VBP NNP CD
-0.94473714	MD NNP CD
-1.0795417	VBN NNP CD
-1.644984	POS NNP CD
-1.6104332	RB NNP CD
-0.86951244	, NNP CD
-1.2899172	FW NNP CD
-1.5231218	CC NNP CD
-1.5979759	( NNP CD
-0.31734648	) NNP CD
-1.0516394	: NNP CD
-1.5320802	PRP$ NNP CD
-1.6191908	VBG NNP CD
-1.4313207	RP NNP CD
-1.2819524	NNPS NNP CD
-0.7930246	SYM NNP CD
-1.0611362	UH NNP CD
-1.443204	NNP VBZ CD
-1.4194036	JJ VBZ CD
-1.3433648	NN VBZ CD
-1.0954468	CD VBZ CD
-1.7354345	DT VBZ CD
-1.1653497	IN VBZ CD
-1.4208431	PRP VBZ CD
-1.4234927	RB VBZ CD
-1.8812236	, VBZ CD
-1.8360447	CC VBZ CD
-1.3168591	WDT VBZ CD
-1.5324706	WP VBZ CD
-0.60668993	JJS VBZ CD
-1.165973	<s> JJ CD
-2.1301093	NNP JJ CD
-1.965804	JJ JJ CD
-2.0059392	TO JJ CD
-1.0358703	CD JJ CD
-1.452605	DT JJ CD
-2.1177022	VBD JJ CD
-2.014044	IN JJ CD
-1.5313451	NNS JJ CD
-1.9356195	VBN JJ CD
-2.152997	POS JJ CD
-2.167641	RB JJ CD
-1.9495476	, JJ CD
-2.3841813	CC JJ CD
-1.8013772	( JJ CD
-0.45112044	) JJ CD
-1.7722329	: JJ CD
-1.1544985	PRP$ JJ CD
-1.5547055	VBG JJ CD
-1.1433303	SYM JJ CD
-1.532164	RBS JJ CD
-0.76456416	WP$ JJ CD
-0.66540843	<s> NN CD
-1.2730199	NNP NN CD
-1.819401	VBZ NN CD
-1.9237875	JJ NN CD
-1.7399704	NN NN CD
-1.7229627	TO NN CD
-2.1559358	VB NN CD
-1.1671731	CD NN CD
-2.268515	DT NN CD
-1.5824124	VBD NN CD
-1.8604926	IN NN CD
-1.3275329	NNS NN CD
-1.6321574	VBP NN CD
-1.9625777	VBN NN CD
-2.1203554	POS NN CD
-1.3646023	RB NN CD
-1.2436324	, NN CD
-2.2741773	CC NN CD
-0.7019857	( NN CD
-1.7053509	) NN CD
-1.1281714	: NN CD
-2.3495593	PRP$ NN CD
-2.1380262	VBG NN CD
-1.2159556	NNPS NN CD
-0.7986664	SYM NN CD
-0.24919887	<s> TO CD
-1.1426013	NNP TO CD
-1.6298451	VBZ TO CD
-1.961882	JJ TO CD
-1.2444556	NN TO CD
-0.32380775	CD TO CD
-1.282187	VBD TO CD
-0.5002588	IN TO CD
-1.2164065	NNS TO CD
-1.4824835	VBN TO CD
-1.4135872	RB TO CD
-1.3012265	, TO CD
-0.7674915	RBR TO CD
-1.8680143	VBG TO CD
-1.0669668	RP TO CD
-0.2675146	<s> VB CD
-1.1922971	NNP VB CD
-1.1886345	NN VB CD
-1.6514056	TO VB CD
-0.69168794	CD VB CD
-1.2722223	NNS VB CD
-1.7027109	MD VB CD
-1.9564548	RB VB CD
-1.3461417	, VB CD
-1.9040835	CC VB CD
-0.839817	) VB CD
-0.70494574	: VB CD
-0.9551542	WP VB CD
-1.102967	<s> CD CD
-0.5956073	NNP CD CD
-0.8495428	VBZ CD CD
-0.8150065	JJ CD CD
-0.59301215	NN CD CD
-0.8677006	TO CD CD
-0.77061105	VB CD CD
-0.15071926	CD CD CD
-1.2356024	DT CD CD
-1.6074737	VBD CD CD
-1.1811098	IN CD CD
-1.16244	PRP CD CD
-0.539397	NNS CD CD
-0.9812766	VBN CD CD
-1.2883557	POS CD CD
-1.2523198	JJR CD CD
-1.4206465	" CD CD
-1.1148905	RB CD CD
-1.0238932	, CD CD
-0.37918115	FW CD CD
-1.3828275	CC CD CD
-1.4438094	( CD CD
